{
  "defaults": {},
  "inputs": [
    {
      "name": "1LeadingBTag",
      "offset": 0,
      "scale": 1
    },
    {
      "name": "2LeadingBTag",
      "offset": 0,
      "scale": 1
    },
    {
      "name": "3LeadingBTag",
      "offset": 0,
      "scale": 1
    },
    {
      "name": "4LeadingBTag",
      "offset": 0,
      "scale": 1
    },
    {
      "name": "1BTag",
      "offset": 0,
      "scale": 1
    },
    {
      "name": "2BTag",
      "offset": 0,
      "scale": 1
    },
    {
      "name": "3BTag",
      "offset": 0,
      "scale": 1
    },
    {
      "name": "4BTag",
      "offset": 0,
      "scale": 1
    }
  ],
  "layers": [
    {
      "activation": "rectified",
      "architecture": "dense",
      "bias": [
        0.13533736765384674,
        -0.09496257454156876,
        -0.06126215681433678,
        -0.18459947407245636,
        0.05866745859384537,
        -0.21866543591022491,
        -0.15174755454063416,
        0.09730532020330429,
        -0.11288309842348099,
        -0.1895301640033722,
        0.05691811442375183,
        0.18626075983047485,
        0.17819547653198242,
        -0.0997677817940712,
        -0.0978192687034607,
        0.13338050246238708,
        0.1535855382680893,
        -0.15632326900959015,
        -0.09780790656805038,
        -0.020883943885564804,
        -0.05779867246747017,
        -0.09645009785890579,
        0.044702641665935516,
        -0.22481566667556763,
        -0.14821846783161163,
        0.032856907695531845,
        0.07389586418867111,
        -0.24857603013515472,
        0.05775731801986694,
        0.09904064238071442,
        0.05890687182545662,
        -0.10131976753473282,
        -0.14023731648921967,
        -0.18037773668766022,
        0.12233231216669083,
        0.11504454910755157,
        0.07932386547327042,
        -0.14800091087818146,
        0.21024185419082642,
        -0.10983920097351074,
        -0.09199820458889008,
        0.17475315928459167,
        -0.17757345736026764,
        0.0337834469974041,
        -0.08360644429922104,
        -0.08892399817705154,
        0.16259229183197021,
        0.04223953187465668,
        -0.09843571484088898,
        0.1341734379529953,
        0.043640751391649246,
        0.08572112768888474,
        -0.1560850590467453,
        -0.18689975142478943,
        0.012061423622071743,
        0.1453671157360077,
        -0.15808118879795074,
        0.027628852054476738,
        -0.11660382151603699,
        0.22236637771129608,
        -0.1021166667342186,
        0.12940989434719086,
        -0.1697397083044052,
        0.28854548931121826,
        -0.1905856728553772,
        0.08686155080795288,
        0.1940084844827652,
        0.08237015455961227,
        0.20485751330852509,
        0.12989184260368347,
        -0.2445800006389618,
        -0.09242832660675049,
        -0.07433213293552399,
        0.11234181374311447,
        -0.09440844506025314,
        -0.175649493932724,
        -0.14625202119350433,
        -0.0030704496894031763,
        -0.15088145434856415,
        0.17635269463062286,
        -0.09752098470926285,
        -0.015373478643596172,
        0.2755419611930847,
        0.1530989408493042,
        -0.05926129221916199,
        -0.2124994993209839,
        0.07646775245666504,
        -0.2077314555644989,
        -0.07741785049438477,
        0.15623967349529266,
        -0.04077322036027908,
        0.17772416770458221,
        -0.07355514913797379,
        -0.15147416293621063,
        0.1973414123058319,
        -0.09728559851646423,
        -0.0008362490916624665,
        -0.03879617154598236,
        0.1897275447845459,
        -0.2034599334001541
      ],
      "weights": [
        -0.12224547564983368,
        0.2545641362667084,
        -0.1973532885313034,
        -0.21013419330120087,
        -0.15099292993545532,
        -0.25633010268211365,
        0.2363235205411911,
        0.3254030644893646,
        0.002010147087275982,
        -0.022020936012268066,
        0.0707259401679039,
        0.007999366149306297,
        -0.05534152314066887,
        0.3385832905769348,
        0.4676189422607422,
        -0.06432990729808807,
        0.09787243604660034,
        0.12498985230922699,
        0.06602369248867035,
        -0.1611465960741043,
        -0.0821039080619812,
        0.1038939505815506,
        0.3121328055858612,
        -0.2414264678955078,
        -0.011431945487856865,
        -0.010057470761239529,
        -0.08055403083562851,
        0.3190576732158661,
        -0.10232540220022202,
        -0.059769731014966965,
        0.28661128878593445,
        0.662670373916626,
        -0.09616154432296753,
        -0.052296996116638184,
        -0.20827233791351318,
        -0.480660080909729,
        0.12556985020637512,
        -0.326886922121048,
        -0.4645017087459564,
        -0.392367959022522,
        0.11322961747646332,
        0.1469726413488388,
        0.00025664144777692854,
        0.011008476838469505,
        0.18905837833881378,
        0.08835343271493912,
        0.2796323895454407,
        -0.09827332198619843,
        -0.3064629137516022,
        -0.1563635766506195,
        -0.13332296907901764,
        -0.12323596328496933,
        -0.49615049362182617,
        -0.6336705684661865,
        -0.7071734666824341,
        -0.5259827375411987,
        -0.13375702500343323,
        0.07940436154603958,
        0.16282179951667786,
        -0.004568350035697222,
        -0.22759394347667694,
        -0.24373745918273926,
        0.009111420251429081,
        0.08914302289485931,
        -0.4377898573875427,
        0.043328166007995605,
        -0.05973931401968002,
        -0.06705182790756226,
        0.017174195498228073,
        -0.15210314095020294,
        -0.1600305140018463,
        0.21882306039333344,
        -0.020575474947690964,
        -0.139212504029274,
        -0.1535508930683136,
        -0.06769443303346634,
        0.019818846136331558,
        0.031165068969130516,
        0.4723876118659973,
        0.5785275101661682,
        -0.04907264932990074,
        0.055929724127054214,
        -0.33938223123550415,
        -0.14479923248291016,
        -0.0950796902179718,
        -0.352480411529541,
        0.1381218582391739,
        0.28598153591156006,
        -0.0925086960196495,
        -0.37671205401420593,
        0.019658289849758148,
        0.0021987580694258213,
        -0.05285963788628578,
        -0.13213886320590973,
        0.013121452182531357,
        0.06877923011779785,
        0.005715941544622183,
        -0.11418057233095169,
        -0.1776544749736786,
        0.028519997373223305,
        -0.27023306488990784,
        -0.29653671383857727,
        0.25687944889068604,
        0.42394137382507324,
        0.14207486808300018,
        -0.08667066693305969,
        0.16136150062084198,
        -0.2575645446777344,
        -0.1299484670162201,
        -0.22512133419513702,
        -0.029051193967461586,
        0.06999906897544861,
        0.18556082248687744,
        -0.03889818117022514,
        0.00030670821433886886,
        -0.023025743663311005,
        0.07715301215648651,
        0.030923372134566307,
        0.007928375154733658,
        -0.25339484214782715,
        0.0593581348657608,
        -0.1176888719201088,
        -0.12336502224206924,
        -0.053355034440755844,
        -0.03358720988035202,
        -0.3150143027305603,
        -0.09474785625934601,
        0.3610963523387909,
        -0.030585380271077156,
        0.08576689660549164,
        0.019191889092326164,
        0.12364304065704346,
        -0.17350035905838013,
        -0.23629485070705414,
        0.007982226088643074,
        -0.06532455235719681,
        -0.0077299075201153755,
        -0.08972937613725662,
        -0.04133286327123642,
        -0.09425683319568634,
        -0.057052042335271835,
        0.17874503135681152,
        0.18717436492443085,
        0.520004391670227,
        0.03270049765706062,
        0.17121317982673645,
        0.18811729550361633,
        -0.2881582975387573,
        -0.05500121787190437,
        0.24449306726455688,
        0.0059411609545350075,
        -0.8981672525405884,
        0.011113852262496948,
        0.067918561398983,
        -0.012944848276674747,
        -0.2931422293186188,
        0.04271739348769188,
        0.22751110792160034,
        -0.0072397505864501,
        -1.0504542589187622,
        0.1408223658800125,
        0.141463041305542,
        0.14434589445590973,
        -0.2349424958229065,
        -0.004503059666603804,
        -0.05732471123337746,
        0.1028728112578392,
        -1.501638650894165,
        -0.23155517876148224,
        -0.057381901890039444,
        -0.07276082783937454,
        -0.04435662925243378,
        0.04677096754312515,
        0.15921896696090698,
        0.3128221929073334,
        0.9089992046356201,
        0.12394940853118896,
        0.034629806876182556,
        0.008266875520348549,
        0.045051224529743195,
        -0.03667083755135536,
        -0.10787351429462433,
        -1.4213547706604004,
        -1.9157078266143799,
        0.026435937732458115,
        -0.09253648668527603,
        -0.01580454222857952,
        0.04544781148433685,
        0.1706331968307495,
        0.2438921183347702,
        0.33427876234054565,
        0.0894639641046524,
        -0.08504492044448853,
        -0.1415291130542755,
        -0.16217246651649475,
        -0.09833792597055435,
        0.09096357971429825,
        0.26931384205818176,
        0.35171589255332947,
        0.4548753499984741,
        -0.01527195144444704,
        -0.006375742144882679,
        0.013090732507407665,
        -0.03227163106203079,
        0.002218447159975767,
        0.0587194487452507,
        -1.4040729999542236,
        -2.0987977981567383,
        -0.5250616073608398,
        0.07467769086360931,
        0.16537630558013916,
        0.021923497319221497,
        0.019908839836716652,
        -0.1283992975950241,
        -0.2568087577819824,
        0.11577589064836502,
        -0.06394161283969879,
        0.07888732850551605,
        0.060027044266462326,
        -0.2084384262561798,
        0.17793971300125122,
        0.18778905272483826,
        0.07615630328655243,
        -0.2081412672996521,
        -0.19796554744243622,
        -0.020970439538359642,
        -0.2420210987329483,
        0.06949000060558319,
        -0.04245218262076378,
        -0.08919498324394226,
        -0.0299683790653944,
        -0.014024033211171627,
        -0.002494530053809285,
        -0.1175277903676033,
        0.02781660296022892,
        -0.03149566054344177,
        -0.007046903949230909,
        -0.543474018573761,
        -0.0566752627491951,
        0.4085575044155121,
        -0.16033673286437988,
        -0.11858243495225906,
        -0.17906567454338074,
        0.22663645446300507,
        -0.16368243098258972,
        0.021014047786593437,
        0.16828970611095428,
        0.42360037565231323,
        0.01358061097562313,
        0.0189873855561018,
        0.0888792872428894,
        -0.06515367329120636,
        0.045675382018089294,
        0.17624732851982117,
        0.59775710105896,
        -0.04243677854537964,
        -0.20469295978546143,
        -0.19296930730342865,
        0.04974324628710747,
        0.12933142483234406,
        0.2621854543685913,
        0.04999937489628792,
        0.13262423872947693,
        0.6187776327133179,
        0.08482957631349564,
        0.008593231439590454,
        -0.08523115515708923,
        -0.01521940715610981,
        0.1425355225801468,
        0.16910435259342194,
        0.3149542212486267,
        0.006295624654740095,
        0.028112057596445084,
        -0.04105968400835991,
        0.08077803254127502,
        0.00979799684137106,
        -0.07327022403478622,
        -0.5499871969223022,
        0.058223892003297806,
        0.23455165326595306,
        0.09606299549341202,
        0.10692737251520157,
        -0.012775912880897522,
        0.11692073941230774,
        -0.19760553538799286,
        -0.33219078183174133,
        -0.07125361263751984,
        0.5624884366989136,
        0.01696808822453022,
        -0.21884594857692719,
        0.0003024339093826711,
        -0.007310372777283192,
        0.08157923817634583,
        -0.39593979716300964,
        -0.8287949562072754,
        -1.408653736114502,
        0.2423734962940216,
        -0.02736828289926052,
        -0.02296830341219902,
        -0.026560313999652863,
        0.08214794099330902,
        0.26521220803260803,
        0.06726232171058655,
        -0.15059947967529297,
        -0.2700236439704895,
        -0.05599474161863327,
        -0.17765699326992035,
        -0.18311700224876404,
        -0.0904126986861229,
        -0.32116371393203735,
        0.17978043854236603,
        0.35848408937454224,
        -0.12470828741788864,
        -0.11148868501186371,
        -0.1492532342672348,
        0.21991169452667236,
        0.014020447619259357,
        -0.02955489233136177,
        0.44030410051345825,
        0.37138381600379944,
        0.24459779262542725,
        0.22596898674964905,
        3.494354314170778e-05,
        0.015144330449402332,
        0.08010975271463394,
        0.03171752765774727,
        0.2991774380207062,
        0.13901644945144653,
        -0.07734184712171555,
        0.14639022946357727,
        0.07454923540353775,
        -0.009454150684177876,
        -0.24896341562271118,
        -0.2984449565410614,
        -0.016303976997733116,
        0.3607235550880432,
        0.25400814414024353,
        0.240688294172287,
        0.10929489880800247,
        -0.11744225770235062,
        -0.17002815008163452,
        0.10465715825557709,
        0.2857955992221832,
        -0.3678624629974365,
        -0.02778398059308529,
        0.017502250149846077,
        0.036167122423648834,
        0.010743805207312107,
        0.05346938967704773,
        0.11603997647762299,
        -1.015154480934143,
        -1.7535204887390137,
        0.06782502681016922,
        0.015318023972213268,
        0.1324385106563568,
        0.2495890110731125,
        -0.17134395241737366,
        -0.010109380818903446,
        0.5117118954658508,
        0.2713315486907959,
        0.11257397383451462,
        0.10826011002063751,
        0.21798039972782135,
        -0.27501797676086426,
        -0.3878774344921112,
        -0.0840039774775505,
        0.26578131318092346,
        0.13189248740673065,
        0.08855536580085754,
        0.158479705452919,
        0.00746228639036417,
        -0.12334593385457993,
        -0.20927701890468597,
        -0.36587637662887573,
        0.20517787337303162,
        0.5402967929840088,
        0.05715145543217659,
        0.05900966748595238,
        0.053493060171604156,
        0.023408126085996628,
        0.023287778720259666,
        -0.01686227135360241,
        -0.45251187682151794,
        -2.4880595207214355,
        0.025359559804201126,
        0.06127241626381874,
        -0.23334752023220062,
        0.0833154246211052,
        0.035108331590890884,
        -0.12310836464166641,
        0.2110825628042221,
        0.479990154504776,
        -0.14302435517311096,
        -0.03546399250626564,
        -0.058199528604745865,
        0.1490655094385147,
        -0.3063734769821167,
        -0.13806483149528503,
        0.045158516615629196,
        0.11111042648553848,
        0.09275989234447479,
        0.09658373147249222,
        -0.0733310729265213,
        0.03270818665623665,
        -0.04004771634936333,
        0.026972969993948936,
        -1.2664639949798584,
        -1.7622478008270264,
        -0.14247183501720428,
        0.0002712540444917977,
        0.06117783114314079,
        0.2085084766149521,
        -0.13208547234535217,
        -0.06427721679210663,
        -0.34831079840660095,
        0.046235550194978714,
        0.0035881130024790764,
        0.002827242249622941,
        0.09228964149951935,
        0.0747688040137291,
        0.01583843119442463,
        -0.012209635227918625,
        0.3743045926094055,
        0.49317342042922974,
        0.12389141321182251,
        0.10685466974973679,
        -0.17877790331840515,
        0.06473193317651749,
        0.09288866817951202,
        0.17945563793182373,
        0.39187201857566833,
        -0.19488610327243805,
        0.05110377073287964,
        0.07898182421922684,
        -0.13227654993534088,
        -0.0015083070611581206,
        -0.02341526374220848,
        0.08925037086009979,
        -0.9864555597305298,
        -1.346225619316101,
        0.030757300555706024,
        -0.10439877957105637,
        0.11782127618789673,
        0.11883151531219482,
        -0.14280825853347778,
        -0.035397447645664215,
        -0.240388885140419,
        0.1245129257440567,
        -0.13110171258449554,
        -0.15187068283557892,
        0.06785435974597931,
        0.019913852214813232,
        0.2637997567653656,
        0.11130532622337341,
        0.44103875756263733,
        0.2172796130180359,
        -0.4681873917579651,
        -0.28614485263824463,
        -0.03976539522409439,
        0.019890282303094864,
        -0.11693061143159866,
        -0.2573135793209076,
        0.012976233847439289,
        -0.9014449119567871,
        -0.029051216319203377,
        -0.4066650867462158,
        0.02225932665169239,
        -0.2569062113761902,
        0.09859568625688553,
        0.02851206064224243,
        -0.3021574318408966,
        -0.35348770022392273,
        -0.013269152492284775,
        -0.07725203782320023,
        -0.07707931846380234,
        -0.05652002617716789,
        -0.1770850270986557,
        -0.14072036743164062,
        0.17788703739643097,
        0.17290283739566803,
        0.2497553825378418,
        -0.1881513148546219,
        -0.17003047466278076,
        0.06278570741415024,
        -0.06285856664180756,
        -0.5155627131462097,
        -0.7626364231109619,
        -0.33993127942085266,
        0.09490128606557846,
        -0.15886911749839783,
        -0.08559192717075348,
        0.06251800805330276,
        -0.1021488830447197,
        -0.4106416404247284,
        0.2023741900920868,
        0.3042008578777313,
        -0.050429943948984146,
        0.17624694108963013,
        -0.005708690267056227,
        0.12730245292186737,
        0.2617616653442383,
        -0.006277378648519516,
        0.03090836852788925,
        -0.2311159372329712,
        -0.0185951367020607,
        -0.08172639459371567,
        -0.0013285521417856216,
        -0.021251171827316284,
        -0.2663426697254181,
        -0.09314338862895966,
        -0.009289677254855633,
        0.19453279674053192,
        -0.06025703623890877,
        -0.06161998212337494,
        0.05067368596792221,
        -0.08191057294607162,
        0.2281101644039154,
        0.02030865103006363,
        0.4938734173774719,
        -0.016079777851700783,
        0.0734885111451149,
        -0.00945190154016018,
        -0.044461168348789215,
        0.13752050697803497,
        -0.06586361676454544,
        -0.48338034749031067,
        0.08813219517469406,
        0.5453024506568909,
        -0.22849902510643005,
        0.020640119910240173,
        -0.25520947575569153,
        -0.22659505903720856,
        -0.15715107321739197,
        -0.058400921523571014,
        0.06968498229980469,
        0.19554288685321808,
        -0.07962983846664429,
        -0.20929905772209167,
        -0.13249003887176514,
        -0.032718952745199203,
        -0.05108154937624931,
        0.03437822312116623,
        0.057045791298151016,
        0.06882096827030182,
        -0.03211969509720802,
        -0.07518011331558228,
        0.010988425463438034,
        -0.0033636544831097126,
        -0.1543639898300171,
        -0.1426875740289688,
        0.12711413204669952,
        0.25379204750061035,
        -0.04475969448685646,
        -0.10872791707515717,
        -0.07105094939470291,
        0.021258382126688957,
        -0.2839784324169159,
        -0.07597377151250839,
        0.1021498367190361,
        0.24721480906009674,
        0.034470267593860626,
        0.09616338461637497,
        -0.02161756344139576,
        0.032453492283821106,
        0.19190341234207153,
        0.2537514865398407,
        0.07606691867113113,
        -0.4008256196975708,
        0.205588698387146,
        0.13394717872142792,
        0.1838703453540802,
        -0.12494067847728729,
        -0.3454129993915558,
        -0.03773031756281853,
        0.22989393770694733,
        -0.16167257726192474,
        0.0534367561340332,
        0.03204145282506943,
        -0.13732412457466125,
        -0.5116077661514282,
        -0.23166482150554657,
        0.08210708945989609,
        -0.4493461549282074,
        -0.2860298454761505,
        -0.08270047605037689,
        -0.08593463152647018,
        -0.1069445013999939,
        0.03642379865050316,
        -0.05915817990899086,
        -0.3187390863895416,
        0.16061308979988098,
        0.1635170727968216,
        0.031540025025606155,
        -0.231586754322052,
        0.07175610214471817,
        -0.07888130843639374,
        0.0828704833984375,
        -0.09388904273509979,
        -0.8069084882736206,
        -1.0252777338027954,
        -0.037832021713256836,
        -0.4423307776451111,
        0.15103241801261902,
        -0.13955111801624298,
        -0.018736667931079865,
        0.04397039860486984,
        -0.2277122139930725,
        0.07146629691123962,
        -0.14240770041942596,
        0.026524705812335014,
        0.08951171487569809,
        -0.09894272685050964,
        0.15524251759052277,
        0.34550052881240845,
        -0.12094517797231674,
        0.18324291706085205,
        -0.5070244073867798,
        0.2222355455160141,
        0.06911882758140564,
        0.09949015080928802,
        0.07303697615861893,
        0.028804393485188484,
        -0.13946768641471863,
        -0.32762178778648376,
        0.05244280770421028,
        -0.17416232824325562,
        -0.18843813240528107,
        -0.047506917268037796,
        0.0652126595377922,
        -0.04029054567217827,
        0.331417977809906,
        0.3203255832195282,
        0.0640961080789566,
        -0.1229243129491806,
        0.05074490234255791,
        0.057144392281770706,
        -0.23604634404182434,
        -0.18415778875350952,
        -0.14506813883781433,
        0.33602383732795715,
        0.11479442566633224,
        0.13711699843406677,
        0.0790221244096756,
        0.07670491933822632,
        -0.009129457175731659,
        0.11638488620519638,
        0.4347020089626312,
        -0.09208565205335617,
        0.11942916363477707,
        0.1453469693660736,
        -0.06626079976558685,
        -0.46774929761886597,
        -0.18813258409500122,
        -0.2310670167207718,
        -0.24789246916770935,
        0.06185448542237282,
        -0.04302409291267395,
        -0.14314371347427368,
        0.0030774984043091536,
        -0.05895592272281647,
        -0.19785116612911224,
        -0.07555736601352692,
        0.04588404670357704,
        0.2880764305591583,
        -0.12183289974927902,
        0.06064504384994507,
        0.11974511295557022,
        0.14380671083927155,
        -0.20690523087978363,
        -0.09505869448184967,
        -0.21878376603126526,
        0.25926899909973145,
        0.1691523641347885,
        -0.32282817363739014,
        0.2192402184009552,
        0.12113568931818008,
        0.08057817071676254,
        -0.2941122353076935,
        0.03032904490828514,
        -0.19376224279403687,
        -0.015355181880295277,
        0.023963002488017082,
        -0.086991086602211,
        -0.009587015956640244,
        0.27172279357910156,
        0.1374044418334961,
        0.22041666507720947,
        -0.19311143457889557,
        0.03212723881006241,
        -0.30755913257598877,
        0.12579481303691864,
        -0.03805297985672951,
        -0.07072735577821732,
        -0.05831144377589226,
        -0.1200142577290535,
        0.10152735561132431,
        0.12440510094165802,
        0.13887061178684235,
        0.04162202775478363,
        -0.15747255086898804,
        -0.00899301003664732,
        0.1228983998298645,
        0.18838679790496826,
        0.12720339000225067,
        0.19056883454322815,
        -0.05362916737794876,
        0.07037868350744247,
        0.05779269337654114,
        0.18850426375865936,
        -0.00597042590379715,
        -0.190006822347641,
        -0.7362346649169922,
        -0.27864986658096313,
        0.045442767441272736,
        0.04587028548121452,
        -0.23852050304412842,
        -0.07667458802461624,
        -0.34837234020233154,
        0.050273243337869644,
        0.08524084836244583,
        0.17971166968345642,
        0.1288301795721054,
        -0.0673067569732666,
        -0.4380418360233307,
        -0.23779821395874023,
        -0.17795288562774658,
        -0.5047168135643005,
        -0.2527160346508026,
        -0.000773891806602478,
        -0.016299529001116753,
        0.06236438453197479,
        0.061459388583898544,
        -0.1622553914785385,
        -0.2806927263736725,
        -0.0424295999109745,
        0.26873713731765747,
        -0.02273370511829853,
        0.08738622814416885,
        0.048254434019327164,
        0.12419222295284271,
        -0.06015763431787491,
        -0.23565924167633057,
        -0.12808729708194733,
        0.11504903435707092,
        0.07087230682373047,
        0.07652038335800171,
        0.18203480541706085,
        0.036596186459064484,
        0.02172248810529709,
        -0.05572327598929405,
        0.48760926723480225,
        0.04527592286467552,
        0.02263498865067959,
        -0.021403077989816666,
        0.04000132903456688,
        0.04715181887149811,
        -0.2089318484067917,
        -0.21419543027877808,
        0.07785632461309433,
        0.10913890600204468,
        -0.5128664374351501,
        0.283681184053421,
        0.008079787716269493,
        0.2302636206150055,
        0.16185341775417328,
        -0.07272476702928543,
        -0.19851841032505035,
        -0.049649354070425034,
        0.11211133748292923,
        0.06598196923732758,
        -0.045264437794685364,
        -0.4112067222595215,
        -0.15976037085056305,
        -0.17432528734207153,
        -0.11211270093917847,
        -0.23310284316539764,
        0.1288725882768631,
        0.12350490689277649,
        -0.06088699400424957,
        -0.2235828936100006,
        0.07165931910276413,
        -0.18785794079303741,
        -0.1516112983226776,
        -0.6738153100013733,
        -0.1520785689353943,
        0.16581445932388306,
        -0.2746155560016632,
        0.04210185259580612,
        -0.2862135171890259,
        -0.057280104607343674,
        0.0918184220790863,
        0.1145300641655922,
        0.14023785293102264,
        0.06321219354867935,
        -0.11225961893796921,
        0.061697691679000854,
        0.12784357368946075,
        0.09863562136888504,
        0.14450237154960632,
        0.1893003135919571
      ]
    },
    {
      "activation": "rectified",
      "architecture": "dense",
      "bias": [
        0.12212593853473663,
        0.10613030940294266,
        -0.023667272180318832,
        -0.053872350603342056,
        0.08164594322443008,
        0.09046483784914017,
        0.13823162019252777,
        -0.0490751788020134,
        -0.0012290070299059153,
        -0.0534311980009079,
        0.12326950579881668,
        -0.07989919185638428,
        -0.008709622547030449,
        -0.0612013041973114,
        0.1307290494441986,
        -0.16718526184558868,
        -0.06979834288358688,
        0.000704290228895843,
        -0.04050435498356819,
        0.1453889012336731,
        -0.10687223076820374,
        0.034322235733270645,
        0.034211814403533936,
        -0.048324499279260635,
        -0.1453103870153427,
        -0.0636591836810112,
        -0.15073145925998688,
        0.05456092208623886,
        0.14187666773796082,
        -0.0666145458817482,
        0.03199450299143791,
        0.12806706130504608,
        0.11283331364393234,
        0.1441204845905304,
        -0.037938542664051056,
        -0.007328282110393047,
        0.17871710658073425,
        -0.08008601516485214,
        0.10411539673805237,
        -0.017273515462875366,
        -0.06028948351740837,
        -0.041993580758571625,
        -0.07521612197160721,
        0.15612615644931793,
        -0.06917662918567657,
        0.13974648714065552,
        0.0824875608086586,
        -0.02957547828555107,
        0.06283500045537949,
        0.0666627436876297
      ],
      "weights": [
        0.07824346423149109,
        -0.6067289710044861,
        -0.1981639713048935,
        0.07242829352617264,
        0.199548602104187,
        0.16940546035766602,
        -0.4238866865634918,
        0.14885471761226654,
        0.022396951913833618,
        0.143467977643013,
        -0.07894904911518097,
        0.13218650221824646,
        0.14752760529518127,
        0.060184184461832047,
        -0.2438245415687561,
        0.05696539208292961,
        0.15891964733600616,
        -0.046771567314863205,
        -0.2680736780166626,
        0.06267720460891724,
        -0.006393811199814081,
        -0.35113418102264404,
        -0.5122798681259155,
        -0.1711050420999527,
        0.010178038850426674,
        -0.3276256322860718,
        -0.09493441134691238,
        -0.02278074622154236,
        -0.0008620386943221092,
        0.06359141319990158,
        -0.014113068580627441,
        -0.25586140155792236,
        -0.22354084253311157,
        -0.03365745395421982,
        0.18754667043685913,
        -0.033711910247802734,
        0.04640594869852066,
        -0.4503377377986908,
        0.09987903386354446,
        0.060264069586992264,
        -0.20555882155895233,
        0.09137475490570068,
        -0.2408289611339569,
        -0.48149582743644714,
        -0.7065175771713257,
        0.3124438524246216,
        0.20407339930534363,
        -0.4634343683719635,
        0.24078606069087982,
        0.28729262948036194,
        -0.25146758556365967,
        0.17644061148166656,
        -0.10906746238470078,
        -0.10875964909791946,
        0.0068719941191375256,
        0.10780330747365952,
        -0.2287127822637558,
        -0.012462740764021873,
        0.13681243360042572,
        -0.1340455263853073,
        -0.054037146270275116,
        0.2618134617805481,
        0.11752834171056747,
        -0.05214229226112366,
        -0.11928927153348923,
        -0.05383264645934105,
        0.17905664443969727,
        0.23898257315158844,
        0.08222417533397675,
        -0.07068488001823425,
        -0.10580705106258392,
        -0.014365475624799728,
        0.014115399681031704,
        0.16276834905147552,
        -0.10328523814678192,
        0.2366195023059845,
        -0.077094167470932,
        -0.00481192022562027,
        0.1034245416522026,
        -0.05794208124279976,
        -0.185235396027565,
        0.1124238446354866,
        -0.17687691748142242,
        -0.016514690592885017,
        -0.11818934231996536,
        0.025109780952334404,
        0.1389809548854828,
        -0.061900343745946884,
        -0.3067860007286072,
        -0.20868019759655,
        0.0780617743730545,
        0.3076481819152832,
        0.15919829905033112,
        -0.042276762425899506,
        0.11830896139144897,
        0.019200945273041725,
        0.1877543330192566,
        0.1268949806690216,
        0.1015508845448494,
        0.12545469403266907,
        -0.01854867860674858,
        -0.33040663599967957,
        -0.09900134056806564,
        -0.0546238049864769,
        0.1597306877374649,
        -0.15134888887405396,
        -0.07372259348630905,
        0.13512954115867615,
        -0.01248976681381464,
        -0.06700105220079422,
        0.08574076741933823,
        0.11585874855518341,
        -0.028987227007746696,
        0.008926760405302048,
        -0.38391053676605225,
        0.16815368831157684,
        0.2854020297527313,
        -0.3025811016559601,
        -0.07191359996795654,
        0.1062636449933052,
        0.14905287325382233,
        -0.13396432995796204,
        -0.6412482857704163,
        -0.3816717863082886,
        -0.3194158673286438,
        -0.23094846308231354,
        -0.09043806791305542,
        -0.05439658835530281,
        -0.03287764638662338,
        0.1715354025363922,
        0.2027890533208847,
        -0.3645072877407074,
        0.13851378858089447,
        -0.3181990683078766,
        0.13780276477336884,
        0.17645277082920074,
        0.12629620730876923,
        -0.4182823598384857,
        0.015669910237193108,
        0.2104501575231552,
        -0.049145039170980453,
        0.1577472686767578,
        -0.11573508381843567,
        -0.14466232061386108,
        -0.49566584825515747,
        0.008728127926588058,
        0.14501747488975525,
        -0.6040642857551575,
        0.14770349860191345,
        0.23461320996284485,
        -0.36879435181617737,
        0.2814169228076935,
        -0.18088068068027496,
        -0.10576984286308289,
        -0.06516372412443161,
        -0.02929249033331871,
        0.004304643254727125,
        -0.0732160285115242,
        0.15959663689136505,
        -0.07498299330472946,
        -0.059949927031993866,
        0.20431938767433167,
        -0.010168361477553844,
        0.13835608959197998,
        -0.05105200037360191,
        0.08028559386730194,
        0.03636493533849716,
        -0.10348763316869736,
        0.15688756108283997,
        0.06860759109258652,
        -0.010595716536045074,
        -0.004851603414863348,
        0.047668952494859695,
        0.14435750246047974,
        -0.013366444036364555,
        0.032120537012815475,
        -0.015237427316606045,
        -0.1850411295890808,
        -0.087428517639637,
        -0.08668059855699539,
        -0.3009408414363861,
        -0.13697412610054016,
        -0.06410330533981323,
        0.03388619050383568,
        -0.03656848520040512,
        -0.2130981683731079,
        0.03940558061003685,
        -0.28925269842147827,
        -0.25464528799057007,
        0.08766075223684311,
        0.034389641135931015,
        -0.044849853962659836,
        0.13329748809337616,
        0.07658941298723221,
        -0.020685555413365364,
        -0.025352276861667633,
        0.08642137050628662,
        0.20683161914348602,
        -0.12961363792419434,
        -0.06202549859881401,
        -0.3005959391593933,
        -0.07782585173845291,
        -0.08178742974996567,
        0.3996187150478363,
        -0.18635402619838715,
        -0.15051373839378357,
        -0.17966841161251068,
        -0.27040165662765503,
        -0.09382625669240952,
        0.14246560633182526,
        -0.22391347587108612,
        0.09334441274404526,
        -0.19411703944206238,
        0.15545178949832916,
        0.18359243869781494,
        -0.17214830219745636,
        0.24622587859630585,
        0.19566164910793304,
        0.11209942400455475,
        -0.001054991502314806,
        0.12170446664094925,
        0.025650858879089355,
        0.38098499178886414,
        0.059100836515426636,
        0.4318964183330536,
        0.3337993323802948,
        0.023780712857842445,
        0.05660015717148781,
        -0.10243033617734909,
        -0.17153245210647583,
        0.10102332383394241,
        0.23457562923431396,
        0.22449935972690582,
        0.01754092425107956,
        -0.2381768822669983,
        0.11441115289926529,
        0.18397614359855652,
        0.2610609531402588,
        -0.2523433566093445,
        0.32340049743652344,
        -0.10476671159267426,
        -0.1215423122048378,
        -0.09356710314750671,
        0.21009941399097443,
        0.31207284331321716,
        0.43309512734413147,
        -0.06286738067865372,
        0.3321036696434021,
        0.008616315200924873,
        0.08723144978284836,
        0.29080304503440857,
        -0.062291841953992844,
        0.07435762882232666,
        0.21370871365070343,
        0.4488134980201721,
        -0.27271768450737,
        -0.12727408111095428,
        0.027615459635853767,
        -0.03799678757786751,
        -0.10178404301404953,
        0.24999582767486572,
        0.2810957133769989,
        -0.16841016709804535,
        -0.39779743552207947,
        -0.10255516320466995,
        0.26128214597702026,
        -0.3815491199493408,
        0.013628622516989708,
        0.06167265400290489,
        -0.2613751292228699,
        -0.08394132554531097,
        0.0782516673207283,
        -0.26024129986763,
        -0.1598566770553589,
        0.12364384531974792,
        0.025426873937249184,
        0.03390272706747055,
        0.04707011580467224,
        0.11253625154495239,
        -0.15512104332447052,
        0.1134081706404686,
        -0.002158604096621275,
        -0.29409825801849365,
        -0.11637577414512634,
        -0.1475246548652649,
        0.3564015030860901,
        -0.349090576171875,
        0.048374924808740616,
        0.1806274950504303,
        -0.03877805545926094,
        -0.3641430139541626,
        0.014976662583649158,
        -0.07010631263256073,
        -0.036121077835559845,
        -0.3193124532699585,
        -0.020619461312890053,
        -0.10899817198514938,
        0.07578343152999878,
        -0.2804326117038727,
        0.2691260874271393,
        -0.13690343499183655,
        0.11634895950555801,
        -0.06861766427755356,
        0.15890415012836456,
        -0.009687322191894054,
        0.17482298612594604,
        -0.1634516716003418,
        -0.07906556129455566,
        -0.0039686169475317,
        0.21939896047115326,
        -0.07597284018993378,
        -0.4833461344242096,
        -0.06388971209526062,
        -0.11078166216611862,
        -0.01738579571247101,
        -0.17521333694458008,
        0.08067838847637177,
        0.24259591102600098,
        0.17565670609474182,
        -0.16573525965213776,
        0.31959274411201477,
        -0.05221093073487282,
        0.2988370954990387,
        0.04986908659338951,
        0.0026666352059692144,
        0.28664717078208923,
        0.04187343642115593,
        0.0874825119972229,
        -0.15551094710826874,
        -0.18416528403759003,
        0.11622629314661026,
        0.07151298969984055,
        -0.08723300695419312,
        -0.03534926474094391,
        -0.19859826564788818,
        0.15852157771587372,
        0.05848773568868637,
        0.13462817668914795,
        -0.4850914478302002,
        -0.0014735456788912416,
        0.04973146691918373,
        -0.2277948409318924,
        0.016007382422685623,
        0.2827928960323334,
        0.14587709307670593,
        -0.20957519114017487,
        -0.14344224333763123,
        0.31590089201927185,
        0.011753121390938759,
        0.24267736077308655,
        0.47888314723968506,
        0.15803663432598114,
        0.17346253991127014,
        0.004471958614885807,
        0.11143502593040466,
        0.02495332434773445,
        0.18192125856876373,
        0.17621923983097076,
        -0.37434637546539307,
        -0.09533997625112534,
        0.0958373099565506,
        -0.1272164285182953,
        0.11837145686149597,
        -0.30124664306640625,
        0.22368188202381134,
        0.07651181519031525,
        -0.49515315890312195,
        0.07141418009996414,
        -0.2388285994529724,
        -0.30723851919174194,
        0.11398486793041229,
        0.1385091245174408,
        -0.41131722927093506,
        -0.11131469160318375,
        -0.11633753031492233,
        -0.0669398084282875,
        -0.02152102440595627,
        0.012561703100800514,
        0.1821732372045517,
        -0.17626327276229858,
        0.13707876205444336,
        -0.3565235435962677,
        -0.4515325725078583,
        -0.15306587517261505,
        0.002762889489531517,
        0.10617269575595856,
        0.014592630788683891,
        0.17202767729759216,
        0.12707024812698364,
        -0.18577642738819122,
        -0.3125743567943573,
        -0.10740657150745392,
        -0.16560229659080505,
        0.09282545745372772,
        -0.048229701817035675,
        0.07563440501689911,
        0.01761418767273426,
        0.15908204019069672,
        -0.45180222392082214,
        -0.04663325846195221,
        0.1893124282360077,
        -0.26729464530944824,
        0.08857715874910355,
        -0.13248740136623383,
        0.10742517560720444,
        -0.2895970940589905,
        -0.11442547291517258,
        -0.059925422072410583,
        -0.038420140743255615,
        -0.052929699420928955,
        0.03411342576146126,
        -0.11246836185455322,
        0.009579748846590519,
        0.3131271004676819,
        -0.16168399155139923,
        0.20901502668857574,
        0.1748916059732437,
        -0.21123488247394562,
        0.043531134724617004,
        -0.04409021884202957,
        0.08326147496700287,
        -0.2352086454629898,
        -0.32944774627685547,
        -0.23328115046024323,
        0.14264658093452454,
        -0.46348151564598083,
        0.0809319019317627,
        -0.03999824449419975,
        -0.10823789983987808,
        0.16009773313999176,
        0.03106887824833393,
        -0.008306425996124744,
        0.015901954844594002,
        -0.22449439764022827,
        0.09618541598320007,
        0.25010383129119873,
        0.014860419556498528,
        -0.020148402079939842,
        0.24407127499580383,
        -0.004167425446212292,
        -0.061045948415994644,
        0.05668932944536209,
        0.11113744974136353,
        -0.23461474478244781,
        0.10779020935297012,
        0.1481480598449707,
        0.2692946195602417,
        -0.06426634639501572,
        -0.03114364482462406,
        0.042006585747003555,
        -0.3879081606864929,
        0.03309771418571472,
        -0.15912827849388123,
        -0.015374469570815563,
        -0.40224307775497437,
        0.2131355255842209,
        -0.19051407277584076,
        0.11333906650543213,
        -0.04751801863312721,
        -0.09219581633806229,
        -0.2936916649341583,
        0.06727558374404907,
        -0.2661127746105194,
        0.3207772970199585,
        -0.025876257568597794,
        0.15440528094768524,
        0.03814208507537842,
        0.031050728633999825,
        0.0015981055330485106,
        0.14462360739707947,
        -0.30850762128829956,
        -0.0926174446940422,
        0.26376521587371826,
        0.1836903691291809,
        0.10985191911458969,
        -0.08212999999523163,
        -0.28197482228279114,
        0.0284123457968235,
        0.21102069318294525,
        0.21543793380260468,
        -0.3137661814689636,
        0.18874791264533997,
        0.08291491866111755,
        0.02278098091483116,
        0.002484685741364956,
        -0.3072795569896698,
        0.09851938486099243,
        -0.12961576879024506,
        -0.22448471188545227,
        0.19717979431152344,
        0.01048288308084011,
        0.13302165269851685,
        -0.1375913769006729,
        0.013142470270395279,
        0.06950562447309494,
        -0.14852294325828552,
        0.3137102425098419,
        0.0628589540719986,
        0.14844493567943573,
        -0.0858297049999237,
        0.12617532908916473,
        -0.1666892170906067,
        -0.35468339920043945,
        -0.07449404150247574,
        -0.4450070559978485,
        -0.09556470811367035,
        -0.0573541633784771,
        0.1696760505437851,
        -0.16558405756950378,
        -0.016267549246549606,
        -0.2100944221019745,
        0.18423128128051758,
        0.30000293254852295,
        0.17369145154953003,
        0.10126688331365585,
        0.23005539178848267,
        -0.029931427910923958,
        -0.0022102552466094494,
        -0.2940524220466614,
        -0.4412369132041931,
        -0.39976930618286133,
        -0.2026452124118805,
        -0.1488124281167984,
        -0.23458512127399445,
        -0.26551491022109985,
        -0.4805769622325897,
        0.11151508241891861,
        -0.3917160928249359,
        -0.04231352359056473,
        0.02188923768699169,
        0.19619476795196533,
        -0.3552870750427246,
        0.04219663143157959,
        -0.015215175226330757,
        0.07537750899791718,
        0.2151290327310562,
        -0.2540939152240753,
        0.1376180499792099,
        0.04272550716996193,
        0.11745531857013702,
        0.030876174569129944,
        0.18622858822345734,
        -0.24357983469963074,
        -0.5836989283561707,
        -0.3225519061088562,
        0.08202806115150452,
        0.16841481626033783,
        -0.1333128660917282,
        -0.020203381776809692,
        0.0032253756653517485,
        -0.2589503824710846,
        0.15415991842746735,
        -0.201834574341774,
        -0.33327579498291016,
        -0.5867132544517517,
        -0.005582209210842848,
        0.016115568578243256,
        -0.09988772869110107,
        -0.21673484146595,
        0.07380114495754242,
        -0.3179987668991089,
        0.27239474654197693,
        -0.09783519804477692,
        0.1776709109544754,
        -0.29980766773223877,
        0.31853386759757996,
        -0.1418554186820984,
        -0.12794651091098785,
        -0.020121509209275246,
        0.16449451446533203,
        -0.11739525198936462,
        -0.03148096799850464,
        0.1872696727514267,
        0.15597909688949585,
        0.04645315557718277,
        -0.023906327784061432,
        -0.30319246649742126,
        0.025933513417840004,
        -0.035933516919612885,
        0.08266977965831757,
        -0.14474862813949585,
        0.20097704231739044,
        -0.14296875894069672,
        0.22019194066524506,
        0.13663025200366974,
        -0.21692436933517456,
        0.14544777572155,
        -0.031001610681414604,
        0.1494426429271698,
        0.18584853410720825,
        -0.019936082884669304,
        0.01827995665371418,
        0.04517499357461929,
        -0.2728322148323059,
        0.2644263207912445,
        -0.056205376982688904,
        0.002389258937910199,
        0.1140340119600296,
        0.1608174443244934,
        -0.0825929194688797,
        0.03933152183890343,
        -0.038964495062828064,
        0.06444141268730164,
        -0.1614498347043991,
        -0.0984664335846901,
        -0.10321802645921707,
        -0.13830608129501343,
        0.09770617634057999,
        -0.14999176561832428,
        0.17380259931087494,
        -0.03580658510327339,
        0.0014903128612786531,
        0.3007495105266571,
        -0.026096424087882042,
        -0.11343852430582047,
        0.08519712090492249,
        -0.045994699001312256,
        -0.02452648989856243,
        -0.27438342571258545,
        -0.021738326177001,
        -0.19684718549251556,
        -0.07362000644207001,
        -0.17944833636283875,
        -0.12479235231876373,
        0.06349033862352371,
        -0.2549299895763397,
        0.02009991742670536,
        -0.024997713044285774,
        0.06679977476596832,
        0.24700407683849335,
        -0.03255383297801018,
        0.14013108611106873,
        0.04904738441109657,
        -0.02233211137354374,
        -0.04688259959220886,
        0.07919435948133469,
        -0.06696440279483795,
        -0.1581590324640274,
        0.16804729402065277,
        -0.08679686486721039,
        -0.16513337194919586,
        0.03491057828068733,
        0.05305764079093933,
        -0.3527396321296692,
        0.03596976399421692,
        0.17280498147010803,
        0.33912208676338196,
        -0.4266544580459595,
        -0.21266880631446838,
        0.2205982804298401,
        -0.32681480050086975,
        0.034469522535800934,
        0.05185164511203766,
        -0.10383348166942596,
        -0.2252606600522995,
        0.15151791274547577,
        0.025176318362355232,
        0.08390969038009644,
        -0.008608310483396053,
        0.2657153606414795,
        -0.05493221431970596,
        -0.029371187090873718,
        -0.09174671769142151,
        0.39797845482826233,
        -0.22217236459255219,
        -0.033482447266578674,
        -0.059194792062044144,
        0.0555306077003479,
        0.2865733802318573,
        0.3164557218551636,
        -0.29286453127861023,
        -0.09952399879693985,
        -0.09511684626340866,
        0.03354095667600632,
        -0.19062554836273193,
        -0.19047720730304718,
        0.03717738017439842,
        0.048897337168455124,
        -0.0019183640833944082,
        -0.059421468526124954,
        0.06653285026550293,
        0.20663699507713318,
        0.20384326577186584,
        0.20452065765857697,
        -0.18690386414527893,
        -0.09929119795560837,
        -0.13845781981945038,
        -0.14124813675880432,
        -0.32028400897979736,
        0.1928143948316574,
        0.4442104995250702,
        0.10252226144075394,
        -0.12840892374515533,
        0.056079696863889694,
        0.2761223614215851,
        -0.08752712607383728,
        0.14234493672847748,
        0.16541680693626404,
        0.03821428120136261,
        -0.15931794047355652,
        -0.12859782576560974,
        0.10509390383958817,
        -0.026435790583491325,
        0.4892480671405792,
        0.007871056906878948,
        0.06164972856640816,
        -0.201035737991333,
        -0.05959376320242882,
        0.17372086644172668,
        0.4240632951259613,
        -0.313453733921051,
        0.020077811554074287,
        0.10603319853544235,
        0.15169982612133026,
        0.1654670685529709,
        -0.18421275913715363,
        0.28878477215766907,
        0.360280841588974,
        0.031619906425476074,
        0.09194044768810272,
        0.3025583028793335,
        0.08375030010938644,
        0.4850938320159912,
        0.1416560858488083,
        -0.03326576203107834,
        0.11377304792404175,
        -0.16986867785453796,
        0.16243605315685272,
        -0.0478479266166687,
        -0.3252575397491455,
        -0.03987092897295952,
        0.05361776053905487,
        0.024397624656558037,
        0.0023813003208488226,
        -0.4042291045188904,
        0.08109194785356522,
        0.004270538687705994,
        -0.034623295068740845,
        -0.367771714925766,
        0.028140859678387642,
        0.014327209442853928,
        0.4403333067893982,
        0.06428815424442291,
        0.062064263969659805,
        1.17113086162135e-06,
        0.24756920337677002,
        0.11957885324954987,
        0.3070640563964844,
        0.15776467323303223,
        -0.0984237939119339,
        0.18301866948604584,
        -0.027169067412614822,
        0.21652469038963318,
        0.09366586059331894,
        0.32202011346817017,
        -0.10224692523479462,
        -0.10216820240020752,
        -0.08571922779083252,
        -0.2787517011165619,
        -0.18666720390319824,
        0.5327563881874084,
        -0.0017102622659876943,
        0.1223602369427681,
        -0.281053751707077,
        0.2983761131763458,
        0.30563846230506897,
        -0.19457395374774933,
        0.17189042270183563,
        -0.09092709422111511,
        -0.015384437516331673,
        0.08823033422231674,
        0.11384697258472443,
        -0.17114800214767456,
        -0.13745304942131042,
        -0.36927804350852966,
        0.14903588593006134,
        -0.06440730392932892,
        -0.4324907660484314,
        0.21891522407531738,
        -0.3826861083507538,
        -0.008247731253504753,
        0.01531646866351366,
        -0.27208828926086426,
        -0.32421669363975525,
        0.02710036002099514,
        -0.09278269112110138,
        -0.39815840125083923,
        0.012920528650283813,
        0.04138833284378052,
        -0.035520751029253006,
        -0.36365067958831787,
        -0.23208846151828766,
        -0.0001631756022106856,
        0.14551912248134613,
        -0.09395750612020493,
        -0.48120352625846863,
        0.15180812776088715,
        0.062303327023983,
        -0.25495147705078125,
        0.11439074575901031,
        -0.09711328148841858,
        -0.08605999499559402,
        0.03582979366183281,
        -0.026144281029701233,
        0.11076304316520691,
        0.12646888196468353,
        -0.07910335063934326,
        -0.00962376780807972,
        0.1250847727060318,
        0.22703778743743896,
        0.2325044870376587,
        -0.05221934989094734,
        0.033646147698163986,
        -0.03479393944144249,
        0.0605410635471344,
        0.07083811610937119,
        0.014088439755141735,
        0.24879975616931915,
        0.0252685509622097,
        -0.23512189090251923,
        -0.00527210021391511,
        0.17702996730804443,
        0.12487352639436722,
        0.08527159690856934,
        0.05073430761694908,
        0.25399187207221985,
        -0.09570586681365967,
        -0.1137322336435318,
        -0.1093655377626419,
        0.06739087402820587,
        -0.22422443330287933,
        0.216943621635437,
        0.12391284853219986,
        0.13353873789310455,
        -0.06996311992406845,
        -0.24339906871318817,
        0.1676596850156784,
        0.05890055373311043,
        -0.2158268243074417,
        -0.11353502422571182,
        0.1682446002960205,
        -0.11137591302394867,
        -0.2190285325050354,
        -0.22277724742889404,
        -0.0839092880487442,
        -0.11916035413742065,
        -0.18660560250282288,
        0.11363014578819275,
        0.17987531423568726,
        0.06524412333965302,
        0.058484598994255066,
        -0.06632675230503082,
        0.13352784514427185,
        -0.029317857697606087,
        0.14765223860740662,
        0.050108518451452255,
        -0.03941010311245918,
        -0.1157924011349678,
        0.19061827659606934,
        -0.07010925561189651,
        0.47165167331695557,
        0.21153026819229126,
        -0.15936699509620667,
        -0.15918773412704468,
        0.2978789806365967,
        -0.12528377771377563,
        -0.03539492189884186,
        0.01698039472103119,
        -0.2556980848312378,
        0.054556023329496384,
        0.20568981766700745,
        0.20669692754745483,
        0.04877189174294472,
        0.06512276828289032,
        0.06726468354463577,
        0.23885183036327362,
        0.08064117282629013,
        0.060195617377758026,
        0.0518728643655777,
        -0.021236784756183624,
        -0.018781447783112526,
        -0.2202918827533722,
        -0.11094222217798233,
        0.11053498834371567,
        0.18586920201778412,
        0.2417619824409485,
        0.1650683730840683,
        -0.15304051339626312,
        -0.019377494230866432,
        0.10794156789779663,
        0.0864400789141655,
        0.09829848259687424,
        0.09268040210008621,
        0.15495195984840393,
        0.0723649114370346,
        -0.021324869245290756,
        -0.16513708233833313,
        -0.07590505480766296,
        0.26396995782852173,
        0.015668228268623352,
        -0.026839181780815125,
        -0.13293105363845825,
        0.11758017539978027,
        0.172916442155838,
        -0.041534293442964554,
        0.07090948522090912,
        0.09583999961614609,
        0.11155468970537186,
        0.07457176595926285,
        0.08481200784444809,
        -0.07936475425958633,
        0.034196823835372925,
        0.021366441622376442,
        -0.05479889363050461,
        0.03383408114314079,
        -0.19084574282169342,
        -0.23651842772960663,
        0.0077615538612008095,
        -0.03453065827488899,
        0.05844401568174362,
        0.02748834528028965,
        0.17275583744049072,
        0.359531044960022,
        0.28292879462242126,
        -0.027902772650122643,
        0.3692377507686615,
        0.12604092061519623,
        -0.07825134694576263,
        0.14578671753406525,
        -0.25014999508857727,
        -0.05956244468688965,
        0.10420119017362595,
        -0.04227405786514282,
        -0.1132446825504303,
        -0.31708183884620667,
        -0.059580475091934204,
        -0.24404160678386688,
        0.2380908727645874,
        -0.03197317570447922,
        -0.02237018756568432,
        -0.03552069887518883,
        -0.14159898459911346,
        0.12162370979785919,
        0.38296160101890564,
        0.03526340797543526,
        -0.2694037854671478,
        -0.0759061723947525,
        0.14588263630867004,
        0.19355599582195282,
        0.07400869578123093,
        0.35946381092071533,
        0.16515867412090302,
        0.10584844648838043,
        0.07306075841188431,
        0.16778062283992767,
        0.05252399295568466,
        0.09971915185451508,
        -0.15239916741847992,
        0.19487828016281128,
        0.02014959417283535,
        -0.22115430235862732,
        -0.13242970407009125,
        0.005058612208813429,
        -0.04763224348425865,
        0.015126139856874943,
        -0.017706679180264473,
        0.14903226494789124,
        -0.04879791662096977,
        0.11486921459436417,
        -0.042250409722328186,
        0.28648054599761963,
        -0.1020767018198967,
        -0.24745729565620422,
        0.10049055516719818,
        0.05059650167822838,
        0.23238831758499146,
        0.17848946154117584,
        -0.02258945256471634,
        -0.1234925389289856,
        0.032261256128549576,
        0.02820724807679653,
        -0.3345354199409485,
        0.0776807889342308,
        -0.048086978495121,
        -0.08639220893383026,
        0.04360540956258774,
        0.17161493003368378,
        0.19180947542190552,
        -0.03092608042061329,
        0.007765668444335461,
        -0.3193255066871643,
        -0.2390350103378296,
        0.04216785728931427,
        0.06438583880662918,
        -0.1569950431585312,
        -0.13741658627986908,
        -0.2860698103904724,
        0.010776281356811523,
        0.018701888620853424,
        -0.05675535276532173,
        0.30408498644828796,
        -0.1278221160173416,
        -0.020234206691384315,
        -0.2151130884885788,
        -0.13117438554763794,
        0.09201713651418686,
        -0.20089174807071686,
        0.05643312260508537,
        -0.19942046701908112,
        0.021181199699640274,
        0.21275517344474792,
        -0.09545730799436569,
        0.11030714958906174,
        0.24200354516506195,
        -0.11087702959775925,
        0.021392816677689552,
        0.13207504153251648,
        -0.13658259809017181,
        -0.01898971199989319,
        0.05321398004889488,
        -0.25147804617881775,
        -0.11322516202926636,
        -0.39432504773139954,
        -0.3918125331401825,
        -0.07323213666677475,
        -0.2650609314441681,
        -0.0961969867348671,
        -0.1467859297990799,
        0.25178074836730957,
        0.09777889400720596,
        0.2524617612361908,
        -0.16274061799049377,
        -0.4517437219619751,
        -0.19925343990325928,
        0.12241008132696152,
        0.23034806549549103,
        -0.33643803000450134,
        -0.08397258818149567,
        0.00020385690731927752,
        -0.06750472635030746,
        0.0752817690372467,
        -0.04728110134601593,
        -0.003415255807340145,
        -0.33950236439704895,
        -0.04379815235733986,
        -0.004323056433349848,
        0.056226946413517,
        -0.5705050230026245,
        0.3511117398738861,
        0.0632990151643753,
        -0.24822892248630524,
        -0.03240817412734032,
        -0.15468263626098633,
        0.12871454656124115,
        -0.20679326355457306,
        -0.11687155067920685,
        -0.2537553310394287,
        -0.22496791183948517,
        0.06733252108097076,
        0.25063180923461914,
        -0.24916845560073853,
        0.1342393159866333,
        0.009607511572539806,
        0.26752611994743347,
        -0.15582048892974854,
        -0.1574924886226654,
        -0.06017948314547539,
        0.08884702622890472,
        0.15843166410923004,
        -0.03632302209734917,
        0.0427057221531868,
        0.01208430714905262,
        -0.006603395100682974,
        -0.06013054400682449,
        0.1392947882413864,
        -0.1467285305261612,
        -0.22030213475227356,
        -0.1341889500617981,
        0.06087047606706619,
        0.18827207386493683,
        0.09326791763305664,
        0.11501898616552353,
        0.22127442061901093,
        0.20525497198104858,
        -0.08576367050409317,
        0.0016479057958349586,
        0.15030905604362488,
        -0.030064286664128304,
        -0.36229297518730164,
        0.18992340564727783,
        0.15112699568271637,
        0.14316441118717194,
        0.003678274108096957,
        -0.27710264921188354,
        -0.023223552852869034,
        -0.0004410679393913597,
        0.16556109488010406,
        -0.18705245852470398,
        0.4761561155319214,
        -0.06561380624771118,
        0.18681436777114868,
        0.11266868561506271,
        -0.12211477011442184,
        0.14108960330486298,
        -0.3287065327167511,
        0.1500256061553955,
        -0.020764578133821487,
        -0.2724694311618805,
        0.06662439554929733,
        0.3075162172317505,
        -0.18033131957054138,
        0.19337348639965057,
        -0.01716613583266735,
        0.23409192264080048,
        -0.13972991704940796,
        0.038255300372838974,
        -0.0887850746512413,
        0.18943332135677338,
        0.17478975653648376,
        -0.10797151923179626,
        0.04032202064990997,
        0.15281745791435242,
        0.20270748436450958,
        0.15371595323085785,
        0.26987066864967346,
        0.08734579384326935,
        -0.36189037561416626,
        -0.10158777981996536,
        -0.1268995702266693,
        -0.3171170949935913,
        0.18226291239261627,
        -0.12004060298204422,
        0.17547985911369324,
        0.20820298790931702,
        -0.10391505807638168,
        0.1691865175962448,
        -0.11114516854286194,
        -0.1165449246764183,
        -0.23236553370952606,
        0.25588127970695496,
        0.019601820036768913,
        0.1063258945941925,
        0.18557830154895782,
        0.18171881139278412,
        0.16806776821613312,
        0.09612301737070084,
        0.2608010470867157,
        0.25762754678726196,
        0.26328733563423157,
        -0.021434299647808075,
        -0.12897618114948273,
        -0.008763271383941174,
        0.17240677773952484,
        0.15789583325386047,
        0.14363223314285278,
        0.03405778855085373,
        -0.06135696917772293,
        -0.013242354616522789,
        0.3105453550815582,
        -0.13177084922790527,
        -0.19041520357131958,
        -0.04362187907099724,
        0.07535994052886963,
        -0.061639610677957535,
        -0.01616191491484642,
        0.1898105889558792,
        -0.22089479863643646,
        0.18882369995117188,
        -0.03347945958375931,
        0.2385455220937729,
        -0.20639543235301971,
        0.2823966443538666,
        0.009380033239722252,
        -0.1214260682463646,
        -0.008212174288928509,
        0.26884812116622925,
        0.11891114711761475,
        -0.5755712389945984,
        -0.0170452743768692,
        -0.06715865433216095,
        0.05718372017145157,
        0.08983974903821945,
        -0.1324954330921173,
        0.02830730751156807,
        -0.05904453620314598,
        0.0768844485282898,
        0.009818659164011478,
        0.21188898384571075,
        -0.14094237983226776,
        0.0174747072160244,
        -0.06416675448417664,
        0.016751548275351524,
        -0.11111036688089371,
        -0.13624170422554016,
        -0.07260908931493759,
        -0.14203618466854095,
        0.03685351088643074,
        -0.1919187754392624,
        -0.14941412210464478,
        0.10336362570524216,
        -0.19424745440483093,
        -0.06760920584201813,
        -0.1151944249868393,
        0.06050260737538338,
        -0.20540662109851837,
        0.12385139614343643,
        -0.12491453438997269,
        0.22835902869701385,
        -0.26231542229652405,
        0.13392427563667297,
        -0.21568666398525238,
        -0.16458208858966827,
        -0.37541836500167847,
        -0.08345551788806915,
        -0.10107548534870148,
        -0.14292478561401367,
        0.1432296335697174,
        0.06062088906764984,
        0.21628440916538239,
        0.1978769153356552,
        0.036350373178720474,
        0.20222215354442596,
        0.21179404854774475,
        0.21604081988334656,
        0.37455689907073975,
        0.1162339597940445,
        0.1439267247915268,
        0.04486749321222305,
        0.07537312805652618,
        -0.23250949382781982,
        0.1049422174692154,
        0.22891519963741302,
        0.16364789009094238,
        -0.03602397069334984,
        -0.11138655245304108,
        -0.06727731972932816,
        -0.1339436024427414,
        0.23093485832214355,
        -0.4335639476776123,
        0.25519731640815735,
        -0.10945213586091995,
        0.04393718019127846,
        0.08492673933506012,
        -0.07075905799865723,
        0.08663367480039597,
        0.02132529765367508,
        -0.10099390149116516,
        0.31222841143608093,
        0.10729721188545227,
        -0.15762457251548767,
        0.34696853160858154,
        -0.06344489753246307,
        0.2116849571466446,
        0.14248007535934448,
        0.2841629087924957,
        0.1194639652967453,
        0.013632460497319698,
        -0.02150878496468067,
        -0.1278793066740036,
        -0.14850102365016937,
        0.15142573416233063,
        -0.10018005222082138,
        -0.09307534247636795,
        0.042760465294122696,
        0.0721888393163681,
        0.1225741058588028,
        -0.2070903182029724,
        -0.0521133691072464,
        -0.07608439028263092,
        0.10588669031858444,
        0.038090333342552185,
        -0.11288429796695709,
        -0.17248231172561646,
        -0.15506406128406525,
        0.10779544711112976,
        0.3519618809223175,
        -0.05096709728240967,
        -0.16551263630390167,
        0.12456665188074112,
        0.06020151451230049,
        -0.009749791584908962,
        -0.19288022816181183,
        -0.010473466478288174,
        0.17725400626659393,
        -0.19620734453201294,
        -0.05646093189716339,
        -0.08111312240362167,
        0.23145586252212524,
        -0.07005959004163742,
        -0.12724117934703827,
        -0.2838748097419739,
        0.10181793570518494,
        -0.0976111888885498,
        0.17919720709323883,
        0.23758205771446228,
        -0.20339086651802063,
        -0.1308678388595581,
        -0.2369232177734375,
        7.517068297602236e-06,
        0.0675196722149849,
        -0.4425128102302551,
        0.012812865898013115,
        0.13769342005252838,
        0.01122700423002243,
        -0.3050369620323181,
        -0.05283816531300545,
        -0.12638111412525177,
        -0.07565365731716156,
        0.0818212628364563,
        0.6144927740097046,
        -0.3799475431442261,
        -0.07984656095504761,
        0.0264922883361578,
        -0.23549701273441315,
        -0.13729575276374817,
        -0.05751710757613182,
        -0.0875164046883583,
        0.19382835924625397,
        -0.05298326164484024,
        0.2054515928030014,
        0.02334563620388508,
        0.09824462234973907,
        0.19624368846416473,
        -0.10450323671102524,
        0.29038989543914795,
        0.051938217133283615,
        -0.2659194767475128,
        0.29334554076194763,
        -0.19534948468208313,
        -0.36807677149772644,
        0.07645143568515778,
        0.22049914300441742,
        -0.10495777428150177,
        0.20637741684913635,
        -0.3456658124923706,
        0.16758021712303162,
        0.045338064432144165,
        0.14768414199352264,
        -0.29361018538475037,
        0.14551520347595215,
        0.14335639774799347,
        -0.21717339754104614,
        0.11453140527009964,
        0.17985425889492035,
        0.006408113054931164,
        0.237870454788208,
        -0.17233455181121826,
        0.23552262783050537,
        -0.15631046891212463,
        0.2523418068885803,
        0.2841435372829437,
        -0.18912705779075623,
        -0.03570835292339325,
        0.13910332322120667,
        0.12430733442306519,
        -0.31794726848602295,
        0.04137143865227699,
        -0.18758602440357208,
        -0.02463713102042675,
        -0.3857935667037964,
        0.09845440834760666,
        -0.18279269337654114,
        0.17816583812236786,
        -0.3736473619937897,
        0.1537768393754959,
        -0.03875365108251572,
        -0.12481355667114258,
        -0.06529455631971359,
        -0.3326595723628998,
        0.03678828850388527,
        -0.11875879019498825,
        0.10724093019962311,
        -0.3758508265018463,
        -0.0544259175658226,
        0.0884615033864975,
        0.14653539657592773,
        -0.012340211309492588,
        -0.21124513447284698,
        0.16284815967082977,
        -0.3031255304813385,
        -0.06741548329591751,
        -0.3290533721446991,
        -0.15622305870056152,
        -0.25612741708755493,
        -0.05170486122369766,
        0.1789872646331787,
        0.10835209488868713,
        0.18837440013885498,
        0.0787682756781578,
        -0.1916545033454895,
        -0.2974478602409363,
        -0.11265094578266144,
        0.10208583623170853,
        0.1726621687412262,
        -0.14723964035511017,
        -0.20554028451442719,
        -0.39263471961021423,
        0.175283744931221,
        -0.17312617599964142,
        0.11048352718353271,
        0.030955767259001732,
        -0.36349695920944214,
        -0.1506243646144867,
        -0.34137222170829773,
        -0.151150643825531,
        -0.14608556032180786,
        -0.1616058647632599,
        0.05990876257419586,
        -0.03255552798509598,
        0.14525341987609863,
        0.042069241404533386,
        -0.1439790278673172,
        0.1332228183746338,
        0.1407065987586975,
        -0.09981699287891388,
        0.08979054540395737,
        -0.16815663874149323,
        -0.2379327118396759,
        -0.035593677312135696,
        -0.13199293613433838,
        -0.19838950037956238,
        -0.34864240884780884,
        -0.4590095281600952,
        -0.04567400738596916,
        -0.05163290724158287,
        -0.5873659253120422,
        -0.07493885606527328,
        0.03200814500451088,
        0.0044515179470181465,
        -0.1071806475520134,
        0.05123518034815788,
        -0.3177235424518585,
        -0.4747900664806366,
        -0.1311645805835724,
        0.08394933491945267,
        0.011359511874616146,
        -0.4811047613620758,
        -0.050453610718250275,
        0.144203320145607,
        -0.02088381163775921,
        0.10015066713094711,
        0.22078363597393036,
        -0.11824757605791092,
        -0.2346741110086441,
        -0.19527798891067505,
        -0.025081971660256386,
        0.012849986553192139,
        -0.49721142649650574,
        -0.022814318537712097,
        0.10862173140048981,
        -0.3520693778991699,
        -0.11863313615322113,
        -0.19931860268115997,
        0.0455671027302742,
        -0.2948961853981018,
        -0.005221051629632711,
        -0.5378811955451965,
        -0.22150282561779022,
        -0.19240239262580872,
        0.02102029323577881,
        -0.3562803864479065,
        0.07806573063135147,
        -0.09636825323104858,
        -0.015940647572278976,
        -0.5406538248062134,
        0.11238923668861389,
        -0.18511919677257538,
        -0.027322305366396904,
        -0.007178966887295246,
        0.00474287336692214,
        -0.13460448384284973,
        -0.03412793576717377,
        0.0649697333574295,
        0.18598979711532593,
        -0.11194504052400589,
        -0.27200034260749817,
        -0.053801290690898895,
        0.054939962923526764,
        0.2929808795452118,
        0.29613614082336426,
        -0.0384390763938427,
        0.09686653316020966,
        0.0443754680454731,
        0.07307019829750061,
        -0.10628537088632584,
        -0.2542749345302582,
        -0.13221222162246704,
        -0.09131844341754913,
        -0.15411129593849182,
        -0.03246163949370384,
        0.06044058874249458,
        0.22963230311870575,
        -0.16797353327274323,
        -0.27382487058639526,
        0.03320533409714699,
        0.022744569927453995,
        -0.22664695978164673,
        -0.2596960961818695,
        0.03401631861925125,
        0.01833731308579445,
        0.06760915368795395,
        -0.08707230538129807,
        -0.017499295994639397,
        -0.05641724541783333,
        0.1174362525343895,
        -0.003000183729454875,
        -0.17246419191360474,
        -0.13331298530101776,
        0.04660310223698616,
        -0.016144536435604095,
        -0.05518702417612076,
        0.10897565633058548,
        0.02735273540019989,
        0.13131211698055267,
        -0.2222217470407486,
        -0.1402769237756729,
        -0.08056148886680603,
        0.07145600020885468,
        -0.035216569900512695,
        0.1683780401945114,
        0.12037386000156403,
        -0.06716757267713547,
        -0.23160727322101593,
        -0.15397532284259796,
        0.0954660102725029,
        -0.26771238446235657,
        0.19824834167957306,
        -0.1563374102115631,
        -0.12017695605754852,
        0.041321322321891785,
        0.12277563661336899,
        0.05213864892721176,
        0.11993180215358734,
        0.05225245654582977,
        0.06904935836791992,
        -0.13751846551895142,
        -0.11542852967977524,
        -0.02306583896279335,
        0.08315826207399368,
        0.09012053906917572,
        0.036303579807281494,
        -0.07223816961050034,
        0.08064427971839905,
        8.919288666220382e-05,
        -0.08522222936153412,
        0.07087583839893341,
        -0.2348434329032898,
        0.09025757759809494,
        -0.012165972031652927,
        0.024876557290554047,
        -0.08779198676347733,
        -0.09385966509580612,
        0.08047101646661758,
        -0.11366733908653259,
        -0.07598122954368591,
        0.026147231459617615,
        -0.10547934472560883,
        0.1969633251428604,
        -0.17111845314502716,
        -0.22092479467391968,
        0.013947177678346634,
        -0.14832741022109985,
        0.14128009974956512,
        -0.07208745181560516,
        0.10428743064403534,
        -0.08953746408224106,
        -0.06782520562410355,
        0.2290450930595398,
        0.018770214170217514,
        -0.03933212161064148,
        -0.22899647057056427,
        -0.03365430235862732,
        -0.022301387041807175,
        0.09707071632146835,
        -0.1816507875919342,
        0.13286252319812775,
        0.017867770045995712,
        0.06460122764110565,
        -0.3062225580215454,
        0.09787022322416306,
        -0.1933213621377945,
        0.04342497140169144,
        0.03333284705877304,
        0.16281378269195557,
        0.030867857858538628,
        -0.0718349739909172,
        -0.048418816179037094,
        0.17295001447200775,
        -0.06335137784481049,
        0.1427362710237503,
        -0.22513364255428314,
        0.11858140677213669,
        0.03170119225978851,
        -0.04984192177653313,
        -0.19994407892227173,
        -0.28161850571632385,
        -0.13836126029491425,
        -0.10383301973342896,
        0.0738392323255539,
        -0.3122185170650482,
        -0.08413470536470413,
        -0.11810433864593506,
        -0.19021232426166534,
        -0.19355137646198273,
        0.033256981521844864,
        -0.1455077975988388,
        -0.20964783430099487,
        -0.11049267649650574,
        -0.10870730131864548,
        -0.10249407589435577,
        -0.02808181755244732,
        0.1399509757757187,
        0.13686160743236542,
        -0.1995704621076584,
        -0.05548301711678505,
        -0.20777259767055511,
        0.10292542725801468,
        -0.06435402482748032,
        -0.17199327051639557,
        0.061426494270563126,
        0.08105975389480591,
        -0.2234162986278534,
        -0.1389084905385971,
        -0.05649199336767197,
        -0.1190020740032196,
        -0.09759025275707245,
        -0.025489648804068565,
        0.101308174431324,
        0.09082954376935959,
        -0.022750459611415863,
        0.08936294168233871,
        0.09980618953704834,
        0.036090441048145294,
        -0.2951294183731079,
        -0.07401081919670105,
        -0.21438726782798767,
        -0.15014855563640594,
        0.044103119522333145,
        -0.180363729596138,
        0.07406032830476761,
        -0.0557098388671875,
        0.12284623086452484,
        0.06610468775033951,
        0.05006222799420357,
        0.031282007694244385,
        0.055470626801252365,
        -0.06554052978754044,
        -0.06185007095336914,
        -0.04238401725888252,
        -0.176976278424263,
        0.09888532757759094,
        0.10343393683433533,
        0.002358050784096122,
        0.003486566711217165,
        0.06842309236526489,
        -0.15469890832901,
        -0.20488977432250977,
        -0.037005409598350525,
        0.004447814077138901,
        0.0988895371556282,
        0.1980457305908203,
        -0.02280733734369278,
        -0.028173087164759636,
        -0.05840066075325012,
        0.05992848798632622,
        0.023395374417304993,
        -0.25794264674186707,
        0.07749409973621368,
        -0.21293634176254272,
        -0.18245519697666168,
        0.08454639464616776,
        -0.17813622951507568,
        -0.03285627067089081,
        0.15572211146354675,
        -0.25580063462257385,
        0.06210550293326378,
        -0.17686492204666138,
        0.10338187217712402,
        0.05806722491979599,
        -0.12396427243947983,
        0.0333356037735939,
        -0.05795658379793167,
        -0.05657133832573891,
        0.07893562316894531,
        -0.08246584236621857,
        -0.13380445539951324,
        -0.19485855102539062,
        0.11776182800531387,
        -0.23462963104248047,
        -0.05304449051618576,
        -0.017048640176653862,
        0.021162448450922966,
        0.06681228429079056,
        -0.22579622268676758,
        -0.03249769285321236,
        -0.144368976354599,
        0.0020818510092794895,
        -0.09354938566684723,
        0.011140260845422745,
        -0.3413023352622986,
        -0.11200826615095139,
        0.1373351365327835,
        0.11745989322662354,
        0.2940517067909241,
        -2.0377265173010528e-05,
        0.2698018550872803,
        0.029790513217449188,
        -0.16503962874412537,
        -0.0787554532289505,
        0.28929898142814636,
        -0.03743848204612732,
        -0.13194027543067932,
        -0.49311479926109314,
        0.011861011385917664,
        0.037100132554769516,
        0.09416265785694122,
        -0.1608813852071762,
        0.22889189422130585,
        0.07342655956745148,
        0.19193534553050995,
        0.07532848417758942,
        0.10040103644132614,
        0.13041307032108307,
        0.10281985253095627,
        0.11944641917943954,
        0.1459866166114807,
        -0.18972812592983246,
        -0.021377334371209145,
        -0.20285449922084808,
        -0.26244571805000305,
        -0.024501241743564606,
        0.08677005022764206,
        0.01703519932925701,
        0.1967308521270752,
        -0.03431977331638336,
        -0.06274829804897308,
        -0.13194651901721954,
        0.006936817895621061,
        -0.45210450887680054,
        0.18778593838214874,
        0.06311137229204178,
        -0.27166619896888733,
        -0.1556197553873062,
        0.07980868220329285,
        -0.05717938765883446,
        0.050853192806243896,
        0.0193319134414196,
        0.36650073528289795,
        0.10387978702783585,
        0.1290460228919983,
        0.1724097579717636,
        -0.024909554049372673,
        0.1348608434200287,
        0.04828380420804024,
        0.10737347602844238,
        0.15690308809280396,
        0.1108427569270134,
        -0.27929002046585083,
        0.022361190989613533,
        -0.03391405940055847,
        0.14684246480464935,
        -0.03416766971349716,
        0.03456737846136093,
        -0.01559922844171524,
        0.3367951512336731,
        0.15078338980674744,
        -0.5248942375183105,
        -0.10201343148946762,
        -0.13953547179698944,
        -0.023880617693066597,
        -0.0222129188477993,
        0.34775489568710327,
        -0.21220842003822327,
        -0.2484051138162613,
        0.21602794528007507,
        0.1425115317106247,
        0.15889166295528412,
        -0.18608501553535461,
        0.1300569325685501,
        -0.025875071063637733,
        0.0006761710392311215,
        -0.1440269947052002,
        -0.033286407589912415,
        -0.22937095165252686,
        -0.12638670206069946,
        0.09573592245578766,
        -0.10864774137735367,
        0.2087346464395523,
        0.20545844733715057,
        -0.25058475136756897,
        -0.18712908029556274,
        0.014421983622014523,
        0.09608599543571472,
        0.3118032217025757,
        -0.26745420694351196,
        -0.13635993003845215,
        -0.20000863075256348,
        0.10807890444993973,
        -0.3075476288795471,
        0.2244604527950287,
        -0.4044143557548523,
        0.0403900220990181,
        0.040902409702539444,
        0.388386070728302,
        0.0028746474999934435,
        -0.07554981112480164,
        0.007427661679685116,
        0.20894691348075867,
        0.0896432101726532,
        0.22978533804416656,
        -0.13851086795330048,
        -0.33423927426338196,
        -0.12743641436100006,
        0.0224816482514143,
        0.15327207744121552,
        -0.22818763554096222,
        -0.05266367271542549,
        0.07360400259494781,
        0.045650552958250046,
        0.25401854515075684,
        0.21337291598320007,
        0.2774968445301056,
        0.48045819997787476,
        0.14683091640472412,
        0.23392300307750702,
        0.053452037274837494,
        -0.12329233437776566,
        0.16435304284095764,
        0.11540187150239944,
        -0.19839173555374146,
        0.25183066725730896,
        -0.05941963195800781,
        0.0030442920979112387,
        -0.2684144079685211,
        -0.283448725938797,
        -0.10798183083534241,
        -0.04939255118370056,
        -0.01890692673623562,
        -0.12026631087064743,
        0.2820742726325989,
        0.006171173881739378,
        -0.09844282269477844,
        0.09430092573165894,
        0.2830987870693207,
        0.15170368552207947,
        0.03942278400063515,
        -0.24471712112426758,
        0.06288085877895355,
        -0.1826743483543396,
        0.18994545936584473,
        0.39435479044914246,
        0.06679673492908478,
        0.25013411045074463,
        0.03758184239268303,
        0.011406459845602512,
        -0.09138896316289902,
        0.15601788461208344,
        -0.08879499137401581,
        0.1306714415550232,
        -0.07710570096969604,
        0.38997238874435425,
        -0.28140559792518616,
        0.05437151715159416,
        -0.4358271062374115,
        0.24730190634727478,
        0.13675622642040253,
        -0.28903234004974365,
        -0.02649218775331974,
        -0.27881675958633423,
        -0.3199118673801422,
        0.007145612966269255,
        0.06186976283788681,
        -0.4233863353729248,
        -0.05622207373380661,
        -0.07139188796281815,
        0.06961089372634888,
        -0.17827992141246796,
        0.010692747309803963,
        0.08644220978021622,
        -0.12833014130592346,
        0.16695187985897064,
        -0.27358874678611755,
        -0.3862053155899048,
        0.07056540250778198,
        -0.22561679780483246,
        -0.05233406275510788,
        -0.15762850642204285,
        0.1438145637512207,
        0.019909502938389778,
        -0.21273596584796906,
        -0.5521121025085449,
        -0.09375597536563873,
        -0.14050187170505524,
        0.14488254487514496,
        0.019811680540442467,
        0.004672817885875702,
        -0.2324208766222,
        -0.14430232346057892,
        0.11228355020284653,
        0.1611642837524414,
        -0.0347219854593277,
        0.07912223041057587,
        0.05070344731211662,
        -0.30185654759407043,
        -0.06134811416268349,
        -0.0933578610420227,
        -0.158298522233963,
        0.2864890694618225,
        -0.12634587287902832,
        0.144590824842453,
        -0.1875682920217514,
        -0.14365045726299286,
        -0.024771803990006447,
        0.05148492380976677,
        0.1115780770778656,
        0.12230033427476883,
        -0.022227512672543526,
        -0.18262538313865662,
        -0.3420405387878418,
        -0.1781209260225296,
        -0.13821084797382355,
        -0.09462770074605942,
        -0.20122459530830383,
        -0.04597803205251694,
        0.13180936872959137,
        -0.17829182744026184,
        0.05335426703095436,
        0.03640396520495415,
        0.03667246550321579,
        0.2663927674293518,
        0.10975326597690582,
        0.13989250361919403,
        -0.12577611207962036,
        -0.12506188452243805,
        0.18508510291576385,
        0.1643834412097931,
        -0.11625318229198456,
        -0.03588540107011795,
        0.17883940041065216,
        0.0021298639476299286,
        0.0993834137916565,
        -0.02301710471510887,
        0.010359580628573895,
        -0.4480936527252197,
        -0.026768574491143227,
        0.09393106400966644,
        0.19129477441310883,
        -0.09008584171533585,
        0.09894542396068573,
        0.19023187458515167,
        -0.17023922502994537,
        0.04943045228719711,
        -0.05919038504362106,
        -0.1291664093732834,
        -0.3811418414115906,
        0.057406991720199585,
        -0.2911375164985657,
        0.10950107872486115,
        -0.11046246439218521,
        0.2834237813949585,
        -0.36096373200416565,
        0.2089604139328003,
        -0.32423996925354004,
        0.3859134316444397,
        -0.060485854744911194,
        -0.14247722923755646,
        0.06297988444566727,
        0.042498327791690826,
        0.3461414575576782,
        -0.07161689549684525,
        -0.22792819142341614,
        -0.18334543704986572,
        -0.01413036324083805,
        0.008948639035224915,
        -0.3215843439102173,
        -0.19525888562202454,
        -0.14979039132595062,
        0.009399250149726868,
        -0.20815302431583405,
        0.07834982126951218,
        0.04173516109585762,
        0.06780964136123657,
        0.28046050667762756,
        0.11875469982624054,
        0.05177600681781769,
        -0.23503988981246948,
        0.01632991060614586,
        -0.10205699503421783,
        -0.11455119401216507,
        0.27725890278816223,
        0.3061096966266632,
        -0.02306520752608776,
        -0.05844194069504738,
        -0.18874864280223846,
        0.28716981410980225,
        -0.1536446362733841,
        -0.001397878979332745,
        0.03843369334936142,
        0.18288786709308624,
        -0.10696917772293091,
        -0.22048038244247437,
        -0.20803913474082947,
        0.17699117958545685,
        0.33497297763824463,
        -0.03338286653161049,
        0.09125637263059616,
        -0.4219799041748047,
        0.2601965665817261,
        0.04193209484219551,
        0.3691144287586212,
        0.00998753122985363,
        0.10608658194541931,
        0.2281666100025177,
        0.12521995604038239,
        -0.13755175471305847,
        0.3004704415798187,
        0.12070847302675247,
        0.10702929645776749,
        0.0895170047879219,
        -0.05951880291104317,
        0.15096326172351837,
        -0.0862971693277359,
        -0.32721781730651855,
        0.20226387679576874,
        0.1316690444946289,
        -0.2155209630727768,
        -0.17152857780456543,
        -0.1857743114233017,
        0.2828412652015686,
        -0.00645237322896719,
        0.1422385424375534,
        0.178233802318573,
        0.12430348992347717,
        0.24676364660263062,
        0.1336076557636261,
        0.10680306702852249,
        -0.0037681630346924067,
        -0.2340487688779831,
        0.17425116896629333,
        0.36263370513916016,
        -0.2105819433927536,
        0.36160820722579956,
        0.16976119577884674,
        -0.3456541895866394,
        0.00822838768362999,
        0.25290021300315857,
        0.15426866710186005,
        -0.34416142106056213,
        0.1639796942472458,
        0.12016134709119797,
        -0.2538595199584961,
        0.30725711584091187,
        0.023924145847558975,
        0.052775900810956955,
        -0.15753182768821716,
        -0.027804186567664146,
        0.06569074094295502,
        -0.02661343477666378,
        0.05078207701444626,
        -0.03805748000741005,
        0.073836550116539,
        0.03721030801534653,
        -0.12993168830871582,
        0.0889136791229248,
        0.0598067045211792,
        0.22824804484844208,
        -0.024060657247900963,
        0.34694966673851013,
        -0.08814657479524612,
        0.2517736256122589,
        0.0763804018497467,
        0.4123607873916626,
        0.10451951622962952,
        0.07925890386104584,
        0.13708966970443726,
        0.12175308912992477,
        -0.2672962248325348,
        -0.2839614450931549,
        0.040509965270757675,
        0.13103783130645752,
        -0.16011080145835876,
        -0.22678549587726593,
        0.08846341073513031,
        -0.0197697002440691,
        -0.14737612009048462,
        0.19198083877563477,
        -0.09454458951950073,
        -0.0038361737970262766,
        -0.022041907534003258,
        0.08839070051908493,
        -0.10379350930452347,
        0.18339797854423523,
        -0.1441703885793686,
        0.18822787702083588,
        0.017071297392249107,
        -0.03534042090177536,
        0.10172060132026672,
        0.10058247298002243,
        0.045945290476083755,
        0.12146057188510895,
        -0.3374200761318207,
        0.13080552220344543,
        0.09160589426755905,
        0.05174313113093376,
        -0.0021087161730974913,
        0.14675326645374298,
        -0.2041795253753662,
        -0.006211565807461739,
        0.21888259053230286,
        0.2181270718574524,
        -0.3531641662120819,
        0.10270702838897705,
        -0.20302847027778625,
        -0.13112258911132812,
        -0.052884090691804886,
        -0.26437586545944214,
        0.03164352849125862,
        0.24685566127300262,
        0.2851889133453369,
        0.01764310523867607,
        0.3794514834880829,
        0.20998474955558777,
        0.3936707675457001,
        0.12332944571971893,
        0.004311081487685442,
        0.3180260956287384,
        -0.1629021018743515,
        0.03402784466743469,
        -0.01065005548298359,
        0.07379917055368423,
        -0.03788796439766884,
        -0.052462682127952576,
        0.08091873675584793,
        0.22588589787483215,
        -0.2306547313928604,
        -0.059605855494737625,
        -0.0043445187620818615,
        0.06798825412988663,
        -0.31116318702697754,
        0.24421584606170654,
        0.2152334451675415,
        0.03241006284952164,
        -0.08668345212936401,
        0.2375606894493103,
        -0.13802418112754822,
        0.01686001941561699,
        -0.0701489970088005,
        0.14546194672584534,
        -0.16601108014583588,
        -0.01291565876454115,
        0.5261171460151672,
        -0.05539017170667648,
        0.2305244505405426,
        0.213734969496727,
        0.007278526667505503,
        -0.21845613420009613,
        -0.0487966425716877,
        -0.07443954050540924,
        0.03065916895866394,
        -0.2541444003582001,
        0.39053407311439514,
        -0.15282230079174042,
        0.07620798796415329,
        -0.19005903601646423,
        0.3453974425792694,
        0.028973478823900223,
        -0.20509451627731323,
        0.20840805768966675,
        0.018815360963344574,
        0.04362453147768974,
        -0.1534172147512436,
        0.1372501254081726,
        -0.3575066030025482,
        0.16237686574459076,
        0.17566488683223724,
        0.3083139657974243,
        -0.02498549036681652,
        -0.14810706675052643,
        -0.10132461786270142,
        0.055093418806791306,
        0.2245613932609558,
        -0.09352175891399384,
        -0.05000932887196541,
        -0.3224564790725708,
        0.043782223016023636,
        0.004461527336388826,
        -0.1769680380821228,
        -0.04585067555308342,
        0.06663790345191956,
        0.11815545707941055,
        -0.38065391778945923,
        -0.07537440210580826,
        0.10829611867666245,
        0.10566619038581848,
        0.12448681890964508,
        0.08230020850896835,
        -0.3071584403514862,
        0.2197154015302658,
        -0.09759383648633957,
        -0.09544768184423447,
        -0.08883070945739746,
        -0.6240414381027222,
        -0.371949702501297,
        0.048281583935022354,
        -0.12291108816862106,
        -0.22526872158050537,
        -0.32338428497314453,
        0.1883760690689087,
        -0.3497449457645416,
        0.00587950786575675,
        0.1087539941072464,
        0.01696120575070381,
        0.2000562846660614,
        0.13755181431770325,
        -0.17820726335048676,
        0.20316791534423828,
        0.03192302584648132,
        -0.0380883514881134,
        0.11193951964378357,
        -0.30654042959213257,
        -0.047337621450424194,
        -0.5348718762397766,
        -0.6865026950836182,
        -0.27982398867607117,
        -0.2820810079574585,
        -0.5733417272567749,
        -0.08802573382854462,
        -0.5507251024246216,
        0.025732608512043953,
        0.2526133060455322,
        0.26278868317604065,
        -0.5033073425292969,
        -0.4347859025001526,
        0.006696451921015978,
        0.24426209926605225,
        0.02346501499414444,
        -0.3899923264980316,
        -0.14943253993988037,
        -0.06696268916130066,
        0.23524411022663116,
        -0.2431006282567978,
        -0.026004480198025703,
        -0.11727648228406906,
        -0.46871209144592285,
        -0.5353328585624695,
        0.27922651171684265,
        0.19295243918895721,
        -0.7712336778640747,
        0.22540897130966187,
        0.28741660714149475,
        -0.1845489740371704,
        -0.07469724863767624,
        -0.40314966440200806,
        -0.030020181089639664,
        0.06668327748775482,
        -0.07699534296989441,
        -0.41660577058792114,
        -0.30092260241508484,
        -0.09297110140323639,
        0.1245238408446312,
        -0.05288948118686676,
        0.04246507212519646,
        -0.23291698098182678,
        -0.14173227548599243,
        -0.24767234921455383,
        0.06274039298295975,
        -0.04842367023229599,
        0.05510266125202179,
        0.05206453800201416,
        0.17258018255233765,
        -0.35341769456863403,
        0.13821765780448914,
        -0.03989751636981964,
        -0.06001531705260277,
        -0.4043482542037964,
        -0.0467078872025013,
        -0.35007768869400024,
        -0.22824729979038239,
        -0.1297762244939804,
        0.04719693213701248,
        -0.6978585720062256,
        -0.1501273214817047,
        0.03174556791782379,
        0.05529544875025749,
        -0.1899423450231552,
        -0.2565903961658478,
        0.19666330516338348,
        -0.26594075560569763,
        -0.21524226665496826,
        0.18275867402553558,
        0.42880740761756897,
        0.14176900684833527,
        -0.09381897747516632,
        -0.33656075596809387,
        -0.008195063099265099,
        -0.22370055317878723,
        0.2637077569961548,
        -0.21143287420272827,
        0.173813134431839,
        0.010958468541502953,
        -0.1125795766711235,
        -0.19060634076595306,
        -0.20837342739105225,
        -0.03748638555407524,
        0.18261079490184784,
        -0.25785723328590393,
        0.0007452744175679982,
        -0.03684380650520325,
        0.004853274207562208,
        0.1375158429145813,
        -0.1465020328760147,
        0.14319466054439545,
        -0.33474501967430115,
        0.05449575558304787,
        0.042773403227329254,
        0.18240289390087128,
        0.11801532655954361,
        -0.2349262684583664,
        0.2148095816373825,
        0.046311307698488235,
        -0.06313497573137283,
        0.09995851665735245,
        0.25925952196121216,
        0.23847070336341858,
        -0.23308080434799194,
        -0.11948562413454056,
        -0.011896579526364803,
        -0.05126454681158066,
        -0.10070892423391342,
        0.24162694811820984,
        -0.12963396310806274,
        -0.18644753098487854,
        0.05650511384010315,
        0.09624336659908295,
        0.04943491518497467,
        -0.11290977150201797,
        0.12929342687129974,
        -0.008034075610339642,
        0.16515275835990906,
        -0.16552120447158813,
        -0.1617198884487152,
        0.058715298771858215,
        -0.26133108139038086,
        0.1520729809999466,
        -0.2492993026971817,
        -0.1597982496023178,
        -0.17387543618679047,
        0.2887192964553833,
        -0.06746508181095123,
        -0.2736453115940094,
        -0.03863164782524109,
        -0.14586780965328217,
        0.10325286537408829,
        0.04301777109503746,
        0.14285597205162048,
        0.16842280328273773,
        -0.11096518486738205,
        -0.2995615005493164,
        0.09887324273586273,
        -0.25349172949790955,
        0.021705105900764465,
        -0.10279802978038788,
        0.1173589900135994,
        -0.22237062454223633,
        -0.18138927221298218,
        0.05780170112848282,
        -0.10641808062791824,
        -0.06108126416802406,
        -0.10238871723413467,
        -0.13697567582130432,
        -0.14307750761508942,
        0.11905001103878021,
        -0.2389383465051651,
        0.08340425789356232,
        0.1837247759103775,
        -0.19332829117774963,
        -0.22744081914424896,
        0.13967961072921753,
        -0.149387389421463,
        0.09941735863685608,
        -0.33590996265411377,
        -0.2972972095012665,
        -0.21713203191757202,
        -0.20055291056632996,
        -0.19261105358600616,
        0.08187596499919891,
        0.07184424996376038,
        -0.15164820849895477,
        0.22629256546497345,
        0.17421557009220123,
        -0.06361250579357147,
        -0.010081782005727291,
        -0.13041909039020538,
        -0.12414760887622833,
        0.023009734228253365,
        0.2074245661497116,
        -0.04281705990433693,
        -0.12282750010490417,
        -0.19936320185661316,
        -0.1848280429840088,
        -0.1979222148656845,
        0.005355545785278082,
        0.006652537267655134,
        0.5369717478752136,
        0.03806579113006592,
        -0.11279231309890747,
        -0.07662241905927658,
        -0.2180178016424179,
        0.12011667340993881,
        0.2472294121980667,
        -0.39584407210350037,
        -0.09169667959213257,
        -0.3516242504119873,
        0.11992813646793365,
        0.06937538087368011,
        0.022081894800066948,
        0.01499949861317873,
        0.20472420752048492,
        -0.08282624185085297,
        -0.19842395186424255,
