{
  "defaults": {},
  "inputs": [
    {
      "name": "1LeadingBTag",
      "offset": 0,
      "scale": 1
    },
    {
      "name": "2LeadingBTag",
      "offset": 0,
      "scale": 1
    },
    {
      "name": "3LeadingBTag",
      "offset": 0,
      "scale": 1
    },
    {
      "name": "4LeadingBTag",
      "offset": 0,
      "scale": 1
    },
    {
      "name": "1BTag",
      "offset": 0,
      "scale": 1
    },
    {
      "name": "2BTag",
      "offset": 0,
      "scale": 1
    },
    {
      "name": "3BTag",
      "offset": 0,
      "scale": 1
    },
    {
      "name": "4BTag",
      "offset": 0,
      "scale": 1
    }
  ],
  "layers": [
    {
      "activation": "rectified",
      "architecture": "dense",
      "bias": [
        -0.05722217634320259,
        0.08011585474014282,
        -0.05236399173736572,
        0.06223796308040619,
        0.044213853776454926,
        -0.13863326609134674,
        -0.10676383972167969,
        0.08112559467554092,
        -0.088105209171772,
        -0.04275653883814812,
        0.1358407586812973,
        -0.11569736152887344,
        -0.10227768868207932,
        0.06257783621549606,
        -0.03782832622528076,
        0.03307173401117325,
        -0.09218303859233856,
        -0.0817943811416626,
        0.1674206405878067,
        -0.05007050186395645,
        0.07119357585906982,
        0.09356706589460373,
        -0.10046852380037308,
        -0.15543538331985474,
        -0.04641671106219292,
        0.06896704435348511,
        -0.020334267988801003,
        -0.05150206387042999,
        -0.09588105976581573,
        0.0024324068799614906,
        -0.031348370015621185,
        -0.02164696343243122,
        -0.027134843170642853,
        0.14246819913387299,
        -0.11011504381895065,
        0.06557785719633102,
        0.012960144318640232,
        0.14670416712760925,
        0.06543958187103271,
        -0.1246127337217331,
        0.08829580992460251,
        -0.11490489542484283,
        0.1048562079668045,
        0.16014957427978516,
        0.15349656343460083,
        -0.11667869240045547,
        -0.08059387654066086,
        -0.08735071867704391,
        -0.12045153975486755,
        -0.011971939355134964,
        0.09622573107481003,
        -0.05543266981840134,
        0.03593890741467476,
        -0.05658715218305588,
        0.16708938777446747,
        0.20429252088069916,
        0.07445915043354034,
        0.08677138388156891,
        0.15742681920528412,
        -0.10079216957092285,
        -0.08851006627082825,
        0.11761809140443802,
        -0.15406322479248047,
        0.12756778299808502,
        0.13070517778396606,
        0.15617434680461884,
        0.10472267121076584,
        -0.10427279770374298,
        0.16325783729553223,
        0.12337340414524078,
        -0.05244048684835434,
        -0.0024047307670116425,
        -0.055372465401887894,
        -0.14740553498268127,
        0.004708191845566034,
        -0.06380077451467514,
        0.12104231864213943,
        0.1469755470752716,
        -0.01894891820847988,
        -0.1700264811515808,
        -0.055413518100976944,
        0.1855020374059677,
        0.21873417496681213,
        0.010656002908945084,
        0.09788636118173599,
        -0.0807480737566948,
        0.15154129266738892,
        0.038732778280973434,
        0.03579803556203842,
        0.07370200008153915,
        0.13202878832817078,
        0.059295929968357086,
        0.14373822510242462,
        -0.07657863199710846,
        0.11988753080368042,
        0.0899834930896759,
        -0.06569327414035797,
        -0.11287026107311249,
        0.04348380118608475,
        0.048887889832258224
      ],
      "weights": [
        -0.1771397739648819,
        0.030012285336852074,
        0.016458913683891296,
        0.2484278678894043,
        -0.0077333636581897736,
        -0.12228087335824966,
        0.202382892370224,
        -0.10963262617588043,
        0.042286064475774765,
        -0.015116123482584953,
        0.05133330821990967,
        0.028566580265760422,
        -0.2393759787082672,
        0.03674587607383728,
        -0.16424515843391418,
        -0.06436716765165329,
        -0.3119041323661804,
        0.09869331121444702,
        -0.0014654435217380524,
        -0.06041485816240311,
        0.08056369423866272,
        0.07486770302057266,
        -0.4960683584213257,
        -0.21414484083652496,
        -0.007864484563469887,
        0.04163078963756561,
        -0.12220346182584763,
        0.03927334025502205,
        -0.15563012659549713,
        0.05683302506804466,
        0.403780996799469,
        0.43421629071235657,
        -0.13401801884174347,
        -0.15244920551776886,
        -0.21771948039531708,
        -0.16213279962539673,
        0.22240537405014038,
        -0.05528312921524048,
        -0.32497137784957886,
        -0.26043835282325745,
        0.037230491638183594,
        0.03219784423708916,
        0.1113031730055809,
        0.005073165521025658,
        -0.047911304980516434,
        0.014137828722596169,
        0.3934917747974396,
        0.2324216216802597,
        -0.11706572771072388,
        0.13597814738750458,
        0.06627388298511505,
        -0.019141677767038345,
        0.21197763085365295,
        -0.03700816258788109,
        0.07676935195922852,
        0.17163820564746857,
        -0.20787779986858368,
        -0.026036716997623444,
        -0.11271151900291443,
        -0.042296331375837326,
        -0.06224103271961212,
        0.0015862430445849895,
        0.3264073133468628,
        0.2427177131175995,
        0.10393312573432922,
        0.2751573920249939,
        -0.06262876093387604,
        0.1189696192741394,
        0.06725159287452698,
        -0.1381790041923523,
        0.23067905008792877,
        -0.0746278166770935,
        -0.3734162747859955,
        -0.0028457283042371273,
        -0.000189558370038867,
        -0.07096873223781586,
        -0.02800086885690689,
        0.011135494336485863,
        -0.07061942666769028,
        0.2324541211128235,
        -0.00781277660280466,
        0.04603103548288345,
        -0.06717327237129211,
        -0.18233022093772888,
        -0.3523016571998596,
        -0.18533731997013092,
        0.15207989513874054,
        0.20070236921310425,
        0.0491134375333786,
        0.0697423443198204,
        0.1834115833044052,
        -0.2868236303329468,
        0.05995091795921326,
        0.1940193623304367,
        0.13309338688850403,
        0.20632189512252808,
        0.22099420428276062,
        -0.03512949496507645,
        0.1161024421453476,
        0.15030555427074432,
        0.11660490185022354,
        0.2820500135421753,
        -0.01622689701616764,
        -0.027405310422182083,
        0.11397001892328262,
        -0.13547343015670776,
        0.03378752991557121,
        -0.046899985522031784,
        -0.12827450037002563,
        0.03274804726243019,
        -0.11537038534879684,
        0.15393295884132385,
        -0.06421305239200592,
        0.17032179236412048,
        -0.04930343106389046,
        -0.048098694533109665,
        0.08859226852655411,
        0.021978668868541718,
        0.3412298262119293,
        0.2086547464132309,
        0.13512293994426727,
        0.1077299639582634,
        -0.0798303484916687,
        -0.03254000470042229,
        0.011953234672546387,
        -0.028796132653951645,
        -0.7271445989608765,
        -0.7970390319824219,
        0.17880019545555115,
        0.24508392810821533,
        0.07376709580421448,
        0.12441380321979523,
        0.171033576130867,
        0.14446118474006653,
        -0.01795632764697075,
        -0.1379619985818863,
        0.0407361276447773,
        0.05354786291718483,
        0.11567084491252899,
        0.14914852380752563,
        -0.07527421414852142,
        0.24809381365776062,
        0.20439139008522034,
        0.08014979958534241,
        0.031137516722083092,
        0.03957239165902138,
        0.06250740587711334,
        0.22266027331352234,
        -0.2069593220949173,
        -0.08163241297006607,
        -0.11938796192407608,
        0.2349436730146408,
        0.0015492331003770232,
        0.09164254367351532,
        -0.14426204562187195,
        -0.008918514475226402,
        0.19429327547550201,
        0.0373801551759243,
        0.0418296679854393,
        0.2387697696685791,
        -0.12323709577322006,
        -0.09490714967250824,
        -0.18261860311031342,
        0.10028667002916336,
        -0.003791972529143095,
        -0.06339459121227264,
        0.08962197601795197,
        0.03570384159684181,
        0.0560496561229229,
        -0.03253412991762161,
        0.11228210479021072,
        -0.2398286610841751,
        0.001527067506685853,
        -0.3054029941558838,
        0.039194848388433456,
        0.2871277332305908,
        0.0005022614495828748,
        -0.00047379054012708366,
        0.06084410846233368,
        -0.003866215469315648,
        0.017379263415932655,
        0.24678342044353485,
        0.27862754464149475,
        0.15080533921718597,
        0.005889351945370436,
        0.06841296702623367,
        0.06200161203742027,
        -0.09463740140199661,
        0.19217908382415771,
        0.09650582820177078,
        0.3234824538230896,
        -0.2380116581916809,
        0.16442547738552094,
        -0.0967230424284935,
        0.10818128287792206,
        0.05252375453710556,
        0.22033458948135376,
        0.19070671498775482,
        0.035586435347795486,
        -0.19747449457645416,
        -0.018189847469329834,
        0.08878333121538162,
        -0.15725992619991302,
        -0.12582014501094818,
        -0.07924380153417587,
        -0.18749472498893738,
        -0.0366477407515049,
        0.33794066309928894,
        -0.01789987087249756,
        -0.29005271196365356,
        -0.2612449824810028,
        0.13582438230514526,
        -0.17526453733444214,
        0.15854835510253906,
        0.07775446027517319,
        0.16572260856628418,
        -0.013053452596068382,
        -0.0033413968048989773,
        0.03810448944568634,
        -0.07823600620031357,
        0.1986701339483261,
        0.2127155363559723,
        -0.023371277377009392,
        -0.0488823726773262,
        -0.06341348588466644,
        0.10869399458169937,
        0.13979201018810272,
        0.23926956951618195,
        -0.18782460689544678,
        -0.13969123363494873,
        0.33665746450424194,
        0.16161224246025085,
        -0.01625627651810646,
        -0.09430066496133804,
        0.13771282136440277,
        -0.04813385009765625,
        0.07841483503580093,
        0.16086828708648682,
        0.04775380343198776,
        0.2544260323047638,
        0.10558654367923737,
        -0.004157913848757744,
        0.039671823382377625,
        -0.22383806109428406,
        -0.05579615384340286,
        0.16724462807178497,
        0.1031956672668457,
        0.2653067708015442,
        -0.16677552461624146,
        0.06606815755367279,
        0.0782446414232254,
        0.1694367378950119,
        -0.24444706737995148,
        -0.15417245030403137,
        0.10490979999303818,
        0.04233609512448311,
        0.2380012720823288,
        -0.0023730224929749966,
        -0.1597476452589035,
        0.011006602086126804,
        -0.027257196605205536,
        0.19182825088500977,
        0.3304203450679779,
        -0.13106414675712585,
        0.035163022577762604,
        -0.00030918591073714197,
        0.02412988431751728,
        0.16756057739257812,
        -0.10888469964265823,
        -0.07104071974754333,
        -0.20736239850521088,
        0.23420922458171844,
        -0.11281096935272217,
        0.14613720774650574,
        0.23058776557445526,
        0.12714524567127228,
        -0.06808584183454514,
        0.13921551406383514,
        0.18251283466815948,
        0.17090167105197906,
        0.03816952556371689,
        -0.1251431703567505,
        0.025597942993044853,
        -0.25137293338775635,
        0.1913914531469345,
        -0.038468699902296066,
        -0.27888381481170654,
        -0.31495004892349243,
        0.046604007482528687,
        0.10836327821016312,
        -0.11374428868293762,
        -0.3705230951309204,
        -0.1415407508611679,
        -0.1971520036458969,
        0.1506844311952591,
        -0.21608729660511017,
        0.07183221727609634,
        0.0009773134952411056,
        0.08041960746049881,
        0.18779094517230988,
        -0.0708397701382637,
        -0.22596785426139832,
        -0.15619057416915894,
        0.08999539911746979,
        -0.16354423761367798,
        -0.04322395101189613,
        -0.23501887917518616,
        0.09148947149515152,
        0.09234370291233063,
        0.04190549999475479,
        -0.0851796492934227,
        -0.03185198828577995,
        0.207596555352211,
        -0.007055981084704399,
        -0.07032957673072815,
        -0.19383209943771362,
        0.06529469043016434,
        0.264540433883667,
        0.12034638226032257,
        -0.1885930746793747,
        0.04518304765224457,
        0.08830807358026505,
        -0.09327629208564758,
        -0.0441545806825161,
        -0.007821343839168549,
        -0.306745707988739,
        0.0656404048204422,
        0.2850167751312256,
        0.22994937002658844,
        -0.14788918197155,
        0.012914597056806087,
        0.10356497764587402,
        0.03236857429146767,
        0.1889198124408722,
        0.3533349633216858,
        0.18555901944637299,
        0.0087142838165164,
        0.042445503175258636,
        -0.05520867928862572,
        -0.01937667839229107,
        0.0037394107785075903,
        -0.323373943567276,
        -0.014761748723685741,
        0.1564347892999649,
        0.011506298556923866,
        -0.04433146119117737,
        0.13247229158878326,
        0.16981443762779236,
        -0.1259632259607315,
        -0.028700483962893486,
        -0.23807059228420258,
        0.050129760056734085,
        0.037567783147096634,
        -0.048933859914541245,
        -0.17714935541152954,
        -0.027988383546471596,
        -0.12970468401908875,
        -0.06283625215291977,
        -0.039207056164741516,
        0.167995423078537,
        0.1619977056980133,
        -0.03241696581244469,
        0.036794114857912064,
        0.0642029419541359,
        0.1850709617137909,
        0.1878398358821869,
        -0.09296246618032455,
        0.11872802674770355,
        -0.16475191712379456,
        0.18781901895999908,
        0.11825533211231232,
        -0.03265053778886795,
        -0.23542632162570953,
        0.17455637454986572,
        0.38397857546806335,
        0.17803826928138733,
        0.21306850016117096,
        0.21470916271209717,
        0.22741954028606415,
        -0.021120179444551468,
        -0.20439672470092773,
        0.005984160583466291,
        0.010367294773459435,
        0.19750972092151642,
        -0.028958341106772423,
        0.27334240078926086,
        0.18854573369026184,
        0.12227396667003632,
        0.06912636011838913,
        0.32994282245635986,
        -0.024913359433412552,
        0.11143044382333755,
        0.07723000645637512,
        -0.0074144210666418076,
        0.14664770662784576,
        0.033349063247442245,
        -0.18106910586357117,
        -0.06706243008375168,
        -0.19885042309761047,
        -0.075165756046772,
        -0.005795602221041918,
        -0.08815924823284149,
        0.13529714941978455,
        0.1846769154071808,
        0.01267998293042183,
        -0.04211598262190819,
        -0.19316405057907104,
        -0.13417232036590576,
        -0.014685528352856636,
        0.12687265872955322,
        -0.021298950538039207,
        -0.07602944225072861,
        0.14294661581516266,
        0.00537561159580946,
        0.14994259178638458,
        0.1337032914161682,
        -0.057461172342300415,
        0.058827538043260574,
        0.0891067385673523,
        0.012450464069843292,
        -0.16584612429141998,
        -0.010455247946083546,
        0.014237391762435436,
        -0.20932038128376007,
        -0.03374170884490013,
        -0.4473012387752533,
        0.020303979516029358,
        -0.029050756245851517,
        0.028279023244976997,
        -0.23462140560150146,
        0.12159354984760284,
        -0.3308054506778717,
        0.018689678981900215,
        0.02129898965358734,
        0.08829081058502197,
        -0.007509595714509487,
        -0.18769699335098267,
        -0.23214863240718842,
        0.04201864078640938,
        0.30054447054862976,
        0.027539273723959923,
        -0.02565605565905571,
        0.0810813158750534,
        0.10629525780677795,
        -0.20254099369049072,
        -0.030737515538930893,
        -0.08070605993270874,
        0.18388326466083527,
        -0.11054093390703201,
        0.009285821579396725,
        0.19938690960407257,
        -0.051872171461582184,
        -0.2705886662006378,
        0.09518952667713165,
        -0.09026461094617844,
        0.26626041531562805,
        -0.10606976598501205,
        0.014546790160238743,
        0.0870179608464241,
        0.24665918946266174,
        0.022415509447455406,
        -0.23868747055530548,
        -0.18197515606880188,
        -0.010008999146521091,
        -0.023881586268544197,
        -0.06585048884153366,
        -0.027259061112999916,
        -0.040637172758579254,
        -0.080295629799366,
        -0.2980356812477112,
        0.2319115251302719,
        0.11856725066900253,
        0.04933471232652664,
        0.17354600131511688,
        0.1894981414079666,
        0.016785046085715294,
        0.059022944420576096,
        0.28539445996284485,
        0.07923220098018646,
        -0.2697458863258362,
        0.015772588551044464,
        0.30093684792518616,
        -0.024570517241954803,
        0.02019979991018772,
        0.07246226072311401,
        0.24057888984680176,
        0.05184653028845787,
        -0.1407996118068695,
        -0.0007946410332806408,
        -0.0014363785739988089,
        0.06714744120836258,
        0.19464144110679626,
        0.033673182129859924,
        -0.20820383727550507,
        -0.20557820796966553,
        0.2584182620048523,
        0.09234286844730377,
        -0.10932442545890808,
        0.22775162756443024,
        0.18387798964977264,
        -0.13779109716415405,
        0.22203952074050903,
        0.4280119240283966,
        -0.034558091312646866,
        0.09540221840143204,
        -0.06387046724557877,
        -0.0805024802684784,
        0.028761472553014755,
        -0.12492742389440536,
        -0.1986316442489624,
        0.13509613275527954,
        0.21302899718284607,
        0.04639071226119995,
        -0.15554024279117584,
        0.12945730984210968,
        0.1588147133588791,
        -0.08528853952884674,
        -0.11341296881437302,
        0.0292776208370924,
        -0.014967881143093109,
        0.0213621873408556,
        -0.15942606329917908,
        -0.012951009906828403,
        0.03351333737373352,
        -0.19794994592666626,
        0.09457678347826004,
        -0.03549659252166748,
        0.09539303183555603,
        -0.0829840749502182,
        -0.06138051673769951,
        0.047511644661426544,
        0.2898257374763489,
        -0.039644304662942886,
        -0.07972029596567154,
        -0.0977405458688736,
        -0.13682828843593597,
        -0.08521910011768341,
        0.07513356953859329,
        0.034613583236932755,
        0.18467892706394196,
        -0.04301077127456665,
        0.2700078785419464,
        0.43562373518943787,
        -0.004891415126621723,
        -0.07662699371576309,
        0.04563422128558159,
        0.03034072369337082,
        0.06112006679177284,
        -0.04499621316790581,
        -0.18235114216804504,
        -0.0467345267534256,
        0.2012135237455368,
        -0.0644550621509552,
        -0.16493605077266693,
        -0.09147023409605026,
        0.14373429119586945,
        -0.18463429808616638,
        0.04280157387256622,
        0.1067800223827362,
        0.09643956273794174,
        -0.21318630874156952,
        -0.19762052595615387,
        -0.06548711657524109,
        0.2628139555454254,
        0.041989732533693314,
        0.0033438242971897125,
        -0.0477021299302578,
        0.26798731088638306,
        -0.25098341703414917,
        0.28592994809150696,
        0.13011622428894043,
        0.1625295877456665,
        0.08047094941139221,
        -0.1436404138803482,
        -0.23435552418231964,
        -0.26410961151123047,
        -0.24028149247169495,
        0.12740549445152283,
        -0.02496277168393135,
        -0.017511311918497086,
        -0.1846039891242981,
        0.2131689339876175,
        0.19537627696990967,
        0.6743453741073608,
        0.2743854522705078,
        -0.06843359023332596,
        0.05972572788596153,
        -0.03285268694162369,
        0.18952687084674835,
        0.28765034675598145,
        0.19296027719974518,
        -0.245310440659523,
        0.09790768474340439,
        0.08847066760063171,
        0.07090368121862411,
        -0.30220431089401245,
        -0.1437125951051712,
        -0.14790324866771698,
        -0.12609295547008514,
        0.21494770050048828,
        0.10113106667995453,
        -0.05853034555912018,
        0.010198130272328854,
        3.890597145073116e-05,
        0.2175597995519638,
        0.18233400583267212,
        -0.06941013783216476,
        -0.13951130211353302,
        -0.15275421738624573,
        0.18401075899600983,
        -0.1833425909280777,
        -0.010239727795124054,
        -0.11901266872882843,
        -0.35974887013435364,
        0.10516083985567093,
        0.24731449782848358,
        -0.033648114651441574,
        -0.024977954104542732,
        0.08233531564474106,
        0.08608515560626984,
        -0.13783398270606995,
        -0.03055126592516899,
        -0.27397772669792175,
        0.20745882391929626,
        0.21071109175682068,
        -0.070225790143013,
        -0.18509256839752197,
        0.06736383587121964,
        0.14589370787143707,
        -0.11693117767572403,
        -0.06366970390081406,
        -0.11804840713739395,
        0.11409828066825867,
        0.11231596767902374,
        -0.09442781656980515,
        0.0007474505691789091,
        0.19212327897548676,
        0.05970845744013786,
        0.29073366522789,
        0.11052191257476807,
        0.00378756457939744,
        0.16175435483455658,
        -0.030606230720877647,
        0.006164980120956898,
        0.030846405774354935,
        0.07764732837677002,
        0.44474905729293823,
        0.10651149600744247,
        0.0415092334151268,
        -0.040760528296232224,
        0.12155791372060776,
        0.06977058947086334,
        -0.2672285735607147,
        0.024141913279891014,
        -0.18009307980537415,
        0.3095029890537262,
        -0.002736175898462534,
        -0.027982553467154503,
        -0.0025024553760886192,
        -0.038480937480926514,
        -0.11094805598258972,
        -0.19373682141304016,
        0.11878740042448044,
        0.18841461837291718,
        -0.17351867258548737,
        0.16933031380176544,
        0.017621945589780807,
        0.1712828427553177,
        -0.06780923157930374,
        -0.22727258503437042,
        0.183309867978096,
        0.18735556304454803,
        -0.19683094322681427,
        0.043392084538936615,
        -0.06598268449306488,
        0.02000484988093376,
        -0.008231419138610363,
        -0.23794172704219818,
        0.05055251345038414,
        0.08801480382680893,
        0.18549105525016785,
        0.06163977459073067,
        0.06976373493671417,
        0.15727077424526215,
        0.08527082204818726,
        0.1016244888305664,
        -0.011659211479127407,
        0.06823157519102097,
        0.03133241459727287,
        0.03137106075882912,
        0.07304450869560242,
        0.08376268297433853,
        -0.1862170696258545,
        -0.11446868628263474,
        -0.04066583141684532,
        0.21727584302425385,
        -0.18869197368621826,
        0.06231648847460747,
        -0.16404742002487183,
        0.02858634851872921,
        0.08130291849374771,
        -0.17038750648498535,
        -0.14989003539085388,
        -0.20984157919883728,
        -0.10747911036014557,
        -0.2456638365983963,
        -0.09398307651281357,
        -0.029922550544142723,
        -0.02610761672258377,
        -0.1969347596168518,
        -0.09083778411149979,
        -0.2030903697013855,
        -0.1261107623577118,
        0.07845364511013031,
        -0.23252353072166443,
        0.006745150778442621,
        -0.13185322284698486,
        -0.2603764832019806,
        0.06453254818916321,
        0.19751684367656708,
        -0.031899817287921906,
        0.009572163224220276,
        0.029753204435110092,
        0.2425806224346161,
        -0.04442528262734413,
        -0.16512981057167053,
        -0.20776709914207458,
        0.34815824031829834,
        -0.12631374597549438,
        -0.00907842256128788,
        -0.04425171762704849,
        -0.09611169993877411,
        0.09777133166790009,
        -0.12503758072853088,
        -0.24412685632705688,
        0.07730155438184738,
        0.16057251393795013,
        -0.1282968521118164,
        -0.12091793864965439,
        -0.09720777720212936,
        -0.02660415880382061,
        -0.20420610904693604,
        -0.02861458994448185,
        0.2902393639087677,
        0.10263928771018982,
        0.0942470133304596,
        0.03972277790307999,
        0.029574180021882057,
        0.14252601563930511,
        0.17365762591362,
        -0.032996099442243576,
        -0.24366070330142975,
        -0.08766712993383408,
        -0.07447274029254913,
        0.007176719605922699,
        -0.24656473100185394,
        -0.1397351175546646,
        0.04860371723771095,
        -0.06039370223879814,
        0.1281563937664032,
        -0.027815494686365128,
        -0.07174462825059891,
        0.07781894505023956,
        0.11700908094644547,
        0.05085623636841774,
        -0.09970379620790482,
        -0.27023887634277344,
        -0.10326334089040756,
        0.07273159176111221,
        0.030461309477686882,
        -0.10019141435623169,
        -0.2785314619541168,
        -0.1544700413942337,
        -0.03154781088232994,
        -0.17963112890720367,
        -0.34048721194267273,
        -0.09334489703178406,
        -0.272449254989624,
        0.05517122894525528,
        0.19133229553699493,
        0.09512856602668762,
        0.05808761343359947,
        0.3249239921569824,
        0.27237647771835327,
        -0.16391704976558685,
        -0.01348930411040783,
        0.05199195072054863,
        0.17381992936134338,
        0.017030809074640274,
        -0.2672135531902313,
        0.04113411530852318,
        -0.052577633410692215,
        -0.16565169394016266,
        0.134599506855011,
        -0.04287555813789368,
        -0.04169544577598572,
        0.03786500543355942,
        -0.22217851877212524,
        -0.10910579562187195,
        -0.013931317254900932
      ]
    },
    {
      "activation": "rectified",
      "architecture": "dense",
      "bias": [
        0.0693214163184166,
        0.11890958249568939,
        0.11699558794498444,
        0.09845082461833954,
        -0.06301144510507584,
        0.06481418013572693,
        0.05671529471874237,
        0.08706129342317581,
        -0.06408756971359253,
        0.09411869198083878,
        -0.014590378850698471,
        -0.03181167319417,
        -0.07266121357679367,
        0.1515360325574875,
        0.08514886349439621,
        0.13941383361816406,
        0.13968923687934875,
        0.06107960641384125,
        0.06427401304244995,
        -0.050355542451143265,
        0.12118344753980637,
        -0.03681477531790733,
        -0.049659714102745056,
        0.047986745834350586,
        -0.012834728695452213,
        -0.06401864439249039,
        -0.058908041566610336,
        -0.07623791694641113,
        -0.06615301966667175,
        -0.06572460383176804,
        -0.09177545458078384,
        0.03269762173295021,
        0.08766556531190872,
        -0.00017086032312363386,
        -0.0989828109741211,
        0.100583516061306,
        -0.05769404396414757,
        0.10665583610534668,
        0.11969127506017685,
        -0.08176586776971817,
        0.06455850601196289,
        0.1367310732603073,
        0.038475148379802704,
        0.16645964980125427,
        0.12880097329616547,
        0.07017289102077484,
        0.10965856909751892,
        -0.06845638900995255,
        -0.07209868729114532,
        -0.05797829106450081
      ],
      "weights": [
        -0.09365755319595337,
        0.10547434538602829,
        -0.012678082101047039,
        0.33128905296325684,
        0.04743971303105354,
        -0.03714412450790405,
        0.058533813804388046,
        0.3276750445365906,
        -0.0925050750374794,
        0.0012585269287228584,
        0.18855364620685577,
        0.07127431780099869,
        0.1621779054403305,
        0.06155312806367874,
        0.1600034534931183,
        -0.13211551308631897,
        -0.1623966097831726,
        0.06024238467216492,
        0.08184590190649033,
        0.08404190093278885,
        0.12974393367767334,
        -0.010971850715577602,
        -0.16875459253787994,
        -0.0655980110168457,
        0.057474978268146515,
        -0.043666064739227295,
        -0.23966899514198303,
        -0.10441344231367111,
        -0.022595005109906197,
        -0.21871377527713776,
        0.028758957982063293,
        -0.10409628599882126,
        -0.0431554950773716,
        0.011834733188152313,
        0.17598038911819458,
        0.0872640386223793,
        0.14194214344024658,
        -0.03520071506500244,
        -0.11934790760278702,
        0.1705845296382904,
        0.11339496076107025,
        -0.1347905844449997,
        -0.05294853076338768,
        0.10786280035972595,
        0.12273263186216354,
        -0.27795353531837463,
        0.0204551313072443,
        -0.023429367691278458,
        -0.020247837528586388,
        -0.14130020141601562,
        -0.13107313215732574,
        0.0681968554854393,
        0.13609054684638977,
        -0.16175036132335663,
        0.04033820331096649,
        0.15095254778862,
        0.004824803676456213,
        0.08808620274066925,
        0.0024750912562012672,
        -0.21064245700836182,
        0.10693997889757156,
        0.024236708879470825,
        -0.19004082679748535,
        0.14892850816249847,
        0.1392076164484024,
        0.02973797731101513,
        0.018785366788506508,
        0.12967267632484436,
        0.11454526335000992,
        -0.08893603831529617,
        -0.17013362050056458,
        -0.008224249817430973,
        0.09788435697555542,
        0.00983454380184412,
        -0.0737057775259018,
        -0.2797386050224304,
        0.07501838356256485,
        0.04156619310379028,
        -0.19533205032348633,
        -0.08576438575983047,
        0.09473856538534164,
        0.276687890291214,
        0.1460421234369278,
        0.08699994534254074,
        0.18107448518276215,
        0.0654774084687233,
        0.18153910338878632,
        -0.17600803077220917,
        0.0044789486564695835,
        -0.24045708775520325,
        0.08894536644220352,
        -0.1995716243982315,
        -0.14860999584197998,
        0.011053287424147129,
        0.01813795417547226,
        0.11789413541555405,
        0.14345166087150574,
        -0.20413827896118164,
        0.1596149057149887,
        -0.06305944174528122,
        -0.2654675543308258,
        0.021725213155150414,
        -0.09907059371471405,
        0.11822256445884705,
        -0.10340335965156555,
        -0.2423655241727829,
        -0.04029921814799309,
        -0.03422684594988823,
        -0.02300329878926277,
        -0.2599239647388458,
        0.10256638377904892,
        -0.1267920732498169,
        -0.015284139662981033,
        -0.11537239700555801,
        0.07225184887647629,
        0.03476814553141594,
        -0.006259333807975054,
        -0.32098498940467834,
        0.3319950997829437,
        0.13063625991344452,
        -0.05061739310622215,
        0.025835072621703148,
        0.13184292614459991,
        0.03574157878756523,
        0.11974815279245377,
        -0.09634389728307724,
        -0.10004124045372009,
        -0.1183738112449646,
        -0.2927539348602295,
        0.08652153611183167,
        0.08984038978815079,
        0.09066873788833618,
        -0.1491861641407013,
        0.2221611887216568,
        -0.01932370476424694,
        -0.11092230677604675,
        0.10859967768192291,
        0.1406324803829193,
        -0.03806794062256813,
        0.17164286971092224,
        -0.08306277543306351,
        -0.0990525409579277,
        0.25292590260505676,
        0.15334850549697876,
        0.21234655380249023,
        0.00625991728156805,
        -0.17585542798042297,
        -0.14438535273075104,
        0.08701654523611069,
        -0.12407980114221573,
        -0.07538414746522903,
        -0.1130039244890213,
        0.08732152730226517,
        0.017018906772136688,
        0.2880880832672119,
        0.2703327238559723,
        0.2191707193851471,
        0.16169334948062897,
        0.3256530165672302,
        -0.23093336820602417,
        -0.1483667939901352,
        -0.01694055087864399,
        -0.12608636915683746,
        0.1439056098461151,
        -0.11250416189432144,
        -0.0009283200488425791,
        0.0639454647898674,
        -0.2634666860103607,
        0.1896049529314041,
        0.07454097270965576,
        0.018981244415044785,
        -0.20881199836730957,
        0.051121219992637634,
        -0.09666009247303009,
        0.01750846952199936,
        -0.23451828956604004,
        0.08644387871026993,
        -0.09439412504434586,
        -0.18565887212753296,
        -0.02173984982073307,
        0.09778817743062973,
        0.06005246564745903,
        0.15146875381469727,
        0.13460145890712738,
        0.07972428947687149,
        -0.2215069681406021,
        0.17828749120235443,
        -0.17693288624286652,
        -0.10190467536449432,
        -0.14128784835338593,
        0.2454994171857834,
        -0.017666207626461983,
        0.08937546610832214,
        -0.09024584293365479,
        0.08222808688879013,
        -0.12401877343654633,
        0.11987781524658203,
        -0.04876556992530823,
        -0.13552427291870117,
        -0.07775219529867172,
        -0.03328654542565346,
        0.18759991228580475,
        -0.2581036388874054,
        0.28404727578163147,
        -0.0945461317896843,
        -0.14507810771465302,
        0.06608881801366806,
        0.19893115758895874,
        -0.06151687726378441,
        -0.022359183058142662,
        0.30891796946525574,
        -0.0791168212890625,
        -0.17891141772270203,
        0.0913505107164383,
        0.12633836269378662,
        -0.3065849542617798,
        -0.03308502957224846,
        -0.2302127480506897,
        -0.012172974646091461,
        0.1341533213853836,
        0.06126948818564415,
        -0.09000971913337708,
        -0.2502827048301697,
        -0.021007772535085678,
        0.0709150955080986,
        -0.15567320585250854,
        -0.025973938405513763,
        -0.09953483194112778,
        0.1156880334019661,
        0.10953547060489655,
        -0.03827837482094765,
        -0.07086208462715149,
        0.02630697935819626,
        0.21767647564411163,
        -0.02162889391183853,
        -0.17738977074623108,
        -0.08815467357635498,
        0.14867551624774933,
        -0.13764746487140656,
        -0.12612390518188477,
        0.20517492294311523,
        -0.06823000311851501,
        0.10435756295919418,
        0.06940668076276779,
        -0.08985952287912369,
        0.0403846874833107,
        -0.26261064410209656,
        0.032685935497283936,
        -0.06351187080144882,
        -0.1824319213628769,
        -0.05194871500134468,
        -0.15989500284194946,
        0.06889259070158005,
        -0.01607777178287506,
        0.2600165903568268,
        0.1958109587430954,
        0.2217129021883011,
        -0.1655079573392868,
        0.16672730445861816,
        -0.11098139733076096,
        -0.13741864264011383,
        -0.025138704106211662,
        0.04315828159451485,
        0.2267492115497589,
        0.18730014562606812,
        0.21540674567222595,
        -0.18379026651382446,
        -0.003987773321568966,
        0.0357709601521492,
        0.07092984020709991,
        -0.18395525217056274,
        -0.20648257434368134,
        -0.17025849223136902,
        -0.10941506922245026,
        -0.057994335889816284,
        -0.08513416349887848,
        0.24331116676330566,
        0.23470444977283478,
        0.05186619609594345,
        -0.08440055698156357,
        -0.053600456565618515,
        0.05513978749513626,
        -0.03299170732498169,
        0.0147285470739007,
        0.11342572420835495,
        -0.009283537045121193,
        0.14012815058231354,
        0.06686493754386902,
        0.03035135194659233,
        0.035844217985868454,
        0.23279856145381927,
        0.0012300643138587475,
        0.05265876650810242,
        -0.008357889950275421,
        -0.041050348430871964,
        0.06553427875041962,
        -0.05234226956963539,
        -0.12094242870807648,
        0.055086709558963776,
        0.2021939605474472,
        -0.13214153051376343,
        -0.003221714636310935,
        -0.1373428851366043,
        0.006369393784552813,
        -0.14547531306743622,
        -0.07066325098276138,
        -0.09349222481250763,
        0.08444270491600037,
        0.16095231473445892,
        -0.17828159034252167,
        0.09384015947580338,
        0.07477040588855743,
        -0.2562490701675415,
        0.1532289832830429,
        -0.022251315414905548,
        -0.16127905249595642,
        -0.25787484645843506,
        -0.039774682372808456,
        0.11412163823843002,
        -0.02591932751238346,
        0.1986904740333557,
        -0.1230345070362091,
        -0.29510000348091125,
        -0.08502504974603653,
        -0.0019485271768644452,
        -0.005342924036085606,
        0.062365200370550156,
        -0.01710798405110836,
        -0.07478958368301392,
        0.11417710781097412,
        0.031141456216573715,
        0.08388374745845795,
        0.08997742086648941,
        0.24407708644866943,
        0.11016608774662018,
        0.13110505044460297,
        -0.0773603543639183,
        -0.07560563087463379,
        -0.061164338141679764,
        -0.00010845484939636663,
        0.18385767936706543,
        -0.13736477494239807,
        0.10387827455997467,
        0.23244939744472504,
        0.11100029945373535,
        -0.17593534290790558,
        0.03363717347383499,
        0.049508608877658844,
        -0.23566199839115143,
        0.18761883676052094,
        -0.09041377156972885,
        0.162568598985672,
        -0.07620628923177719,
        0.05134666711091995,
        0.22521555423736572,
        0.19346268475055695,
        0.06342826783657074,
        0.1948530375957489,
        0.11515391618013382,
        -0.04970194399356842,
        -0.14828576147556305,
        -0.12310200929641724,
        -0.24912284314632416,
        0.08133564889431,
        0.0926145389676094,
        -0.14670751988887787,
        0.14057902991771698,
        -0.1368645429611206,
        0.11044155806303024,
        0.08264916390180588,
        0.09058000892400742,
        0.09762915223836899,
        -0.16662462055683136,
        -0.18336331844329834,
        0.11402129381895065,
        -0.0013498652260750532,
        -0.061985258013010025,
        0.04205765202641487,
        -0.17979952692985535,
        0.130899578332901,
        -0.24171492457389832,
        0.09418319165706635,
        0.2160463035106659,
        -0.056128814816474915,
        0.19203267991542816,
        -0.21776504814624786,
        0.28608080744743347,
        -0.02559228613972664,
        -0.15944190323352814,
        -0.028430011123418808,
        0.06517546623945236,
        0.1424563229084015,
        -0.08252832293510437,
        -0.09419705718755722,
        0.07874050736427307,
        0.04385964944958687,
        0.21740372478961945,
        -0.26089680194854736,
        -0.07079607248306274,
        -0.08240615576505661,
        0.1549789160490036,
        -0.15220454335212708,
        -0.27914193272590637,
        -0.026966191828250885,
        -0.07110419124364853,
        0.23039928078651428,
        0.14681404829025269,
        -0.04017185792326927,
        0.2377406805753708,
        0.15532080829143524,
        0.04829976707696915,
        0.09763918071985245,
        -0.06445979326963425,
        0.18855099380016327,
        0.1965688169002533,
        0.2274087518453598,
        0.12385012209415436,
        0.14289255440235138,
        -0.02567148022353649,
        0.10811765491962433,
        -0.07298329472541809,
        -0.036387503147125244,
        0.1694958508014679,
        -0.15553872287273407,
        -0.08212852478027344,
        0.025197802111506462,
        0.25894635915756226,
        0.13852757215499878,
        0.2554624676704407,
        0.11157254129648209,
        0.022786641493439674,
        0.19330023229122162,
        0.07629856467247009,
        0.006153669208288193,
        0.07785255461931229,
        0.2266322672367096,
        -0.27540141344070435,
        -0.21442629396915436,
        0.16302549839019775,
        0.07836495339870453,
        -0.06068125739693642,
        0.019196590408682823,
        -0.23644199967384338,
        -0.31593844294548035,
        0.12636929750442505,
        -0.11252760887145996,
        0.13160768151283264,
        0.13893254101276398,
        -0.16242796182632446,
        -0.0848674401640892,
        -0.1846080720424652,
        -0.012046639807522297,
        -0.11982198804616928,
        -0.134549081325531,
        -0.09264732897281647,
        -0.29266154766082764,
        -0.011311335489153862,
        -0.017255079001188278,
        0.07546577602624893,
        0.11248691380023956,
        0.028236178681254387,
        0.09471123665571213,
        -0.04211094230413437,
        0.047811221331357956,
        -0.1916043907403946,
        0.09142628312110901,
        -0.28983503580093384,
        0.23532333970069885,
        -0.1030278280377388,
        0.09449028223752975,
        0.02022584341466427,
        -0.15552377700805664,
        0.04042857140302658,
        0.2641163766384125,
        0.06921848654747009,
        0.13084502518177032,
        0.007579258643090725,
        0.05757230520248413,
        -0.09456991404294968,
        -0.034945085644721985,
        0.14852763712406158,
        -0.22551041841506958,
        -0.05277401581406593,
        -0.027675079181790352,
        -0.14594320952892303,
        0.0026658433489501476,
        -0.1104954183101654,
        -0.11179179698228836,
        0.14184387028217316,
        -0.1682603508234024,
        -0.12187686562538147,
        -0.10018523037433624,
        0.017759596928954124,
        -0.13639004528522491,
        -0.0700623020529747,
        0.13410630822181702,
        0.018657363951206207,
        0.23451480269432068,
        -0.13863776624202728,
        -0.1333116590976715,
        0.1297570914030075,
        0.06564085930585861,
        -0.1223570704460144,
        0.38316091895103455,
        0.0008874714840203524,
        0.10847048461437225,
        -0.020339667797088623,
        0.1499486118555069,
        0.12350992113351822,
        0.025639137253165245,
        0.2067030370235443,
        0.11457471549510956,
        -0.14602333307266235,
        -0.02531803585588932,
        -0.02336149476468563,
        -0.13589300215244293,
        0.13065758347511292,
        -0.03360394388437271,
        -0.047771114856004715,
        -0.10310550779104233,
        0.057058386504650116,
        0.058512911200523376,
        0.09971604496240616,
        0.07514376193284988,
        0.07893946766853333,
        0.08083292096853256,
        -0.1587764173746109,
        -0.12369794398546219,
        0.2679156959056854,
        0.11232346296310425,
        0.19812743365764618,
        0.19205689430236816,
        0.1147233098745346,
        -0.06784190982580185,
        -0.17956046760082245,
        -0.08159278333187103,
        0.11058469861745834,
        0.0026797372847795486,
        -0.07548989355564117,
        -0.014069431461393833,
        0.016764823347330093,
        0.23310783505439758,
        -0.09329061210155487,
        -0.21100212633609772,
        0.0836397260427475,
        -0.17815963923931122,
        0.041388969868421555,
        0.2430487424135208,
        -0.01191851869225502,
        0.037341680377721786,
        -0.26400208473205566,
        0.25293225049972534,
        0.19097161293029785,
        0.08523256331682205,
        0.257743239402771,
        0.06989460438489914,
        0.14687979221343994,
        -0.019995175302028656,
        0.04525138810276985,
        0.07740851491689682,
        0.010486428625881672,
        -0.2270129770040512,
        -0.10933045297861099,
        0.21688511967658997,
        0.06317310780286789,
        0.22228679060935974,
        0.05858330428600311,
        0.07719441503286362,
        0.09320364147424698,
        0.16746582090854645,
        -0.16709508001804352,
        -0.3119908273220062,
        0.1872205287218094,
        -0.16512472927570343,
        -0.07180134207010269,
        0.010720200836658478,
        -0.009508871473371983,
        -0.09721033275127411,
        -0.16979536414146423,
        0.08323696255683899,
        0.18046681582927704,
        0.27382615208625793,
        -0.11668892949819565,
        0.18427087366580963,
        -0.04020761325955391,
        -0.060263555496931076,
        0.08854790776968002,
        -0.1372024565935135,
        -0.0021054912358522415,
        -0.008575956337153912,
        0.21669840812683105,
        0.09782183915376663,
        0.12453652173280716,
        0.009090273641049862,
        -0.07421689480543137,
        -0.03638399764895439,
        0.11693724989891052,
        -0.10849601775407791,
        0.14983484148979187,
        -0.10369764268398285,
        0.23305967450141907,
        0.013718245550990105,
        -0.0833766758441925,
        0.1997954547405243,
        0.040902312844991684,
        -0.16222374141216278,
        0.05788937583565712,
        0.049394167959690094,
        -0.23818251490592957,
        -0.24635325372219086,
        -0.04343179613351822,
        0.09556260704994202,
        -0.21852990984916687,
        0.05449919030070305,
        0.13136732578277588,
        0.2023116648197174,
        -0.3799739480018616,
        -0.343583345413208,
        -0.054284680634737015,
        -0.028262678533792496,
        0.24394573271274567,
        0.1407088190317154,
        -0.19038985669612885,
        -0.01910443603992462,
        -0.20394469797611237,
        0.018970586359500885,
        0.009332133457064629,
        -0.0844096913933754,
        -0.06393454223871231,
        0.08255943655967712,
        0.17928822338581085,
        -0.04872899502515793,
        -0.14629337191581726,
        -0.0010363254696130753,
        -0.01399162132292986,
        0.14488585293293,
        0.1400519162416458,
        -0.0008866814896464348,
        -0.15380778908729553,
        0.16840960085391998,
        -0.03829619660973549,
        -0.1958903968334198,
        0.1612275093793869,
        0.011392788961529732,
        -0.028169387951493263,
        -0.14053870737552643,
        -0.051136478781700134,
        -0.23397153615951538,
        -0.31550201773643494,
        0.023470299318432808,
        -0.09718779474496841,
        0.04117507115006447,
        0.0651642456650734,
        -0.184519961476326,
        0.1839796006679535,
        -0.11346260458230972,
        -0.010545778088271618,
        0.10214460641145706,
        0.028433239087462425,
        -0.2712171971797943,
        -0.27903255820274353,
        0.044309165328741074,
        -0.25530797243118286,
        0.09315366297960281,
        -0.11964784562587738,
        0.14354801177978516,
        0.2097110003232956,
        -0.20839546620845795,
        -0.16970328986644745,
        0.1584210991859436,
        0.02916216477751732,
        -0.2503250241279602,
        0.004590157885104418,
        -0.06576726585626602,
        0.24409084022045135,
        -0.15231068432331085,
        0.28338882327079773,
        -0.17824770510196686,
        0.03978712111711502,
        -0.04609587788581848,
        -0.02004735730588436,
        0.210081085562706,
        0.028953859582543373,
        0.20315328240394592,
        -0.0990980789065361,
        -0.12436628341674805,
        0.19232799112796783,
        -0.09647437930107117,
        -0.2616390287876129,
        0.04450995475053787,
        0.103286974132061,
        -0.1253105252981186,
        -0.050919514149427414,
        -0.2644866108894348,
        0.09337486326694489,
        -0.06872756779193878,
        -0.0270138718187809,
        -0.03316253423690796,
        0.17104314267635345,
        -0.201870858669281,
        0.1366775780916214,
        0.09136605262756348,
        -0.11644158512353897,
        -0.016966143622994423,
        -0.13591758906841278,
        0.002335701137781143,
        0.14031046628952026,
        0.021428856998682022,
        -0.2240942269563675,
        -0.2110658586025238,
        0.3421761095523834,
        -0.04647015035152435,
        -0.016152245923876762,
        0.15655845403671265,
        -0.059571273624897,
        -0.266885370016098,
        0.05784640088677406,
        0.08022663742303848,
        0.19489699602127075,
        -0.06661859154701233,
        -0.13691025972366333,
        -0.04530717059969902,
        0.0027688886038959026,
        0.02953999675810337,
        -0.09035014361143112,
        0.03737788647413254,
        -0.03466798737645149,
        -0.2127857655286789,
        0.07324665039777756,
        0.14301106333732605,
        -0.1067608967423439,
        0.19392944872379303,
        -0.0902140811085701,
        -0.09862826019525528,
        -0.20876646041870117,
        0.11836721748113632,
        0.1398559808731079,
        0.11284876614809036,
        -0.023652639240026474,
        -0.06799669563770294,
        0.12499013543128967,
        -0.18459132313728333,
        0.22546148300170898,
        0.08685728907585144,
        0.07191234827041626,
        -0.1897779256105423,
        -0.18675154447555542,
        0.10047034174203873,
        0.023520871996879578,
        0.12113220989704132,
        -0.20284317433834076,
        0.003439546562731266,
        0.17455442249774933,
        -0.13128559291362762,
        0.3079623878002167,
        0.1055719256401062,
        -0.12774109840393066,
        -0.0075732930563390255,
        0.3166022002696991,
        -0.1448652297258377,
        -0.1788826435804367,
        0.19438111782073975,
        -0.10658670961856842,
        0.0600440613925457,
        -0.16859525442123413,
        0.2281637042760849,
        0.10087685286998749,
        0.09093460440635681,
        0.06466606259346008,
        0.19683057069778442,
        -0.0317658968269825,
        -0.12070983648300171,
        -0.13473014533519745,
        -0.14993509650230408,
        0.2517244517803192,
        -0.1817658543586731,
        0.21648268401622772,
        0.1751081943511963,
        0.02817515842616558,
        0.07518589496612549,
        -0.26379892230033875,
        0.009467857889831066,
        0.30375009775161743,
        -0.1983301341533661,
        0.07788895815610886,
        -0.1830091029405594,
        0.03577164560556412,
        -0.041719891130924225,
        -0.14279083907604218,
        -0.22808541357517242,
        0.20603255927562714,
        0.01757953315973282,
        -0.044092487543821335,
        0.11045734584331512,
        0.13867302238941193,
        0.05514488369226456,
        0.1509573757648468,
        -0.26450252532958984,
        0.015988752245903015,
        -0.05225953459739685,
        -0.017581485211849213,
        0.018400713801383972,
        0.09485132247209549,
        0.2238541692495346,
        0.010838693007826805,
        0.19072991609573364,
        -0.05781269073486328,
        -0.01332836039364338,
        0.09843743592500687,
        0.09254469722509384,
        0.00012026751937810332,
        -0.03298801928758621,
        0.14162470400333405,
        -0.050723034888505936,
        -0.02539258450269699,
        0.23167374730110168,
        0.2035568654537201,
        0.14384707808494568,
        0.08237794041633606,
        0.06029527261853218,
        0.035987138748168945,
        -0.12891829013824463,
        0.26515913009643555,
        -0.0004919384955428541,
        0.0907713919878006,
        -0.10731219500303268,
        -0.01515779085457325,
        0.1324290782213211,
        -0.014725734479725361,
        0.1367863416671753,
        0.1273832619190216,
        -0.027434883639216423,
        0.2138044834136963,
        0.023470910266041756,
        0.12682218849658966,
        0.1159849464893341,
        -0.05167838931083679,
        0.17008721828460693,
        0.19050732254981995,
        0.11755910515785217,
        -0.2130090743303299,
        -0.07967028766870499,
        0.05346601828932762,
        0.04346295818686485,
        -0.18621784448623657,
        0.16763104498386383,
        0.18760056793689728,
        0.1371103972196579,
        0.06309060007333755,
        0.12009044736623764,
        -0.09201793372631073,
        0.004975970834493637,
        -0.09905818849802017,
        -0.04316197335720062,
        -0.1237468495965004,
        -0.0022775691468268633,
        0.028833338990807533,
        -0.1232428029179573,
        -0.1833919882774353,
        0.14819155633449554,
        0.013604502193629742,
        -0.06901496648788452,
        0.13936768472194672,
        -0.19034461677074432,
        0.10915939509868622,
        -0.07824379205703735,
        0.00548528553918004,
        0.22452868521213531,
        -0.08527735620737076,
        0.05132672190666199,
        0.05009887367486954,
        -0.11625783890485764,
        0.024548280984163284,
        0.17074905335903168,
        -0.0866323858499527,
        0.16052359342575073,
        -0.15876275300979614,
        0.038975104689598083,
        0.135707825422287,
        0.11106789112091064,
        0.24705907702445984,
        0.21816354990005493,
        -0.17419499158859253,
        -0.10511455684900284,
        0.06898689270019531,
        0.012109749019145966,
        -0.03458116203546524,
        -0.178879052400589,
        -0.12878112494945526,
        -0.24266786873340607,
        -0.17927677929401398,
        0.05078696459531784,
        0.04666260629892349,
        -0.09550843387842178,
        -0.03424082323908806,
        -0.07241387665271759,
        -0.14344081282615662,
        0.15034349262714386,
        -0.03615036979317665,
        0.10592161864042282,
        -0.06897399574518204,
        -0.14696520566940308,
        -0.1580582708120346,
        0.0173410065472126,
        0.13304948806762695,
        0.027136122807860374,
        -0.015006957575678825,
        -0.003719405271112919,
        -0.1196640357375145,
        -0.09358000755310059,
        -0.0007924599340185523,
        -0.04750264808535576,
        -0.16317859292030334,
        0.08938108384609222,
        -0.1913939267396927,
        -0.31034624576568604,
        0.09619101881980896,
        -0.2881125509738922,
        -0.0668046846985817,
        -0.1898217648267746,
        0.22473004460334778,
        0.1360832005739212,
        -0.22081735730171204,
        0.07335676997900009,
        -0.022018494084477425,
        0.12899672985076904,
        -0.1628095656633377,
        -0.028781961649656296,
        -0.18356993794441223,
        0.15709322690963745,
        -0.20360234379768372,
        -0.025532839819788933,
        -0.19919629395008087,
        0.10643722862005234,
        0.1481044888496399,
        -0.1555238515138626,
        0.16673365235328674,
        0.15055176615715027,
        0.027389641851186752,
        -0.008654676377773285,
        0.033430129289627075,
        -0.08125294744968414,
        0.11514583230018616,
        -0.012090031988918781,
        -0.013457144610583782,
        -0.10709821432828903,
        0.1283082813024521,
        -0.24135872721672058,
        -0.10332007706165314,
        0.06414909660816193,
        -0.18510805070400238,
        0.03772062435746193,
        -0.16185985505580902,
        -0.0005695008439943194,
        0.24793434143066406,
        -0.0390731506049633,
        -0.07615827023983002,
        0.12048602104187012,
        0.032639987766742706,
        -0.03403410688042641,
        0.011684984900057316,
        0.03774232417345047,
        -0.2531121075153351,
        -0.00521766347810626,
        -0.10433969646692276,
        -0.07380237430334091,
        0.15690912306308746,
        -0.0210155937820673,
        0.15764497220516205,
        -0.05277499556541443,
        0.15550124645233154,
        -0.19451124966144562,
        0.13959380984306335,
        0.06303001940250397,
        0.057823751121759415,
        -0.15720555186271667,
        -0.1625775694847107,
        -0.10063769668340683,
        -0.1341150850057602,
        -0.15779951214790344,
        -0.24333719909191132,
        -0.026384469121694565,
        0.012549104169011116,
        -0.1982833296060562,
        0.17184242606163025,
        -0.19755449891090393,
        0.05382081866264343,
        0.07878708094358444,
        -0.2321372628211975,
        0.0502445288002491,
        0.18673540651798248,
        -0.10649944841861725,
        -0.12617364525794983,
        0.07187798619270325,
        0.031509388238191605,
        0.16193586587905884,
        -0.03244020789861679,
        -0.11267225444316864,
        -0.011759448796510696,
        -0.18772877752780914,
        -0.10076526552438736,
        -0.001207016408443451,
        0.17321570217609406,
        -0.13746386766433716,
        0.03201190382242203,
        -0.21902230381965637,
        0.053639113903045654,
        -0.10261199623346329,
        -0.09936606138944626,
        -0.16412989795207977,
        0.007006755564361811,
        -0.11055158078670502,
        -0.07610135525465012,
        0.11988876760005951,
        -0.1906927227973938,
        -0.015959765762090683,
        0.05940363556146622,
        -0.004433002322912216,
        -0.044587910175323486,
        -0.11501923948526382,
        0.10274895280599594,
        -0.08576305955648422,
        0.05946234241127968,
        -0.008382842876017094,
        0.046965599060058594,
        -0.19051888585090637,
        -0.09861242771148682,
        0.04233859106898308,
        -0.10924717038869858,
        -0.21642279624938965,
        0.017507649958133698,
        -0.018634824082255363,
        -0.15776516497135162,
        -0.20649360120296478,
        0.047155145555734634,
        -0.19525815546512604,
        0.11818434298038483,
        -0.2462468147277832,
        -0.07557380944490433,
        -0.24927964806556702,
        0.09881284832954407,
        -0.22191043198108673,
        -0.0007438751053996384,
        0.053210239857435226,
        0.03205017372965813,
        0.08754734694957733,
        -0.1576860100030899,
        0.14533260464668274,
        0.07304561883211136,
        -0.0900106281042099,
        0.0450718030333519,
        -0.1844896376132965,
        0.08642864227294922,
        -0.09700822830200195,
        0.027570098638534546,
        0.14913132786750793,
        0.15888488292694092,
        -0.14831630885601044,
        0.12694333493709564,
        -0.11249681562185287,
        -0.12376395612955093,
        -0.08561240881681442,
        0.06372404843568802,
        0.12346615642309189,
        -0.10573632270097733,
        0.055134862661361694,
        0.010444192215800285,
        -0.13690030574798584,
        0.016923559829592705,
        -0.15092433989048004,
        0.028928417712450027,
        -0.1289382427930832,
        0.03512375429272652,
        0.12284240126609802,
        0.03298152983188629,
        -0.1721217781305313,
        -0.11774396896362305,
        0.04227122291922569,
        0.17139048874378204,
        0.07704706490039825,
        0.016347555443644524,
        0.02754310891032219,
        0.06348782777786255,
        0.07254187017679214,
        0.14733023941516876,
        0.06346222758293152,
        -0.1105588898062706,
        0.04118819534778595,
        -0.20207419991493225,
        -0.014133094809949398,
        -0.22966697812080383,
        0.0015661095967516303,
        -0.10493698716163635,
        -0.1917109489440918,
        -0.20586052536964417,
        -0.05900386720895767,
        -0.09938216209411621,
        0.1109410747885704,
        -0.13849909603595734,
        0.03531116992235184,
        0.01830372028052807,
        -0.05035575479269028,
        -0.07782522588968277,
        0.14813078939914703,
        -0.12598370015621185,
        -0.2073088139295578,
        -0.14126801490783691,
        -0.12178978323936462,
        0.12031511962413788,
        -0.14433962106704712,
        -0.07877680659294128,
        -0.1199093759059906,
        -0.11619935184717178,
        -0.10587647557258606,
        0.03502720221877098,
        -0.18167220056056976,
        0.03572073206305504,
        -0.18477791547775269,
        -0.13439975678920746,
        -0.005066528916358948,
        0.12129250168800354,
        0.1564399152994156,
        -0.2390592396259308,
        -0.15365800261497498,
        -0.1340177059173584,
        -0.0920843780040741,
        0.17412059009075165,
        0.1548350602388382,
        -0.11615655571222305,
        -0.20073772966861725,
        -0.011679286137223244,
        -0.044380947947502136,
        0.05026206746697426,
        0.001424627611413598,
        -0.1800825595855713,
        0.06899221241474152,
        0.044813696295022964,
        -0.04687417671084404,
        -0.13016654551029205,
        -0.0548708513379097,
        0.061953239142894745,
        0.0040595997124910355,
        -0.08335497975349426,
        -0.07571329921483994,
        -0.027348656207323074,
        -0.21760283410549164,
        0.0180792436003685,
        -0.14111903309822083,
        -0.16291528940200806,
        -0.13356304168701172,
        0.13257990777492523,
        0.007334588561207056,
        0.12871496379375458,
        0.11882355809211731,
        -0.17390303313732147,
        0.058561407029628754,
        0.01568269170820713,
        0.1325659304857254,
        -0.17512086033821106,
        -0.10799466073513031,
        -0.12535439431667328,
        0.09445768594741821,
        0.18304279446601868,
        -0.20176564157009125,
        -0.2003607451915741,
        0.16582202911376953,
        -0.00853496603667736,
        0.05823599547147751,
        0.01927972584962845,
        0.058265071362257004,
        0.02137184888124466,
        -0.06881538778543472,
        0.016280461102724075,
        -0.11938007175922394,
        -0.1081840917468071,
        -0.05419990420341492,
        -0.15753503143787384,
        -0.09277466684579849,
        -0.03940627723932266,
        -0.129308819770813,
        0.1358012557029724,
        0.16310575604438782,
        0.052971675992012024,
        0.09431029111146927,
        -0.053040023893117905,
        -0.1626349836587906,
        0.04307480528950691,
        -0.15872438251972198,
        0.17374171316623688,
        -0.12770916521549225,
        -0.04906421899795532,
        0.08902371674776077,
        0.14414015412330627,
        0.12140393257141113,
        -0.05481285974383354,
        -0.15647359192371368,
        0.07776323705911636,
        -0.1341356486082077,
        0.003017052775248885,
        -0.08616890013217926,
        0.03961895778775215,
        -0.0900842472910881,
        0.007697244640439749,
        0.22345803678035736,
        0.18613006174564362,
        0.36499887704849243,
        0.07847266644239426,
        0.19090089201927185,
        0.21409285068511963,
        0.34925276041030884,
        -0.1275269240140915,
        0.0040478636510670185,
        0.16813182830810547,
        -0.09825017303228378,
        0.20345576107501984,
        0.10803662240505219,
        0.14563865959644318,
        0.024281732738018036,
        0.0015195050509646535,
        0.17027638852596283,
        0.17734961211681366,
        -0.145591601729393,
        0.11241087317466736,
        0.09181205183267593,
        0.23119068145751953,
        0.11390620470046997,
        0.17840279638767242,
        0.06686282902956009,
        0.1870633363723755,
        0.10200721025466919,
        0.1690589338541031,
        0.1123921275138855,
        0.050373926758766174,
        -0.19649483263492584,
        -0.086945079267025,
        0.011043312028050423,
        -0.050634533166885376,
        -0.27993446588516235,
        -0.11953185498714447,
        0.26087063550949097,
        0.050312161445617676,
        -0.010915664955973625,
        0.03094075806438923,
        -0.15020103752613068,
        -0.09989458322525024,
        -0.06745858490467072,
        -0.03607582300901413,
        0.2785968482494354,
        0.11061040312051773,
        -0.09961371123790741,
        -0.13084731996059418,
        0.22866679728031158,
        0.060806676745414734,
        -0.09492748230695724,
        0.012890448793768883,
        -0.3852388858795166,
        -0.16923454403877258,
        -0.2338355928659439,
        -0.1871790587902069,
        0.006152980029582977,
        -0.08471072465181351,
        -0.02623489499092102,
        0.20115089416503906,
        -0.17530275881290436,
        -0.0676075741648674,
        -0.17247411608695984,
        0.057834215462207794,
        -0.0009991909610107541,
        -0.06085670366883278,
        -0.018102584406733513,
        -0.13159078359603882,
        -0.2544669806957245,
        0.0026980503462255,
        0.20849831402301788,
        -0.18394127488136292,
        0.16703738272190094,
        -0.19179482758045197,
        -0.09672001749277115,
        -0.1374634951353073,
        0.2161603420972824,
        -0.03655679151415825,
        -0.038194023072719574,
        -0.13540834188461304,
        -0.05900105834007263,
        0.0075712744146585464,
        -0.08197364211082458,
        -0.12954361736774445,
        0.11921194940805435,
        0.13713832199573517,
        -0.13562612235546112,
        -0.2156338393688202,
        -0.22026048600673676,
        -0.23244509100914001,
        0.02451830543577671,
        -0.08335698395967484,
        -0.10960439592599869,
        -0.013017378747463226,
        0.19228745996952057,
        -0.0041092257015407085,
        0.04162398725748062,
        0.08971679210662842,
        0.17302614450454712,
        -0.17419438064098358,
        0.2433154433965683,
        -0.20293977856636047,
        -0.14626047015190125,
        -0.01744943857192993,
        0.18118904531002045,
        -0.015360751189291477,
        -0.04535288363695145,
        0.01353984884917736,
        -0.023951750248670578,
        0.13472680747509003,
        0.02499711513519287,
        -0.1161235123872757,
        -0.1934024691581726,
        -0.14531686902046204,
        -0.05630045384168625,
        0.2938796281814575,
        0.18286877870559692,
        -0.2073778212070465,
        -0.07063505798578262,
        -0.04784760996699333,
        -0.014097480103373528,
        -0.1885952353477478,
        0.18925799429416656,
        -0.01998933032155037,
        0.0981404036283493,
        -0.12079422920942307,
        0.15713025629520416,
        -0.05519186705350876,
        0.06879673153162003,
        -0.1419409066438675,
        0.03786752000451088,
        0.1720602959394455,
        0.017977315932512283,
        0.1316974014043808,
        0.18115191161632538,
        0.09297627210617065,
        -0.14566051959991455,
        0.14280427992343903,
        -0.008456607349216938,
        0.1454775631427765,
        0.010051132179796696,
        0.22412323951721191,
        -0.017505738884210587,
        0.07401573657989502,
        -0.1427081674337387,
        -0.1277291625738144,
        -0.021607190370559692,
        -0.0031321740243583918,
        -0.024321794509887695,
        0.1834322065114975,
        -0.0068156179040670395,
        0.007654448039829731,
        0.3331303894519806,
        0.10197973996400833,
        -0.06982030719518661,
        0.19536828994750977,
        -0.05074477195739746,
        -0.013005457818508148,
        -0.03803541883826256,
        0.0019117286428809166,
        0.15868625044822693,
        0.12894241511821747,
        0.1886529177427292,
        -0.016206946223974228,
        -0.16879518330097198,
        0.21535180509090424,
        -0.080641970038414,
        -0.1824513077735901,
        -0.07400606572628021,
        -0.16895124316215515,
        0.10855790227651596,
        0.04267914965748787,
        0.01951034925878048,
        -0.04085575416684151,
        -0.02587313950061798,
        0.1552143543958664,
        -0.13080203533172607,
        -0.036770906299352646,
        0.29960620403289795,
        0.1496610939502716,
        -0.06275251507759094,
        0.043245185166597366,
        -0.010771426372230053,
        0.352327436208725,
        0.02513517625629902,
        0.06234826147556305,
        0.00045826664427295327,
        0.24837054312229156,
        0.03291084244847298,
        0.11004754155874252,
        -0.15221789479255676,
        0.22336207330226898,
        -0.14633283019065857,
        0.2548801600933075,
        -0.14241990447044373,
        0.04962436482310295,
        0.11842048913240433,
        -0.1063985750079155,
        0.13095833361148834,
        -0.1500416100025177,
        0.23015660047531128,
        -0.1700306236743927,
        0.1423272341489792,
        -0.08522515743970871,
        0.16663366556167603,
        -0.010054192505776882,
        -0.28399166464805603,
        -0.009587857872247696,
        0.16984222829341888,
        0.07500233501195908,
        0.07202187925577164,
        -0.09982012957334518,
        -0.2627522647380829,
        -0.10077351331710815,
        -0.2071760892868042,
        -0.042519595474004745,
        0.1594652235507965,
        -0.1192532554268837,
        0.06709419935941696,
        0.11406689137220383,
        -0.14659325778484344,
        -0.1822984665632248,
        0.03668000549077988,
        -0.20868025720119476,
        -0.17108674347400665,
        -0.08091437071561813,
        -0.19127555191516876,
        0.2261456996202469,
        0.19639837741851807,
        0.08365708589553833,
        -0.12257778644561768,
        0.034874241799116135,
        0.09465135633945465,
        0.18072323501110077,
        -0.031694069504737854,
        0.08375599980354309,
        -0.11225760728120804,
        0.10515982657670975,
        0.07326141744852066,
        0.18992242217063904,
        0.03118712455034256,
        0.20991730690002441,
        0.008674893528223038,
        -0.055292028933763504,
        0.0586671456694603,
        0.0782749131321907,
        0.07164737582206726,
        0.09859883040189743,
        0.19453637301921844,
        0.05033757537603378,
        -0.14148452877998352,
        0.2661036550998688,
        0.10009154677391052,
        0.12711898982524872,
        0.08642254769802094,
        -0.09637340158224106,
        -0.23799826204776764,
        -0.01802569255232811,
        0.14236871898174286,
        -0.09193488955497742,
        0.20014511048793793,
        -0.1443455070257187,
        -0.1126219779253006,
        -0.026522262021899223,
        0.037111155688762665,
        0.16741517186164856,
        0.19973570108413696,
        -0.24942143261432648,
        -0.021079519763588905,
        0.1518782675266266,
        -0.11272995173931122,
        -0.06995394825935364,
        -0.15460313856601715,
        -0.03950653225183487,
        0.19367986917495728,
        0.025276025757193565,
        0.18333716690540314,
        -0.12917779386043549,
        0.29527100920677185,
        0.24511437118053436,
        -0.031037824228405952,
        -0.021777935326099396,
        -0.06715258210897446,
        0.08183474093675613,
        0.12521660327911377,
        -0.03574933856725693,
        -0.06718097627162933,
        0.2041526436805725,
        0.00900062546133995,
        -0.016194278374314308,
        -0.19206762313842773,
        0.16203737258911133,
        -0.10165157914161682,
        0.03177449107170105,
        -0.055614739656448364,
        0.042311642318964005,
        -0.11946165561676025,
        -0.0011757867177948356,
        0.03759092092514038,
        -0.20057596266269684,
        0.19766071438789368,
        -0.0994173213839531,
        -0.0766402930021286,
        0.038386013358831406,
        0.05639151856303215,
        -0.14774075150489807,
        -0.08105014264583588,
        0.2830014228820801,
        -0.2165461927652359,
        0.07361478358507156,
        -0.05828142166137695,
        -0.20511391758918762,
        -0.18226787447929382,
        -0.16083866357803345,
        -0.10904531180858612,
        0.07081529498100281,
        -0.1539381444454193,
        -0.11472177505493164,
        -0.09370897710323334,
        -0.012335771694779396,
        0.08515791594982147,
        -0.03875424712896347,
        0.15086448192596436,
        -0.10568723827600479,
        -0.09933076798915863,
        0.007769827730953693,
        0.05527836084365845,
        0.15629158914089203,
        -0.09901022166013718,
        0.11607030034065247,
        0.16413165628910065,
        0.09590081870555878,
        0.07277653366327286,
        0.13035044074058533,
        0.19953587651252747,
        0.06041156128048897,
        -0.10801540315151215,
        0.11010143160820007,
        0.0069248611107468605,
        0.2717995047569275,
        -0.03961341455578804,
        0.10008690506219864,
        0.02310764044523239,
        -0.01362024899572134,
        -0.08664193749427795,
        -0.09911941736936569,
        0.08840779960155487,
        -0.03237241134047508,
        -0.1928301304578781,
        -0.16069698333740234,
        -0.2255389243364334,
        0.29828622937202454,
        0.39344045519828796,
        0.03691330924630165,
        -0.0053342776373028755,
        0.2164229452610016,
        0.037462178617715836,
        -0.1469770222902298,
        -0.027807854115962982,
        0.007717838976532221,
        0.3103906512260437,
        0.08452974259853363,
        0.21987932920455933,
        -0.03142159804701805,
        -0.2743316888809204,
        0.06478771567344666,
        0.18375524878501892,
        -0.2993320822715759,
        0.14471308887004852,
        -0.3236231803894043,
        -0.038101907819509506,
        0.16492657363414764,
        -0.1793583482503891,
        0.13485124707221985,
        -0.14142879843711853,
        0.15530939400196075,
        -0.2161041796207428,
        0.059841614216566086,
        0.10068562626838684,
        0.12262896448373795,
        0.038157228380441666,
        0.113001748919487,
        -0.2312803566455841,
        0.3798501491546631,
        -0.12732623517513275,
        -0.1801557093858719,
        -0.03635960817337036,
        -0.018456611782312393,
        -0.020385917276144028,
        0.1241239532828331,
        -0.21250897645950317,
        0.08041656017303467,
        -0.10754755139350891,
        0.08581117540597916,
        -0.21737584471702576,
        0.012939591892063618,
        0.16432753205299377,
        -0.1191200241446495,
        0.11138520389795303,
        -0.12500056624412537,
        0.28035178780555725,
        -0.23377883434295654,
        -0.03753902018070221,
        -0.16910429298877716,
        -0.0788387730717659,
        0.10615618526935577,
        -0.011076275259256363,
        0.06575815379619598,
        -0.10534845292568207,
        0.140212744474411,
        0.12702389061450958,
        0.23132315278053284,
        -0.027905644848942757,
        -0.005447533912956715,
        -0.1654995232820511,
        0.2924034297466278,
        -0.19557525217533112,
        0.023476211354136467,
        -0.05364259332418442,
        0.11781386286020279,
        -0.09727323055267334,
        0.08680041879415512,
        0.1631450355052948,
        -0.04195109382271767,
        0.0361119844019413,
        0.11781293898820877,
        0.023433204740285873,
        0.1998123824596405,
        0.18229661881923676,
        -0.06415450572967529,
        -0.12818577885627747,
        0.09256196767091751,
        -0.16019004583358765,
        0.32826903462409973,
        0.007699830457568169,
        0.003991420846432447,
        -0.1535063534975052,
        0.21863986551761627,
        -0.05206632986664772,
        0.09042993187904358,
        0.26519015431404114,
        0.09733211994171143,
        -0.10486292093992233,
        0.1701362580060959,
        -0.11725050956010818,
        -0.11771862953901291,
        0.032318077981472015,
        -0.08575396239757538,
        -0.16376930475234985,
        0.09807566553354263,
        -0.13068866729736328,
        0.2624976634979248,
        0.1135328933596611,
        0.035684648901224136,
        0.2251645028591156,
        0.32955390214920044,
        -0.18715137243270874,
        -0.11041711270809174,
        0.19893543422222137,
        -0.08174080401659012,
        -0.042526084929704666,
        0.06106395646929741,
        0.217347651720047,
        0.09193158894777298,
        -0.09531742334365845,
        0.22060267627239227,
        0.09102814644575119,
        -0.06881888210773468,
        -0.044951360672712326,
        -0.08694074302911758,
        -0.21605005860328674,
        0.18125125765800476,
        -0.10192923992872238,
        0.25832346081733704,
        0.14867782592773438,
        0.04144241660833359,
        0.13851605355739594,
        -0.1527855098247528,
        0.02755223587155342,
        0.11382683366537094,
        -0.11357591301202774,
        -0.004841281101107597,
        -0.2461816370487213,
        0.17037910223007202,
        -0.09204331040382385,
        0.1333504021167755,
        0.152803435921669,
        0.027571408078074455,
        -0.003450412768870592,
        0.18405036628246307,
        -0.19307860732078552,
        0.08330471813678741,
        0.10131765156984329,
        -0.04385829716920853,
        -0.19289366900920868,
        0.007481625769287348,
        0.14900748431682587,
        -0.01765279844403267,
        -0.011290433816611767,
        -0.11523788422346115,
        -0.038593195378780365,
        -0.2691021263599396,
        0.014203964732587337,
        0.08795635402202606,
        -0.14493446052074432,
        -0.03757338970899582,
        0.08779939264059067,
        0.1769229918718338,
        -0.04061132296919823,
        -0.09840895980596542,
        -0.19229459762573242,
        0.005812573712319136,
        0.009251571260392666,
        -0.14197160303592682,
        -0.12554487586021423,
        0.2015257179737091,
        0.09974372386932373,
        -0.02594098635017872,
        -0.08240511268377304,
        -0.1779359132051468,
        0.1082269474864006,
        -0.23759330809116364,
        0.015377234667539597,
        0.04345957934856415,
        0.10195770114660263,
        -0.18257376551628113,
        -0.15836554765701294,
        -0.049376752227544785,
        -0.10575078427791595,
        0.05778362601995468,
        -0.11098647117614746,
        -0.14453125,
        -0.271477609872818,
        -0.08748634904623032,
        0.054062724113464355,
        0.20437726378440857,
        0.10775310546159744,
        -0.16256317496299744,
        -0.3505673408508301,
        0.11106996983289719,
        -0.11077038943767548,
        0.030187951400876045,
        0.007161586545407772,
        -0.2341069132089615,
        -0.24516630172729492,
        -0.0017629488138481975,
        -0.11380171030759811,
        0.13930435478687286,
        -0.062496066093444824,
        0.15617448091506958,
        -0.022104855626821518,
        0.03286595642566681,
        0.017564896494150162,
        0.1673322170972824,
        -0.02075915038585663,
        0.11826081573963165,
        0.05347827076911926,
        -0.2259029895067215,
        0.16341429948806763,
        -0.18877793848514557,
        -0.07001140713691711,
        -0.15242089331150055,
        0.032809074968099594,
        0.09799939393997192,
        -0.1955726444721222,
        0.14578019082546234,
        0.23725365102291107,
        -0.05265865847468376,
        -0.03739236295223236,
        -0.2557911276817322,
        -0.22284257411956787,
        -0.07473253458738327,
        -0.2695911228656769,
        -0.03077097237110138,
        -0.11670271307229996,
        -0.10133885592222214,
        0.06684151291847229,
        0.11936686187982559,
        -0.06367070227861404,
        0.13341045379638672,
        0.139067143201828,
        0.22537022829055786,
        -0.17704708874225616,
        0.3028590977191925,
        -0.05260435864329338,
        -0.18742239475250244,
        0.15286339819431305,
        0.2571858763694763,
        0.13682538270950317,
        0.011650932021439075,
        0.043073877692222595,
        0.16411623358726501,
        0.05640624463558197,
        -0.017769448459148407,
        -0.2994403839111328,
        0.09122312068939209,
        -0.00025530753191560507,
        -0.2627173960208893,
        0.19488796591758728,
        -0.1648867279291153,
        -0.06564942747354507,
        -0.1531483381986618,
        -0.1516546607017517,
        -0.2836766541004181,
        0.15026797354221344,
        -0.1602812558412552,
        -0.3931003212928772,
        0.2886213958263397,
        -0.24644428491592407,
        -0.1158306673169136,
        0.1220194548368454,
        -0.13705407083034515,
        -0.11384045332670212,
        -0.1506250649690628,
        -0.0943278893828392,
        0.2890470027923584,
        -0.17470085620880127,
        -0.06790608167648315,
        -0.06689295917749405,
        0.07559958100318909,
        0.08820788562297821,
        -0.12486973404884338,
        0.09004749357700348,
        0.04265744984149933,
        -0.18234992027282715,
        -0.032373540103435516,
        -0.05875544622540474,
        -0.053526490926742554,
        -0.1222272664308548,
        0.002832417842000723,
        0.10546848922967911,
        0.045944035053253174,
        -0.2956470251083374,
        0.11961735785007477,
        0.09976673126220703,
        0.12795746326446533,
        0.0811896100640297,
        -0.11052244901657104,
        -0.17922089993953705,
        -0.07822488993406296,
        0.22547811269760132,
        0.23610354959964752,
        0.0658574178814888,
        -0.20092768967151642,
        0.0592290461063385,
        -0.07163435965776443,
        -0.03752540796995163,
        -0.06176658719778061,
        -0.10193762183189392,
        -0.1732305884361267,
        -0.3461862802505493,
        -0.03694584593176842,
        -0.09989834576845169,
        -0.07010278850793839,
        -0.0943487286567688,
        -0.01714911125600338,
        -0.14748315513134003,
        -0.01296156458556652,
        0.016254965215921402,
        -0.19134311378002167,
        -0.029890945181250572,
        0.12225348502397537,
        0.15799058973789215,
        0.012884248048067093,
        -0.2625594139099121,
        -0.06428494304418564,
        0.07947634160518646,
        -0.2988464832305908,
        0.12587682902812958,
        -0.07407815009355545,
        -0.15440550446510315,
        -0.0449911504983902,
        0.019479546695947647,
        -0.002987315645441413,
        -0.06030286103487015,
        -0.27033835649490356,
        0.03691850230097771,
        -0.0962361991405487,
        0.049438487738370895,
        -0.10914735496044159,
        -0.0678439736366272,
        0.15040968358516693,
        0.041019096970558167,
        0.32976728677749634,
        0.03461948037147522,
        -0.24625836312770844,
        0.03105926886200905,
        -0.010587682016193867,
        0.005500118248164654,
        0.16682127118110657,
        -0.02454235590994358,
        0.26842111349105835,
        0.035204704850912094,
        0.13109560310840607,
        -0.20307481288909912,
        -0.01408252865076065,
        0.10893887281417847,
        -0.13255102932453156,
        0.0035750409588217735,
        0.1157197579741478,
        -0.13708248734474182,
        0.03114045225083828,
        0.3253784477710724,
        -0.13006405532360077,
        -0.11899708956480026,
        0.19776314496994019,
        0.14261354506015778,
        -0.037628281861543655,
        -0.04548114165663719,
        -0.09810362756252289,
        -0.12638407945632935,
        0.10886210203170776,
        0.3199462890625,
        0.18188977241516113,
        -0.00025530109996907413,
        -0.0766235738992691,
        0.01845293864607811,
        0.1636681705713272,
        -0.10679677873849869,
        0.10970146209001541,
        -0.10065604746341705,
        0.10132662951946259,
        0.08931133896112442,
        0.17364013195037842,
        0.1585201770067215,
        0.28155794739723206,
        0.05858546495437622,
        -0.08802147954702377,
        -0.04804454371333122,
        -0.08915290236473083,
        -0.17638607323169708,
        -0.09263201057910919,
        -0.046635180711746216,
        -0.07157440483570099,
        0.08886351436376572,
        0.16143329441547394,
        0.1355057954788208,
        0.03596772626042366,
        0.2177748829126358,
        0.08317828178405762,
        0.04658465459942818,
        0.004723015241324902,
        0.15321433544158936,
        0.11770711839199066,
        -0.0302047748118639,
        -0.10783720016479492,
        0.010968286544084549,
        0.023815037682652473,
        -0.022785909473896027,
        0.005927788559347391,
        0.10784587264060974,
        0.02007424645125866,
        -0.03029615245759487,
        0.0265297032892704,
        -0.09012024849653244,
        0.03696293756365776,
        -0.16449256241321564,
        0.2304539531469345,
        -0.05374787747859955,
        0.09854939579963684,
        0.19050030410289764,
        -0.011455376632511616,
        -0.06547437608242035,
        0.17225642502307892,
        0.15321561694145203,
        0.06297570466995239,
        0.09768863767385483,
        0.20158344507217407,
        -0.045906659215688705,
        -0.0595383457839489,
        0.20578353106975555,
        0.023236289620399475,
        0.15549547970294952,
        -0.1990954726934433,
        0.0660284161567688,
        0.12877586483955383,
        0.04189471900463104,
        0.19941075146198273,
        -0.16485106945037842,
        -0.05681788921356201,
        -0.08066071569919586,
        -0.24263711273670197,
        0.06442853063344955,
        -0.08342006802558899,
        -0.18139682710170746,
        -0.18202978372573853,
        -0.09189073741436005,
        -0.058316152542829514,
        -0.0500824861228466,
        -0.09187781810760498,
        0.2204580307006836,
        -0.014791810885071754,
        0.14693661034107208,
        -0.23966935276985168,
        0.13616642355918884,
        -0.11269473284482956,
        -0.16932031512260437,
        -0.2532620429992676,
        -0.04272301867604256,
        -0.23325416445732117,
        0.07628949731588364,
        -0.21574273705482483,
        -0.18890713155269623,
        0.06384101510047913,
        0.1777784377336502,
        -0.17213314771652222,
        -0.3108629286289215,
        0.07514730840921402,
        -0.08554118871688843,
        -0.12860192358493805,
        -0.01390074472874403,
        0.17669151723384857,
        -0.2721668779850006,
        -0.03654150292277336,
        -0.12236826866865158,
        0.2562922239303589,
        -0.1641041338443756,
        0.11469276994466782,
        0.0758211612701416,
        -0.2204165905714035,
        -0.18912743031978607,
        0.13563987612724304,
        -0.1568368375301361,
        -0.3367859721183777,
        -0.22000424563884735,
        -0.2666044533252716,
        0.048140645027160645,
        -0.13107746839523315,
        0.17310567200183868,
        -0.04886597767472267,
        -0.08479660004377365,
        0.0818033441901207,
        -0.03454186022281647,
        0.2127831131219864,
        -0.008854582905769348,
        0.16299885511398315,
        0.004845652729272842,
        0.11451714485883713,
        0.007881298661231995,
        -0.01269402913749218,
        -0.036728158593177795,
        -0.0884232223033905,
        0.03452868014574051,
        -0.006783272605389357,
        -0.21624937653541565,
        -0.12765325605869293,
        -0.08201656490564346,
        -0.0636456161737442,
        -0.04046102613210678,
        -0.05004218593239784,
        -0.02641674131155014,
        0.36939942836761475,
        0.3056665062904358,
        -0.0627838671207428,
        -0.16267555952072144,
        0.14046265184879303,
        -0.20336809754371643,
        -0.20468537509441376,
        0.09474680572748184,
        0.016063062474131584,
        -0.10558764636516571,
        -0.06851104646921158,
        0.05641816928982735,
        -0.032142262905836105,
        0.08435571938753128,
        0.2392272651195526,
        0.09917516261339188,
        -0.20325155556201935,
        0.0019690722692757845,
        0.07022306323051453,
        -0.06860348582267761,
        0.038727667182683945,
        0.030379703268408775,
        0.22943097352981567,
        0.16087405383586884,
        -0.08326214551925659,
        -0.04059591144323349,
        -0.21617886424064636,
        0.3428106904029846,
        0.09110993146896362,
        -0.00812852568924427,
        -0.1407470405101776,
        0.14493922889232635,
        0.079627126455307,
        0.0756768137216568,
        -0.03260186314582825,
        0.15962286293506622,
        -0.00047096452908590436,
        0.09633850306272507,
        0.02744249813258648,
        0.11533939093351364,
        0.19845722615718842,
        0.12801477313041687,
        0.11645632982254028,
        -0.20907840132713318,
        0.04401202127337456,
        0.16543516516685486,
        0.10863998532295227,
        0.12839999794960022,
        0.11690991371870041,
        -0.03919052332639694,
        -0.11720099300146103,
        -0.10408016294240952,
        0.035016994923353195,
        -0.13371270895004272,
        -0.21289512515068054,
        -0.06843247264623642,
        0.24654395878314972,
        0.0674237459897995,
        -0.021214036270976067,
        0.19586247205734253,
        -0.18660993874073029,
        -0.05982926860451698,
        0.20538872480392456,
        -0.24647432565689087,
        -0.21923880279064178,
        -0.08680073916912079,
        -0.032800622284412384,
        -0.010488619096577168,
        0.13173545897006989,
        -0.14231747388839722,
        -0.005095361266285181,
        -0.07559151202440262,
        0.1412799209356308,
        -0.26015040278434753,
        -0.22720305621623993,
        -0.17876718938350677,
        0.05839148536324501,
        0.15245164930820465,
        0.028554614633321762,
        0.16008251905441284,
        -0.07317686825990677,
        0.2163800746202469,
        0.008130596950650215,
        0.15156526863574982,
        0.16166161000728607,
        -0.14742866158485413,
        -0.08444247394800186,
        -0.042002372443675995,
        -0.07975759357213974,
        -0.10171616077423096,
        0.2781296670436859,
        0.06616832315921783,
        0.1222510114312172,
        0.10047439485788345,
        0.10270347446203232,
        -0.1193537712097168,
        -0.09586712718009949,
        -0.21079982817173004,
        -0.025263236835598946,
        0.15082372725009918,
        -0.154532790184021,
        -0.1436592936515808,
        -0.0028628497384488583,
        -0.06100214272737503,
        0.17089514434337616,
        -0.07540321350097656,
        0.059808336198329926,
        -0.05391422659158707,
        -0.236000195145607,
        0.04184259474277496,
        -0.11580651998519897,
        0.1400671750307083,
        0.006330878473818302,
        0.1471778303384781,
        -0.16767868399620056,
        0.0747801661491394,
        0.07103630900382996,
        -0.1379334032535553,
        -0.17188072204589844,
        0.1529550850391388,
        0.007895726710557938,
        0.04353298991918564,
        -0.17827242612838745,
        -0.19690567255020142,
        -0.011209540069103241,
        -0.1621139943599701,
        -0.0074961502104997635,
        -0.21159584820270538,
        0.20750272274017334,
        -0.12656269967556,
        0.14947883784770966,
        -0.12069059163331985,
        0.04815258830785751,
        0.050397906452417374,
        0.3498542010784149,
        -0.14343242347240448,
        0.012653949670493603,
        0.08882178366184235,
        0.09195569157600403,
        -0.08214625716209412,
        -0.09695207327604294,
        0.14118249714374542,
        0.20090351998806,
        0.09077267348766327,
        0.02767077088356018,
        -0.20673465728759766,
        0.05406893789768219,
        -0.12900125980377197,
        0.1830693632364273,
        0.04447146877646446,
        -0.0535007119178772,
        -0.19899515807628632,
        0.044078897684812546,
        -0.11760766059160233,
        -0.10276864469051361,
        -0.0862751379609108,
        0.01583329401910305,
        0.022458957508206367,
        0.056508056819438934,
        -0.09598666429519653,
        -0.14023160934448242,
        -0.02630641683936119,
        -0.20049124956130981,
        -0.1564556360244751,
        0.10727100074291229,
        -0.02246888540685177,
        0.12192191928625107,
        -0.16079081594944,
        0.14137353003025055,
        -0.10191456228494644,
        -0.1351526826620102,
        0.1232178658246994,
        0.09814222157001495,
        -0.13369683921337128,
        -0.08507636934518814,
        -0.11372493207454681,
        -0.1949550211429596,
        -0.1206103265285492,
        0.07077570259571075,
        0.13185259699821472,
        0.15393197536468506,
        -0.10254789143800735,
        -0.06902942806482315,
        -0.13464410603046417,
        -0.25041133165359497,
        -0.09235996007919312,
        0.14714792370796204,
        0.1717536300420761,
        -0.09873230010271072,
        0.12348117679357529,
        0.14006084203720093,
        0.050434183329343796,
        -0.09264019876718521,
        -0.14723342657089233,
        -0.190522238612175,
        -0.0333811491727829,
        0.04474126547574997,
        0.03828050196170807,
        -0.16115215420722961,
        0.14338551461696625,
        0.07465195655822754,
        -0.10821978747844696,
        -0.18538817763328552,
        -0.2016325294971466,
        0.026348426938056946,
        0.06361788511276245,
        0.007524269167333841,
        0.0016838832525536418,
        -0.15113870799541473,
        0.012124313041567802,
        0.1134939193725586,
        -0.17991101741790771,
        -0.025229215621948242,
        -0.09471485763788223,
        -0.15485718846321106,
        -0.2008536010980606,
        0.10951904952526093,
        -0.026921946555376053,
        -0.14787182211875916,
        -0.043704379349946976,
        0.05479435250163078,
        0.12534324824810028,
        -0.15914253890514374,
        -0.14434920251369476,
        -0.19584205746650696,
        -0.12632739543914795,
        0.1186433807015419,
        -0.24999773502349854,
        -0.0773186981678009,
        0.18636350333690643,
        -0.19558142125606537,
        -0.012288094498217106,
        -0.14472700655460358,
        -0.12588916718959808,
        0.13218826055526733,
        0.12597939372062683,
        -0.12614959478378296,
        0.07158473134040833,
        -0.12335311621427536,
        0.045899033546447754,
        -0.046509984880685806,
        0.03961668536067009,
        0.1469472050666809,
        -0.049316201359033585,
        0.11231373250484467,
        -0.17838051915168762,
        0.04893152788281441,
        0.15137134492397308,
        -0.0984455943107605,
        0.06696753203868866,
        0.1298113465309143,
        -0.23613062500953674,
        -0.014526003040373325,
        -0.07558124512434006,
        -0.002117265947163105,
        -0.17279252409934998,
        0.260113924741745,
        0.09805287420749664,
        -0.2130516916513443,
        -0.07507092505693436,
        -0.07446329295635223,
        -0.17583627998828888,
        -0.029048731550574303,
        -0.12382028251886368,
        0.18930909037590027,
        0.06147286668419838,
        -0.06765946745872498,
        0.21852989494800568,
        -0.2371116280555725,
        -0.12477899342775345,
        -0.22561615705490112,
        0.054970260709524155,
        0.09480112791061401,
        -0.10413825511932373,
        0.18076971173286438,
        0.07810657471418381,
        0.14066165685653687,
        -0.10398514568805695,
        0.058120548725128174,
        -0.044075533747673035,
        -0.17200878262519836,
        -0.11947400867938995,
        0.07411036640405655,
        0.18299846351146698,
        0.011668571271002293,
        -0.09357254952192307,
        0.21938836574554443,
        -0.1332813799381256,
        -0.04064662754535675,
        0.13592755794525146,
        -0.10776421427726746,
        -0.13633878529071808,
        -0.03843902423977852,
        -0.18924571573734283,
        -0.32089364528656006,
        0.18731185793876648,
        0.09283194690942764,
        0.02449488639831543,
        -0.0227950569242239,
        -0.076713927090168,
        0.02681800350546837,
        0.15281571447849274,
        -0.14033330976963043,
        0.13911384344100952,
        0.18297481536865234,
        -0.18228106200695038,
        -0.11539226025342941,
        -0.18318243324756622,
        -0.24034087359905243,
        0.0025480594485998154,
        -0.1301463097333908,
        0.14592823386192322,
        0.12509267032146454,
        -0.19336944818496704,
        -0.05642813444137573,
        0.17781966924667358,
        -0.1642427295446396,
        -0.16388414800167084,
        0.09178118407726288,
        -0.08910311013460159,
        0.2824079096317291,
        -0.2867564260959625,
        0.058833781629800797,
        0.1921134889125824,
        -0.13015064597129822,
        -0.06283879280090332,
        -0.34506455063819885,
        -0.0700332373380661,
        -0.14508534967899323,
        -0.07492105662822723,
        0.16275019943714142,
        0.07818948477506638,
        0.2215597778558731,
        0.057248055934906006,
        0.07248774915933609,
        0.029072992503643036,
        0.1691146194934845,
        0.1484542340040207,
        0.22383660078048706,
        -0.02511526085436344,
        0.11303497850894928,
        -0.02117236703634262,
        0.03146703541278839,
        -0.29006507992744446,
        -0.03245415911078453,
        0.060353610664606094,
        -0.04572843387722969,
        -0.07388301193714142,
        0.02175607904791832,
        0.014137058518826962,
        -0.1804795265197754,
        0.3083568215370178,
        0.1919986605644226,
        -0.17483147978782654,
        0.2190980762243271,
        -0.13274487853050232,
        -0.11219856142997742,
        -0.07883473485708237,
