{
  "defaults": {},
  "inputs": [
    {
      "name": "1l_pt",
      "offset": 0,
      "scale": 1
    },
    {
      "name": "1l_eta",
      "offset": 0,
      "scale": 1
    },
    {
      "name": "1l_phi",
      "offset": 0,
      "scale": 1
    },
    {
      "name": "1l_btag",
      "offset": 0,
      "scale": 1
    },
    {
      "name": "2l_pt",
      "offset": 0,
      "scale": 1
    },
    {
      "name": "2l_eta",
      "offset": 0,
      "scale": 1
    },
    {
      "name": "2l_phi",
      "offset": 0,
      "scale": 1
    },
    {
      "name": "2l_btag",
      "offset": 0,
      "scale": 1
    },
    {
      "name": "3l_pt",
      "offset": 0,
      "scale": 1
    },
    {
      "name": "3l_eta",
      "offset": 0,
      "scale": 1
    },
    {
      "name": "3l_phi",
      "offset": 0,
      "scale": 1
    },
    {
      "name": "3l_btag",
      "offset": 0,
      "scale": 1
    },
    {
      "name": "4l_pt",
      "offset": 0,
      "scale": 1
    },
    {
      "name": "4l_eta",
      "offset": 0,
      "scale": 1
    },
    {
      "name": "4l_phi",
      "offset": 0,
      "scale": 1
    },
    {
      "name": "4l_btag",
      "offset": 0,
      "scale": 1
    },
    {
      "name": "1leading_b",
      "offset": 0,
      "scale": 1
    },
    {
      "name": "2leading_b",
      "offset": 0,
      "scale": 1
    },
    {
      "name": "3leading_b",
      "offset": 0,
      "scale": 1
    },
    {
      "name": "4leading_b",
      "offset": 0,
      "scale": 1
    }
  ],
  "layers": [
    {
      "activation": "rectified",
      "architecture": "dense",
      "bias": [
        0.2277354896068573,
        0.16966032981872559,
        0.4249861538410187,
        0.3564709722995758,
        -0.3717747628688812,
        0.14062923192977905,
        -0.17777062952518463,
        0.27330702543258667,
        0.1901141256093979,
        0.38014474511146545,
        -0.14407935738563538,
        0.0,
        0.27477800846099854,
        0.0,
        0.5352077484130859,
        -0.26103970408439636,
        -0.41825029253959656,
        0.0,
        -0.08731307089328766,
        0.0,
        0.0,
        -0.002523425268009305,
        -0.2634216248989105,
        -0.17769208550453186,
        -0.01600489765405655,
        -0.1650964915752411,
        0.2908763885498047,
        0.0,
        0.06267903745174408,
        0.0,
        0.0,
        -0.2652572691440582,
        -0.3533869981765747,
        -0.21386034786701202,
        0.15995867550373077,
        0.0,
        0.0,
        -0.28276172280311584,
        0.0,
        -0.2454763650894165,
        -0.15170198678970337,
        0.0,
        0.0,
        -0.136657252907753,
        0.22179247438907623,
        0.16612125933170319,
        -0.3068158030509949,
        0.0,
        -0.2020190805196762,
        0.1278093010187149,
        0.2459138184785843,
        0.16853272914886475,
        -0.17281383275985718,
        0.0,
        0.0,
        -0.2703922986984253,
        -0.22757114470005035,
        0.16770315170288086,
        -0.3172339200973511,
        0.4747994542121887,
        0.11366131156682968,
        0.2504739761352539,
        -0.361199289560318,
        0.044504959136247635,
        0.13052065670490265,
        0.0,
        0.0,
        0.17867997288703918,
        -0.09883122891187668,
        0.0,
        -0.014067993499338627,
        0.07129199802875519,
        0.06790699064731598,
        -0.15750551223754883,
        -0.21846160292625427,
        0.19083985686302185,
        0.08203383535146713,
        0.0,
        0.0,
        0.3777538537979126,
        -0.16624902188777924,
        -0.2095365822315216,
        -0.30990704894065857,
        0.0,
        0.3873116374015808,
        -0.006451943889260292,
        -0.30634117126464844,
        0.0,
        0.2957530617713928,
        0.0,
        0.1351415514945984,
        -0.05744263157248497,
        0.0,
        -0.30712011456489563,
        -0.26232802867889404,
        -0.24913115799427032,
        0.3606341481208801,
        0.0,
        0.17704549431800842,
        0.0,
        0.33448705077171326,
        -0.052476994693279266,
        0.3068091571331024,
        -0.29825857281684875,
        0.0,
        -0.07285095006227493,
        -0.054467398673295975,
        0.2593049705028534,
        0.43174734711647034,
        0.06306838244199753,
        0.16992710530757904,
        0.0,
        0.20248553156852722,
        -0.07854455709457397,
        0.0,
        0.0,
        0.24342945218086243,
        -0.7826741337776184,
        0.0,
        -0.12125041335821152,
        0.0,
        -0.43758657574653625,
        0.015042169950902462,
        0.0,
        0.0,
        0.0,
        0.0,
        -0.30684715509414673,
        -0.34256982803344727,
        0.0,
        0.40248018503189087,
        0.20457108318805695,
        -0.2432868629693985,
        0.0,
        -0.2566210627555847,
        -0.20205704867839813,
        0.2596920430660248,
        -0.15911249816417694,
        0.0,
        0.10529820621013641,
        0.2578229606151581,
        -0.5421587824821472,
        0.16670383512973785,
        0.283033162355423,
        -0.09416605532169342,
        0.1705474704504013,
        0.0,
        0.0,
        -0.38744056224823,
        0.0,
        0.09518586099147797,
        -0.24250560998916626,
        0.27377474308013916,
        0.0,
        -0.20383651554584503,
        0.0,
        -0.2261332869529724,
        -0.10289464890956879,
        0.16878557205200195,
        0.13171890377998352,
        -0.16323617100715637,
        0.0,
        -0.07519742846488953,
        0.0,
        -0.2025509476661682,
        0.1708334982395172,
        -0.29525652527809143,
        -0.16894586384296417,
        0.12332151085138321,
        0.2171476036310196,
        -0.004080021753907204,
        0.0,
        0.04582538455724716,
        -0.18569083511829376,
        0.0,
        0.0,
        0.1971694529056549,
        -0.09664042294025421,
        0.0,
        0.2905571460723877,
        -0.24956582486629486,
        0.0,
        -0.2435431331396103,
        -0.20909534394741058,
        0.1542109102010727,
        0.0,
        0.005389682948589325,
        0.0,
        0.3111148774623871,
        0.0,
        -0.3836861848831177,
        0.11868233233690262,
        0.18442866206169128,
        -0.22835730016231537,
        -0.20010219514369965,
        -0.2632402181625366,
        -0.3383108079433441,
        -0.17917297780513763,
        -0.2765156030654907,
        -0.3893802762031555,
        0.14556396007537842,
        -0.009837230667471886,
        -0.3012292981147766,
        -0.2946440577507019,
        0.12154871970415115,
        -0.10748256742954254,
        -0.26139307022094727,
        0.0,
        0.0,
        -0.31392911076545715,
        -0.12082674354314804,
        0.09367609024047852,
        -0.22933776676654816,
        -0.1937965750694275,
        0.0,
        -0.2632099688053131,
        -0.18425318598747253,
        -0.005117306485772133,
        -0.13246938586235046,
        -0.20540611445903778,
        -0.2853910028934479,
        -0.296872079372406,
        0.0,
        0.2407531589269638,
        0.2764439284801483,
        -0.16151589155197144,
        0.1511119157075882,
        -0.09670259058475494,
        -0.01102377474308014,
        0.21356573700904846,
        0.421976774930954,
        0.36636266112327576,
        0.4989111125469208,
        0.14885608851909637,
        0.21909834444522858,
        0.3677741587162018,
        0.326962411403656,
        0.15123875439167023,
        0.0,
        0.00447874004021287,
        0.3360097408294678,
        -0.16749776899814606,
        0.0,
        0.0,
        -0.23973147571086884,
        0.00918617844581604,
        0.0,
        0.33091700077056885,
        0.03554908558726311,
        0.37837308645248413,
        -0.3008895516395569,
        -0.2314266562461853,
        0.4517473578453064,
        0.0,
        -0.6464459300041199,
        0.0,
        0.3346731960773468,
        0.2803648114204407,
        0.0,
        -0.3553086519241333,
        0.1768796592950821,
        -0.048798877745866776,
        0.0,
        0.0,
        0.0,
        -0.07143204659223557,
        -0.23427440226078033,
        0.0,
        -0.3787408769130707,
        -0.11257018893957138,
        0.0,
        0.0,
        -0.30600202083587646,
        -0.17666608095169067,
        0.0,
        0.22331424057483673,
        0.21183183789253235,
        0.20497404038906097,
        -0.2209049016237259,
        -0.20456141233444214,
        -0.2239428460597992,
        0.0,
        0.0,
        0.3206878900527954,
        0.4201385974884033,
        0.0,
        0.0696939080953598,
        -0.009802916087210178,
        -0.23493918776512146,
        -0.21656404435634613,
        -0.23975957930088043,
        0.06200666353106499,
        -0.19434183835983276,
        0.05469762161374092,
        -0.007198396138846874,
        0.0,
        -0.17955969274044037,
        -0.30178144574165344,
        0.17431867122650146,
        -0.008112339302897453
      ],
      "weights": [
        0.006104017607867718,
        0.06451974809169769,
        0.15959183871746063,
        -0.06437379866838455,
        0.08532704412937164,
        -0.31457090377807617,
        0.15371067821979523,
        0.00240363203920424,
        -0.09811633825302124,
        0.028081035241484642,
        0.1537899672985077,
        0.06099194660782814,
        0.0820670947432518,
        0.03388842195272446,
        -0.13120773434638977,
        0.013916073366999626,
        -0.46298280358314514,
        -0.45942071080207825,
        -0.2744434177875519,
        -0.09946082532405853,
        0.11432138085365295,
        -0.27214398980140686,
        0.1443241983652115,
        0.09338583052158356,
        0.08566101640462875,
        -0.056105148047208786,
        0.1347237527370453,
        -0.12692496180534363,
        0.05491604655981064,
        0.024659650400280952,
        -0.05003039166331291,
        -0.020370492711663246,
        -0.15616585314273834,
        0.10359283536672592,
        0.043145984411239624,
        -0.08047571033239365,
        -0.12462371587753296,
        -0.31918561458587646,
        -0.20719361305236816,
        -0.06764522939920425,
        -0.028839288279414177,
        1.2410318851470947,
        0.5307366847991943,
        0.05026640743017197,
        0.04451142996549606,
        -0.3328050374984741,
        -0.5759437680244446,
        -0.31482160091400146,
        -0.0849275290966034,
        0.3752087354660034,
        -0.8616666793823242,
        0.05724893510341644,
        -0.08875084668397903,
        0.38311269879341125,
        -0.30511540174484253,
        0.10709836333990097,
        -0.25363263487815857,
        -0.4710054397583008,
        -0.2625449299812317,
        -0.2531387507915497,
        -0.08495084941387177,
        0.4593437612056732,
        0.6780530214309692,
        -0.542846143245697,
        -0.004559737630188465,
        0.0616578608751297,
        0.3635362386703491,
        -0.11960948258638382,
        0.07217089831829071,
        -0.2053619772195816,
        0.25502172112464905,
        0.690555989742279,
        0.010898023843765259,
        0.20422665774822235,
        -1.142872929573059,
        -1.1655319929122925,
        -0.3868653476238251,
        -0.5026859045028687,
        -0.5798776149749756,
        -0.28341418504714966,
        0.00454423762857914,
        -0.011105833575129509,
        0.060666847974061966,
        -1.0706806182861328,
        -0.017779827117919922,
        0.10514651238918304,
        -0.02849929966032505,
        -0.5234576463699341,
        -0.03351351246237755,
        -0.19785480201244354,
        -0.20444665849208832,
        -0.1658409982919693,
        -0.025314921513199806,
        1.1177116632461548,
        0.0016919896006584167,
        -0.3980761766433716,
        0.6792166233062744,
        1.0986096858978271,
        0.2364351600408554,
        -0.7035138010978699,
        0.043032076209783554,
        0.38658636808395386,
        0.20444178581237793,
        -0.14462672173976898,
        0.09788509458303452,
        0.0957106277346611,
        -0.3033599853515625,
        0.008964411914348602,
        0.08173471689224243,
        0.040935661643743515,
        0.11693467199802399,
        0.13080941140651703,
        0.024884335696697235,
        -0.00442756712436676,
        -0.06746893376111984,
        0.161055326461792,
        -0.19692878425121307,
        -0.30258527398109436,
        -0.09325835108757019,
        -0.21313349902629852,
        0.044588249176740646,
        0.08279021829366684,
        -0.09147826582193375,
        -0.09040854126214981,
        0.004149564076215029,
        0.289471834897995,
        -0.05352310463786125,
        0.033363424241542816,
        -0.07055062055587769,
        0.025049690157175064,
        -0.16431958973407745,
        -0.0970257818698883,
        0.04770835116505623,
        -0.16291169822216034,
        -0.12833033502101898,
        -0.00851648859679699,
        0.1916963905096054,
        0.1284368485212326,
        0.016842195764183998,
        0.06027065962553024,
        -0.006311072036623955,
        0.2966214418411255,
        -0.1346510499715805,
        -0.08660189807415009,
        0.05688593536615372,
        -0.27733033895492554,
        -0.07269609719514847,
        0.14308476448059082,
        -0.0355406291782856,
        0.0418776273727417,
        -0.12173807621002197,
        -0.009966201148927212,
        0.08843884617090225,
        -0.010419863276183605,
        0.10478036850690842,
        0.05979858338832855,
        -0.41775277256965637,
        -0.5552040934562683,
        -0.32565099000930786,
        -0.19555431604385376,
        -0.07612371444702148,
        -0.2117837518453598,
        -0.20571862161159515,
        0.6950708031654358,
        -0.0004380081663839519,
        -0.15258553624153137,
        0.33988311886787415,
        0.1494431346654892,
        0.12678556144237518,
        0.535995602607727,
        0.2575925290584564,
        0.2148115485906601,
        0.04951615631580353,
        -0.20866891741752625,
        0.4711909294128418,
        0.08668946474790573,
        -0.5721685886383057,
        -0.5413758158683777,
        -0.46409955620765686,
        -0.07523678988218307,
        0.058897219598293304,
        0.12228251993656158,
        0.013572748750448227,
        -0.010544538497924805,
        -0.03472025692462921,
        0.049324218183755875,
        -0.3160860240459442,
        0.1172521784901619,
        -0.04538442939519882,
        0.218326136469841,
        0.3173656165599823,
        0.016403071582317352,
        -0.08010677248239517,
        0.059695590287446976,
        0.004012790042907,
        0.10133272409439087,
        -0.2737889885902405,
        -0.482611745595932,
        -0.3907332122325897,
        -0.413088321685791,
        -0.09498316794633865,
        0.5314297080039978,
        0.2711397707462311,
        -0.9845444560050964,
        0.06535299122333527,
        0.09602921456098557,
        -0.36015748977661133,
        -1.0197373628616333,
        0.053069621324539185,
        0.35075855255126953,
        -0.6000871062278748,
        0.6351470947265625,
        -0.07092732191085815,
        -0.924561619758606,
        0.1768730878829956,
        -0.3846904933452606,
        0.06200677528977394,
        0.591667652130127,
        0.6009804606437683,
        0.42859479784965515,
        -0.07785865664482117,
        0.12223023176193237,
        0.07068416476249695,
        -0.07499158382415771,
        -0.030050508677959442,
        0.029609709978103638,
        0.04738070070743561,
        -0.027147650718688965,
        0.043997615575790405,
        -0.06500855088233948,
        0.05986696481704712,
        0.060800597071647644,
        -0.1190997064113617,
        -0.025742270052433014,
        0.07652957737445831,
        -0.013316243886947632,
        -0.0010223686695098877,
        0.056015029549598694,
        -0.08427388966083527,
        0.10959219932556152,
        0.07568800449371338,
        0.32536640763282776,
        0.002369882771745324,
        -0.10355361551046371,
        -0.04021726921200752,
        -0.1577027589082718,
        0.144551619887352,
        -0.011307437904179096,
        0.021379876881837845,
        0.21445225179195404,
        0.27631932497024536,
        0.08526841551065445,
        -0.006213845685124397,
        0.05056364834308624,
        -0.0887688547372818,
        0.09658531844615936,
        -0.45600056648254395,
        -0.480523943901062,
        -0.3889647424221039,
        -0.2445669174194336,
        -0.041900843381881714,
        0.02192363142967224,
        0.007017076015472412,
        -0.025825388729572296,
        -0.10969873517751694,
        0.02353695034980774,
        -0.03746848553419113,
        -0.06637181341648102,
        0.07704128324985504,
        -0.03864625096321106,
        0.03466588258743286,
        -0.08932245522737503,
        -0.046200722455978394,
        0.10200968384742737,
        0.12387353181838989,
        0.02017788589000702,
        0.04498802125453949,
        0.013313591480255127,
        -0.04490751773118973,
        0.09222942590713501,
        0.027015384286642075,
        -0.5005631446838379,
        0.4496895670890808,
        -0.0018904664320871234,
        0.013680928386747837,
        0.4221873879432678,
        0.7149399518966675,
        0.05529530346393585,
        -0.13419273495674133,
        -0.16263680160045624,
        -0.022738141939044,
        -0.004328734241425991,
        -0.073700912296772,
        0.06319694221019745,
        0.2742158770561218,
        0.11628376692533493,
        -0.416730135679245,
        -0.5639641880989075,
        -0.4081754684448242,
        -0.6594817042350769,
        0.05865900591015816,
        -0.011956887319684029,
        -0.172775536775589,
        0.058651234954595566,
        0.03519248962402344,
        0.2677062451839447,
        0.08636994659900665,
        0.06204122304916382,
        0.11213013529777527,
        0.12398923933506012,
        0.03119128756225109,
        0.04912004619836807,
        -0.07055849581956863,
        0.021647492423653603,
        -0.16394157707691193,
        0.03653553128242493,
        0.3334724009037018,
        0.36329078674316406,
        0.25748375058174133,
        0.23672373592853546,
        0.11651169508695602,
        -0.05714936926960945,
        -0.17157410085201263,
        0.9341714382171631,
        -0.132684588432312,
        -0.4735787808895111,
        -0.12481027841567993,
        0.2523079514503479,
        -0.06253613531589508,
        0.12376651912927628,
        0.5814094543457031,
        -0.013232787139713764,
        -0.12418980151414871,
        -0.025078345090150833,
        -0.4590449035167694,
        -0.144096240401268,
        0.3682420253753662,
        0.3542485237121582,
        0.19073879718780518,
        0.34461838006973267,
        -0.13261424005031586,
        0.022628650069236755,
        0.00826127827167511,
        0.02725982666015625,
        0.007226243615150452,
        0.03978461027145386,
        -0.027073606848716736,
        0.03853704035282135,
        -0.043553426861763,
        0.06573823094367981,
        -0.016374334692955017,
        0.10735802352428436,
        0.08445252478122711,
        0.07612583041191101,
        -0.04288409650325775,
        -0.006576240062713623,
        -0.10546111315488815,
        0.11279952526092529,
        -0.1348298192024231,
        -0.13062305748462677,
        0.028546756133437157,
        -0.7080174684524536,
        -0.28034231066703796,
        0.09988214820623398,
        0.030346402898430824,
        0.5103564262390137,
        -0.1591382771730423,
        -0.156412273645401,
        0.0016208848683163524,
        -0.12061642855405807,
        -0.1750292032957077,
        -0.0628337562084198,
        -0.028184428811073303,
        -0.4234582483768463,
        0.12289503961801529,
        -0.13081802427768707,
        0.11408474296331406,
        0.02340421825647354,
        0.0033161782193928957,
        0.03358684107661247,
        -0.09668852388858795,
        0.08835388720035553,
        0.08708526194095612,
        -0.0705733597278595,
        0.027437299489974976,
        0.08685353398323059,
        0.06516873836517334,
        0.12554001808166504,
        -0.03135033696889877,
        -0.01358446478843689,
        0.005102962255477905,
        0.0061175525188446045,
        -0.06660716235637665,
        -0.07387623935937881,
        0.09734612703323364,
        -0.023246973752975464,
        0.03317597508430481,
        0.10463224351406097,
        -0.11404202878475189,
        0.009495258331298828,
        -0.056705452501773834,
        -0.07303613424301147,
        -0.08456340432167053,
        0.09016336500644684,
        0.04551467299461365,
        -0.061346061527729034,
        0.07384604215621948,
        -0.1110854372382164,
        -0.041084833443164825,
        -0.06987658143043518,
        0.07694768905639648,
        -0.006232142448425293,
        -0.056597717106342316,
        -0.09645473957061768,
        -0.07466207444667816,
        -0.10777054727077484,
        -0.02022244781255722,
        0.04719507694244385,
        0.08722320199012756,
        0.09591008722782135,
        0.02382802404463291,
        -0.04519524425268173,
        -0.22752539813518524,
        -0.016680577769875526,
        -0.08223602920770645,
        -0.19730785489082336,
        0.21099065244197845,
        -0.15589287877082825,
        -0.1244783103466034,
        -0.0904565379023552,
        -0.147569939494133,
        -0.09164882451295853,
        0.0894232988357544,
        0.02479596436023712,
        0.02530447579920292,
        -0.029858600348234177,
        0.01337451208382845,
        -0.14702537655830383,
        -0.1513214409351349,
        -0.13781237602233887,
        0.0238560289144516,
        -0.12283065170049667,
        -0.0880591869354248,
        -0.08423750847578049,
        0.06774701923131943,
        0.19509907066822052,
        0.04863978922367096,
        -0.08555677533149719,
        0.0773078128695488,
        0.044393546879291534,
        0.041293784976005554,
        -0.11659371852874756,
        -0.0016292420914396644,
        -0.15426282584667206,
        0.04193844273686409,
        -0.015743568539619446,
        0.42690038681030273,
        0.4623934030532837,
        0.2555074095726013,
        0.2681536078453064,
        0.10403841733932495,
        -0.06291725486516953,
        -0.09342288225889206,
        -0.10477020591497421,
        -0.12417673319578171,
        -0.10479810833930969,
        0.019154177978634834,
        0.0726042240858078,
        0.08927428722381592,
        -0.12965574860572815,
        0.21036706864833832,
        0.018840130418539047,
        -0.03082464635372162,
        -0.06770901381969452,
        -0.16088096797466278,
        -0.14461210370063782,
        0.09217807650566101,
        0.17860063910484314,
        0.07785599678754807,
        0.07611152529716492,
        -0.08308706432580948,
        0.06681625545024872,
        0.0565730482339859,
        -0.1269018054008484,
        0.08070392906665802,
        0.04722508043050766,
        0.06608676165342331,
        0.10025859624147415,
        -0.04309685900807381,
        0.04763036593794823,
        -0.11125973612070084,
        -0.0441327840089798,
        -0.026057472452521324,
        -0.09612438827753067,
        -0.03181686997413635,
        0.13654159009456635,
        -0.14022669196128845,
        0.1006818637251854,
        0.08674938231706619,
        -0.06751811504364014,
        0.049612607806921005,
        -0.7432999014854431,
        -0.07051663845777512,
        0.13447684049606323,
        -0.03167065605521202,
        0.22642213106155396,
        -0.1735890507698059,
        -0.00230231205932796,
        -0.04447663202881813,
        0.4192471504211426,
        -0.02164563722908497,
        -0.037728577852249146,
        0.020941264927387238,
        0.04833919182419777,
        -0.5169631242752075,
        -0.02313998155295849,
        0.1972893625497818,
        0.0942033901810646,
        0.22206832468509674,
        -0.014477618969976902,
        0.0368826650083065,
        -0.11303547024726868,
        -0.05861123278737068,
        -0.11468059569597244,
        0.030468037351965904,
        -0.22484423220157623,
        0.06525231897830963,
        -0.0080176442861557,
        -0.020351557061076164,
        -0.22395579516887665,
        0.0788349062204361,
        -0.0102328360080719,
        -0.05920788645744324,
        0.0816890224814415,
        -0.017031488940119743,
        0.15787896513938904,
        -0.5920109152793884,
        -0.5345742702484131,
        -0.354996919631958,
        -0.26377493143081665,
        -0.044800564646720886,
        -0.09437307715415955,
        0.02567031979560852,
        -0.050669580698013306,
        -0.11920776963233948,
        -0.11614964157342911,
        -0.10564739257097244,
        0.07837000489234924,
        0.12971049547195435,
        0.12887707352638245,
        -0.06425182521343231,
        0.09819634258747101,
        -0.04820062965154648,
        0.08050915598869324,
        0.0426374226808548,
        0.011838838458061218,
        0.00875939428806305,
        0.11150337755680084,
        -0.03827068209648132,
        -0.08183892071247101,
        -0.1210949569940567,
        -0.2507619559764862,
        0.28252604603767395,
        -0.13133931159973145,
        0.11758743971586227,
        -0.21820449829101562,
        0.10965406894683838,
        -0.004346251953393221,
        -0.07587958872318268,
        -0.11799605935811996,
        0.26467666029930115,
        -0.3413276970386505,
        0.07467027753591537,
        0.01974143646657467,
        -0.7817326188087463,
        -0.0049260701052844524,
        -0.10127650201320648,
        -0.17129047214984894,
        -0.03334403783082962,
        0.11747332662343979,
        -0.1296301931142807,
        -0.0521935299038887,
        -0.07257571816444397,
        -0.09980407357215881,
        0.059432074427604675,
        -0.03405255079269409,
        0.13095906376838684,
        -0.06573157757520676,
        -0.095807746052742,
        0.036031439900398254,
        -0.11497396975755692,
        -0.006400957703590393,
        -0.10172086954116821,
        -0.11492346227169037,
        -0.03876364976167679,
        -0.048160962760448456,
        -0.002336472272872925,
        -0.05870281904935837,
        0.027573823928833008,
        -4.602968692779541e-05,
        -0.0768212080001831,
        0.033646658062934875,
        0.1227598786354065,
        0.08232222497463226,
        -0.01673436164855957,
        -0.005901336669921875,
        0.071626678109169,
        0.0037099123001098633,
        -0.007370665669441223,
        -0.058471351861953735,
        0.06705611944198608,
        0.01871638000011444,
        -0.12493493407964706,
        0.04427887499332428,
        -0.01439688354730606,
        -0.07782692462205887,
        -0.07640639692544937,
        0.09437768161296844,
        -0.13434453308582306,
        -0.06993824988603592,
        0.028391025960445404,
        -0.39000770449638367,
        -0.023001445457339287,
        -0.5847868919372559,
        -0.107683464884758,
        0.15613675117492676,
        -0.11414659768342972,
        -0.5234504342079163,
        0.09283006191253662,
        -0.12194665521383286,
        0.0612025260925293,
        -0.22920411825180054,
        0.045519787818193436,
        -0.2597567141056061,
        0.2784443199634552,
        -0.20772896707057953,
        0.6175986528396606,
        0.6495504379272461,
        0.5729054808616638,
        0.28086885809898376,
        0.01895192451775074,
        0.3704952597618103,
        -0.16785961389541626,
        0.09436506778001785,
        0.00826087687164545,
        0.2811927795410156,
        0.07733222842216492,
        -0.15500508248806,
        -0.06204314902424812,
        0.2681600749492645,
        -0.02847495675086975,
        -0.042892951518297195,
        0.056171268224716187,
        0.03524244204163551,
        -0.3983722925186157,
        -0.1433432400226593,
        0.5285301804542542,
        0.4552115201950073,
        0.22957178950309753,
        0.09417574852705002,
        0.10728448629379272,
        0.027161376550793648,
        0.005969734396785498,
        0.050525665283203125,
        -0.015328153036534786,
        0.08484786748886108,
        -0.12574221193790436,
        -0.0820050835609436,
        -0.11636504530906677,
        -0.07760399580001831,
        0.013218119740486145,
        0.06823117285966873,
        0.12865935266017914,
        0.05385225638747215,
        0.026182996109128,
        -0.12273421138525009,
        0.3442976772785187,
        0.3367781341075897,
        0.02727096527814865,
        -0.05504729971289635,
        0.05795803293585777,
        -0.2657087445259094,
        -0.0756509006023407,
        -0.21602223813533783,
        -0.023801738396286964,
        0.08063478022813797,
        0.161595419049263,
        0.04414292424917221,
        -0.034230928868055344,
        -0.19682495296001434,
        -0.11450036615133286,
        0.07684089988470078,
        0.04598980024456978,
        -0.08778975903987885,
        0.002370216650888324,
        -0.027974944561719894,
        -0.3007688820362091,
        -0.2920132279396057,
        -0.14335951209068298,
        -0.03046063706278801,
        -0.03598726540803909,
        -0.08070027083158493,
        -0.07074864208698273,
        0.014567762613296509,
        -0.00578288733959198,
        -0.03627324849367142,
        -0.08388026058673859,
        -0.03550957888364792,
        -0.08449895679950714,
        -0.05156853795051575,
        0.03715066611766815,
        0.046780332922935486,
        0.06714309751987457,
        0.10358443856239319,
        -0.10167953372001648,
        0.10069924592971802,
        -0.04162807762622833,
        0.11438518762588501,
        0.11886820197105408,
        -0.12308614701032639,
        -0.07575751096010208,
        -0.08171868324279785,
        0.018687888979911804,
        -0.053614288568496704,
        -0.12445472925901413,
        -0.10461333394050598,
        0.035481467843055725,
        0.09651173651218414,
        0.06370052695274353,
        -0.04343508183956146,
        0.0046405792236328125,
        0.028221800923347473,
        0.08819597959518433,
        0.01882147789001465,
        0.0849522203207016,
        0.02948121726512909,
        0.011557355523109436,
        0.07792513072490692,
        -0.0834924578666687,
        -0.030046753585338593,
        0.00405745767056942,
        0.3124556243419647,
        0.01402837410569191,
        0.20136325061321259,
        0.05846191570162773,
        0.2534033954143524,
        0.16544435918331146,
        0.05090298131108284,
        -0.07043270766735077,
        0.05554189532995224,
        0.08762295544147491,
        0.07857781648635864,
        -0.05044430494308472,
        -0.16644854843616486,
        -0.33595481514930725,
        0.1681748479604721,
        0.39178231358528137,
        0.26395854353904724,
        0.22986191511154175,
        0.06534063816070557,
        -0.03046489506959915,
        -0.007002413272857666,
        -0.024961262941360474,
        0.06120404601097107,
        -0.10803570598363876,
        -0.0264216810464859,
        0.05621840059757233,
        0.11361116170883179,
        0.043328747153282166,
        0.0810488760471344,
        -0.1364254355430603,
        -0.01697898656129837,
        0.02015039324760437,
        -0.09276404976844788,
        -0.10692982375621796,
        0.11571797728538513,
        0.03050951659679413,
        0.04219096899032593,
        -0.017403103411197662,
        0.11076611280441284,
        0.08867344260215759,
        0.20267048478126526,
        -0.3179970383644104,
        -0.028732214123010635,
        -0.04753020778298378,
        0.12226702272891998,
        0.13964815437793732,
        0.0842055007815361,
        -0.14262783527374268,
        0.15285798907279968,
        0.5192620754241943,
        0.048083409667015076,
        -0.17547309398651123,
        -0.295559823513031,
        -0.02878347598016262,
        -0.2950296998023987,
        0.21059347689151764,
        0.09772511571645737,
        0.16441862285137177,
        0.02452193945646286,
        0.019983427599072456,
        0.49023041129112244,
        -0.5080927014350891,
        -0.11103010922670364,
        -0.012137181125581264,
        -0.33325859904289246,
        0.26294833421707153,
        -0.10933511704206467,
        0.04611223191022873,
        -0.15313571691513062,
        0.015491141006350517,
        0.09194596856832504,
        -0.041939787566661835,
        0.39681610465049744,
        -0.2847069203853607,
        -0.10455978661775589,
        -0.045182965695858,
        0.05317549407482147,
        0.0713789239525795,
        -0.024752171710133553,
        -0.0039916932582855225,
        -0.010487392544746399,
        -0.10087374597787857,
        0.07750639319419861,
        -0.12709477543830872,
        0.0030557364225387573,
        -0.029839247465133667,
        0.03891238570213318,
        0.012541115283966064,
        -0.0016608387231826782,
        0.0729130208492279,
        -0.06732408702373505,
        -0.062457069754600525,
        -0.07092568278312683,
        -0.09145030379295349,
        -0.12465188652276993,
        -0.1367281973361969,
        0.040794238448143005,
        0.07607053220272064,
        -0.036955468356609344,
        -0.11177180707454681,
        0.06929928064346313,
        -0.05816701799631119,
        -0.09378781914710999,
        -0.050584010779857635,
        -0.024211101233959198,
        0.10068446397781372,
        0.048815175890922546,
        -0.0027566254138946533,
        -0.0017352700233459473,
        0.06250998377799988,
        0.12386542558670044,
        0.020410820841789246,
        0.08357080817222595,
        -0.11089419573545456,
        -0.1365036517381668,
        -0.023681476712226868,
        -0.03487008810043335,
        0.07380552589893341,
        -0.0232202410697937,
        0.003086475655436516,
        -0.1585029810667038,
        -0.07415357977151871,
        0.002604497829452157,
        0.10155953466892242,
        0.15163856744766235,
        -0.0296019334346056,
        0.03445959463715553,
        -0.13551092147827148,
        0.2142220437526703,
        -0.13088439404964447,
        -0.054516151547431946,
        0.05525772646069527,
        0.04677422344684601,
        0.07945378869771957,
        0.1941019743680954,
        0.14548766613006592,
        0.13587705790996552,
        0.0552215576171875,
        0.0674188882112503,
        0.09270962327718735,
        -0.3049517571926117,
        0.19552384316921234,
        -0.16650328040122986,
        0.008855696767568588,
        0.08432319760322571,
        -0.3293148875236511,
        0.03826972097158432,
        -0.1329728215932846,
        0.054251670837402344,
        -0.13725797832012177,
        -0.14207182824611664,
        0.0027353244367986917,
        -0.1072433665394783,
        -0.11854279041290283,
        -0.10977204144001007,
        -0.25229403376579285,
        -0.37373727560043335,
        -0.30205103754997253,
        -0.13255304098129272,
        -0.07107281684875488,
        0.7912755012512207,
        -0.09195282310247421,
        -0.12591707706451416,
        -0.006629449315369129,
        0.3149929642677307,
        -0.37071019411087036,
        -0.2443297803401947,
        0.06624197959899902,
        0.2721368670463562,
        0.023556668311357498,
        0.25689277052879333,
        -0.10146809369325638,
        0.2768286168575287,
        0.19969068467617035,
        0.3301565945148468,
        -0.3181338608264923,
        -0.09443648159503937,
        0.12657010555267334,
        -0.05423540249466896,
        0.08459653705358505,
        -0.05432507023215294,
        -0.2705979645252228,
        -0.13991717994213104,
        -0.025033533573150635,
        0.4391973912715912,
        0.24438603222370148,
        -0.1155368983745575,
        0.013951413333415985,
        0.027384594082832336,
        0.04586898162961006,
        0.054135240614414215,
        -0.14860092103481293,
        -0.07703458517789841,
        0.16617050766944885,
        0.18633316457271576,
        0.3198489546775818,
        0.28044936060905457,
        0.25905144214630127,
        0.26954197883605957,
        -0.11126936972141266,
        0.050104305148124695,
        -0.12032921612262726,
        0.06693591177463531,
        -0.11280736327171326,
        -0.05762658268213272,
        -0.08131559193134308,
        0.00904989242553711,
        0.1270604133605957,
        -0.08288045227527618,
        0.09894232451915741,
        -0.019772343337535858,
        -0.11554290354251862,
        -0.12406094372272491,
        0.03226950764656067,
        -0.024117112159729004,
        0.015815719962120056,
        -0.06724198162555695,
        0.051081582903862,
        0.05180497467517853,
        0.06136027351021767,
        0.1760646104812622,
        0.22291027009487152,
        0.08437810838222504,
        0.03632882237434387,
        0.02970145270228386,
        0.3295814096927643,
        0.18221843242645264,
        -0.13927507400512695,
        0.06457903981208801,
        0.07568863779306412,
        0.13902437686920166,
        -0.04054475203156471,
        -0.06394627690315247,
        -0.009182870388031006,
        -0.06233781948685646,
        0.1565021425485611,
        0.21920128166675568,
        0.05886266008019447,
        0.010982339270412922,
        0.0449332669377327,
        -0.7263829112052917,
        0.7801249027252197,
        -0.4448200464248657,
        -0.057442013174295425,
        -0.24979349970817566,
        -0.05333478003740311,
        -0.01765085570514202,
        -0.10908058285713196,
        -0.42166948318481445,
        0.19225449860095978,
        -0.19469667971134186,
        -0.08123985677957535,
        0.0032659873832017183,
        0.5667309761047363,
        -0.14128290116786957,
        -0.1850651651620865,
        -0.11703754961490631,
        -0.05725521966814995,
        0.03789950907230377,
        0.06862594932317734,
        0.32472124695777893,
        -0.6084571480751038,
        -0.07611718773841858,
        -0.10433906316757202,
        0.20212973654270172,
        0.5101626515388489,
        -0.03989033028483391,
        -0.026794934645295143,
        0.08223380148410797,
        0.0016744730528444052,
        0.09460161626338959,
        0.060175418853759766,
        -0.25641077756881714,
        0.4417242407798767,
        -0.30237579345703125,
        -0.27508920431137085,
        -0.3862307369709015,
        -0.16197921335697174,
        -0.10531754791736603,
        0.03865416720509529,
        0.6702089309692383,
        -0.30516505241394043,
        0.2455151230096817,
        -0.13612902164459229,
        -0.2725673317909241,
        -0.06840928643941879,
        0.3777145445346832,
        -0.02842625416815281,
        -0.22832515835762024,
        -0.19376544654369354,
        -0.4008437693119049,
        0.09712990373373032,
        -0.3743339776992798,
        0.3867432475090027,
        0.19710493087768555,
        -0.21609444916248322,
        -0.0925368145108223,
        -0.07238728553056717,
        0.2647143304347992,
        -0.028568072244524956,
        -0.4930460751056671,
        -0.09593762457370758,
        0.37295570969581604,
        0.04059722274541855,
        -0.3828817307949066,
        -0.11031648516654968,
        0.3965769410133362,
        -0.052152056246995926,
        -0.8847498893737793,
        0.1769832819700241,
        0.030359799042344093,
        0.014617661945521832,
        -0.8068290948867798,
        -0.04921690747141838,
        -0.11724280565977097,
        0.3722912669181824,
        0.23402546346187592,
        -0.0366748608648777,
        -0.16699202358722687,
        -0.10746108740568161,
        0.03513959050178528,
        -0.03714648634195328,
        -0.01822654902935028,
        -0.13288946449756622,
        0.019468992948532104,
        0.03890715539455414,
        0.005728080868721008,
        -0.03206484764814377,
        -0.07125084847211838,
        -0.08661168813705444,
        0.029874831438064575,
        -0.019095703959465027,
        -0.05043674260377884,
        0.12837940454483032,
        0.09887754917144775,
        -0.03020668774843216,
        -0.01653384417295456,
        0.11620369553565979,
        0.1219506561756134,
        -0.0594446137547493,
        0.018595919013023376,
        0.10243368148803711,
        0.06413380801677704,
        -0.06994520127773285,
        -0.0883786678314209,
        -0.016846083104610443,
        -0.005281314253807068,
        -0.0689038336277008,
        0.04823729395866394,
        0.07426267862319946,
        0.09447379410266876,
        -0.12939506769180298,
        0.011305168271064758,
        0.03444160521030426,
        -0.05790003389120102,
        -0.053426146507263184,
        0.04125143587589264,
        0.11541414260864258,
        -0.11832898110151291,
        0.028075819835066795,
        -0.540603518486023,
        -0.03495246171951294,
        -1.407300353050232,
        -0.0677257627248764,
        -0.1406778246164322,
        -0.23194392025470734,
        0.033046163618564606,
        -0.09298401325941086,
        0.8417404890060425,
        -0.4907968044281006,
        -0.6674355268478394,
        0.12888295948505402,
        0.46111541986465454,
        -0.37089818716049194,
        0.4483305513858795,
        0.5956246852874756,
        0.22008748352527618,
        -0.15872392058372498,
        0.014408248476684093,
        0.07252176851034164,
        0.024429593235254288,
        0.028311846777796745,
        -0.02557607926428318,
        0.06389519572257996,
        -0.11867676675319672,
        -0.08569391071796417,
        0.0065165432170033455,
        0.07021918892860413,
        0.05186392739415169,
        0.10527645796537399,
        0.027179406955838203,
        0.036850232630968094,
        -0.07052518427371979,
        0.07341538369655609,
        0.07427714020013809,
        0.4275726079940796,
        0.2605304718017578,
        0.2504589855670929,
        0.20777933299541473,
        0.03801819309592247,
        0.21461661159992218,
        -0.06608589738607407,
        -0.18443217873573303,
        0.049995966255664825,
        -0.08727982640266418,
        0.07830578088760376,
        -0.09107045084238052,
        -0.015306630171835423,
        0.11565189808607101,
        0.017549844458699226,
        -0.051137346774339676,
        0.04396844282746315,
        -0.05739765241742134,
        0.02196868322789669,
        -0.11026904731988907,
        -0.3171200156211853,
        -0.3283958435058594,
        -0.13729523122310638,
        -0.015104444697499275,
        0.10656927525997162,
        0.09756125509738922,
        -0.20003332197666168,
        0.19519738852977753,
        0.024200772866606712,
        -0.00993390940129757,
        0.018989089876413345,
        0.09925489127635956,
        -0.09931733459234238,
        0.08208372443914413,
        -0.09596570581197739,
        -0.10550196468830109,
        0.021241215988993645,
        0.11701387166976929,
        0.022005971521139145,
        0.016202760860323906,
        0.32915517687797546,
        0.44231852889060974,
        0.40231138467788696,
        0.13346849381923676,
        0.022620098665356636,
        -0.7829241752624512,
        -0.3041715919971466,
        0.25986990332603455,
        -0.03444647416472435,
        0.2715165615081787,
        -0.005506961606442928,
        0.17920860648155212,
        0.014921137131750584,
        0.023816371336579323,
        -0.00923552829772234,
        0.3963196873664856,
        -0.011423559859395027,
        0.19609658420085907,
        0.01785414293408394,
        0.10016974806785583,
        -0.6271541714668274,
        -0.7155731320381165,
        -0.3115392029285431,
        -0.15824171900749207,
        -0.06324734538793564,
        -0.043845973908901215,
        -0.2784070074558258,
        0.028469745069742203,
        0.1124567836523056,
        -0.26590242981910706,
        0.02614119090139866,
        -0.009731524623930454,
        0.024408791214227676,
        -0.2650999426841736,
        0.2352476865053177,
        -0.029441069811582565,
        -0.023650940507650375,
        -0.04555939882993698,
        -0.19998617470264435,
        -0.08494193851947784,
        -0.2053881287574768,
        -0.037675581872463226,
        0.005091967526823282,
        -0.18927474319934845,
        0.0022749255876988173,
        -0.22019918262958527,
        -0.5266305804252625,
        0.03725847601890564,
        -0.0171672236174345,
        0.24919994175434113,
        0.3176015615463257,
        -0.03475610911846161,
        0.00287540047429502,
        -0.2806299328804016,
        0.14142915606498718,
        -0.08638935536146164,
        0.09112931787967682,
        -0.14748701453208923,
        0.3388911783695221,
        -0.013783611357212067,
        -0.3997320532798767,
        -0.3439081311225891,
        -0.33124592900276184,
        -0.23889490962028503,
        0.010455603711307049,
        -0.05312906578183174,
        -0.23042523860931396,
        0.024569779634475708,
        0.005564144812524319,
        -0.5269930362701416,
        0.2562774419784546,
        0.09574981033802032,
        0.0887480154633522,
        -0.34424126148223877,
        0.08879025280475616,
        0.07811998575925827,
        -0.11841120570898056,
        -0.05394136533141136,
        -0.1563616245985031,
        0.1377924382686615,
        0.6341049671173096,
        0.670839786529541,
        0.4341682493686676,
        0.3438768684864044,
        -0.07128024846315384,
        -0.02078387886285782,
        0.17641039192676544,
        0.014635350555181503,
        -0.01028491836041212,
        -0.20495206117630005,
        0.11145313829183578,
        0.05747557431459427,
        0.11147943139076233,
        -0.2380819171667099,
        -0.2333686649799347,
        -0.02808871865272522,
        0.08138962835073471,
        -0.1176719069480896,
        0.08708468824625015,
        -0.05085141584277153,
        -0.23346656560897827,
        0.06029593199491501,
        -0.08212397992610931,
        -0.00709905568510294,
        0.0623757541179657,
        -0.20365013182163239,
        0.137481227517128,
        0.002537704538553953,
        -0.060118965804576874,
        -0.03915837034583092,
        -0.14050881564617157,
        0.04670018330216408,
        0.021543508395552635,
        -0.13849925994873047,
        0.1159210130572319,
        0.03179137036204338,
        0.08531539887189865,
        0.0050866142846643925,
        0.109151192009449,
        -0.027656190097332,
        -0.15554220974445343,
        -0.1753309965133667,
        -0.005414022132754326,
        -0.06646069884300232,
        0.00505046546459198,
        -0.04891327768564224,
        0.12681317329406738,
        -0.024973437190055847,
        -0.006919488310813904,
        0.05499903857707977,
        -0.06890066713094711,
        0.07070091366767883,
        -0.09525460749864578,
        0.01715308427810669,
        -0.13481095433235168,
        0.11950123310089111,
        -0.11353643238544464,
        0.11761662364006042,
        0.12422928214073181,
        0.07486066222190857,
        -0.11214074492454529,
        0.06037129461765289,
        -0.08661789447069168,
        0.08362741768360138,
        -0.11573264747858047,
        0.056215450167655945,
        -0.12638011574745178,
        0.035405173897743225,
        0.034731313586235046,
        0.12194609642028809,
        -0.07645311951637268,
        0.12203750014305115,
        0.08887189626693726,
        -0.12135116010904312,
        0.03881251811981201,
        -0.10782568901777267,
        -0.08960990607738495,
        0.07892748713493347,
        0.020604223012924194,
        0.04743450880050659,
        -0.12409666180610657,
        -0.13121268153190613,
        -0.0718877837061882,
        -0.016556210815906525,
        0.07661370933055878,
        -0.19512474536895752,
        0.23033060133457184,
        -0.010213085450232029,
        -0.11170458048582077,
        -0.32778528332710266,
        -0.2855895757675171,
        -0.016557790338993073,
        -0.09615392237901688,
        -0.08548248559236526,
        -0.4391942620277405,
        0.08827217668294907,
        0.06542062759399414,
        0.05636345595121384,
        0.10523050278425217,
        0.14756041765213013,
        -0.16962717473506927,
        -0.31723326444625854,
        -0.06021704152226448,
        -0.1410541981458664,
        0.0452803373336792,
        0.46842917799949646,
        -0.16479182243347168,
        -0.05071718245744705,
        0.0227995365858078,
        0.42475593090057373,
        0.05912977457046509,
        -0.09648725390434265,
        -0.10801995545625687,
        0.32688260078430176,
        -0.12186486274003983,
        -0.08368003368377686,
        -0.004634452052414417,
        0.3234928548336029,
        0.40784427523612976,
        0.03292078897356987,
        0.019046228379011154,
        0.03377881273627281,
        -0.08465282618999481,
        0.11602739989757538,
        -0.09930653870105743,
        -0.10284368693828583,
        -0.12338551878929138,
        -0.061213552951812744,
        -0.1344420164823532,
        0.045458272099494934,
        -0.02918853610754013,
        -0.07896685600280762,
        0.061285600066185,
        -0.11646765470504761,
        -0.05065612494945526,
        0.09571760892868042,
        -0.053820811212062836,
        0.012525662779808044,
        0.1338253915309906,
        0.07838492095470428,
        -0.022209621965885162,
        0.04663485288619995,
        0.08759687840938568,
        0.0915960818529129,
        -0.13105690479278564,
        -0.09412694722414017,
        0.05181107297539711,
        0.06960279494524002,
        -0.0006287925643846393,
        0.05496769770979881,
        -0.09643904119729996,
        0.021571973338723183,
        0.11656442284584045,
        0.06127462536096573,
        -0.0790250226855278,
        -0.029682932421565056,
        -0.05309385806322098,
        -0.05845165625214577,
        -0.11631786078214645,
        -0.09225091338157654,
        -0.039568688720464706,
        -0.11062700301408768,
        -0.040339741855859756,
        0.032765671610832214,
        0.011561783961951733,
        -0.007243803236633539,
        -0.2077382504940033,
        -0.23002642393112183,
        0.03943391144275665,
        0.24022765457630157,
        0.48761191964149475,
        0.112067312002182,
        0.06383130699396133,
        0.05067159980535507,
        -0.1396593451499939,
        0.04624379053711891,
        -0.11056642979383469,
        0.09369190782308578,
        0.06608472019433975,
        -0.044633928686380386,
        -0.1762847751379013,
        -0.20993982255458832,
        -0.16172555088996887,
        -0.06338239461183548,
        -0.02127760648727417,
        0.12577219307422638,
        0.3422876298427582,
        0.1695287823677063,
        -0.007426043041050434,
        -0.23498350381851196,
        -0.18527135252952576,
        -0.12961843609809875,
        0.020850392058491707,
        0.47731679677963257,
        -0.024268021807074547,
        -0.04375004768371582,
        -0.002620235551148653,
        0.2218392938375473,
        -0.13621513545513153,
        -0.36185750365257263,
        -0.011069838888943195,
        0.004710100125521421,
        -0.03441902622580528,
        -0.07584705948829651,
        0.04808279126882553,
        0.11427611857652664,
        -0.014487305656075478,
        0.2616766691207886,
        -0.10670427978038788,
        0.14000600576400757,
        -0.06272485852241516,
        -0.020743176341056824,
        0.037738241255283356,
        -0.44004443287849426,
        0.17124131321907043,
        0.05219591036438942,
        -0.047046832740306854,
        0.17594043910503387,
        -0.3527745008468628,
        0.11535696685314178,
        0.11807754635810852,
        0.10871302336454391,
        0.0024379969108849764,
        0.17458471655845642,
        0.0653529018163681,
        -0.0915476530790329,
        -0.21455352008342743,
        1.0873099565505981,
        -0.10473570227622986,
        -0.5888156890869141,
        -0.15005174279212952,
        -0.01233694702386856,
        -0.11382568627595901,
        -0.548638641834259,
        0.11194609105587006,
        0.5110569596290588,
        -0.08499731868505478,
        0.19115035235881805,
        0.252197802066803,
        0.5368973016738892,
        0.3959675133228302,
        0.3544979691505432,
        0.26281484961509705,
        0.4000619053840637,
        0.06085287034511566,
        0.17880205810070038,
        0.14863471686840057,
        0.1380956768989563,
        -0.10116973519325256,
        0.022395318374037743,
        0.37478742003440857,
        -0.013115761801600456,
        0.08900903910398483,
        0.19018787145614624,
        -0.2934165596961975,
        -0.06263729184865952,
        -0.031156646087765694,
        0.04310700297355652,
        0.2871566116809845,
        0.014427676796913147,
        -0.2954728305339813,
        -0.3736027479171753,
        -0.24625204503536224,
        0.020932728424668312,
        0.08952007442712784,
        0.2646182179450989,
        0.392903208732605,
        -0.23857243359088898,
        -0.13329719007015228,
        -0.2539842426776886,
        -0.3522343337535858,
        -0.11650922149419785,
        -0.1430206000804901,
        -0.46712765097618103,
        -0.4472184479236603,
        0.13298290967941284,
        0.09993508458137512,
        0.13922660052776337,
        0.05297234281897545,
        -0.058993369340896606,
        -0.3064464032649994,
        -0.17697137594223022,
        0.0056171719916164875,
        -0.060253702104091644,
        -0.04180152714252472,
        0.09503264725208282,
        -0.010626345872879028,
        -0.023224353790283203,
        -0.0501147136092186,
        -0.09516988694667816,
        0.09175634384155273,
        -0.030007250607013702,
        0.01281227171421051,
        -0.015799030661582947,
        0.049766406416893005,
        0.06636372208595276,
        -0.03623165935277939,
        -0.05201459676027298,
        0.0838308036327362,
        -0.09021449089050293,
        0.01075562834739685,
        0.027224436402320862,
        -0.11576957255601883,
        0.11311587691307068,
        -0.06504994630813599,
        -0.05653780698776245,
        0.0011701583862304688,
        0.12831369042396545,
        -0.08885021507740021,
        -0.000899389386177063,
        0.05201162397861481,
        0.08286145329475403,
        -0.07834689319133759,
        -0.06735451519489288,
        0.011835187673568726,
        -0.019875705242156982,
        -0.11192070692777634,
        0.011141210794448853,
        0.11334049701690674,
        0.029423758387565613,
        -0.12940751016139984,
        -0.13253144919872284,
        -0.11072802543640137,
        -0.005978286266326904,
        0.08143782615661621,
        -0.2120911180973053,
        -0.10865508764982224,
        -0.13796764612197876,
        -0.04004600644111633,
        0.2645028233528137,
        -0.03255821391940117,
        0.06293952465057373,
        -0.12724506855010986,
        0.09597942978143692,
        0.3457145392894745,
        0.06664476543664932,
        -0.04442921280860901,
        -0.296292245388031,
        -0.11114361137151718,
        -0.22478482127189636,
        -0.5720143914222717,
        -0.42733055353164673,
        -0.3414192795753479,
        -0.3596004545688629,
        -0.10622742772102356,
        0.5640786290168762,
        -0.0761222392320633,
        -0.4059391915798187,
        0.032151028513908386,
        0.10049571841955185,
        -0.44930708408355713,
        -0.5309849381446838,
        0.11226024478673935,
        0.025068536400794983,
        -0.2551474869251251,
        -0.2568379044532776,
        0.047329846769571304,
        0.6488646864891052,
        0.20837317407131195,
        -0.6046248078346252,
        0.43434152007102966,
        0.19333791732788086,
        0.2620665431022644,
        0.020673207938671112,
        0.02888917550444603,
        0.0097847580909729,
        -0.15899406373500824,
        -0.0008412140305154026,
        -0.07774563878774643,
        -0.14875690639019012,
        -0.008043029345571995,
        -0.11156947910785675,
        0.04939143732190132,
        -0.27906185388565063,
        0.07028652727603912,
        -0.029695842415094376,
        0.09422099590301514,
        -0.1800524890422821,
        -0.02493634633719921,
        -0.07735792547464371,
        0.2238229215145111,
        0.14347286522388458,
        0.06689540296792984,
        0.08242284506559372,
        -0.08273492753505707,
        -0.11936478316783905,
        -0.11945728957653046,
        -0.24611349403858185,
        0.0542089082300663,
        -0.25958123803138733,
        -0.021827850490808487,
        0.050825923681259155,
        0.09965520352125168,
        0.32298851013183594,
        -0.10113540291786194,
        -0.016230449080467224,
        0.09199456125497818,
        0.8203625082969666,
        0.42359912395477295,
        -0.020709402859210968,
        0.5926315188407898,
        0.4700317680835724,
        0.4152847230434418,
        0.13053405284881592,
        -0.04497457295656204,
        -0.11318253725767136,
        0.045848652720451355,
        0.07538850605487823,
        -0.04676838219165802,
        0.03309717774391174,
        -0.08534734696149826,
        0.06670771539211273,
        -0.11100881546735764,
        0.1174415647983551,
        -0.07976366579532623,
        0.07826358079910278,
        0.035440295934677124,
        0.10560135543346405,
        0.1216595470905304,
        0.029122591018676758,
        -0.0888081043958664,
        -0.11996615678071976,
        -0.0882824957370758,
        0.11525923013687134,
        -0.01853594183921814,
        -0.25845807790756226,
        1.0178848505020142,
        0.8014663457870483,
        -0.023106878623366356,
        0.5510397553443909,
        0.06574589759111404,
        -0.08710585534572601,
        0.08729077130556107,
        0.5594820380210876,
        0.14867077767848969,
        0.05049039423465729,
        -0.18163985013961792,
        -0.2450564205646515,
        -0.37885770201683044,
        1.0759862661361694,
        0.009405874647200108,
        -0.9294074177742004,
        -0.03850264847278595,
        -0.36175253987312317,
        -0.02677222527563572,
        0.10228686779737473,
        0.11052706837654114,
        -0.022356653586030006,
        0.0259099081158638,
        0.019563069567084312,
        0.07893364131450653,
        0.028060130774974823,
        -0.0696532353758812,
        0.0762963593006134,
        -0.04777280241250992,
        0.04442794620990753,
        0.019537966698408127,
        -0.12765999138355255,
        0.043168675154447556,
        0.011082958430051804,
        -0.004230352118611336,
        -0.05649472773075104,
        0.025570867583155632,
        -0.12976320087909698,
        0.06181366369128227,
        -0.35596349835395813,
        -0.24058988690376282,
        -0.12333772331476212,
        0.098023921251297,
        0.36811867356300354,
        -0.2713349461555481,
        -0.2640056908130646,
        -0.09251437336206436,
        -0.05287455394864082,
        -0.18665416538715363,
        -0.013409541919827461,
        -0.1162121593952179,
        -0.281024307012558,
        0.3197017014026642,
        -0.11073359847068787,
        0.46243301033973694,
        0.35549527406692505,
        0.20510241389274597,
        0.012457544915378094,
        -0.07457644492387772,
        0.0946902483701706,
        -0.07010135054588318,
        -0.07857166230678558,
        -0.059376806020736694,
        -0.04543609917163849,
        -0.10402902960777283,
        -0.0029062479734420776,
        -0.11216793954372406,
        -0.0036005228757858276,
        0.04615093767642975,
        0.0027625709772109985,
        -0.11077810078859329,
        0.0281781405210495,
        0.1270160675048828,
        0.056773558259010315,
        -0.03406420350074768,
        0.06735177338123322,
        -0.11197545379400253,
        0.13386806845664978,
        -0.041795093566179276,
        0.02104901149868965,
        0.08705304563045502,
        -0.08429400622844696,
        0.09999676793813705,
        0.1475522518157959,
        -0.011322726495563984,
        0.02658688649535179,
        0.09447891265153885,
        -0.055861055850982666,
        -0.05667976662516594,
        -0.04577862098813057,
        -0.09361346811056137,
        0.15276388823986053,
        -0.02199099026620388,
        0.02507368102669716,
        -0.4145413339138031,
        -0.510847270488739,
        -0.31706035137176514,
        -0.16487319767475128,
        -0.11415845155715942,
        -0.07519601285457611,
        -0.016198396682739258,
        -0.1034519299864769,
        0.04527968168258667,
        -0.0717925876379013,
        -0.09613247960805893,
        0.059353068470954895,
        -0.09042506664991379,
        0.05463786423206329,
        -0.03348054736852646,
        0.056690335273742676,
        0.014902323484420776,
        0.13384029269218445,
        0.020512312650680542,
        -0.12134907394647598,
        -0.028471022844314575,
        -0.12568995356559753,
        -0.06839460879564285,
        -0.028302304446697235,
        0.008700072765350342,
        0.018339043483138084,
        0.489211767911911,
        0.25626805424690247,
        -0.08919520676136017,
        0.11486209183931351,
        -0.6754027605056763,
        0.14928461611270905,
        0.07065405696630478,
        -0.10954111814498901,
        0.015835892409086227,
        -0.05704324319958687,
        0.08596009016036987,
        0.28092601895332336,
        -0.1388675719499588,
        0.13651645183563232,
        -0.33791327476501465,
        -0.09823371469974518,
        -0.06509358435869217,
        -0.11518235504627228,
        -0.09495555609464645,
        0.2894761562347412,
        0.22335056960582733,
        -0.07119391113519669,
        0.0907536968588829,
        -0.09538832306861877,
        -0.12799052894115448,
        0.029189467430114746,
        0.12452731281518936,
        0.11249946802854538,
        -0.3167048692703247,
        0.021476082503795624,
        -0.08767703920602798,
        0.17543499171733856,
        -0.04298437386751175,
        -0.17549735307693481,
        -0.047542281448841095,
        0.05037432163953781,
        -0.018707748502492905,
        -0.019275052472949028,
        -0.13196757435798645,
        0.07348121702671051,
        -0.030179955065250397,
        0.08864931762218475,
        -0.050720736384391785,
        0.07311464846134186,
        -0.13312098383903503,
        0.11970832943916321,
        -0.04199770838022232,
        0.01104043424129486,
        0.08146016299724579,
        0.0004123896360397339,
        0.028339490294456482,
        0.09753561019897461,
        0.038826361298561096,
        -0.09458505362272263,
        0.05405080318450928,
        -0.10487209260463715,
        0.13135382533073425,
        0.033731505274772644,
        0.07969526201486588,
        0.1429695338010788,
        0.03207070752978325,
        0.030247878283262253,
        0.05571042001247406,
        -0.21352195739746094,
        0.1417296975851059,
        0.09537002444267273,
        -0.1578274965286255,
        0.1503419280052185,
        0.053958743810653687,
        0.12711533904075623,
        0.08214738219976425,
        0.09465240687131882,
        0.05490133911371231,
        0.054752204567193985,
        0.2375626415014267,
        0.29360082745552063,
        0.29091915488243103,
        0.036893729120492935,
        0.039207573980093,
        0.365754634141922,
        0.11343137919902802,
        -0.054359070956707,
        -0.0158234816044569,
        -0.24939078092575073,
        -0.2323606312274933,
        -0.01964857429265976,
        0.028954951092600822,
        -0.32733291387557983,
        0.1876964569091797,
        -0.13214224576950073,
        0.0895647257566452,
        0.04816088452935219,
        -0.294203519821167,
        -0.07941889017820358,
        0.2960437834262848,
        0.27525997161865234,
        0.26600971817970276,
        0.10447338223457336,
        0.017015697434544563,
        -0.2210908979177475,
        -0.2191246747970581,
        -0.1060381680727005,
        0.042243435978889465,
        -0.14363159239292145,
        0.01551455445587635,
        9.211387077812105e-05,
        0.02242930978536606,
        -0.02684284746646881,
        0.16235312819480896,
        -0.0504617877304554,
        -0.11154677718877792,
        0.1265028715133667,
        -0.10727961361408234,
        -0.07559993863105774,
        0.4738323986530304,
        0.2387399673461914,
        0.22701580822467804,
        0.14085808396339417,
        0.03781822696328163,
        0.5637398362159729,
        -0.43711546063423157,
        0.2657371163368225,
        -0.046729762107133865,
        -0.46829211711883545,
        0.8214250802993774,
        0.30597183108329773,
        -0.03966347128152847,
        -0.058692850172519684,
        0.3472041189670563,
        0.26534798741340637,
        0.07393008470535278,
        0.01869169995188713,
        -0.5933499336242676,
        -0.016925834119319916,
        -0.6499729156494141,
        -0.6782366037368774,
        -0.5058941841125488,
        -0.4179742932319641,
        -0.04133354127407074,
        -0.05475744605064392,
        -0.0032939910888671875,
        -0.04869768023490906,
        -0.06477437168359756,
        -0.08882828056812286,
        0.026361674070358276,
        0.11030697822570801,
        -0.11236930638551712,
        -0.13465666770935059,
        -0.1026356965303421,
        0.06728190183639526,
        -0.07539872080087662,
        -0.005056008696556091,
        -0.09668271243572235,
        -0.02407228946685791,
        -0.011611223220825195,
        -0.037186674773693085,
        0.10354715585708618,
        0.06486336886882782,
        0.04810340330004692,
        -0.11418469250202179,
        -0.19255663454532623,
        -0.022565560415387154,
        -0.11274102330207825,
        -0.06679517030715942,
        -0.15438058972358704,
        -0.5917661786079407,
        -0.05104827880859375,
        0.18626943230628967,
        0.2703516483306885,
        -0.21780024468898773,
        0.11909553408622742,
        -0.32976752519607544,
        0.21450141072273254,
        0.1670624166727066,
        -0.24126455187797546,
        -0.04788228124380112,
        -0.18293361365795135,
        -0.008594788610935211,
        -0.026604600250720978,
        0.12580269575119019,
        0.06296834349632263,
        -0.0348939523100853,
        -0.0647934079170227,
        -0.014142535626888275,
        0.013742834329605103,
        -0.02409171313047409,
        -0.08434247970581055,
        -0.015817835927009583,
        0.02794484794139862,
        0.11936667561531067,
        -0.11135739088058472,
        -0.07363621890544891,
        -0.04801258444786072,
        0.07643160223960876,
        -0.13120360672473907,
        0.11514231562614441,
        0.09403336048126221,
        0.09584933519363403,
        -0.016821803525090218,
        -0.3239774703979492,
        -0.05487485229969025,
        0.3826085329055786,
        -0.026430385187268257,
        -0.23882639408111572,
        -0.4374738335609436,
        -0.3200557231903076,
        -0.10093765705823898,
        0.22182796895503998,
        -0.44095468521118164,
        0.2830917537212372,
        0.10419043898582458,
        0.14078301191329956,
        -0.19014230370521545,
        -0.5403993129730225,
        -0.647232174873352,
        -0.5048595070838928,
        0.10383158177137375,
        0.24797865748405457,
        -0.04248470067977905,
        -0.37263160943984985,
        -0.4372735023498535,
        0.6041126251220703,
        -0.09819389134645462,
        -0.392137736082077,
        0.027930760756134987,
        0.2940495014190674,
        0.12703891098499298,
        -0.32584813237190247,
        -0.35743623971939087,
        -0.37446266412734985,
        0.026997501030564308,
        0.12913721799850464,
        -0.047456447035074234,
        0.02950640767812729,
        -0.18997535109519958,
        -0.10717039555311203,
        -0.763332724571228,
        0.809739351272583,
        -0.006458716932684183,
        -0.28107184171676636,
        0.48112279176712036,
        0.4987539052963257,
        -0.030001966282725334,
        0.1465063840150833,
        0.3417651057243347,
        0.045699845999479294,
        -0.003567024366930127,
        -0.19277647137641907,
        -0.24184001982212067,
        -0.07949212193489075,
        0.03570788353681564,
        0.15090852975845337,
        0.2478494793176651,
        0.261312335729599,
        -0.6782907247543335,
        -0.6459648013114929,
        -0.4589918851852417,
        -0.09250017255544662,
        0.11693717539310455,
        0.5332360863685608,
        0.0568368025124073,
        0.027316050603985786,
        -0.1314045935869217,
        -0.05014808103442192,
        -0.19299395382404327,
        -0.0015467058401554823,
        0.014459483325481415,
        -0.36325085163116455,
        -0.11554288864135742,
        -0.14399699866771698,
        -0.031181342899799347,
        0.4770949184894562,
        -0.0721568688750267,
        -0.33339741826057434,
        0.4942109286785126,
        0.4347407817840576,
        0.11667393147945404,
        -0.021100031211972237,
        -0.08547727763652802,
        -0.048667870461940765,
        0.07761308550834656,
        -0.07167783379554749,
        -0.06598961353302002,
        -0.02182742953300476,
        -0.09531885385513306,
        0.09646759927272797,
        0.04768940806388855,
        0.018823787569999695,
        -0.04540181905031204,
        -0.07855211198329926,
        -0.07020892202854156,
        -0.10088589042425156,
        0.10426078736782074,
        -0.012934081256389618,
        0.05387255549430847,
        -0.09349723160266876,
        0.09509564936161041,
        0.052188605070114136,
        0.06516999751329422,
        0.8794099688529968,
        0.22151947021484375,
        -0.09871302545070648,
        -0.05548908933997154,
        0.11956141889095306,
        0.13573279976844788,
        -0.3720451593399048,
        -0.08629026263952255,
        0.40103545784950256,
        -0.24181310832500458,
        0.48798424005508423,
        -0.019833030179142952,
        0.21200856566429138,
        0.8455357551574707,
        -0.06320300698280334,
        0.06237668916583061,
        0.03876429423689842,
        0.050176724791526794,
        0.1171252503991127,
        -0.09927079826593399,
        -0.2161545306444168,
        -0.1933145970106125,
        -0.08862274140119553,
        0.036867208778858185,
        0.08563835918903351,
        -0.13328035175800323,
        0.020932460203766823,
        0.10093775391578674,
        0.3246175944805145,
        -0.097747802734375,
        -0.0910685807466507,
        0.08435678482055664,
        -0.24807080626487732,
        0.27774372696876526,
        0.01610058732330799,
        0.009591999463737011,
        -0.0652380958199501,
        0.11796432733535767,
        0.15596330165863037,
        -0.022265030071139336,
        0.15660366415977478,
        0.32587769627571106,
        -0.0026765684597194195,
        0.07970432937145233,
        0.07394122332334518,
        0.14007346332073212,
        -0.07174461334943771,
        -0.11229721456766129,
        -0.13260310888290405,
        0.07668793946504593,
        0.12324327975511551,
        0.10115575045347214,
        0.11015257984399796,
        -0.02583169937133789,
        -0.04414167255163193,
        -0.3453848361968994,
        -0.3330793082714081,
        -0.21108214557170868,
        -0.18986234068870544,
        -0.022792942821979523,
        0.7034100890159607,
        0.27434736490249634,
        -0.5075708031654358,
        0.009348706342279911,
        -0.06518705934286118,
        -0.23707400262355804,
        -0.09899649024009705,
        0.043503716588020325,
        -0.30092814564704895,
        -0.4164751470088959,
        0.06441347301006317,
        -0.09239973872900009,
        0.08842028677463531,
        0.3549828827381134,
        -0.8704603910446167,
        -0.7701339721679688,
        -0.9446128010749817,
        -0.9651768207550049,
        -0.8074900507926941,
        -0.048797041177749634,
        -0.43785563111305237,
        -0.2052311897277832,
        0.21406333148479462,
        0.001580436248332262,
        0.3809012472629547,
        0.06813085824251175,
        0.1058511883020401,
        0.03492913767695427,
        -0.02543565072119236,
        -0.08342127501964569,
        -0.018000081181526184,
        -0.0458461232483387,
        -0.1730426847934723,
        -0.14911502599716187,
        -0.510057270526886,
        -0.13390831649303436,
        -0.16575749218463898,
        0.07935163378715515,
        0.1004011332988739,
        0.0014296506997197866,
        0.006812742445617914,
        -0.02199786901473999,
        -0.019884636625647545,
        0.11895710229873657,
        0.043035391718149185,
        0.18761512637138367,
        -0.13831466436386108,
        0.05427379906177521,
        0.06038002297282219,
        0.03607753664255142,
        0.07535886764526367,
        -0.048476286232471466,
        -0.08908543735742569,
        -0.06897680461406708,
        -0.09905978292226791,
        -0.2544139623641968,
        -0.2606299817562103,
        -0.1366029679775238,
        -0.13801053166389465,
        -0.047728851437568665,
        -0.11979945749044418,
        -0.1178780347108841,
        -0.012243270874023438,
        -0.07146928459405899,
        -0.07052729278802872,
        0.025793001055717468,
        -0.06605471670627594,
        -0.06584779918193817,
        -0.052319906651973724,
        0.11043018102645874,
        0.11645352840423584,
        -0.053498394787311554,
        0.021169856190681458,
        -0.08722303807735443,
        -0.089117631316185,
        0.002873733639717102,
        -0.0919908732175827,
        -0.05205745995044708,
        0.04975415766239166,
        0.007487001828849316,
        -0.08845032006502151,
        0.0744171291589737,
        0.17562207579612732,
        -0.02014811336994171,
        -0.16889521479606628,
        -0.024276098236441612,
        0.19065243005752563,
        0.02647513896226883,
        -0.04567493498325348,
        0.05574026331305504,
        0.06860876083374023,
        0.00285184639506042,
        0.03551647067070007,
        0.19764447212219238,
        0.14044761657714844,
        -0.3574666678905487,
        -0.28541094064712524,
        -0.1141977310180664,
        -0.17589737474918365,
        0.027553286403417587,
        -0.27772945165634155,
        0.19673416018486023,
        -0.6942178606987,
        -0.19131673872470856,
        -0.36311590671539307,
        -0.07793015986680984,
        0.2051992267370224,
        0.06409770250320435,
        0.49556007981300354,
        -0.09736929088830948,
        -0.06038527563214302,
        0.08198695629835129,
        0.10089603811502457,
        -0.24738742411136627,
        0.7305550575256348,
        0.42490845918655396,
        0.5888099074363708,
        0.19244058430194855,
        0.5273696184158325,
        -0.03420853614807129,
        0.028270021080970764,
        -0.08381500840187073,
        -0.00024080276489257812,
        -0.07150562107563019,
        -0.03777705878019333,
        0.08895611763000488,
        -0.10463589429855347,
        -0.038330063223838806,
        0.07476024329662323,
        0.0944564938545227,
        -0.07719403505325317,
        0.0300990492105484,
        -0.06692739576101303,
        -0.08447933197021484,
        -0.012303702533245087,
        -0.052807487547397614,
        -0.06193508207798004,
        -0.0011349618434906006,
        0.023404434323310852,
        -0.10875798016786575,
        0.0026721060276031494,
        -0.04091275483369827,
        -0.040705710649490356,
        0.03694760799407959,
        -0.012265115976333618,
        -0.06968745589256287,
        -0.009481549263000488,
        -0.0062162429094314575,
        0.13302910327911377,
        0.1278807818889618,
        -0.10590948164463043,
        -0.07964339852333069,
        0.00023251771926879883,
        0.021482259035110474,
        -0.0691244974732399,
        -0.0754750519990921,
        0.08651959896087646,
        -0.13083598017692566,
        -0.089034803211689,
        0.10156166553497314,
        -0.20756462216377258,
        0.2731039822101593,
        0.005052010994404554,
        -0.018677666783332825,
        -0.11508835852146149,
        -0.18179437518119812,
        -0.103777676820755,
        -0.05055025592446327,
        0.061683911830186844,
        0.09840813279151917,
        -0.05617312341928482,
        -0.10629330575466156,
        -0.010666951537132263,
        0.1835382580757141,
        -0.022861365228891373,
        -0.36029690504074097,
        -0.3786555826663971,
        -0.2724422216415405,
        -0.052275650203228,
        -0.04191901162266731,
        0.03268337994813919,
        0.2903684079647064,
        0.6279453039169312,
        0.08392554521560669,
        0.2727161645889282,
        0.36701393127441406,
        0.5082964897155762,
        -0.08976176381111145,
        0.08447275310754776,
        0.12676212191581726,
        0.440799355506897,
        -0.1541309803724289,
        -0.17785629630088806,
        0.2609066665172577,
        0.7520036101341248,
        0.47341012954711914,
        1.0010255575180054,
        0.7551496028900146,
        1.0690414905548096,
        -0.1322391927242279,
        0.1234077513217926,
        0.05650326609611511,
        0.10924778878688812,
        0.06881575286388397,
        0.008454874157905579,
        -0.03867488354444504,
        0.11173789203166962,
        -0.09552969038486481,
        -0.10359638929367065,
        -0.045540764927864075,
        -0.10618890821933746,
        -0.10094788670539856,
        -0.02131650596857071,
        -0.11072589457035065,
        0.12670215964317322,
        -0.1040618047118187,
        -0.008869394659996033,
        -0.050801701843738556,
        -0.021577678620815277,
        -0.031541407108306885,
        0.19844137132167816,
        -0.1544969081878662,
        -0.45915207266807556,
        -0.09488344937562943,
        -0.14740507304668427,
        -0.4360334873199463,
        0.010061141103506088,
        0.07881258428096771,
        -0.12815850973129272,
        0.021742917597293854,
        -0.28490695357322693,
        0.12811370193958282,
        0.41057199239730835,
        0.27029019594192505,
        0.07746050506830215,
        0.26464441418647766,
        0.1542356014251709,
        0.0844075083732605,
        -0.185186967253685,
        -0.032112643122673035,
        0.11881858110427856,
        0.09392108023166656,
        0.11276084184646606,
        -0.018633686006069183,
        -0.06992492824792862,
        0.13557955622673035,
        0.037427544593811035,
        -0.10753314197063446,
        -0.08540816605091095,
        -0.05166853964328766,
        -0.003632083535194397,
        -0.05067454278469086,
        -0.09922576695680618,
        0.08506903052330017,
        0.08668391406536102,
        0.06715105473995209,
        0.03581662476062775,
        -0.0651572197675705,
        -0.07157264649868011,
        0.010606314986944199,
        0.4758653938770294,
        -0.023043790832161903,
        0.7527204751968384,
        0.00859763566404581,
        0.3050360083580017,
        -0.1884654313325882,
        0.26731836795806885,
        0.041006360203027725,
        0.3631936311721802,
        0.23064880073070526,
        0.002961173187941313,
        -0.12983471155166626,
        -0.34844377636909485,
        -0.040968749672174454,
        -0.09679096192121506,
        0.6997740268707275,
        0.7131744027137756,
        0.3729925751686096,
        0.48031294345855713,
        0.023132380098104477,
        -0.005999182350933552,
        -0.06362229585647583,
        -0.029669947922229767,
        -0.09102179110050201,
        0.041246626526117325,
        0.18913830816745758,
        0.04159264266490936,
        -0.05414121225476265,
        0.05946563556790352,
        -0.03701037913560867,
        0.06723210960626602,
        0.02859717793762684,
        -0.020569296553730965,
        -0.050153009593486786,
        -0.16350333392620087,
        0.11123905330896378,
        -0.04197562858462334,
        -0.019801316782832146,
        -0.07410888373851776,
        -0.1297875940799713,
        0.13295990228652954,
        0.06265725195407867,
        0.09703075885772705,
        -0.05021239072084427,
        -0.1044369786977768,
        0.10831235349178314,
        0.03545407950878143,
        -0.10805189609527588,
        -0.05913512408733368,
        -0.12179297208786011,
        0.029928341507911682,
        -0.009786635637283325,
        -0.022382616996765137,
        0.06729336082935333,
        0.04656714200973511,
        -0.11422315239906311,
        -0.11786630749702454,
        0.10952308773994446,
        -0.04093489050865173,
        -0.021800659596920013,
        0.09321330487728119,
        -0.10873551666736603,
        -0.10538138449192047,
        -0.12155023962259293,
        0.045343607664108276,
        0.038092851638793945,
        0.022960886359214783,
        -0.05018983036279678,
        -0.12288383394479752,
        -0.007088661193847656,
        -0.022456176578998566,
        0.068632572889328,
        -0.018041148781776428,
        0.08701612055301666,
        -0.090013787150383,
        0.08690325915813446,
        0.005108967423439026,
        -0.0871489942073822,
        -0.09005726873874664,
        -0.07217494398355484,
        -0.031979478895664215,
        -0.1066274493932724,
        0.09360049664974213,
        -0.1334645003080368,
        -0.053872331976890564,
        0.08435720205307007,
        0.05959309637546539,
        -0.03136800229549408,
        -0.06258383393287659,
        -0.1120571717619896,
        0.0037131160497665405,
        0.04527449607849121,
        0.07123507559299469,
        -0.12394772469997406,
        -0.1248093768954277,
        0.028308436274528503,
        0.02337537705898285,
        -0.13228334486484528,
        0.05216209590435028,
        -0.0938672125339508,
        -0.0436093807220459,
        -0.02480308711528778,
        -0.0396127924323082,
        -0.1170724406838417,
        0.062466636300086975,
        0.12860336899757385,
        0.08789700269699097,
        0.0072947293519973755,
        -0.08120812475681305,
        0.06951282918453217,
        0.03278137743473053,
        -0.056847237050533295,
        -0.02910858392715454,
        0.12447690963745117,
        -0.06724168360233307,
        -0.040999822318553925,
        0.07555685937404633,
        -0.0825236588716507,
        0.09574839472770691,
        0.05008585751056671,
        0.06771659851074219,
        -0.020235003903508186,
        -0.037915341556072235,
        0.07415686547756195,
        0.041282955557107925,
        0.09126880019903183,
        -0.14223060011863708,
        -0.015020935796201229,
        0.04774962365627289,
        0.12682849168777466,
        0.042892083525657654,
        -0.1141933873295784,
        0.06451229751110077,
        -0.1108509823679924,
        -0.12058589607477188,
        0.46650394797325134,
        0.41814061999320984,
        0.32345402240753174,
        0.06791046261787415,
        0.03581307828426361,
        -0.2220122516155243,
        0.03787755221128464,
        -0.006240059155970812,
        0.0012804636498913169,
        0.2861883342266083,
        -0.07412464916706085,
        -0.06707572191953659,
        0.010788281448185444,
        0.14462308585643768,
        -0.18095900118350983,
        0.04145399481058121,
        -0.06436534970998764,
        0.03653294965624809,
        0.012897366657853127,
        -0.0041230106726288795,
        0.45610499382019043,
        0.5095245242118835,
        0.34843018651008606,
        0.24791337549686432,
        -0.06256594508886337,
        0.025232717394828796,
        0.1222638487815857,
        -0.11062544584274292,
        0.02267308533191681,
        -0.009284362196922302,
        0.0715227872133255,
        -0.09831687808036804,
        -0.09286557883024216,
        0.08827044069766998,
        -0.01607910543680191,
        -0.03612252324819565,
        0.019585415720939636,
        -0.023190990090370178,
        0.11262330412864685,
        0.10763797163963318,
        0.07760904729366302,
        -0.05272682011127472,
        -0.10306202620267868,
        -0.017687715590000153,
        0.04023848846554756,
        0.7489468455314636,
        -0.16585612297058105,
        -0.36636072397232056,
        -0.06248966604471207,
        -0.44628727436065674,
        -0.06696445494890213,
        0.07913085073232651,
        0.04092660918831825,
        -0.019443731755018234,
        0.2604506015777588,
        -0.12867912650108337,
        -0.09551084041595459,
        0.027659105136990547,
        -0.395541250705719,
        -0.07362109422683716,
        -0.5278618931770325,
        -0.5523393750190735,
        -0.15113547444343567,
        -0.5351960062980652,
        0.07717569172382355,
        0.08685160428285599,
        -0.05665571242570877,
        -0.023112265393137932,
        0.037114452570676804,
        0.12398071587085724,
        0.013830701820552349,
        0.038932591676712036,
        -0.15420864522457123,
        -0.04450719803571701,
        -0.13173994421958923,
        -0.05221593752503395,
        -0.10493140667676926,
        0.09381038695573807,
        0.34082406759262085,
        0.012469429522752762,
        -0.22920916974544525,
        -0.319264680147171,
        -0.14134792983531952,
        -0.2316569685935974,
        -0.08265294879674911,
        -0.01937229558825493,
        -0.05963599681854248,
        -0.031750112771987915,
        0.1352468729019165,
        0.17102780938148499,
        -0.1380067765712738,
        -0.11333370208740234,
        0.01607636734843254,
        -0.011969737708568573,
        0.06315878033638,
        -0.09348317235708237,
        0.09022387862205505,
        0.05438463017344475,
        -0.1522955447435379,
        -0.1230909451842308,
        0.46879613399505615,
        0.33516860008239746,
        0.33391237258911133,
        0.10400521755218506,
        -0.13576045632362366,
        -0.07152099907398224,
        0.07860156893730164,
        0.004846513271331787,
        -0.12600134313106537,
        -0.038998574018478394,
        0.13443639874458313,
        -0.07506585121154785,
        -0.02795083075761795,
        -0.035514600574970245,
        0.13439801335334778,
        -0.007753446698188782,
        -0.11241436004638672,
        -0.08229604363441467,
        -0.011000469326972961,
        -0.02002287656068802,
        0.07986567914485931,
        0.05910472571849823,
        0.02657368779182434,
        -0.032276757061481476,
        -0.0911535695195198,
        -0.03922572731971741,
        -0.07804398238658905,
        0.09831739962100983,
        0.11244097352027893,
        -0.023326072841882706,
        0.331604540348053,
        0.23517145216464996,
        0.114035464823246,
        -0.5734898447990417,
        -0.23988790810108185,
        -0.007090626750141382,
        -0.14102286100387573,
        0.032501157373189926,
        -0.030316578224301338,
        0.007433150429278612,
        0.4637434184551239,
        0.5190341472625732,
        0.3088149428367615,
        0.21984751522541046,
        0.04481317102909088,
        0.8479236364364624,
        0.1156238466501236,
        0.12615694105625153,
        0.046397484838962555,
        -0.54029381275177,
        -0.6387024521827698,
        0.12217779457569122,
        0.05268530547618866,
        0.008628500625491142,
        0.4914093315601349,
        -0.062130432575941086,
        -0.029468132182955742,
        0.4295932650566101,
        -0.5965473651885986,
        -0.3001859486103058,
        0.15607045590877533,
        0.048473816365003586,
        0.20728133618831635,
        -0.05132943019270897,
        -0.08600208908319473,
        -0.13092459738254547,
        -0.4278533160686493,
        -0.011395426467061043,
        0.12046393752098083,
        -0.3974775969982147,
        0.8177605867385864,
        0.15772196650505066,
        -0.09449300169944763,
        0.10170801728963852,
        -0.17702673375606537,
        -0.108357734978199,
        0.04080544412136078,
        -0.21693205833435059,
        -0.0022160583175718784,
        -0.6946020126342773,
        -0.44484594464302063,
        -0.503643810749054,
        -0.15304429829120636,
        -0.1175353080034256,
        0.04313741996884346,
        -0.6700297594070435,
        0.1851678490638733,
        -0.1968255192041397,
        -0.03423892334103584,
        -0.570143461227417,
        0.09287311881780624,
        0.002081627957522869,
        -0.08015261590480804,
        -0.2381872981786728,
        -0.14313510060310364,
        -0.027437787503004074,
        0.10252344608306885,
        -0.4379993677139282,
        -0.19198989868164062,
        -0.20989835262298584,
        0.05265067517757416,
        0.09059463441371918,
        0.08276879042387009,
        -0.10913969576358795,
        -0.07714385539293289,
        -0.0939716249704361,
        0.10110589861869812,
        0.04477778077125549,
        -0.06731713563203812,
        -0.10130514204502106,
        -0.016698062419891357,
        -0.05617938190698624,
        0.1046849936246872,
        0.07002834975719452,
        -0.04155922681093216,
        -0.003759637475013733,
        -0.1317153126001358,
        -0.02251441776752472,
        0.10692992806434631,
        0.066260427236557,
        0.08099134266376495,
        -0.09246513247489929,
        -0.06411722302436829,
        0.04669097065925598,
        0.039609767496585846,
        0.41943806409835815,
        -0.08428467065095901,
        -0.10633891075849533,
        -0.0788736417889595,
        -0.14812776446342468,
        0.24540846049785614,
        -0.1444164365530014,
        0.08537163585424423,
        -0.1308816820383072,
        -0.20134477317333221,
        -0.20977391302585602,
        0.09227355569601059,
        0.30024147033691406,
        0.21796630322933197,
        0.12113729119300842,
        -0.22333166003227234,
        -0.4083114564418793,
        -0.13176490366458893,
        -0.2780570089817047,
        0.02233150228857994,
        -0.5224363803863525,
        -0.033442284911870956,
        0.024954980239272118,
        0.051765672862529755,
        0.10043726861476898,
        -0.18058165907859802,
        -0.09170368313789368,
        -0.10075266659259796,
        -0.06902699172496796,
        -0.2250927835702896,
        0.03557412326335907,
        0.07602628320455551,
        -0.25189048051834106,
        -0.1354513168334961,
        -0.031237389892339706,
        -0.49654749035835266,
        -0.3629313111305237,
        -0.13236293196678162,
        -0.04563916474580765,
        -0.05740804970264435,
        1.0989949703216553,
        -0.20568175613880157,
        -0.14338883757591248,
        0.08291521668434143,
        0.17320731282234192,
        -0.11548811942338943,
        0.3978927433490753,
        -0.22972674667835236,
        -0.1472153663635254,
        -0.18384265899658203,
        0.8926509022712708,
        -0.010966256260871887,
        -0.10519102215766907,
        0.17023083567619324,
        0.4842403829097748,
        0.31542277336120605,
        0.5456257462501526,
        0.6342907547950745,
        0.42070651054382324,
        0.06929545849561691,
        -0.06605525314807892,
        0.24397453665733337,
        0.019879361614584923,
        0.08982435613870621,
        -0.1698417365550995,
        -0.09621576219797134,
        0.008963443338871002,
        0.10935574769973755,
        -0.000808264478109777,
        -0.0824619010090828,
        0.00681244907900691,
        -0.08421123772859573,
        0.10587989538908005,
        -0.04943394660949707,
        0.02539144828915596,
        -0.16131804883480072,
        -0.1920354962348938,
        -0.17923130095005035,
        -0.06247694790363312,
        0.04106416553258896,
        0.11300873011350632,
        0.02484402246773243,
        -0.014013930223882198,
        0.02901862934231758,
        -0.09391584247350693,
        -0.03343876451253891,
        0.05586536228656769,
        -0.0407957099378109,
        -0.11748427897691727,
        -0.007666300982236862,
        0.07503531128168106,
        -0.005253073759377003,
        0.011567186564207077,
        0.0697951540350914,
        0.12096608430147171,
        -0.5137948989868164,
        -0.4146386682987213,
        -0.2474614530801773,
        -0.20611552894115448,
        -0.13781769573688507,
        -0.30847519636154175,
        0.5648078322410583,
        -0.25193700194358826,
        0.10393287241458893,
        -0.411935031414032,
        -0.5735379457473755,
        0.11152219772338867,
        0.08147841691970825,
        -0.014133819378912449,
        -0.43823567032814026,
        -0.03270844742655754,
        -0.09725991636514664,
        0.24833208322525024,
        -0.3649768531322479,
        0.3646017611026764,
        0.24365916848182678,
        0.2988842725753784,
        0.11135941743850708,
        0.10013449192047119,
        -0.10452629625797272,
        -0.2052774876356125,
        0.2204991728067398,
        0.015320331789553165,
        0.05997242033481598,
        -0.04457201808691025,
        0.17759853601455688,
        -0.014866610988974571,
        -0.06686636060476303,
        -0.1339980959892273,
        0.2786790728569031,
        -0.1650792956352234,
        0.03317966312170029,
        -0.016204630956053734,
        -0.5655811429023743,
        -0.27070391178131104,
        -0.25535449385643005,
        -0.3556502163410187,
        -0.18672190606594086,
        0.07329966127872467,
        -0.030718393623828888,
        0.026185020804405212,
        -0.0324304923415184,
        0.03606502711772919,
        -0.01700807362794876,
        0.00754702091217041,
        -0.019596315920352936,
        -0.06781917810440063,
        -0.12269745022058487,
        0.03686216473579407,
        0.00420968234539032,
        0.11891376972198486,
        -0.025094233453273773,
        0.0940767377614975,
        0.12736892700195312,
        -0.11332044005393982,
        -0.09731890261173248,
        -0.10952495038509369,
        0.08992445468902588,
        0.13544589281082153,
        -0.047996751964092255,
        -0.06311686336994171,
        0.04719008505344391,
        0.10377383232116699,
        -0.09341097623109818,
        -0.07825048267841339,
        -0.06374341994524002,
        -0.09413430094718933,
        0.07911829650402069,
        0.11412906646728516,
        -0.10337860882282257,
        -0.02254050225019455,
        -0.1338934451341629,
        0.0067923665046691895,
        0.11712849140167236,
        0.11695575714111328,
        0.07042258977890015,
        -0.06754213571548462,
        0.01340608298778534,
        0.07993577420711517,
        0.0012734703486785293,
        0.17348600924015045,
        0.12187600135803223,
        0.20821627974510193,
        0.05648253485560417,
        0.6663303971290588,
        -0.0953880324959755,
        0.043710336089134216,
        -0.1150118038058281,
        0.1479974240064621,
        0.3656003475189209,
        0.07960245758295059,
        0.07099016010761261,
        -0.14645452797412872,
        -0.02412997931241989,
        -0.15802128612995148,
        0.673243522644043,
        0.5756027102470398,
        0.31590691208839417,
        0.313745379447937,
        -0.09502579271793365,
        0.03141801059246063,
        0.028487250208854675,
        -0.06482931971549988,
        -0.019429683685302734,
        -0.026392005383968353,
        0.130691260099411,
        -0.052361860871315,
        -0.04953464865684509,
        0.048131778836250305,
        -0.058215267956256866,
        -0.010920032858848572,
        -0.06269898265600204,
        -0.04147010296583176,
        0.11003676056861877,
        0.004494324326515198,
        0.1010313332080841,
        0.09302277863025665,
        0.11805364489555359,
        -0.049892358481884,
        -0.009916849434375763,
        0.025491898879408836,
        0.14993947744369507,
        0.004271580372005701,
        0.09288620948791504,
        -0.728950560092926,
        -0.13611973822116852,
        -0.07540691643953323,
        -0.02302531525492668,
        0.07439791411161423,
        -0.4032597541809082,
        0.10287636518478394,
        0.07286913692951202,
        0.053853459656238556,
        -0.025417819619178772,
        0.07070404291152954,
        -0.3427909016609192,
        -0.2623981237411499,
        -0.14604005217552185,
        -0.20130640268325806,
        0.02577798441052437,
        0.1411595195531845,
        0.036843232810497284,
        -0.15452446043491364,
        0.09434907883405685,
        0.13376793265342712,
        -0.08873411267995834,
        -0.10013600438833237,
        -0.13577048480510712,
        -0.0015537681756541133,
        0.06505139172077179,
        -0.06468638777732849,
        0.055944718420505524,
        -0.16541966795921326,
        0.029172027483582497,
        0.136003777384758,
        0.44772210717201233,
        0.31076568365097046,
        0.3015349805355072,
        0.005015315022319555,
        0.11036588251590729,
        0.11481277644634247,
        0.1880619078874588,
        0.015034165233373642,
        -0.043998416513204575,
        -0.0010916138999164104,
        0.03970775380730629,
        0.1156841292977333,
        0.05270935595035553,
        0.06551740318536758,
        0.09761642664670944,
        0.019700735807418823,
        -0.0995226502418518,
        0.12952609360218048,
        0.15540780127048492,
        -0.04396037757396698,
        -0.41476067900657654,
        -0.5284895896911621,
        -0.17544327676296234,
        -0.24858343601226807,
        0.001773536205291748,
        -0.12282829731702805,
        0.09404866397380829,
        -0.10556408017873764,
        -0.03479986637830734,
        0.009520888328552246,
        -0.0689060240983963,
        0.11087252199649811,
        0.039477989077568054,
        0.03018200397491455,
        0.05241432785987854,
        0.13066667318344116,
        -0.10564203560352325,
        -0.03295157104730606,
        -0.10098879039287567,
        -0.05296037346124649,
        -0.024936772882938385,
        0.023274242877960205,
        -0.10986435413360596,
        0.06030815839767456,
        0.10029885172843933,
        -0.4118969440460205,
