{
  "input_sequences": [],
  "inputs": [
    {
      "name": "node_0",
      "variables": [
        {
          "name": "1l_pt",
          "offset": 0,
          "scale": 1
        },
        {
          "name": "1l_eta",
          "offset": 0,
          "scale": 1
        },
        {
          "name": "1l_phi",
          "offset": 0,
          "scale": 1
        },
        {
          "name": "1l_btag",
          "offset": 0,
          "scale": 1
        },
        {
          "name": "2l_pt",
          "offset": 0,
          "scale": 1
        },
        {
          "name": "2l_eta",
          "offset": 0,
          "scale": 1
        },
        {
          "name": "2l_phi",
          "offset": 0,
          "scale": 1
        },
        {
          "name": "2l_btag",
          "offset": 0,
          "scale": 1
        },
        {
          "name": "3l_pt",
          "offset": 0,
          "scale": 1
        },
        {
          "name": "3l_eta",
          "offset": 0,
          "scale": 1
        },
        {
          "name": "3l_phi",
          "offset": 0,
          "scale": 1
        },
        {
          "name": "3l_btag",
          "offset": 0,
          "scale": 1
        },
        {
          "name": "4l_pt",
          "offset": 0,
          "scale": 1
        },
        {
          "name": "4l_eta",
          "offset": 0,
          "scale": 1
        },
        {
          "name": "4l_phi",
          "offset": 0,
          "scale": 1
        },
        {
          "name": "4l_btag",
          "offset": 0,
          "scale": 1
        },
        {
          "name": "1leading_b",
          "offset": 0,
          "scale": 1
        },
        {
          "name": "2leading_b",
          "offset": 0,
          "scale": 1
        },
        {
          "name": "3leading_b",
          "offset": 0,
          "scale": 1
        },
        {
          "name": "4leading_b",
          "offset": 0,
          "scale": 1
        }
      ]
    }
  ],
  "layers": [
    {
      "activation": "rectified",
      "architecture": "dense",
      "bias": [
        -0.09431475400924683,
        -0.39730602502822876,
        -0.22803010046482086,
        0.0,
        0.25265735387802124,
        -0.23862281441688538,
        -0.33553606271743774,
        -0.25779566168785095,
        0.2813732624053955,
        0.15635229647159576,
        -0.05828322470188141,
        0.0,
        -0.28081902861595154,
        0.1364818960428238,
        -0.1188737154006958,
        0.0,
        0.2999081611633301,
        0.3136538565158844,
        0.0,
        0.0,
        -0.9513330459594727,
        0.0,
        -0.312807559967041,
        0.16998375952243805,
        -0.24866995215415955,
        -0.14453676342964172,
        0.0,
        0.22593000531196594,
        0.22071106731891632,
        -0.22683651745319366,
        -0.14681455492973328,
        -0.012936355546116829,
        0.30419281125068665,
        -0.2627246677875519,
        -0.05120931938290596,
        -0.003794189542531967,
        0.03288889303803444,
        0.0,
        0.10635968297719955,
        -0.3339654505252838,
        0.14787407219409943,
        0.07067720592021942,
        0.0,
        0.12810425460338593,
        0.0,
        0.29160410165786743,
        0.19411347806453705,
        0.0,
        -0.14336614310741425,
        -0.13233402371406555,
        -0.08922352641820908,
        0.028937172144651413,
        0.5167664885520935,
        -0.6774117350578308,
        -0.11302752047777176,
        0.24254034459590912,
        -0.26652464270591736,
        0.0,
        0.6014429926872253,
        0.399787038564682,
        0.23983682692050934,
        0.0,
        0.22989670932292938,
        0.0,
        -0.10996218770742416,
        0.47855257987976074,
        0.13360868394374847,
        0.0,
        0.0,
        0.2734661400318146,
        0.0,
        0.3298231363296509,
        -0.491597443819046,
        0.0017466546269133687,
        0.0,
        0.19787229597568512,
        0.14907865226268768,
        -0.05199664086103439,
        0.0,
        0.0,
        -0.0703589916229248,
        0.15084491670131683,
        0.175095796585083,
        -0.024975471198558807,
        -0.2075149118900299,
        0.0,
        -0.2255985140800476,
        0.08876917511224747,
        0.20216071605682373,
        0.17571789026260376,
        -0.3551340699195862,
        0.6392709016799927,
        0.0,
        -0.19076208770275116,
        0.0,
        0.4118322730064392,
        0.0,
        0.5362961888313293,
        -0.47810426354408264,
        0.20407196879386902,
        0.3395763635635376,
        0.17866291105747223,
        0.116996169090271,
        -0.15982043743133545,
        0.2670608460903168,
        -0.6320684552192688,
        0.15224525332450867,
        0.25087323784828186,
        0.0,
        0.0,
        -0.27402153611183167,
        0.0050812684930861,
        0.0,
        -0.183345228433609,
        0.0,
        0.0,
        0.0,
        0.13578809797763824,
        0.05401035398244858,
        -0.27139490842819214,
        -0.287624716758728,
        0.3671738803386688,
        0.0,
        -0.26539164781570435,
        0.12409753352403641,
        0.33359795808792114,
        0.07149140536785126,
        0.40229684114456177,
        0.0,
        -0.4238225221633911,
        -0.05692571774125099,
        0.22365307807922363,
        -0.31451350450515747,
        -0.4274982511997223,
        -0.2850404977798462,
        0.0,
        0.2075105905532837,
        -0.18539853394031525,
        0.24189171195030212,
        -0.028710540384054184,
        -0.3573131263256073,
        0.0,
        -0.012595340609550476,
        0.015202752314507961,
        -0.24443159997463226,
        0.2032918483018875,
        -0.19476467370986938,
        0.03023434430360794,
        0.03338560834527016,
        -0.34705859422683716,
        -0.09820759296417236,
        0.28534412384033203,
        0.0,
        0.0,
        0.17682412266731262,
        -0.3683330714702606,
        -0.23678171634674072,
        0.0,
        0.22441214323043823,
        0.06278690695762634,
        0.0,
        -0.14567901194095612,
        0.17199596762657166,
        -0.3104296624660492,
        -0.3333182632923126,
        0.31758785247802734,
        0.2305838018655777,
        -0.18502271175384521,
        -0.33492597937583923,
        -0.1860354244709015,
        0.0,
        0.0,
        0.3162068724632263,
        0.0,
        0.09153209626674652,
        0.0,
        -0.005689174402505159,
        -0.03751727566123009,
        -0.006140368524938822,
        0.0,
        0.0,
        0.1740187108516693,
        0.0,
        -0.25847330689430237,
        0.1698927879333496,
        0.21397161483764648,
        0.09056692570447922,
        0.0,
        0.26517418026924133,
        0.0,
        0.0,
        0.023191578686237335,
        0.4770304560661316,
        0.0,
        0.0966448187828064,
        -0.24020828306674957,
        -0.22145679593086243,
        -0.58869469165802,
        -0.182967409491539,
        -0.2886224389076233,
        0.0,
        -0.49335625767707825,
        0.0,
        0.38502103090286255,
        -0.18581455945968628,
        0.254327654838562,
        -0.01792721450328827,
        0.0,
        0.0,
        0.2363034188747406,
        0.3536892533302307,
        -0.2219342738389969,
        -0.4432196617126465,
        0.0,
        0.0,
        0.24403710663318634,
        0.22562643885612488,
        -0.010264616459608078,
        -0.002572783501818776,
        0.17497806251049042,
        0.0,
        0.0,
        -0.13185514509677887,
        -0.4591766893863678,
        0.0,
        0.0,
        -0.1587013602256775,
        0.20198720693588257,
        0.0,
        0.10499122738838196,
        -0.31333860754966736,
        0.0,
        0.025420859456062317,
        0.4159609377384186,
        0.0,
        0.0,
        -0.1072256863117218,
        0.030667981132864952,
        -0.4991140067577362,
        0.0,
        0.16388313472270966,
        0.02058226987719536,
        0.0,
        0.23479552567005157,
        0.35766682028770447,
        -0.41383686661720276,
        0.0,
        0.11150422692298889,
        0.24049115180969238,
        0.028460148721933365,
        -0.23805077373981476,
        -0.05658821389079094,
        0.0,
        -0.0020447459537535906,
        0.3486299216747284,
        0.0,
        -0.08604589104652405,
        -0.6730014681816101,
        0.0,
        -0.22877417504787445,
        0.0,
        0.0,
        -0.5211212635040283,
        0.0,
        0.23072031140327454,
        -0.20968596637248993,
        0.0,
        0.0031356201507151127,
        -0.6351250410079956,
        0.3142756521701813,
        0.0,
        0.18900863826274872,
        0.0,
        -0.32296648621559143,
        0.0,
        0.0,
        0.012649236246943474,
        -0.6406926512718201,
        0.06044020503759384,
        0.27095678448677063,
        0.49802160263061523,
        0.0,
        0.0,
        -0.31606325507164,
        0.0,
        0.12414565682411194,
        -0.3278481066226959,
        -0.16465096175670624,
        -0.29599520564079285,
        -0.2862129211425781,
        -0.23433704674243927,
        0.31634870171546936,
        0.3766148090362549,
        -0.13715147972106934,
        0.0,
        0.2888142466545105,
        -0.2534019351005554,
        0.14889311790466309,
        0.17241880297660828,
        -0.29976189136505127
      ],
      "weights": [
        0.07506710290908813,
        -0.17943942546844482,
        0.22710414230823517,
        -0.06152443215250969,
        0.10514364391565323,
        -0.18108151853084564,
        0.295210063457489,
        -0.06853385269641876,
        -0.12196461111307144,
        -0.09210013598203659,
        -0.10178793221712112,
        -0.1208067461848259,
        -0.043229252099990845,
        0.045997973531484604,
        -0.3204153776168823,
        -0.08854284137487411,
        0.16169025003910065,
        0.14952600002288818,
        -0.029221894219517708,
        -0.1345585286617279,
        0.11307671666145325,
        -0.09564422816038132,
        -0.6999019384384155,
        -0.09682037681341171,
        -0.0955972895026207,
        -0.4514308273792267,
        0.30476146936416626,
        -0.33123430609703064,
        -0.0816507339477539,
        -0.12895949184894562,
        -0.19997122883796692,
        -0.2915809154510498,
        -0.022782662883400917,
        0.3185790181159973,
        0.27224886417388916,
        -0.10493801534175873,
        0.3164339065551758,
        0.3857964873313904,
        0.19351103901863098,
        0.042054660618305206,
        -0.011730032972991467,
        -0.24951359629631042,
        0.14855720102787018,
        -0.47379612922668457,
        -0.06310984492301941,
        -0.1408393383026123,
        0.00031828630017116666,
        -0.13624662160873413,
        0.0938965380191803,
        -0.14800985157489777,
        0.04397166147828102,
        -0.04517671838402748,
        0.06430099159479141,
        -0.05185627564787865,
        0.08318542689085007,
        -0.15717504918575287,
        0.24169357120990753,
        0.3130222260951996,
        0.23047396540641785,
        0.0365523025393486,
        0.0006029903888702393,
        -0.036170996725559235,
        0.06668254733085632,
        -0.12709876894950867,
        -0.0987476259469986,
        0.002793818712234497,
        -0.07207269966602325,
        0.015874549746513367,
        -0.0498836413025856,
        0.1249690055847168,
        -0.0482182577252388,
        -0.09708051383495331,
        -0.044155269861221313,
        0.01823948323726654,
        0.10157783329486847,
        0.10466276109218597,
        0.003143593668937683,
        0.08093513548374176,
        -0.06159261614084244,
        -0.00983266532421112,
        0.08690394461154938,
        -0.18040800094604492,
        0.23394952714443207,
        -0.051144156605005264,
        -0.052436988800764084,
        0.0597546249628067,
        0.04961897432804108,
        -0.0772729441523552,
        0.01365327462553978,
        -0.01878841035068035,
        0.17441733181476593,
        0.031796831637620926,
        -0.1177443340420723,
        0.0725736990571022,
        0.2500826120376587,
        -0.08218260854482651,
        -0.40645256638526917,
        -0.32578372955322266,
        -0.14442461729049683,
        -0.23426507413387299,
        -0.09220198541879654,
        -0.13657279312610626,
        0.2348726987838745,
        -0.745739758014679,
        0.006280120927840471,
        0.2723861634731293,
        -0.2640034556388855,
        -0.2502131760120392,
        0.004613490775227547,
        0.17878064513206482,
        -0.3589683473110199,
        -0.07352519035339355,
        0.0854543000459671,
        -0.7979938983917236,
        0.5338934063911438,
        -0.1894918978214264,
        0.15546828508377075,
        0.24535460770130157,
        0.27322426438331604,
        0.005765832494944334,
        -0.01760643906891346,
        0.5567170977592468,
        -0.11708187311887741,
        0.38919955492019653,
        0.10652416199445724,
        0.10113245993852615,
        0.34206900000572205,
        0.2337091714143753,
        -0.10751631110906601,
        0.18533149361610413,
        0.3801833987236023,
        0.10505101829767227,
        -0.05541736260056496,
        0.3071422874927521,
        -0.4097241759300232,
        -0.01646140217781067,
        0.5929504632949829,
        0.5994312763214111,
        0.3433520793914795,
        0.19207122921943665,
        -0.04279961809515953,
        -0.08595871180295944,
        -0.08925702422857285,
        0.1525888442993164,
        0.051482174545526505,
        -0.19771263003349304,
        0.261966735124588,
        0.11690224707126617,
        0.11863385140895844,
        0.3945371210575104,
        0.07470027357339859,
        0.06329198181629181,
        -0.07875100523233414,
        -0.4344951808452606,
        0.15950532257556915,
        0.05255618318915367,
        0.24911350011825562,
        0.13526853919029236,
        0.1618172973394394,
        0.031091630458831787,
        0.045624490827322006,
        0.0982038602232933,
        -0.20577694475650787,
        0.040368806570768356,
        -0.023364262655377388,
        -0.03194425627589226,
        0.011041946709156036,
        0.11346753686666489,
        -0.11160023510456085,
        -0.2903674244880676,
        0.41096025705337524,
        0.603706419467926,
        0.01582113280892372,
        0.21610605716705322,
        -0.4139500558376312,
        -0.22942814230918884,
        -0.8248448967933655,
        -0.49888598918914795,
        -0.2485850304365158,
        -0.31684234738349915,
        0.10188900679349899,
        -0.05596969276666641,
        0.043114908039569855,
        -0.1235148012638092,
        -0.05137905478477478,
        -0.05904971435666084,
        -0.02370588667690754,
        0.08359755575656891,
        0.09281422942876816,
        0.11641739308834076,
        0.201955184340477,
        -0.12297872453927994,
        0.07885030657052994,
        -0.0057992092333734035,
        0.18066354095935822,
        0.08583824336528778,
        -0.23309685289859772,
        -0.22698506712913513,
        -0.034586843103170395,
        0.02020886540412903,
        0.010060599073767662,
        -0.1776992380619049,
        0.22558020055294037,
        0.0074224709533154964,
        0.08495329320430756,
        0.3652648627758026,
        -0.07005564123392105,
        0.28253069519996643,
        -0.006855553947389126,
        -0.07155768573284149,
        0.4443090856075287,
        -0.044069804251194,
        -0.08970706164836884,
        0.2111905813217163,
        -0.04811837151646614,
        0.07278287410736084,
        0.02318824641406536,
        0.019600791856646538,
        0.07692533731460571,
        -0.09343568980693817,
        -0.08174672722816467,
        0.08986282348632812,
        -0.11928360909223557,
        -0.003113687038421631,
        -0.10770055651664734,
        0.09331317245960236,
        0.05751428008079529,
        -0.1231788620352745,
        -0.12398204207420349,
        0.08155675232410431,
        -0.11209393292665482,
        -0.0897706001996994,
        0.012560233473777771,
        0.07182386517524719,
        -0.08407914638519287,
        -0.05041470378637314,
        0.04089486598968506,
        0.023776933550834656,
        -0.06684274226427078,
        -0.007709965109825134,
        -0.10039332509040833,
        -0.3559437096118927,
        0.36077290773391724,
        -1.1383941173553467,
        0.0063991607166826725,
        -0.2291840761899948,
        -0.41485923528671265,
        -0.7793499827384949,
        0.034499041736125946,
        -0.20553240180015564,
        -0.10094054043292999,
        -1.0179753303527832,
        0.1274036169052124,
        -0.3748225271701813,
        -0.32512474060058594,
        -0.21282923221588135,
        0.5020492672920227,
        0.44100499153137207,
        0.04182190075516701,
        -0.763749361038208,
        -0.07594086229801178,
        -0.003884138073772192,
        0.5419434905052185,
        0.24929921329021454,
        0.013152280822396278,
        0.2889403700828552,
        -0.05479629710316658,
        0.09584138542413712,
        0.0655500516295433,
        -0.16835454106330872,
        -0.4007725119590759,
        0.017731420695781708,
        0.09724773466587067,
        0.13694140315055847,
        0.17539045214653015,
        0.15102387964725494,
        -0.11005839705467224,
        -0.1413058042526245,
        -0.17993688583374023,
        -0.021557660773396492,
        -0.0019029320683330297,
        -0.23970767855644226,
        -0.1210627406835556,
        -0.3754590153694153,
        -0.15921230614185333,
        -0.41082656383514404,
        0.03847484663128853,
        0.05988318845629692,
        0.045650262385606766,
        0.050164710730314255,
        0.0059362780302762985,
        -0.21821410953998566,
        0.04845006763935089,
        -0.0060136872343719006,
        -0.1659623384475708,
        0.5418656468391418,
        0.5304173827171326,
        0.22741854190826416,
        -0.0017540848348289728,
        -0.28513509035110474,
        -0.0484745055437088,
        -0.1264479160308838,
        -0.11620040982961655,
        -0.03987984359264374,
        -0.07519719004631042,
        0.04562002420425415,
        -0.12774494290351868,
        -0.11140900105237961,
        -0.08642502129077911,
        0.11771687865257263,
        0.1365235149860382,
        -0.07149922102689743,
        -0.018826112151145935,
        -0.015597827732563019,
        0.12883463501930237,
        -0.06207790970802307,
        0.06372803449630737,
        0.11119765043258667,
        -0.04780929535627365,
        0.038155898451805115,
        0.11970361322164536,
        -0.10083092749118805,
        0.07755929976701736,
        0.042880188673734665,
        -0.09637842327356339,
        0.06114811450242996,
        0.04161737859249115,
        0.05889200419187546,
        -0.03582415357232094,
        0.19843828678131104,
        0.06451037526130676,
        -0.0796637013554573,
        -0.0010427070083096623,
        0.1765914261341095,
        0.07067123800516129,
        0.1301129162311554,
        -0.37007495760917664,
        -0.4407353401184082,
        -0.19137272238731384,
        -0.0298677496612072,
        0.03899409621953964,
        0.4510648548603058,
        0.40267983078956604,
        0.13865721225738525,
        0.008475466631352901,
        -0.6185843348503113,
        -0.5005602240562439,
        -0.009502479806542397,
        -0.15358568727970123,
        0.22271236777305603,
        -0.14509005844593048,
        0.4822685718536377,
        -0.19026650488376617,
        0.12203770875930786,
        -0.24340170621871948,
        0.40167295932769775,
        -0.16473710536956787,
        -0.18076014518737793,
        -0.27404049038887024,
        -0.32322198152542114,
        -0.1294456124305725,
        0.010280311107635498,
        0.02166794240474701,
        -0.10440649092197418,
        0.10569721460342407,
        0.07657782733440399,
        -0.10213515162467957,
        -0.033198900520801544,
        -0.13462761044502258,
        0.03121475875377655,
        0.1330377459526062,
        -0.08804713934659958,
        -0.09651757776737213,
        0.030415982007980347,
        0.04804608225822449,
        -0.08744846284389496,
        0.13587960600852966,
        0.005596444010734558,
        0.11241680383682251,
        -0.1190006285905838,
        -0.031055502593517303,
        0.04922010004520416,
        0.10481366515159607,
        0.07830709218978882,
        -0.05956453084945679,
        0.030370935797691345,
        -0.12387335300445557,
        -0.1209302470088005,
        -0.08109597861766815,
        0.019641950726509094,
        0.07554276287555695,
        -0.12951351702213287,
        0.12017607688903809,
        -0.135602667927742,
        -0.0009821504354476929,
        -0.07653212547302246,
        0.11206206679344177,
        0.07353399693965912,
        -0.05904120206832886,
        0.07824921607971191,
        -0.04349222779273987,
        -0.10093065351247787,
        0.18926477432250977,
        0.6229698061943054,
        0.07970472425222397,
        0.340366929769516,
        0.36690670251846313,
        0.8112517595291138,
        -0.12954078614711761,
        -0.24327243864536285,
        0.08888736367225647,
        0.5860075354576111,
        -0.0389770083129406,
        -0.38589105010032654,
        0.04498967528343201,
        1.1864832639694214,
        0.5912191867828369,
        1.1206060647964478,
        1.1768146753311157,
        1.5272904634475708,
        -0.08585555851459503,
        0.05567005276679993,
        -0.08242861926555634,
        -0.08354325592517853,
        0.03801143169403076,
        -0.12331075221300125,
        -0.07483667135238647,
        -0.014203712344169617,
        0.03198854625225067,
        -0.0809374451637268,
        -0.05072586238384247,
        0.1274767816066742,
        -0.032711975276470184,
        0.01600329577922821,
        0.08087427914142609,
        0.021538764238357544,
        0.11759936809539795,
        -0.0644596591591835,
        -0.12223641574382782,
        -0.09412640333175659,
        -0.0780034214258194,
        -0.3597932755947113,
        -0.040431294590234756,
        -0.04773801937699318,
        0.09140762686729431,
        -0.6754090189933777,
        -0.026197046041488647,
        -0.009172105230391026,
        0.02752620168030262,
        -0.7481362223625183,
        -0.17468509078025818,
        0.08285247534513474,
        -0.01636086404323578,
        0.05406738445162773,
        -0.26875045895576477,
        -0.021410955116152763,
        0.4634712338447571,
        0.49631327390670776,
        0.21501927077770233,
        -0.10798826068639755,
        0.04939166456460953,
        0.28642553091049194,
        0.18016938865184784,
        -0.11035606265068054,
        0.04292060434818268,
        -0.232151597738266,
        -0.24453045427799225,
        -0.014387509785592556,
        -0.14487160742282867,
        -0.024098478257656097,
        -0.07367774099111557,
        -0.09310030937194824,
        -0.17060016095638275,
        0.07097865641117096,
        0.07255925983190536,
        0.18889084458351135,
        -0.17464156448841095,
        -0.23739434778690338,
        0.033576980233192444,
        -0.07353281229734421,
        0.07635629177093506,
        0.023958882316946983,
        0.17669275403022766,
        0.19329147040843964,
        0.023733414709568024,
        0.4627268612384796,
        0.00495126424357295,
        -0.08240130543708801,
        0.008579961955547333,
        0.1035950630903244,
        -0.2460339069366455,
        -0.10967186838388443,
        0.044149529188871384,
        0.05840722844004631,
        0.09391769021749496,
        -0.041560329496860504,
        0.2935563921928406,
        0.15797503292560577,
        0.0377088226377964,
        0.1128721609711647,
        0.06203819811344147,
        -0.13677994906902313,
        0.39254167675971985,
        0.007518618833273649,
        0.054488569498062134,
        0.27620723843574524,
        -0.4722104072570801,
        0.16225789487361908,
        -0.03199828043580055,
        -0.03961760923266411,
        -0.16546548902988434,
        0.024131210520863533,
        -0.12479633837938309,
        -0.022489424794912338,
        0.3035411238670349,
        0.04863501340150833,
        0.07691455632448196,
        0.12702259421348572,
        0.17471125721931458,
        0.1688327044248581,
        -0.12585726380348206,
        0.09994849562644958,
        0.029964059591293335,
        0.014843553304672241,
        -0.017208658158779144,
        -0.0994495302438736,
        -0.11142832785844803,
        -0.11828272044658661,
        0.08351905643939972,
        -0.0965762510895729,
        0.05824968218803406,
        0.122799813747406,
        -0.03578713536262512,
        0.07153171300888062,
        -0.044038064777851105,
        -0.11276791989803314,
        -0.0024087131023406982,
        0.04314219951629639,
        -0.08624395728111267,
        -0.11162818968296051,
        0.10185129195451736,
        0.12542207539081573,
        0.08727741986513138,
        0.18613865971565247,
        -0.08377387374639511,
        -0.20987799763679504,
        -0.06542845815420151,
        0.10205619037151337,
        0.02135763131082058,
        -0.12227819114923477,
        -0.030993038788437843,
        -0.0880381315946579,
        -0.040961604565382004,
        0.0577959269285202,
        -0.02878401428461075,
        0.003729528747498989,
        -0.38004693388938904,
        -0.2150595337152481,
        -0.050356850028038025,
        -0.07311178743839264,
        0.11797094345092773,
        -0.07129276543855667,
        -0.12390148639678955,
        -0.18138183653354645,
        0.05928346514701843,
        -0.06858371198177338,
        0.03491095453500748,
        -0.09874964505434036,
        -0.0010611015604808927,
        0.04951218143105507,
        0.07011907547712326,
        -0.1689220666885376,
        -0.017040230333805084,
        0.18406592309474945,
        -0.08378173410892487,
        -0.1407546103000641,
        -0.19326812028884888,
        -0.36902734637260437,
        -0.29369890689849854,
        -0.10361465811729431,
        0.12203437089920044,
        -0.16023017466068268,
        0.05938524007797241,
        0.05847703665494919,
        0.0681515634059906,
        -0.05124761536717415,
        -0.14124628901481628,
        -0.03862882778048515,
        0.056822311133146286,
        -0.11583112180233002,
        -0.018083050847053528,
        0.08600252866744995,
        0.08591177314519882,
        -0.06289558112621307,
        0.02215663529932499,
        0.06468832492828369,
        0.19467397034168243,
        0.3514757752418518,
        0.07805761694908142,
        0.031489185988903046,
        0.10354598611593246,
        -0.11729618906974792,
        -0.058995719999074936,
        0.038582850247621536,
        -0.12961789965629578,
        0.2087980955839157,
        0.0759681984782219,
        -0.13175144791603088,
        -0.0981271043419838,
        -0.5608047842979431,
        -0.06827709078788757,
        0.09648515284061432,
        -0.07475846260786057,
        -0.5252975225448608,
        0.035724539309740067,
        0.07888216525316238,
        0.10656850039958954,
        0.13709783554077148,
        -0.014137804508209229,
        0.21575145423412323,
        0.013748745433986187,
        -0.001342816511169076,
        -0.1176709532737732,
        0.03125742822885513,
        -0.024560103192925453,
        0.03820367902517319,
        0.08119844645261765,
        0.009360706433653831,
        -0.1335820108652115,
        -0.0931340828537941,
        -0.10744383931159973,
        0.06957750767469406,
        -0.01990947127342224,
        0.04491657391190529,
        0.05764201283454895,
        0.0056340498849749565,
        0.07449600100517273,
        0.07700802385807037,
        0.029669545590877533,
        0.11891774088144302,
        -0.02421206422150135,
        0.033757783472537994,
        -0.1893167942762375,
        0.08159189671278,
        0.024814730510115623,
        -0.2114301472902298,
        0.16987672448158264,
        -0.04461362212896347,
        0.028624366968870163,
        -0.10243339091539383,
        -0.12125182151794434,
        -0.04261550307273865,
        0.05963107943534851,
        0.17289982736110687,
        0.18487770855426788,
        -0.018307926133275032,
        -0.3276856243610382,
        -0.5144626498222351,
        -0.17825129628181458,
        -0.12695762515068054,
        0.03705010190606117,
        0.06617966294288635,
        -0.06873142719268799,
        0.061224356293678284,
        0.030155835673213005,
        0.11213401705026627,
        0.08868692815303802,
        0.08979656547307968,
        0.04764418303966522,
        0.16250012814998627,
        0.15095031261444092,
        -0.08503535389900208,
        -0.11355987936258316,
        -0.28613772988319397,
        -0.03130358085036278,
        0.16226182878017426,
        0.2865201532840729,
        0.2911911904811859,
        0.28718602657318115,
        0.15089376270771027,
        0.08109822869300842,
        0.07283850759267807,
        -0.16354858875274658,
        0.1034620925784111,
        0.018340550363063812,
        -0.2241262048482895,
        -0.0165473073720932,
        0.08725743740797043,
        -0.05875195935368538,
        0.31799861788749695,
        0.1287779062986374,
        0.02932317554950714,
        0.006222449708729982,
        0.3220560848712921,
        -0.17649906873703003,
        0.04312673583626747,
        0.09993357211351395,
        -0.016741488128900528,
        0.06894512474536896,
        -0.025716830044984818,
        -0.08627863228321075,
        -0.06725164502859116,
        -0.06459759920835495,
        -0.14366044104099274,
        0.08453598618507385,
        -0.0055130962282419205,
        -0.07256791740655899,
        0.055664192885160446,
        -0.13720716536045074,
        -0.07138729840517044,
        0.07400206476449966,
        -0.060605477541685104,
        0.07702753692865372,
        0.13284143805503845,
        0.11929292231798172,
        -0.13842040300369263,
        0.08603667467832565,
        0.03240780532360077,
        -0.05410251021385193,
        0.04959452897310257,
        -0.14422518014907837,
        0.37600192427635193,
        0.46897441148757935,
        0.08373662829399109,
        0.06979216635227203,
        0.2912568151950836,
        0.07052036374807358,
        0.022267770022153854,
        -0.04546995460987091,
        -0.07311633229255676,
        -0.038167014718055725,
        -0.04826005920767784,
        0.10411234200000763,
        -0.15470992028713226,
        -0.24099017679691315,
        -0.040970101952552795,
        -0.06999821215867996,
        0.06184447184205055,
        0.0831553190946579,
        0.04639853537082672,
        -0.10962207615375519,
        -0.11258823424577713,
        -0.04109453409910202,
        -0.13384565711021423,
        0.11515897512435913,
        -0.12107311189174652,
        -0.11085214465856552,
        -0.008044600486755371,
        -0.08219144493341446,
        0.11664512753486633,
        -0.13162733614444733,
        -0.005241513252258301,
        -0.07044482976198196,
        0.08921769261360168,
        0.004239186644554138,
        0.0898793488740921,
        -0.08425207436084747,
        -0.008853495121002197,
        -0.09299372136592865,
        -0.01654517650604248,
        0.10821378976106644,
        0.151972696185112,
        0.06837020069360733,
        0.001809127046726644,
        0.04489161819219589,
        0.07836294919252396,
        -0.010012923739850521,
        -0.14527565240859985,
        0.02401581220328808,
        0.059866685420274734,
        0.24451027810573578,
        -0.08819162100553513,
        -0.0762033611536026,
        0.03466276079416275,
        -0.02055923081934452,
        0.03266385197639465,
        -0.13780754804611206,
        -0.05861165374517441,
        -0.10116386413574219,
        -0.15651139616966248,
        -0.01267840526998043,
        -0.1875602751970291,
        0.16821567714214325,
        -0.9539475440979004,
        -0.022933250293135643,
        0.33305060863494873,
        -0.21133507788181305,
        -0.6641008257865906,
        0.04043520614504814,
        -0.8481711745262146,
        -0.061516351997852325,
        -0.19828581809997559,
        0.10844592750072479,
        0.11223924160003662,
        -0.03452388942241669,
        -0.20338761806488037,
        0.7314519286155701,
        0.6925855278968811,
        0.41309085488319397,
        0.005285630933940411,
        0.06851838529109955,
        0.3252977132797241,
        0.05672731623053551,
        0.07931898534297943,
        0.019983140751719475,
        0.11053572595119476,
        -0.04972226545214653,
        -0.09130170196294785,
        -0.008288152515888214,
        0.0024068905040621758,
        0.11322390288114548,
        0.002362607279792428,
        -0.15733017027378082,
        -0.09146647900342941,
        -0.07542762160301208,
        0.12309742718935013,
        -0.22089186310768127,
        -0.26331019401550293,
        -0.23069645464420319,
        0.014891797676682472,
        -0.13076411187648773,
        0.1176280826330185,
        -0.18773524463176727,
        0.04306887462735176,
        0.011851320043206215,
        -0.8216181397438049,
        0.4234725534915924,
        -0.0886654332280159,
        0.11077914386987686,
        -0.03181900084018707,
        -0.3587915897369385,
        -0.0024379126261919737,
        -0.14417411386966705,
        -0.539146900177002,
        0.13876090943813324,
        -0.17259256541728973,
        0.006165166851133108,
        -0.21751610934734344,
        -0.1586070954799652,
        -0.19974714517593384,
        -0.022249191999435425,
        0.05037836730480194,
        -0.03187455236911774,
        -0.11977393180131912,
        -0.08931155502796173,
        0.0734165757894516,
        -0.06448175758123398,
        0.0738658607006073,
        -0.06823800504207611,
        -0.026222698390483856,
        -0.05969410389661789,
        -0.028006426990032196,
        0.0051409900188446045,
        0.005290612578392029,
        -0.023925378918647766,
        -0.030173294246196747,
        0.04775623977184296,
        -0.07579883933067322,
        0.06947502493858337,
        -0.09716404974460602,
        0.0696423128247261,
        -0.3023292124271393,
        -0.15858179330825806,
        -0.18433669209480286,
        0.009466594085097313,
        -0.3494577407836914,
        0.0812358409166336,
        -0.05681014806032181,
        0.025231406092643738,
        -0.12556268274784088,
        0.28059306740760803,
        0.0706462413072586,
        0.015266980044543743,
        -0.0015305582201108336,
        -0.021916460245847702,
        -0.04861842095851898,
        -0.1521812081336975,
        -0.19910986721515656,
        -0.04004738852381706,
        0.008604022674262524,
        -0.12808865308761597,
        -0.028895199298858643,
        0.07646842300891876,
        0.10070815682411194,
        -0.04844766855239868,
        -0.12193991243839264,
        0.12670311331748962,
        0.019561707973480225,
        -0.08072468638420105,
        -0.017555199563503265,
        -0.10786202549934387,
        0.07633765041828156,
        0.08709268271923065,
        0.013693436980247498,
        -0.057393550872802734,
        0.1344585418701172,
        0.08664041757583618,
        0.01351146399974823,
        -0.045939840376377106,
        0.014073744416236877,
        0.044857531785964966,
        -0.2926865220069885,
        -0.20867180824279785,
        0.29952991008758545,
        -0.08192314207553864,
        0.20873135328292847,
        -0.4018669128417969,
        0.08266991376876831,
        0.05341855809092522,
        0.13201259076595306,
        0.26989468932151794,
        -0.12785671651363373,
        0.04397512227296829,
        0.010350985452532768,
        0.1502857655286789,
        0.1642390489578247,
        -0.2666749954223633,
        -0.339182049036026,
        -0.14030660688877106,
        -0.004269845318049192,
        -0.09483766555786133,
        0.2609356641769409,
        -0.11062698066234589,
        0.2670022249221802,
        -0.003338851034641266,
        -0.46108394861221313,
        -0.3911900818347931,
        -0.03398498520255089,
        0.00042338765342719853,
        -0.032484326511621475,
        0.42263007164001465,
        -0.373125821352005,
        0.12582848966121674,
        -0.3978351950645447,
        0.6831039190292358,
        0.02817121334373951,
        -0.2550507187843323,
        -0.12642619013786316,
        0.04375747963786125,
        -0.09855946153402328,
        -0.08852505683898926,
        -0.12033803761005402,
        0.13649457693099976,
        -0.05209539830684662,
        0.06741710007190704,
        -0.040428176522254944,
        -0.019386522471904755,
        0.07225731015205383,
        -0.08281761407852173,
        0.009419262409210205,
        -0.021516956388950348,
        0.10770969092845917,
        -0.036784954369068146,
        -0.04085584729909897,
        0.11277449131011963,
        0.044420450925827026,
        0.07252897322177887,
        0.1141393780708313,
        -0.08970373868942261,
        0.11406826972961426,
        0.08804748952388763,
        -0.11095443367958069,
        0.07342281937599182,
        0.22029513120651245,
        -0.1551297903060913,
        -0.12428486347198486,
        -0.47602349519729614,
        0.2322276383638382,
        -0.11325033754110336,
        0.3339639902114868,
        -0.41162174940109253,
        0.12267223745584488,
        0.08788798004388809,
        0.21235254406929016,
        -0.05718976631760597,
        0.3190549314022064,
        0.11014097183942795,
        0.023710232228040695,
        0.08429060131311417,
        -0.07441810518503189,
        0.08414565026760101,
        -0.06851425766944885,
        -0.09760383516550064,
        0.040327318012714386,
        0.0702640563249588,
        0.05228138715028763,
        -0.1664106547832489,
        -0.17158834636211395,
        0.0012552605476230383,
        -0.2264566719532013,
        -0.26781970262527466,
        0.0633285790681839,
        0.004333391319960356,
        0.1461448222398758,
        -0.04867904633283615,
        0.0017074637580662966,
        0.19338245689868927,
        0.15386620163917542,
        0.0887516587972641,
        0.0577763132750988,
        0.05658448114991188,
        0.11323113739490509,
        0.15978401899337769,
        -0.1474461704492569,
        -0.14872531592845917,
        -0.12281882762908936,
        -0.5897830724716187,
        0.16720402240753174,
        0.09829038381576538,
        0.4243191182613373,
        -0.23592007160186768,
        0.027836715802550316,
        -0.07414200901985168,
        0.14720259606838226,
        0.35686326026916504,
        0.13525448739528656,
        0.17664767801761627,
        0.24654042720794678,
        0.21903063356876373,
        -0.0799301266670227,
        0.05432901531457901,
        0.14827954769134521,
        -0.15409855544567108,
        0.049873899668455124,
        -0.11818966269493103,
        -0.09738055616617203,
        0.12471310794353485,
        0.018974851816892624,
        -0.12933984398841858,
        -0.0811786875128746,
        0.15166381001472473,
        0.030601024627685547,
        -0.01486012153327465,
        0.16919279098510742,
        0.008746015839278698,
        0.04333539679646492,
        0.013937371782958508,
        -0.005858798045665026,
        -0.1303083896636963,
        -0.12214623391628265,
        -0.11030495911836624,
        -0.2225816547870636,
        0.3961997926235199,
        0.5260032415390015,
        0.13737967610359192,
        0.03127415478229523,
        -0.3713686168193817,
        0.2869863212108612,
        0.04376615956425667,
        -0.09130106121301651,
        0.13274483382701874,
        0.4157334864139557,
        0.09022299200296402,
        0.022419283166527748,
        -0.45843908190727234,
        0.23054467141628265,
        -0.6548178791999817,
        -0.6118521094322205,
        -0.38430115580558777,
        -0.036851778626441956,
        -0.0035392488352954388,
        0.3672201335430145,
        -0.11337944865226746,
        0.4674627482891083,
        0.04746836796402931,
        0.38333311676979065,
        0.17264866828918457,
        -0.7329758405685425,
        -0.10721635073423386,
        0.39296671748161316,
        0.0887719914317131,
        1.0545930862426758,
        -0.17886991798877716,
        -0.15930362045764923,
        0.0008678821031935513,
        0.14405308663845062,
        0.33343225717544556,
        0.840431809425354,
        1.0198293924331665,
        0.8835503458976746,
        0.017598165199160576,
        -0.1040458008646965,
        0.02998017892241478,
        -0.409167617559433,
        -0.15107165277004242,
        -0.060443103313446045,
        -0.11647958308458328,
        0.2698177993297577,
        0.05648031830787659,
        0.4756644666194916,
        -0.07872268557548523,
        -0.23805995285511017,
        0.07846303284168243,
        0.1507944017648697,
        -0.1269311159849167,
        0.1853400468826294,
        0.09873917698860168,
        -0.08636806160211563,
        0.07389019429683685,
        0.07932648807764053,
        0.009678824804723263,
        -0.04386970028281212,
        0.14634224772453308,
        -0.007614651694893837,
        0.07360520958900452,
        0.082321397960186,
        0.22282090783119202,
        -0.07161033153533936,
        0.046915099024772644,
        0.0744461864233017,
        0.07656148821115494,
        0.04603445902466774,
        -0.13721100986003876,
        -0.01680527999997139,
        -0.029187174513936043,
        -0.07980669289827347,
        -0.18519847095012665,
        -0.40041813254356384,
        -0.20144404470920563,
        -0.1426129937171936,
        0.0832957774400711,
        -0.0989031121134758,
        -0.23004250228405,
        -0.012718766927719116,
        0.08789734542369843,
        0.14243270456790924,
        0.16665326058864594,
        0.14986149966716766,
        -0.03464489057660103,
        -0.17430490255355835,
        0.1120133250951767,
        0.09927243739366531,
        -0.024645620957016945,
        -0.07394206523895264,
        0.06104467064142227,
        -0.17086483538150787,
        0.16735339164733887,
        0.1645457148551941,
        0.15353702008724213,
        0.10924500226974487,
        -0.06464920192956924,
        0.03426027297973633,
        -0.057949915528297424,
        -0.006490379571914673,
        -0.0593385174870491,
        0.06363095343112946,
        -0.09358730167150497,
        -0.13544750213623047,
        0.051050007343292236,
        0.00889064371585846,
        0.004574954509735107,
        0.06930920481681824,
        -0.03309319168329239,
        0.03538091480731964,
        0.13466012477874756,
        -0.12754955887794495,
        -0.0763435810804367,
        -0.11450172960758209,
        -0.06314940750598907,
        0.07843144237995148,
        -0.0026412445586174726,
        0.07998736202716827,
        -0.029316371306777,
        -0.002172448905184865,
        -0.03628825023770332,
        -0.010367787443101406,
        -0.06765587627887726,
        0.028057172894477844,
        0.14559154212474823,
        0.05809713155031204,
        0.010927719995379448,
        -0.029737364500761032,
        0.05351411923766136,
        0.01813550293445587,
        0.06850707530975342,
        -0.04817027971148491,
        -0.8531619310379028,
        -0.7946954369544983,
        -0.5226569771766663,
        -0.2648385167121887,
        -0.09733590483665466,
        -0.37597334384918213,
        -0.7607398629188538,
        -0.24932484328746796,
        0.11067042499780655,
        0.15288078784942627,
        -0.4780542850494385,
        -0.20351120829582214,
        -0.02633114717900753,
        -0.4044729173183441,
        0.38253214955329895,
        0.12014832347631454,
        -0.011823778040707111,
        -0.02710638754069805,
        -0.6268967986106873,
        -0.14174692332744598,
        -0.3809286952018738,
        -0.45805129408836365,
        -0.24615728855133057,
        0.0401453822851181,
        -0.02104019746184349,
        -0.44475579261779785,
        0.11694590002298355,
        -0.127312570810318,
        0.11228638142347336,
        -0.06042497605085373,
        0.04383225739002228,
        0.14003661274909973,
        -0.06492356210947037,
        -0.14875052869319916,
        -0.1695152074098587,
        -0.14178694784641266,
        -0.024635130539536476,
        -0.022939501330256462,
        -0.006509623024612665,
        -0.05199749395251274,
        -0.29975637793540955,
        -0.31491121649742126,
        -0.08920283615589142,
        -0.0448385551571846,
        -0.12408977001905441,
        -0.0839492455124855,
        0.07616399228572845,
        -0.03235563635826111,
        -0.07234545797109604,
        -0.12094203382730484,
        -0.04387345910072327,
        -0.061481937766075134,
        0.012621745467185974,
        0.012295082211494446,
        0.12409389019012451,
        -0.05954742431640625,
        0.018217578530311584,
        0.03606995940208435,
        -0.09257541596889496,
        0.0010341852903366089,
        0.014465242624282837,
        -0.019425339996814728,
        0.03425842523574829,
        -0.09206279367208481,
        0.06186429038643837,
        -0.17979145050048828,
        0.16233155131340027,
        0.04166124388575554,
        0.09711574018001556,
        -0.22709666192531586,
        0.036285560578107834,
        0.05456747114658356,
        0.02732953429222107,
        -0.1343250274658203,
        -0.062356043606996536,
        -0.040200915187597275,
        -0.0025328630581498146,
        -0.11020508408546448,
        -0.03489243611693382,
        0.01646888069808483,
        -0.3868701756000519,
        -0.4437708556652069,
        -0.11896692216396332,
        -0.21502213180065155,
        -0.09401021152734756,
        -0.04317236691713333,
        -0.03325674682855606,
        -0.08005810528993607,
        -0.028748750686645508,
        -0.040287502110004425,
        -0.07997942715883255,
        -0.07508289813995361,
        -0.014573045074939728,
        -0.0972043126821518,
        -0.12204954028129578,
        0.016399964690208435,
        0.07338310778141022,
        -0.0144914910197258,
        -0.0964859127998352,
        0.0776577889919281,
        -0.08994221687316895,
        0.12894859910011292,
        0.01680174469947815,
        -0.08396223932504654,
        0.025516068562865257,
        0.3034205734729767,
        0.1435418576002121,
        0.02725771814584732,
        0.09562470763921738,
        0.39048445224761963,
        0.40930238366127014,
        -0.07313230633735657,
        -0.13339999318122864,
        -0.19530731439590454,
        -0.20992861688137054,
        0.04972720891237259,
        0.05213562026619911,
        0.05389627441763878,
        0.2194373607635498,
        0.017376713454723358,
        0.13481077551841736,
        0.13121545314788818,
        -0.08521368354558945,
        -0.013881620950996876,
        0.13005438446998596,
        0.6529013514518738,
        -0.5723277926445007,
        -0.06707107275724411,
        -0.08947892487049103,
        0.1681608259677887,
        -0.4968961775302887,
        0.09355087578296661,
        -0.12840430438518524,
        -0.32007044553756714,
        0.019722379744052887,
        0.36517852544784546,
        -0.014830495230853558,
        -0.026983100920915604,
        -0.16796058416366577,
        -0.4258286952972412,
        -0.4915001094341278,
        -0.518288791179657,
        -0.16151560842990875,
        -0.18038257956504822,
        0.028001248836517334,
        -0.13821738958358765,
        0.08737123012542725,
        -0.08736606687307358,
        -0.029948130249977112,
        -0.05861955136060715,
        0.3445826768875122,
        -0.0250559002161026,
        0.09348583966493607,
        -0.09145723283290863,
        -0.017287522554397583,
        -0.13599762320518494,
        -0.07637219876050949,
        0.09299544245004654,
        -0.14757047593593597,
        0.03758019208908081,
        -0.31591862440109253,
        -0.037528906017541885,
        -0.21398119628429413,
        -0.06964383274316788,
        -0.018067628145217896,
        0.11281301081180573,
        0.1126859188079834,
        -0.10509341210126877,
        -0.028561614453792572,
        0.01485338807106018,
        -0.10130876302719116,
        0.1015540361404419,
        -0.1324252188205719,
        0.028109684586524963,
        -0.028559595346450806,
        0.011886775493621826,
        -0.12931858003139496,
        -0.052565477788448334,
        -0.017578743398189545,
        -0.10623405873775482,
        0.12733536958694458,
        -0.13642556965351105,
        0.05661146342754364,
        -0.07176607847213745,
        -0.1294538378715515,
        -0.07160450518131256,
        -0.07072742283344269,
        0.10291269421577454,
        0.02685108780860901,
        -0.08504202961921692,
        -0.13631300628185272,
        -0.00020609796047210693,
        -0.09129033982753754,
        -0.08909575641155243,
        0.06605406105518341,
        -0.027898721396923065,
        -0.021040350198745728,
        -0.042136095464229584,
        -0.0019585788249969482,
        -0.08163599669933319,
        0.08116917312145233,
        0.08035933971405029,
        0.11738502979278564,
        -0.12778206169605255,
        0.07763698697090149,
        -0.08498117327690125,
        0.3457392752170563,
        0.05744284391403198,
        -0.07924987375736237,
        0.15136384963989258,
        -0.10329784452915192,
        0.00940382294356823,
        -0.006591155659407377,
        0.18874216079711914,
        0.031137662008404732,
        -0.059035856276750565,
        -0.012418927624821663,
        0.03552157059311867,
        0.22266671061515808,
        0.20445023477077484,
        -0.2127808928489685,
        -0.3240886330604553,
        -0.21281324326992035,
        -0.20063745975494385,
        -0.11528780311346054,
        0.09786328673362732,
        0.07213827967643738,
        0.12215214967727661,
        0.10292072594165802,
        0.0026945769786834717,
        -0.07328937947750092,
        -0.07291896641254425,
        -0.05924256891012192,
        0.11606559157371521,
        -0.11471795290708542,
        0.054299354553222656,
        -0.058785900473594666,
        0.09911519289016724,
        -0.10836367309093475,
        0.0900944173336029,
        -7.635354995727539e-05,
        -0.055126845836639404,
        -0.10470089316368103,
        -0.10073159635066986,
        -0.023351866751909256,
        -0.056846294552087784,
        -0.3950280547142029,
        0.6334181427955627,
        -0.10426479578018188,
        -0.13656862080097198,
        -0.21457742154598236,
        0.20142829418182373,
        0.053990501910448074,
        -0.08108324557542801,
        -0.35290732979774475,
        -0.022518053650856018,
        0.0579814612865448,
        0.17320095002651215,
        0.33201029896736145,
        -0.10926253348588943,
        -0.6485334634780884,
        -0.36257487535476685,
        -0.20395787060260773,
        0.095439113676548,
        -0.044031187891960144,
        -0.0054606967605650425,
        -0.06999838352203369,
        -0.1159449890255928,
        0.05315632373094559,
        0.04410313069820404,
        -0.31826549768447876,
        -0.13513565063476562,
        -1.6302445146720856e-05,
        -0.19900284707546234,
        0.04812148958444595,
        -0.08968021720647812,
        0.14399836957454681,
        -0.06968272477388382,
        -0.055607229471206665,
        -0.23696790635585785,
        0.7495641112327576,
        0.8060328364372253,
        0.40101537108421326,
        0.23423634469509125,
        -0.051465217024087906,
        0.09707804024219513,
        -0.1874532252550125,
        0.05853096395730972,
        -0.007901636883616447,
        -0.030824216082692146,
        -0.3103358745574951,
        -0.03789567947387695,
        0.034497883170843124,
        0.08305550366640091,
        -0.012244033627212048,
        0.020112087950110435,
        0.04614528268575668,
        -0.45957624912261963,
        0.024465449154376984,
        -0.02648809552192688,
        -0.16403387486934662,
        -0.029131967574357986,
        -0.10595057159662247,
        0.11199577897787094,
        -0.0052182674407958984,
        0.09821492433547974,
        0.09914956986904144,
        0.03589138388633728,
        -0.11739721149206161,
        0.13690292835235596,
        -0.0010113269090652466,
        -0.010886073112487793,
        -0.026216141879558563,
        -0.08327978849411011,
        0.003817528486251831,
        -0.12950918078422546,
        0.022446870803833008,
        -0.037122949957847595,
        -0.10331660509109497,
        -0.05583573877811432,
        0.10689777135848999,
        -0.05435021221637726,
        0.10453876852989197,
        0.04749520123004913,
        0.09615889191627502,
        0.0015900710131973028,
        -0.1091800183057785,
        0.04050462692975998,
        0.06832827627658844,
        0.08421815931797028,
        0.07050231099128723,
        0.14565902948379517,
        0.03075622022151947,
        -0.09217987209558487,
        0.06965957581996918,
        -0.11454588919878006,
        -0.10050651431083679,
        -0.019377194344997406,
        -0.05024715140461922,
        0.16785551607608795,
        -0.1512683480978012,
        -0.22859902679920197,
        -0.036058325320482254,
        -0.15855050086975098,
        -0.015524232760071754,
        0.22239376604557037,
        0.05581266060471535,
        -0.14699864387512207,
        0.07664989680051804,
        0.10639507323503494,
        -0.0868380144238472,
        0.07876035571098328,
        -0.039132408797740936,
        0.17079780995845795,
        -0.049030907452106476,
        -0.15745413303375244,
        0.11583048850297928,
        0.041439346969127655,
        0.05938088148832321,
        0.006217062473297119,
        -0.09532564878463745,
        -0.08395294845104218,
        -0.12735792994499207,
        -0.1420811414718628,
        0.09012244641780853,
        -0.12490615993738174,
        0.14747409522533417,
        0.09667370468378067,
        0.03921041265130043,
        -0.02533564530313015,
        0.049494482576847076,
        0.010041406378149986,
        -0.06805457919836044,
        -0.11889319121837616,
        -0.18059517443180084,
        0.1016174778342247,
        0.08374329656362534,
        0.12518762052059174,
        0.05394209548830986,
        0.03198320418596268,
        0.03421749919652939,
        -0.022204870358109474,
        0.16771286725997925,
        0.07378605753183365,
        -0.0013171732425689697,
        0.07735975086688995,
        -0.10445953905582428,
        -0.12160410732030869,
        -0.08718742430210114,
        0.09284766018390656,
        -0.06291027367115021,
        -0.0030996501445770264,
        0.09458558261394501,
        0.06410393118858337,
        0.1224181056022644,
        0.05864405632019043,
        -0.0772099643945694,
        -0.08670009672641754,
        0.03825406730175018,
        0.008577167987823486,
        -0.026194393634796143,
        0.013315722346305847,
        -0.0053583234548568726,
        -0.09248795360326767,
        -0.0988757312297821,
        0.02914808690547943,
        -0.11800362169742584,
        -0.058599844574928284,
        0.10099084675312042,
        -0.04768794775009155,
        0.08602254092693329,
        -0.027058787643909454,
        -0.03889305889606476,
        -0.10984241217374802,
        -0.02078717201948166,
        0.1291694939136505,
        -0.13428083062171936,
        -0.06742457300424576,
        -0.12110050022602081,
        0.12510427832603455,
        -0.060515038669109344,
        0.1253407895565033,
        -0.023655712604522705,
        -0.06722014397382736,
        0.07077126204967499,
        -0.26567092537879944,
        -0.17333823442459106,
        -0.06019749492406845,
        0.016080636531114578,
        -0.3817101716995239,
        0.12834276258945465,
        0.09660204499959946,
        -0.057365767657756805,
        0.25791630148887634,
        -0.008780254051089287,
        -0.07815898954868317,
        0.053642671555280685,
        -0.031397610902786255,
        -0.08558298647403717,
        -0.1661451905965805,
        0.062913678586483,
        -0.10114049166440964,
        -0.062494780868291855,
        -0.043948397040367126,
        -0.059364136308431625,
        0.11713594198226929,
        0.17479479312896729,
        0.07440567761659622,
        -0.010821615345776081,
        0.03476467356085777,
        -0.3387347459793091,
        -0.29849928617477417,
        -0.010313515551388264,
        0.6735822558403015,
        -0.6570050120353699,
        -0.0037959725596010685,
        0.07107291370630264,
        0.2589258849620819,
        -0.3487086296081543,
        -0.7574204206466675,
        -0.0782366693019867,
        0.06608077883720398,
        0.053213972598314285,
        -0.08686759322881699,
        0.08468245714902878,
        -0.0073858569376170635,
        -0.199936643242836,
        -0.09449102729558945,
        -0.01573096215724945,
        -0.12994395196437836,
        0.049191296100616455,
        0.13906258344650269,
        0.020021919161081314,
        -0.032793350517749786,
        -0.11737832427024841,
        0.02913057617843151,
        -0.13670292496681213,
        -0.03166959434747696,
        0.06242591142654419,
        0.04648243263363838,
        -0.17818374931812286,
        -0.13692398369312286,
        -0.08370833098888397,
        -0.05501129478216171,
        0.024053631350398064,
        -0.05383141338825226,
        0.21278484165668488,
        0.15516676008701324,
        0.06003333255648613,
        0.03917194530367851,
        -0.021977070719003677,
        0.18000324070453644,
        -0.03603295981884003,
        0.125260129570961,
        -0.06629294902086258,
        0.18252237141132355,
        -0.05508320778608322,
        0.05460597202181816,
        0.1958828568458557,
        0.1450798064470291,
        0.011965297162532806,
        -0.08600395917892456,
        0.03320881351828575,
        0.07806108146905899,
        -0.06581120193004608,
        0.581287682056427,
        0.07652933895587921,
        -0.7472457885742188,
        -0.09665907174348831,
        0.5980951189994812,
        -0.06288838386535645,
        -0.6664037704467773,
        0.116550512611866,
        0.6127177476882935,
        -0.40781837701797485,
        -0.3638228476047516,
        0.09164756536483765,
        -0.5616463422775269,
        0.1523262858390808,
        -0.0895036906003952,
        0.4414651691913605,
        0.027973799034953117,
        0.1078885868191719,
        -0.18853092193603516,
        -0.1270512044429779,
        -0.07420623302459717,
        -0.0933573991060257,
        -0.08189220726490021,
        -0.1367497742176056,
        -0.11725633591413498,
        0.09054224193096161,
        0.019921645522117615,
        -0.08372996002435684,
        0.07539045810699463,
        0.05811738967895508,
        -0.058034732937812805,
        0.037026211619377136,
        0.03860560059547424,
        -0.05460890382528305,
        -0.05488526076078415,
        0.11201047897338867,
        -0.02242940664291382,
        0.02837003767490387,
        0.023387163877487183,
        0.06450130045413971,
        0.23355108499526978,
        -0.0681658461689949,
        -0.01791369356215,
        -0.04240727424621582,
        -0.10270359367132187,
        -0.26395276188850403,
        -0.13914407789707184,
        -0.1068677231669426,
        -0.15042744576931,
        -0.05024506524205208,
        0.1322791427373886,
        0.11534590274095535,
        -0.02928961254656315,
        -0.014039697125554085,
        -0.047254450619220734,
        0.17966315150260925,
        0.32446664571762085,
        0.022048039361834526,
        0.16208265721797943,
        0.09732113033533096,
        0.6414241790771484,
        -0.8746060132980347,
        -0.10620314627885818,
        -0.04363267123699188,
        0.33893102407455444,
        -0.1230941116809845,
        0.10669473558664322,
        -0.14069324731826782,
        0.0029642588924616575,
        0.38947269320487976,
        -0.11543646454811096,
        -0.0031146679539233446,
        0.02106437273323536,
        0.08739293366670609,
        -0.341858446598053,
        -0.2625018358230591,
        -0.04318428412079811,
        0.01409843284636736,
        0.02419174462556839,
        0.09243564307689667,
        -0.08983439952135086,
        0.02973790653049946,
        -0.0906834751367569,
        0.06381815671920776,
        0.164747953414917,
        -0.10091106593608856,
        -0.0785597562789917,
        -0.10203061252832413,
        -0.027497563511133194,
        0.1537659764289856,
        0.054955363273620605,
        0.02876933291554451,
        -0.09323369711637497,
        -0.1412295252084732,
        0.13119864463806152,
        -0.27570536732673645,
        -0.1366899311542511,
        -0.2298576980829239,
        -0.14448097348213196,
        0.04250649735331535,
        -0.3190785050392151,
        0.1746169924736023,
        0.05772370845079422,
        0.023585185408592224,
        0.15327376127243042,
        -0.08566127717494965,
        -0.03485482558608055,
        -0.018060369417071342,
        -0.2749195992946625,
        0.03827699273824692,
        0.02361864410340786,
        -0.07689014077186584,
        0.12144485116004944,
        0.0676858052611351,
        0.1275368481874466,
        -0.21655288338661194,
        -0.16037379205226898,
        -0.14849784970283508,
        -0.09945940971374512,
        0.08716090023517609,
        -0.16228656470775604,
        -0.3205591142177582,
        0.1016206219792366,
        0.06996268033981323,
        -0.15415164828300476,
        -0.07077620923519135,
        -0.07121327519416809,
        0.0405086912214756,
        0.06477519869804382,
        0.026664413511753082,
        0.05490719527006149,
        0.04246450215578079,
        0.03370848670601845,
        -0.016818176954984665,
        0.08437131345272064,
        0.3775276839733124,
        0.36899974942207336,
        0.18446433544158936,
        -0.00019739207345992327,
        -0.05497390776872635,
        -0.043189745396375656,
        0.22795572876930237,
        -0.12032599747180939,
        0.10042784363031387,
        0.16261248290538788,
        -0.005033772438764572,
        0.0039870114997029305,
        -0.01022997684776783,
        0.028775887563824654,
        0.06739693135023117,
        -0.0010321908630430698,
        0.13740940392017365,
        0.1559777855873108,
        -0.14729706943035126,
        0.05414773151278496,
        -0.974759042263031,
        -0.9297493100166321,
        -0.7066657543182373,
        -0.3760768473148346,
        -0.10573995113372803,
        -0.07571758329868317,
        0.09283019602298737,
        -0.024567149579524994,
        -0.021582841873168945,
        0.13246700167655945,
        0.07706025242805481,
        -0.07784181088209152,
        -0.009812325239181519,
        -0.08739064633846283,
        0.04991784691810608,
        -0.1321750432252884,
        0.06597398221492767,
        0.06591403484344482,
        -0.05966775864362717,
        -0.02927863597869873,
        -0.04594692587852478,
        -0.029016681015491486,
        0.11217671632766724,
        -0.03219425678253174,
        -0.03751077130436897,
        -0.20580331981182098,
        -0.1873941570520401,
        0.10940615087747574,
        0.11369150131940842,
        0.1791202425956726,
        -0.11218147724866867,
        -0.0025678931269794703,
        0.06459555774927139,
        0.20041081309318542,
        0.009033185429871082,
        -0.08622211962938309,
        -0.0702265128493309,
        0.09195391833782196,
        0.04415453225374222,
        0.10981928557157516,
        0.18254125118255615,
        0.059108782559633255,
        0.10659532994031906,
        0.07445553690195084,
        -0.09624645113945007,
        0.06020359694957733,
        0.11460626125335693,
        0.008941173553466797,
        -0.05222304165363312,
        -0.003998652100563049,
        -0.13085484504699707,
        -0.009415343403816223,
        0.0864359587430954,
        0.06565195322036743,
        -0.028073549270629883,
        0.031663984060287476,
        0.004196032881736755,
        -0.037006497383117676,
        -0.017195597290992737,
        0.03792034089565277,
        -0.11245542764663696,
        -0.03860965371131897,
        0.011449262499809265,
        -0.08045731484889984,
        0.00016426877118647099,
        0.13097406923770905,
        -0.013316779397428036,
        -0.2001509815454483,
        0.028191428631544113,
        0.16792896389961243,
        0.1086045503616333,
        0.17189329862594604,
        0.09780276566743851,
        -0.10267159342765808,
        8.956737292464823e-05,
        0.04572267457842827,
        -0.11751996725797653,
        0.07518690824508667,
        0.12493158876895905,
        0.030642254278063774,
        -0.6382497549057007,
        -0.6498252153396606,
        -0.39380696415901184,
        -0.14798957109451294,
        -0.05696127563714981,
        0.09636296331882477,
        0.03876511752605438,
        0.12521108984947205,
        0.026983141899108887,
        0.10573063790798187,
        -0.05705617368221283,
        -0.1259850114583969,
        -0.12058667093515396,
        -0.012695692479610443,
        0.02899797260761261,
        -0.08337052166461945,
        0.09476673603057861,
        -0.005375593900680542,
        0.09096546471118927,
        0.0017020702362060547,
        -0.05160441994667053,
        0.11729124188423157,
        0.06115563213825226,
        0.016591429710388184,
        -0.09577614068984985,
        0.1912768930196762,
        -0.3675163686275482,
        -0.10488592833280563,
        0.1538613885641098,
        -0.02748451754450798,
        0.3435893952846527,
        -0.012409927323460579,
        0.09765828400850296,
        -0.0963142141699791,
        0.04016367718577385,
        -0.020675048232078552,
        -0.09396538883447647,
        -0.02079932577908039,
        -0.0468461699783802,
        -0.17637242376804352,
        -0.6643682718276978,
        -0.69810551404953,
        -0.32706737518310547,
        -0.17322984337806702,
        0.09763937443494797,
        -0.11820288002490997,
        -0.0752304345369339,
        -0.05292689800262451,
        0.07809427380561829,
        -0.0073089380748569965,
        0.05742091313004494,
        -0.047186169773340225,
        -0.040856096893548965,
        -0.08220867812633514,
        0.10517656803131104,
        -0.11204299330711365,
        0.11200159043073654,
        0.12162916362285614,
        -0.1589905321598053,
        -0.1216803789138794,
        0.5895349979400635,
        0.42305833101272583,
        0.3871721625328064,
        0.33919060230255127,
        0.06937754899263382,
        -0.056319426745176315,
        -0.1933903992176056,
        -0.08601679652929306,
        0.023027176037430763,
        0.055666446685791016,
        -0.1398414522409439,
        0.06778808683156967,
        -0.06476142257452011,
        -0.02387293055653572,
        -0.1674719750881195,
        -0.046453703194856644,
        -0.14128655195236206,
        0.06297437846660614,
        -0.12069296836853027,
        0.053113922476768494,
        -0.19230064749717712,
        -0.3825584053993225,
        -0.006294772028923035,
        -0.14408867061138153,
        -0.004879475571215153,
        0.2585369050502777,
        0.05899462848901749,
        -0.038984451442956924,
        0.10592501610517502,
        -0.09985139966011047,
        -0.07145165652036667,
        0.0009533979464322329,
        -0.12104928493499756,
        0.06872385740280151,
        0.04768718406558037,
        0.12375212460756302,
        0.03450798988342285,
        0.022803762927651405,
        0.003612348809838295,
        0.05185704678297043,
        -0.46219903230667114,
        -0.4813319146633148,
        -0.3786672055721283,
        -0.07046806067228317,
        0.023798098787665367,
        -1.2373909950256348,
        -0.13851308822631836,
        0.17389391362667084,
        -0.03338439017534256,
        0.5801333785057068,
        -0.3421671390533447,
        0.2441256046295166,
        -0.06442849338054657,
        -0.18324273824691772,
        -0.5084986090660095,
        -0.030736267566680908,
        0.11479222774505615,
        -0.03889893740415573,
        0.4385720193386078,
        0.25488021969795227,
        -0.24953721463680267,
        -0.1897304207086563,
        -0.14904211461544037,
        -0.029210468754172325,
        -0.17051585018634796,
        -0.19264371693134308,
        0.3263726532459259,
        -0.40426331758499146,
        0.06948724389076233,
        0.2593078017234802,
        0.002402080222964287,
        0.14716382324695587,
        -0.01370920892804861,
        0.519736647605896,
        -0.43935200572013855,
        -0.22907745838165283,
        0.07612438499927521,
        -0.25521203875541687,
        -0.28336188197135925,
        -0.24064792692661285,
        -0.35188689827919006,
        -0.4604298770427704,
        -0.2670150399208069,
        -0.22242878377437592,
        0.0076449778862297535,
        -0.004881812259554863,
        0.21848490834236145,
        -0.2492859810590744,
        -0.06114916130900383,
        -0.0029286870267242193,
        0.11553044617176056,
        -0.17211437225341797,
        0.11527013778686523,
        0.049013227224349976,
        -0.17915558815002441,
        0.041461724787950516,
        -0.07843346893787384,
        -0.9235720634460449,
        0.6748731136322021,
        -0.08600597828626633,
        0.3100704848766327,
        0.21014149487018585,
        0.3285897970199585,
        0.12126483023166656,
        -0.10324713587760925,
        0.6349680423736572,
        0.06585528701543808,
        -0.0690041035413742,
        0.12404166907072067,
        -0.7931444644927979,
        0.08165134489536285,
        0.11996391415596008,
        -0.04274456575512886,
        0.09663233906030655,
        -0.12783485651016235,
        -0.3011358678340912,
        0.027945958077907562,
        0.08313335478305817,
        -0.5349472761154175,
        0.08258400857448578,
        -0.5070965886116028,
        -0.26578450202941895,
        -0.15456174314022064,
        -0.06238611042499542,
        0.05425187200307846,
        0.013472839258611202,
        0.20018503069877625,
        1.3517768383026123,
        -0.058395709842443466,
        0.11556756496429443,
        -0.29011231660842896,
        -0.038568586111068726,
        -0.09791702777147293,
        0.2098061442375183,
        0.4288521409034729,
        0.004816191736608744,
        -0.06984851509332657,
        -0.5573707222938538,
        0.5992290377616882,
        -0.07361192256212234,
        0.4984741806983948,
        0.7103409767150879,
        0.46282920241355896,
        1.0158162117004395,
        0.006025325041264296,
        -0.15560603141784668,
        -0.43027496337890625,
        0.2816506326198578,
        -0.1543918251991272,
        -0.06085705757141113,
        -0.19386206567287445,
        -0.28375035524368286,
        0.06593731790781021,
        -0.16381020843982697,
        -0.44633835554122925,
        0.1757982224225998,
        0.1106683760881424,
        0.2911301553249359,
        0.9842386841773987,
        0.12762537598609924,
        -0.2443065047264099,
        0.014923520386219025,
        -0.10357274115085602,
        0.35659995675086975,
        0.04530025273561478,
        -0.4196282923221588,
        -0.1441846489906311,
        -0.9355764985084534,
        -0.08739563077688217,
        0.27712759375572205,
        0.2758048474788666,
        0.140028715133667,
        0.020956838503479958,
        -0.5859102010726929,
        0.2795167863368988,
        -0.5393317937850952,
        -0.16857895255088806,
        -0.2886408865451813,
        0.1756010800600052,
        -0.5963959693908691,
        -0.7748896479606628,
        -0.49613937735557556,
        -0.4235125780105591,
        -0.5664579272270203,
        -0.09045056998729706,
        -0.12334281206130981,
        -0.030847646296024323,
        -0.11413951218128204,
        -0.05422113090753555,
        -0.03971174359321594,
        0.13075071573257446,
        -0.029438607394695282,
        0.08553643524646759,
        0.05510041117668152,
        -0.1020100861787796,
        -0.1063847541809082,
        -0.03224606812000275,
        0.012270823121070862,
        -0.0014031529426574707,
        0.07164973020553589,
        -0.08627715706825256,
        -0.06678257137537003,
        -0.04818561673164368,
        0.03769266605377197,
        -0.0722215324640274,
        -0.05132593959569931,
        -0.008908957242965698,
        -0.026665784418582916,
        -0.0442865714430809,
        0.029483169317245483,
        -0.06798459589481354,
        0.10666248202323914,
        0.020519986748695374,
        0.0995570719242096,
        0.07586811482906342,
        0.058748915791511536,
        -0.12260068953037262,
        0.12634950876235962,
        -0.06625398993492126,
        -0.11738190054893494,
        -0.015332020819187164,
        0.026491060853004456,
        0.08257527649402618,
        -0.04625948518514633,
        0.034668680280447006,
        0.05645637586712837,
        0.020328015089035034,
        -0.009412192739546299,
        0.06523353606462479,
        0.08250507712364197,
        0.12077001482248306,
        -0.04916580393910408,
        0.05530422180891037,
        0.1293056756258011,
        -0.04357973486185074,
        0.14060981571674347,
        0.062473077327013016,
        -0.21458816528320312,
        -0.013418852351605892,
        -0.11905328929424286,
        0.3951006829738617,
        0.3652952015399933,
        0.28818732500076294,
        0.10147754102945328,
        0.09875745326280594,
        -0.2580704689025879,
        0.3452330231666565,
        -0.4662684500217438,
        -0.11115293949842453,
        0.6005863547325134,
        -0.4847344756126404,
        -0.1703769564628601,
        -0.017122741788625717,
        0.4531272053718567,
        0.1895473152399063,
        -0.3273255527019501,
        -0.04484519362449646,
        -0.05069094896316528,
        -0.03708513081073761,
        -0.023890402168035507,
        -0.24251659214496613,
        -0.25643599033355713,
        -0.14375323057174683,
        -0.10100509226322174,
        -0.11444251239299774,
        0.08770261704921722,
        0.10676956176757812,
        -0.047619521617889404,
        -0.05700851231813431,
        -0.10996947437524796,
        0.009452491998672485,
        0.00029192864894866943,
        0.03090304136276245,
        0.12538915872573853,
        0.08185981214046478,
        -0.019668035209178925,
        -0.08043083548545837,
        -0.12096776068210602,
        0.0971636027097702,
        0.05800554156303406,
        -0.03748118132352829,
        -0.09973130375146866,
        -0.020450547337532043,
        0.12918603420257568,
        -0.06081914156675339,
        0.03417770937085152,
        0.07386530190706253,
        -0.009634547866880894,
        0.12700530886650085,
        -0.0978994369506836,
        -0.14747557044029236,
        -0.07028944045305252,
        0.10401619970798492,
        -0.17418316006660461,
        0.07819604873657227,
        0.1366611272096634,
        -0.10787317156791687,
        0.13980582356452942,
        0.0150071382522583,
        0.021795475855469704,
        0.1171998605132103,
        0.15341375768184662,
        0.009341420605778694,
        0.03368082270026207,
        -0.018772892653942108,
        -0.006908386945724487,
        0.04224386811256409,
        -0.09973166137933731,
        0.007728353142738342,
        -0.10701321065425873,
        -0.12157747149467468,
        -0.052727505564689636,
        -0.08729616552591324,
        -0.11416321992874146,
        0.0840042233467102,
        -0.12307216972112656,
        -0.10376269370317459,
        -0.060859233140945435,
        -0.06515134125947952,
        -0.06739656627178192,
        -0.06268072873353958,
        0.08718447387218475,
        0.07147803902626038,
        -0.051345400512218475,
        -0.06529989093542099,
        0.10402719676494598,
        0.09518395364284515,
        -0.038152821362018585,
        -0.03804417699575424,
        0.0423789918422699,
        0.047213196754455566,
        0.03238670527935028,
        0.04582981765270233,
        0.0946388840675354,
        0.018769696354866028,
        -0.1323123574256897,
        -0.11946006119251251,
        -0.005792558193206787,
        0.04850068688392639,
        -0.08919408917427063,
        0.001471593976020813,
        0.11359643936157227,
        0.04646368324756622,
        -0.12517879903316498,
        -0.07241600751876831,
        -0.0903337225317955,
        -0.08018718659877777,
        0.1231241226196289,
        -0.10216313600540161,
        0.014143809676170349,
        0.058818817138671875,
        -0.129189595580101,
        -0.09394089877605438,
        0.09604319930076599,
        -0.10235310345888138,
        -0.03813529014587402,
        -0.09425283968448639,
        -0.0033753812313079834,
        0.06204180419445038,
        0.021066367626190186,
        0.053015515208244324,
        -0.03837910294532776,
        0.07071605324745178,
        -0.12891992926597595,
        0.012269468046724796,
        -0.0725429430603981,
        0.07546675205230713,
        -0.11022257804870605,
        0.05628110095858574,
        0.06782335788011551,
        0.10001778602600098,
        -0.09878873825073242,
        -0.0704558789730072,
        0.03344649821519852,
        0.06481204181909561,
        0.11834487318992615,
        0.025996502488851547,
        0.018284756690263748,
        0.146243616938591,
        -0.09625552594661713,
        -0.13599568605422974,
        -0.16405630111694336,
        -0.08549125492572784,
        -0.04793946072459221,
        -0.12962812185287476,
        -0.08896476775407791,
        0.08434097468852997,
        0.02496781386435032,
        0.08161883056163788,
        0.14738109707832336,
        -0.3050508201122284,
        -0.19517633318901062,
        0.09405035525560379,
        0.19065123796463013,
        -0.01968611218035221,
        -0.011762031354010105,
        0.11080547422170639,
        -0.156162828207016,
        0.26812082529067993,
        0.09574122726917267,
        -0.16022005677223206,
        -0.06670720130205154,
        -0.10727429389953613,
        0.049074411392211914,
        0.06488288193941116,
        -0.0012107024667784572,
        0.02060835063457489,
        -0.006302442867308855,
        0.05872485786676407,
        0.02936568111181259,
        0.050306227058172226,
        -0.023665299639105797,
        0.06955713778734207,
        0.07238435745239258,
        0.1431087851524353,
        -0.07636736333370209,
        -0.02218659035861492,
        -0.06418654322624207,
        -0.23125746846199036,
        0.14131230115890503,
        0.3497530519962311,
        0.3089621961116791,
        0.2290458232164383,
        0.12212938070297241,
        0.09862363338470459,
        0.009719159454107285,
        -0.035246171057224274,
        0.06485721468925476,
        0.1159566342830658,
        0.09758341312408447,
        -0.2488827407360077,
        -0.09740743041038513,
        -0.12212534248828888,
        0.08031734079122543,
        -0.06706194579601288,
        -0.04175030067563057,
        -0.06364912539720535,
        -0.1765952855348587,
        0.1037256196141243,
        -0.155485600233078,
        0.38480857014656067,
        0.25924453139305115,
        0.18670393526554108,
        0.15655161440372467,
        -0.06763917207717896,
        0.22300240397453308,
        0.10055231302976608,
        0.06517701596021652,
        0.074138343334198,
        0.23464883863925934,
        0.0266635250300169,
        0.1500822901725769,
        0.1297917515039444,
        0.009146426804363728,
        -0.48443782329559326,
        0.12141814827919006,
        -0.06618597358465195,
        -0.04309440404176712,
        -0.030644426122307777,
        -0.1848297268152237,
        -0.32617273926734924,
        -0.4098309874534607,
        -0.1615782231092453,
        -0.15904013812541962,
        -0.03556177765130997,
        -0.12659652531147003,
        -0.10066529363393784,
        0.12850302457809448,
        -0.07579894363880157,
        0.12454739212989807,
        -0.06907793879508972,
        -0.13438637554645538,
        0.10677468776702881,
        0.048996493220329285,
        0.05786597728729248,
        -0.10574343800544739,
        -0.09444484114646912,
        0.09894578158855438,
        0.06822706758975983,
        0.05745704472064972,
        0.0923272967338562,
        0.06897056102752686,
        -0.05150729417800903,
        -0.08375238627195358,
        0.07279934734106064,
        -0.0337822400033474,
        -0.09522350877523422,
        0.12201455235481262,
        -0.009204654023051262,
        -0.09120260924100876,
        -0.08169736713171005,
        -0.12215784192085266,
        -0.0029176597017794847,
        0.00010878374450840056,
        -0.013240656815469265,
        0.025117570534348488,
        0.04124486446380615,
        -0.13729742169380188,
        -0.12149224430322647,
        0.04103253409266472,
        0.201059028506279,
        0.42621174454689026,
        0.16534221172332764,
        0.09902612119913101,
        0.039833422750234604,
        0.6900297999382019,
        -0.6493035554885864,
        -0.5079112648963928,
        -0.12463638186454773,
        0.07704159617424011,
        0.10784980654716492,
        -0.07542028278112411,
        0.02865757793188095,
        0.026976214721798897,
        -0.22814564406871796,
        -0.5886957049369812,
        -0.10010311752557755,
        -0.05785003677010536,
        -0.12052132189273834,
        -0.36390113830566406,
        -0.5175603628158569,
        0.019919684156775475,
        -0.14344288408756256,
        -0.3319995105266571,
        -0.025058168917894363,
        0.5718448758125305,
        0.10388515889644623,
        -0.04807209596037865,
        0.09253634512424469,
        -0.13871103525161743,
        0.7836658954620361,
        0.011130730621516705,
        -0.15390276908874512,
        -0.22940199077129364,
        0.09906652569770813,
        0.17301203310489655,
        -0.14505399763584137,
        -0.19115561246871948,
        0.210130512714386,
        0.1550370156764984,
        -0.2987765669822693,
        -0.3838959038257599,
        -0.32176411151885986,
        -0.3860376477241516,
        0.048835914582014084,
        -0.3021455705165863,
        0.12930947542190552,
        0.15867266058921814,
        -0.020212046802043915,
        -0.16223278641700745,
        -0.41022834181785583,
        0.0508459247648716,
        0.05221864953637123,
        0.07098349928855896,
        -0.20975063741207123,
        0.1358819305896759,
        0.06241202354431152,
        -0.05748599022626877,
        0.1238793209195137,
        0.10610996186733246,
        -0.039318908005952835,
        -0.06545481085777283,
        -0.13661932945251465,
        -0.14034217596054077,
        0.03977388143539429,
        -0.026655182242393494,
        0.12457174062728882,
        -0.10028024762868881,
        -0.036112092435359955,
        -0.06510010361671448,
        0.03076709434390068,
        -0.009480231441557407,
        0.12083683907985687,
        0.04216362535953522,
        -0.20358961820602417,
        -0.05073649436235428,
        -0.12768563628196716,
        0.06462976336479187,
        0.17841456830501556,
        0.2350195199251175,
        -0.5308490991592407,
        -0.5503067374229431,
        -0.2703579068183899,
        -0.13162095844745636,
        -0.12135592848062515,
        -0.03611762076616287,
        0.11615335941314697,
        0.0412224680185318,
        0.1092759221792221,
        0.08603566884994507,
        0.09756749868392944,
        0.07232208549976349,
        -0.07554978132247925,
        -0.03818929195404053,
        -0.03781639784574509,
        -0.07246389985084534,
        0.03856469690799713,
        -0.011194780468940735,
        -0.04343109577894211,
        -0.0006974637508392334,
        -0.01668490469455719,
        -0.061295561492443085,
        0.05194482207298279,
        -0.08948680013418198,
        0.031036706641316414,
        0.05134478211402893,
        -0.24280253052711487,
        0.17707867920398712,
        -0.03978102281689644,
        0.013864122331142426,
        -0.035257529467344284,
        0.012928403913974762,
        0.10223504900932312,
        0.07114019244909286,
        -0.08944129198789597,
        0.076143778860569,
        0.05504050850868225,
        0.12491142749786377,
        -0.17261703312397003,
        -0.178809255361557,
        0.4618193805217743,
        0.359354704618454,
        0.32040324807167053,
        0.13288679718971252,
        0.03407587110996246,
        0.2910853922367096,
        -0.04796026274561882,
        -0.09508176892995834,
        -0.11088205128908157,
        0.20229457318782806,
        -0.26861631870269775,
        0.11703695356845856,
        0.07161743938922882,
        0.05413593724370003,
        0.1563681811094284,
        -0.05615841969847679,
        -0.047051575034856796,
        0.1898213028907776,
        0.04837331920862198,
        0.08020935952663422,
        0.19134996831417084,
        -0.0804097056388855,
        -0.07414620369672775,
        0.12795981764793396,
        0.073388010263443,
        -0.07557675987482071,
        0.18627022206783295,
        0.19158703088760376,
        -0.14296776056289673,
        -0.12739364802837372,
        -0.6200584769248962,
        0.05651967599987984,
        0.06039641797542572,
        0.12381605058908463,
        -0.2143494337797165,
        0.043180931359529495,
        -0.021114543080329895,
        0.16959144175052643,
        -0.14272885024547577,
        0.20986145734786987,
        -0.26384657621383667,
        -0.15115982294082642,
        -0.023707708343863487,
        -0.21574974060058594,
        -0.11702504754066467,
        -0.12639042735099792,
        -0.2656925320625305,
        -0.19545713067054749,
        0.004458516836166382,
        -0.38652503490448,
        0.15472334623336792,
        1.1172648668289185,
        0.019602669402956963,
        0.35072776675224304,
        -0.024875544011592865,
        0.6371105909347534,
        0.136090949177742,
        -0.19954398274421692,
        -0.12065153568983078,
        0.7295600771903992,
        0.7850906252861023,
        0.187466561794281,
        0.12370137125253677,
        0.09427781403064728,
        -0.07594989240169525,
        0.27515166997909546,
        0.05776611343026161,
        -0.09997986257076263,
        0.03512236103415489,
        0.07513044774532318,
        0.07901547849178314,
        -0.25783777236938477,
        0.12223578244447708,
        0.0821191817522049,
        -0.3308146297931671,
        -0.0694657638669014,
        -0.01998377963900566,
        0.7358484864234924,
        0.24695985019207,
        -0.270372599363327,
        0.7147737145423889,
        0.685537576675415,
        0.5344743132591248,
        0.166343092918396,
        -0.011709462851285934,
        0.09098955988883972,
        -0.05788511782884598,
        -0.1111949235200882,
        0.0235118605196476,
        -0.03498338162899017,
        -0.0009008377091959119,
        0.08377336710691452,
        0.11335871368646622,
        0.0796113982796669,
        0.004664032720029354,
        -0.058638133108615875,
        0.052442483603954315,
        -0.0022543880622833967,
        -0.17018064856529236,
        -0.07537194341421127,
        0.26255619525909424,
        0.30399465560913086,
        0.1543455719947815,
        0.04402799904346466,
        -0.08756083250045776,
        0.12644726037979126,
        -0.03987530618906021,
        0.08318918943405151,
        -0.1281166970729828,
        -0.07444983720779419,
        -0.07510989904403687,
        0.008590325713157654,
        -0.1184360608458519,
        0.08936019241809845,
        0.1279466450214386,
        -0.024481579661369324,
        0.02194829285144806,
        -0.13200192153453827,
        -0.12411621958017349,
        0.005461707711219788,
        -0.05511640012264252,
        0.029868245124816895,
        -0.12564291059970856,
        -0.07376249879598618,
        0.028909960761666298,
        0.15644516050815582,
        0.018780143931508064,
        -0.029585812240839005,
        0.121552973985672,
        0.07838334143161774,
        0.1375022977590561,
        -0.04239671677350998,
        -0.0985184758901596,
        0.14966638386249542,
        -0.018039485439658165,
        -0.1020028367638588,
        0.005803478416055441,
        0.1769510805606842,
        -0.06695633381605148,
        -0.05826561897993088,
        -0.23291608691215515,
        -0.2675107419490814,
        -0.09662489593029022,
        0.044398851692676544,
        0.02862483821809292,
        0.3969780504703522,
        0.27925482392311096,
        -0.05883181467652321,
        0.06946419179439545,
        0.6160387992858887,
        -0.06416172534227371,
        0.0659029632806778,
        -0.11465942114591599,
        0.13050688803195953,
        0.14547163248062134,
        -0.012345871888101101,
        -0.05132359638810158,
        -0.09886529296636581,
        0.1093636155128479,
        -0.2582969069480896,
        0.1463543176651001,
        0.15682554244995117,
        0.05112550035119057,
        0.06092395633459091,
        0.029641885310411453,
        -0.47158002853393555,
        0.07788290083408356,
        0.1589421033859253,
        -0.07359877228736877,
        -0.0225556418299675,
        -0.3488784432411194,
        -0.06658809632062912,
        -0.02807004004716873,
        -0.02526693232357502,
        -0.15506227314472198,
        0.30718860030174255,
        0.08198460936546326,
        0.07472161203622818,
        0.2622683644294739,
        0.16616082191467285,
        -0.2840805649757385,
        -0.16451071202754974,
        -0.09677405655384064,
        0.05520881339907646,
        0.04598798230290413,
        -0.06305567920207977,
        0.11965281516313553,
        0.12280392646789551,
        -0.036149632185697556,
        0.07758890837430954,
        -0.3435996472835541,
        -0.07410092651844025,
        0.05789901316165924,
        0.48624667525291443,
        0.4284338057041168,
        -0.05356409773230553,
        -0.013059251941740513,
        -0.06271503865718842,
        0.035768184810876846,
        0.029421912506222725,
        0.03866732493042946,
        -0.03553125634789467,
        0.023473285138607025,
        0.09729552268981934,
        0.05760582536458969,
        -0.08043137192726135,
        -0.11204294860363007,
        0.14307619631290436,
        0.05878155678510666,
        -0.16780224442481995,
        0.28695622086524963,
        0.07536698132753372,
        -0.05147358030080795,
        0.19007426500320435,
        0.009946106001734734,
        0.05344565957784653,
        -0.16258545219898224,
        0.28652337193489075,
        -0.1629193127155304,
        0.010131161659955978,
        0.45033571124076843,
        0.5165181756019592,
        0.3178192675113678,
        0.27994751930236816,
        -0.12258201092481613,
        -0.07056745141744614,
        -0.001859426498413086,
        -0.0025324076414108276,
        0.10063846409320831,
        -0.13591128587722778,
        0.12268933653831482,
        -0.13610047101974487,
        -0.08065612614154816,
        0.13008520007133484,
        0.09722255170345306,
        0.08616645634174347,
        -0.08895416557788849,
        -0.124768927693367,
        0.027232080698013306,
        -0.0687328651547432,
        0.06528754532337189,
        0.05904605984687805,
        0.08363769948482513,
        -0.1012548953294754,
        -0.06511836498975754,
        0.19752904772758484,
        -0.3565768301486969,
        0.43938103318214417,
        -0.039220307022333145,
        1.0486491918563843,
        0.08009655773639679,
        0.24816492199897766,
        0.06648274511098862,
        -0.24084749817848206,
        0.020728101953864098,
        -0.18899469077587128,
        0.028084004297852516,
        -0.07768081873655319,
        0.10112973302602768,
        0.3313411474227905,
        0.17347103357315063,
        -0.08837766945362091,
        0.028833651915192604,
        0.09443840384483337,
        0.09743106365203857,
        -0.025624532252550125,
        -0.32566124200820923,
        -0.10686894506216049,
        -0.09158607572317123,
        0.159851536154747,
        0.7292981743812561,
        -0.06903258711099625,
        0.011365415528416634,
        0.06034170463681221,
        -0.013002021238207817,
        0.016042614355683327,
        -0.036746907979249954,
        -0.4935528337955475,
        -0.0947260782122612,
        0.03489711508154869,
        0.04167783632874489,
        -0.1513940840959549,
        0.08483532071113586,
        -0.04718766361474991,
        0.010640423744916916,
        -0.28814318776130676,
        -0.06911352276802063,
        -0.05763433873653412,
        0.03385978192090988,
        0.1120033860206604,
        0.2150302678346634,
        -0.23700778186321259,
        0.04038515314459801,
        0.15081384778022766,
        0.007029443979263306,
        -0.005173216108232737,
        -0.026694608852267265,
        -0.086906298995018,
        -0.15779057145118713,
        -0.10323870927095413,
        0.24732357263565063,
        0.3890184164047241,
        0.05421501398086548,
        0.052605900913476944,
        -0.03422700986266136,
        0.604655921459198,
        -0.2521907389163971,
        -0.14914803206920624,
        -0.016578590497374535,
        -0.35346221923828125,
        -0.22152280807495117,
        -0.039658963680267334,
        0.04087240621447563,
        -0.20197699964046478,
        0.09040356427431107,
        -0.047806911170482635,
        0.13031350076198578,
        0.10067971050739288,
        0.023742511868476868,
        -0.1472734957933426,
        -0.2848697602748871,
        -0.12950995564460754,
        -0.2553543746471405,
        -0.13991858065128326,
        -0.04793870076537132,
        0.2378271073102951,
        0.4281963109970093,
        -0.1913583129644394,
        -0.009300673380494118,
        0.2747054398059845,
        -0.030622903257608414,
        -0.00742891663685441,
        0.13081353902816772,
        0.7825981378555298,
        0.08365710079669952,
        0.001410221797414124,
        0.12663330137729645,
        -0.666994571685791,
        -0.21139231324195862,
        -0.06521548330783844,
        0.27203184366226196,
        0.17973250150680542,
        0.22048550844192505,
        0.1243845596909523,
        0.04660223424434662,
        -0.16248491406440735,
        0.0635138601064682,
        -0.03748033195734024,
        0.07754912227392197,
        0.3870871067047119,
        0.04420952498912811,
        -0.07727053761482239,
        -0.09668359160423279,
        -0.044263940304517746,
        -0.28787145018577576,
        0.290161669254303,
        -0.19429557025432587,
        -0.0714649185538292,
        0.06660209596157074,
        0.2893740236759186,
        -0.2704848647117615,
        -0.16001754999160767,
        -0.12738163769245148,
        0.06480121612548828,
        -0.0007766754133626819,
        0.1957780420780182,
        -0.13699086010456085,
        -0.2688194811344147,
        -0.14132258296012878,
        -0.5838523507118225,
        -0.11765912920236588,
        -0.02017231471836567,
        -0.03466525301337242,
        0.23846931755542755,
        -0.2358817458152771,
        0.008530152030289173,
        0.024205267429351807,
        0.06542641669511795,
        0.282829225063324,
        -0.1597222089767456,
        -0.0431552417576313,
        -0.08220914751291275,
        0.025225546211004257,
        0.011089257895946503,
        -0.012541093863546848,
        -0.09872423857450485,
        -0.31757044792175293,
        -0.06565451622009277,
        0.04931817576289177,
        0.18485096096992493,
        0.09532802551984787,
        0.009460966102778912,
        0.06428319215774536,
        -0.14592164754867554,
        0.039428986608982086,
        0.04047711193561554,
        -0.03286771476268768,
        -0.24136614799499512,
        -0.026706717908382416,
        -0.16701917350292206,
        0.43622225522994995,
        0.199984610080719,
        0.26984402537345886,
        -0.08337248861789703,
        -0.049177199602127075,
        0.16565102338790894,
        0.09658223390579224,
        0.05266297236084938,
        -0.009500477463006973,
        0.048055678606033325,
        -0.25433990359306335,
        -0.11368609219789505,
        0.03802230954170227,
        0.2756364941596985,
        -0.01121273823082447,
        -0.009407969191670418,
        0.07466523349285126,
        -0.1862896829843521,
        -0.10818729549646378,
        0.16662494838237762,
        0.10471823066473007,
        0.11674761027097702,
        0.05047914385795593,
        -0.0004151907633058727,
        -0.006053366232663393,
        0.33457300066947937,
        -0.36531686782836914,
        0.31563663482666016,
        -0.0752112865447998,
        -0.05061473324894905,
        -0.5579816699028015,
        0.2020978480577469,
        0.04273740202188492,
        0.15874621272087097,
        -0.1413566619157791,
        -0.08843624591827393,
        0.12511812150478363,
        0.012871588580310345,
        0.26445382833480835,
        0.11523160338401794,
        -0.36272382736206055,
        -0.20648445188999176,
        -0.34697240591049194,
        -0.12410718947649002,
        -0.03479764610528946,
        0.06536531448364258,
        -0.12087546288967133,
        0.027345627546310425,
        -0.1197596937417984,
        -0.0008821189403533936,
        0.09277704358100891,
        -0.12674663960933685,
        0.01679573953151703,
        -0.06406306475400925,
        -0.11065495759248734,
        -0.10213400423526764,
        0.0964137613773346,
        -0.0859842523932457,
        0.00642414391040802,
        -0.11478859931230545,
        0.06470392644405365,
        0.11717110872268677,
        -0.13624267280101776,
        0.09170365333557129,
        -0.03159179538488388,
        -0.03827708214521408,
        -0.05243182182312012,
        0.04295484721660614,
        -0.10235653072595596,
        0.023708373308181763,
