{
  "defaults": {},
  "inputs": [
    {
      "name": "1LeadingPt",
      "offset": 0,
      "scale": 1
    },
    {
      "name": "1LeadingMass",
      "offset": 0,
      "scale": 1
    },
    {
      "name": "1LeadingE",
      "offset": 0,
      "scale": 1
    },
    {
      "name": "1LeadingEta",
      "offset": 0,
      "scale": 1
    },
    {
      "name": "1LeadingBTag",
      "offset": 0,
      "scale": 1
    },
    {
      "name": "2LeadingPt",
      "offset": 0,
      "scale": 1
    },
    {
      "name": "2LeadingMass",
      "offset": 0,
      "scale": 1
    },
    {
      "name": "2LeadingE",
      "offset": 0,
      "scale": 1
    },
    {
      "name": "2LeadingEta",
      "offset": 0,
      "scale": 1
    },
    {
      "name": "2LeadingBTag",
      "offset": 0,
      "scale": 1
    },
    {
      "name": "3LeadingPt",
      "offset": 0,
      "scale": 1
    },
    {
      "name": "3LeadingMass",
      "offset": 0,
      "scale": 1
    },
    {
      "name": "3LeadingE",
      "offset": 0,
      "scale": 1
    },
    {
      "name": "3LeadingEta",
      "offset": 0,
      "scale": 1
    },
    {
      "name": "3LeadingBTag",
      "offset": 0,
      "scale": 1
    },
    {
      "name": "4LeadingPt",
      "offset": 0,
      "scale": 1
    },
    {
      "name": "4LeadingMass",
      "offset": 0,
      "scale": 1
    },
    {
      "name": "4LeadingE",
      "offset": 0,
      "scale": 1
    },
    {
      "name": "4LeadingEta",
      "offset": 0,
      "scale": 1
    },
    {
      "name": "4LeadingBTag",
      "offset": 0,
      "scale": 1
    },
    {
      "name": "1BTag",
      "offset": 0,
      "scale": 1
    },
    {
      "name": "2BTag",
      "offset": 0,
      "scale": 1
    },
    {
      "name": "3BTag",
      "offset": 0,
      "scale": 1
    },
    {
      "name": "4BTag",
      "offset": 0,
      "scale": 1
    }
  ],
  "layers": [
    {
      "activation": "rectified",
      "architecture": "dense",
      "bias": [
        0.07012948393821716,
        0.0,
        -0.06791504472494125,
        -0.013966062106192112,
        0.021966012194752693,
        -0.027576537802815437,
        0.19142091274261475,
        0.0,
        0.04748363047838211,
        0.021492432802915573,
        -0.0009061302989721298,
        -0.08780722320079803,
        0.06777391582727432,
        -0.12157393991947174,
        -0.060880161821842194,
        -0.04047652333974838,
        0.049528103321790695,
        -0.05011264979839325,
        0.10682415962219238,
        0.01065865159034729,
        -0.07319561392068863,
        0.05619683489203453,
        -0.00655899103730917,
        -0.06806371361017227,
        -0.03200508654117584,
        -0.04687916487455368,
        -0.04253820329904556,
        0.03924977779388428,
        -0.042465951293706894,
        0.07734806090593338,
        -0.007383283693343401,
        0.08395837247371674,
        -0.0701376348733902,
        0.2431870847940445,
        0.024402352049946785,
        0.0,
        0.013876894488930702,
        -0.07013993710279465,
        -0.018854640424251556,
        -0.02063250169157982,
        -0.062310561537742615,
        -0.0014380337670445442,
        -0.031919658184051514,
        0.09501489251852036,
        0.0034425342455506325,
        0.0,
        0.08910326659679413,
        0.018153751268982887,
        -0.027812646701931953,
        -0.079060859978199,
        -0.11026477068662643,
        0.02884496934711933,
        -0.03241381049156189,
        0.17264677584171295,
        -0.05571891367435455,
        -0.11565911024808884,
        -0.02471749857068062,
        -0.06625622510910034,
        -0.044494688510894775,
        0.022738361731171608,
        0.06893877685070038,
        0.016211196780204773,
        0.1418488621711731,
        0.18842938542366028,
        0.008033715188503265,
        0.1258104145526886,
        0.014003568328917027,
        -0.054579563438892365,
        -0.028843315318226814,
        0.0,
        0.012478661723434925,
        -0.09057202190160751,
        -0.09950604289770126,
        0.2754128873348236,
        -0.01909119449555874,
        -0.009520445950329304,
        -0.09800996631383896,
        -0.006781051401048899,
        -0.013665149919688702,
        0.027327977120876312,
        0.014213726855814457,
        -0.07103704661130905,
        0.036610137671232224,
        -0.03875357657670975,
        -0.011689003556966782,
        -0.06010549142956734,
        0.0454416424036026,
        -0.054047051817178726,
        0.050224144011735916,
        -0.0033840143587440252,
        0.02781720459461212,
        -0.06722963601350784,
        0.05850067734718323,
        -0.06989429891109467,
        -0.03694261610507965,
        0.011732327751815319,
        -0.06917563825845718,
        0.012682395055890083,
        -0.19664259254932404,
        -0.034791894257068634,
        0.12296437472105026,
        0.021839689463377,
        -0.04100048542022705,
        9.3555036073667e-06,
        0.0011602335143834352,
        0.0,
        0.03123069554567337,
        0.002674235962331295,
        -0.04489031806588173,
        -0.004403222352266312,
        -0.13948282599449158,
        0.0012083093170076609,
        -0.013430741615593433,
        0.0012681736843660474,
        0.05412657558917999,
        0.03257892653346062,
        -0.03155737742781639,
        -0.059163372963666916,
        -0.06403113156557083,
        -0.06984245032072067,
        -0.02959543652832508,
        0.10192818939685822,
        -0.0018213063012808561,
        0.07548225671052933,
        -0.07723059505224228,
        -4.5299530029296875e-06,
        -0.054751381278038025,
        0.01992841623723507,
        0.00025488415849395096,
        0.0019498761976137757,
        0.0,
        0.005985038820654154,
        0.07548830658197403,
        0.0,
        -0.08219987154006958,
        0.33346158266067505,
        -0.02646414190530777,
        -0.07911570370197296,
        0.0027812879998236895,
        0.0013885961379855871,
        0.0371067114174366,
        -0.02421080879867077,
        0.0,
        0.16075964272022247,
        -0.043609414249658585,
        0.012532819993793964,
        -0.017726797610521317,
        0.03716865926980972,
        0.01816069521009922,
        0.13181087374687195,
        0.048175182193517685,
        0.02424895577132702,
        -0.04974370449781418,
        -0.015624999068677425,
        -0.005155519582331181,
        0.17049938440322876,
        0.01999107375741005,
        0.0695657953619957,
        -0.15988041460514069,
        -0.12067548930644989,
        -0.05065420642495155,
        -0.02976907230913639,
        -0.0037088089156895876,
        0.031056789681315422,
        -0.10332895070314407,
        -0.06297563761472702,
        -0.10576215386390686,
        0.02120315469801426,
        -0.0617385171353817,
        0.0,
        0.2768092155456543,
        -0.03937949612736702,
        -0.015890691429376602,
        -0.013873614370822906,
        0.0003298441006336361,
        -0.057050447911024094,
        -0.011663420125842094,
        0.06554656475782394,
        0.0,
        0.024442307651042938,
        0.01474534347653389,
        0.006930004805326462,
        -0.03892182931303978,
        0.0,
        -0.04818689450621605,
        0.0400933101773262,
        -0.03138654679059982,
        0.03679422289133072,
        0.12557335197925568,
        -0.13654951751232147,
        0.05912931263446808,
        0.023033343255519867,
        0.09617641568183899,
        0.00727739417925477,
        0.025733865797519684,
        -0.03137493133544922,
        -0.13401152193546295,
        -0.03199101611971855,
        -0.08010455220937729,
        0.07111065089702606
      ],
      "weights": [
        0.11150440573692322,
        0.02497081272304058,
        -0.006345507688820362,
        0.05854390934109688,
        0.5914890170097351,
        0.07329434901475906,
        -0.08632059395313263,
        -0.07492745667695999,
        0.09057805687189102,
        0.7338754534721375,
        -0.26392045617103577,
        0.09755764901638031,
        0.021348465234041214,
        0.033208198845386505,
        -0.04436079040169716,
        -0.0836123451590538,
        0.15290449559688568,
        -0.14841781556606293,
        0.10846278071403503,
        0.3423389494419098,
        0.6551554799079895,
        0.8275953531265259,
        0.262431800365448,
        0.14332987368106842,
        -0.01213604211807251,
        0.12301772832870483,
        -0.0007890313863754272,
        0.05896127223968506,
        -0.06798910349607468,
        -0.08597325533628464,
        -0.05311854928731918,
        -0.06654582172632217,
        -0.05977347493171692,
        0.11146172881126404,
        -0.12949103116989136,
        -0.06587731838226318,
        -0.1409890204668045,
        0.15635743737220764,
        0.10474830865859985,
        -0.08120597898960114,
        -0.017855077981948853,
        -0.012835755944252014,
        -0.08884964138269424,
        -0.14098215103149414,
        0.0032815784215927124,
        -0.039388127624988556,
        -0.1464686095714569,
        -0.013178989291191101,
        -0.13400165736675262,
        -0.026878980919718742,
        0.008049096912145615,
        0.12296178936958313,
        0.17779242992401123,
        0.04697638750076294,
        0.005061842035502195,
        0.16650967299938202,
        0.09471559524536133,
        0.1094023659825325,
        0.15897656977176666,
        0.03927601873874664,
        0.007189389783889055,
        -0.0198366641998291,
        0.26743438839912415,
        -0.1912139356136322,
        -0.06990629434585571,
        -0.09129416197538376,
        -0.11086984723806381,
        0.1676034927368164,
        0.2674509584903717,
        0.6054613590240479,
        0.49667081236839294,
        0.49898800253868103,
        0.15568368136882782,
        -0.03060486540198326,
        -0.08356615900993347,
        0.0878758504986763,
        0.05488568916916847,
        0.1182665303349495,
        -0.09116487205028534,
        0.0023276940919458866,
        0.28154224157333374,
        0.006183158606290817,
        0.08521823585033417,
        0.1537337452173233,
        0.1279090940952301,
        -0.13714274764060974,
        0.0347924642264843,
        0.02760845422744751,
        0.29052314162254333,
        0.11412739008665085,
        -0.2775135934352875,
        -0.16363388299942017,
        -0.1328635811805725,
        0.2910861670970917,
        0.5370844006538391,
        0.2120489925146103,
        -0.014418583363294601,
        -0.0031534843146800995,
        0.0991966649889946,
        0.046023596078157425,
        0.43652546405792236,
        -0.006298601161688566,
        -0.19220542907714844,
        0.1218271479010582,
        -0.18330249190330505,
        0.41757333278656006,
        0.1925896406173706,
        0.057192690670490265,
        0.0024982343893498182,
        0.07085992395877838,
        0.3199763894081116,
        0.1537243276834488,
        0.15048366785049438,
        -0.054899051785469055,
        -0.1006256714463234,
        0.28974461555480957,
        0.7674685716629028,
        0.49740922451019287,
        0.536145031452179,
        0.5078414678573608,
        0.07008872181177139,
        -0.2097824513912201,
        0.0527346171438694,
        0.2415206879377365,
        -0.24414850771427155,
        -0.1366780698299408,
        -0.20153595507144928,
        0.08075743168592453,
        0.10063198208808899,
        -0.4668121933937073,
        -0.15837357938289642,
        0.16496552526950836,
        0.19141237437725067,
        0.1367952674627304,
        -0.34150201082229614,
        0.06646879762411118,
        0.02754831872880459,
        -0.055538568645715714,
        -0.1137467473745346,
        -0.2600645422935486,
        -0.4520213007926941,
        -0.5321987867355347,
        -0.38651609420776367,
        -0.17028506100177765,
        0.029629534110426903,
        -0.29838013648986816,
        -0.006994516123086214,
        -0.08226986974477768,
        1.2957316637039185,
        0.07180367410182953,
        -0.24596618115901947,
        -0.019257590174674988,
        0.09007945656776428,
        1.017318606376648,
        0.038637977093458176,
        0.04617645964026451,
        0.001004928955808282,
        0.03736400976777077,
        0.528411328792572,
        -0.05058584362268448,
        0.07785964757204056,
        -0.004268578719347715,
        -0.24144360423088074,
        0.07327571511268616,
        1.4303818941116333,
        1.62602961063385,
        1.7126946449279785,
        1.3156119585037231,
        -0.036450862884521484,
        0.12152871489524841,
        -0.052464134991168976,
        0.11755144596099854,
        -0.05499952286481857,
        -0.09288778901100159,
        -0.02922217547893524,
        -0.1387515515089035,
        -0.10176882892847061,
        -0.012081146240234375,
        -0.041110098361968994,
        -0.14129950106143951,
        -0.08792649954557419,
        0.13248378038406372,
        0.13147199153900146,
        -0.12660671770572662,
        0.08696103096008301,
        -0.1285887211561203,
        0.01944698393344879,
        0.11928191781044006,
        -0.02486012876033783,
        -0.11817960441112518,
        -0.1112067699432373,
        -0.03909430652856827,
        0.168422669172287,
        -0.04189624637365341,
        -0.0695723369717598,
        0.08618342876434326,
        0.5570436716079712,
        -0.10710205137729645,
        -0.15077683329582214,
        -0.1645478755235672,
        0.261481374502182,
        0.18843697011470795,
        -0.22986368834972382,
        -0.08249049633741379,
        0.12493820488452911,
        0.03585248813033104,
        0.04709888622164726,
        -0.15462267398834229,
        -0.11385545134544373,
        -0.0484783798456192,
        0.007641517091542482,
        0.08793292939662933,
        0.5486539006233215,
        0.4577273726463318,
        0.20686723291873932,
        0.03541478142142296,
        0.03238580748438835,
        -0.14236457645893097,
        -0.00368851819075644,
        -0.06206604465842247,
        -0.3041612505912781,
        0.030235227197408676,
        -0.17158155143260956,
        0.11588650941848755,
        0.25621509552001953,
        -0.20876862108707428,
        0.09053447842597961,
        -0.007410113699734211,
        0.12334281951189041,
        0.08490519970655441,
        -0.4259108304977417,
        0.0032632146030664444,
        -0.08847669512033463,
        -0.12623733282089233,
        -0.07524152100086212,
        -0.4874989986419678,
        -0.41282710433006287,
        -0.24886751174926758,
        -0.40096980333328247,
        -0.34992799162864685,
        0.03946185111999512,
        -0.05279536917805672,
        0.13949744403362274,
        -0.09624364972114563,
        -0.33403271436691284,
        -0.13598665595054626,
        -0.05946436896920204,
        0.07346075773239136,
        0.2208765298128128,
        -0.36393609642982483,
        -0.07444808632135391,
        -0.04891202971339226,
        0.1390848606824875,
        -0.07935638725757599,
        -0.3987705111503601,
        -0.18472349643707275,
        -0.11478257924318314,
        -0.07288144528865814,
        -0.0897841602563858,
        -0.43107354640960693,
        -0.5604345202445984,
        -0.7085269093513489,
        -0.46870455145835876,
        -0.42321234941482544,
        0.0691072940826416,
        0.23900240659713745,
        0.07391416281461716,
        0.017327211797237396,
        -0.3065391480922699,
        -0.23406262695789337,
        0.14304237067699432,
        0.12697485089302063,
        0.08138751983642578,
        -0.199779212474823,
        -0.03592187166213989,
        -0.08203564584255219,
        -0.04959646612405777,
        -0.11586564779281616,
        -0.26910337805747986,
        -0.06945651769638062,
        -0.019348323345184326,
        0.09840127825737,
        0.2114107757806778,
        -0.3216523230075836,
        -0.4908064305782318,
        -0.28876498341560364,
        -0.505431592464447,
        -0.4065217077732086,
        0.04652474820613861,
        0.09449563175439835,
        -0.025068404152989388,
        0.13310442864894867,
        -0.29206809401512146,
        -0.0992434173822403,
        0.03131933510303497,
        0.06710327416658401,
        0.13359780609607697,
        -0.23759041726589203,
        0.018214069306850433,
        -0.05383937805891037,
        0.13808974623680115,
        0.005846770945936441,
        -0.3757987916469574,
        -0.08726491779088974,
        0.04291130229830742,
        0.10988513380289078,
        0.19245940446853638,
        -0.24196632206439972,
        -0.27978914976119995,
        -0.36325106024742126,
        -0.47528332471847534,
        -0.36677438020706177,
        -0.18205446004867554,
        -0.2035554200410843,
        0.007343833334743977,
        -0.028642097488045692,
        0.7885718941688538,
        0.07295726239681244,
        0.026340754702687263,
        0.02081487514078617,
        0.11187253892421722,
        0.8188161253929138,
        -0.4875289797782898,
        -0.11056101322174072,
        0.0393243283033371,
        -0.09046537429094315,
        0.5329424142837524,
        -0.47610846161842346,
        -0.31700971722602844,
        0.04117196425795555,
        0.17051595449447632,
        -0.05762298405170441,
        1.3312550783157349,
        1.0567665100097656,
        0.41175413131713867,
        -0.07737578451633453,
        -0.01979728229343891,
        1.5218254702631384e-05,
        0.0005895518115721643,
        -0.1260354369878769,
        1.1984437704086304,
        0.022815624251961708,
        -0.1952504962682724,
        0.0005750645650550723,
        0.0027774751652032137,
        0.9447414875030518,
        0.03325778618454933,
        -0.13662616908550262,
        -0.0058633433654904366,
        0.018562765792012215,
        0.7150425910949707,
        0.1663951277732849,
        0.09427311271429062,
        0.008981279097497463,
        -0.13566255569458008,
        0.3191457688808441,
        2.0106189250946045,
        1.9076675176620483,
        1.761522889137268,
        1.298282265663147,
        0.13724146783351898,
        0.08788710832595825,
        0.06076549366116524,
        -0.01238830853253603,
        -0.38711273670196533,
        -0.06362993270158768,
        -0.05292653292417526,
        0.02369035594165325,
        -0.14280925691127777,
        -0.6128173470497131,
        0.03280878812074661,
        0.15415315330028534,
        -0.02221713960170746,
        0.01822516694664955,
        -0.3920108377933502,
        -0.02445252053439617,
        0.03507097810506821,
        0.11585930734872818,
        -0.25475117564201355,
        -0.20726360380649567,
        -0.7089946269989014,
        -0.5152025818824768,
        -0.5806039571762085,
        -0.16847442090511322,
        0.10564116388559341,
        -0.21856744587421417,
        -0.017990315333008766,
        -0.29738056659698486,
        0.2956599295139313,
        -0.02169768139719963,
        -0.0006005033501423895,
        -0.030804632231593132,
        -0.05407009273767471,
        0.1906249076128006,
        -0.03916357085108757,
        -0.10272065550088882,
        -0.022638414055109024,
        -0.10182192921638489,
        -0.11577269434928894,
        0.13928954303264618,
        0.06710243225097656,
        -0.015240232460200787,
        -0.059653140604496,
        -0.24964818358421326,
        0.6611435413360596,
        0.602674663066864,
        0.9462741613388062,
        0.5226633548736572,
        0.08598917722702026,
        -0.12518572807312012,
        -0.05278511717915535,
        0.013095667585730553,
        0.5944467782974243,
        0.13691385090351105,
        -0.06376272439956665,
        0.1122729629278183,
        0.2676357924938202,
        0.35171905159950256,
        0.19194245338439941,
        0.18290401995182037,
        0.14746785163879395,
        0.04916975647211075,
        0.19035835564136505,
        0.07385987043380737,
        0.15174327790737152,
        0.10760527104139328,
        -0.03930337727069855,
        0.2432011067867279,
        0.6836829781532288,
        0.5731614232063293,
        0.7535895109176636,
        0.7114982008934021,
        0.004106869455426931,
        0.06477213650941849,
        0.0068173776380717754,
        0.23123468458652496,
        -0.453771710395813,
        -0.14949911832809448,
        -0.15042796730995178,
        0.03998814523220062,
        0.1964094489812851,
        -0.32844245433807373,
        0.1382218301296234,
        0.18534733355045319,
        -0.058701034635305405,
        -0.08002463728189468,
        -0.5122082233428955,
        0.15925443172454834,
        0.3018180727958679,
        -0.0772140696644783,
        -0.083732470870018,
        -0.2344592958688736,
        -0.4554894268512726,
        -0.585702657699585,
        -0.5115308165550232,
        -0.28094708919525146,
        -0.08625498414039612,
        -0.003378245048224926,
        0.0303236972540617,
        0.13721394538879395,
        0.10697922855615616,
        0.07424981892108917,
        0.06659993529319763,
        0.042078662663698196,
        -0.12043659389019012,
        0.06235715374350548,
        0.1410985291004181,
        0.16424643993377686,
        0.04851727932691574,
        0.0068932268768548965,
        -0.1787649244070053,
        0.25693148374557495,
        0.4339778423309326,
        -0.19635187089443207,
        0.01829458773136139,
        -0.10269694775342941,
        0.13849395513534546,
        0.06845063716173172,
        0.6747233271598816,
        0.49594733119010925,
        0.1197594478726387,
        0.01668236032128334,
        0.016690630465745926,
        -0.1656859815120697,
        -0.09261756390333176,
        0.15941444039344788,
        0.06804627925157547,
        0.07673364132642746,
        0.1604187935590744,
        -0.16733290255069733,
        -0.20388789474964142,
        -0.10086899995803833,
        -0.037808552384376526,
        0.1646234095096588,
        0.29215651750564575,
        -0.23371131718158722,
        -0.45732977986335754,
        0.03722039982676506,
        0.052137501537799835,
        0.12570278346538544,
        -0.1477186530828476,
        -0.17372223734855652,
        -0.5034046769142151,
        -0.34922999143600464,
        0.08852750062942505,
        -0.04748545587062836,
        -0.01276293583214283,
        0.0714261457324028,
        -0.48484858870506287,
        0.12515537440776825,
        0.13843250274658203,
        -0.043599385768175125,
        0.15049782395362854,
        -0.2817595303058624,
        0.06693610548973083,
        0.1253744512796402,
        0.1467670351266861,
        0.16004537045955658,
        -0.2647835612297058,
        -0.017803309485316277,
        0.0811520367860794,
        -0.14938268065452576,
        -0.0786178782582283,
        -0.44013795256614685,
        -0.4107952117919922,
        -0.5020638704299927,
        -0.2980412244796753,
        -0.30184105038642883,
        0.040779195725917816,
        -0.04547441005706787,
        -0.007395374588668346,
        0.0029333189595490694,
        0.10964314639568329,
        0.0673084706068039,
        -0.12454885989427567,
        -0.13536500930786133,
        -0.060578763484954834,
        0.1448807269334793,
        0.13286645710468292,
        -0.14577636122703552,
        -0.048993151634931564,
        0.0681738406419754,
        -0.0033310595899820328,
        -0.11141498386859894,
        -0.15396592020988464,
        -0.11810344457626343,
        -0.013330047950148582,
        0.08652182668447495,
        -0.11484342813491821,
        0.13126182556152344,
        0.014568675309419632,
        0.11397707462310791,
        -0.0827077180147171,
        0.01590452343225479,
        -0.13778650760650635,
        -0.12196234613656998,
        0.4909789264202118,
        -0.17270250618457794,
        -0.11889003217220306,
        0.04502515494823456,
        0.231739342212677,
        0.2091715782880783,
        0.04750099778175354,
        0.10881491005420685,
        0.0773635059595108,
        -0.06518028676509857,
        0.45677661895751953,
        -0.1496293991804123,
        -0.12407512217760086,
        0.088643878698349,
        0.013641731813549995,
        -0.05994869023561478,
        0.4453044533729553,
        0.5149201154708862,
        0.15919657051563263,
        -0.14586929976940155,
        -0.0621943473815918,
        0.02635662443935871,
        0.059133388102054596,
        -0.17210149765014648,
        -0.1944381296634674,
        0.001549013890326023,
        -0.11259268969297409,
        -0.06367775052785873,
        0.07811541110277176,
        -0.2400219738483429,
        0.15415659546852112,
        -0.1704929769039154,
        0.0698990672826767,
        -0.09222373366355896,
        -0.1828712821006775,
        -0.07257858663797379,
        0.06439723074436188,
        -0.15621373057365417,
        0.04864642024040222,
        -0.41140666604042053,
        -0.5841447114944458,
        -0.7322932481765747,
        -0.6137319207191467,
        -0.4275663197040558,
        -0.09244706481695175,
        -0.0473565012216568,
        -0.05891447886824608,
        0.03082192875444889,
        -0.2966131865978241,
        -0.1527775079011917,
        0.1181337758898735,
        -0.07943638414144516,
        -0.2008986920118332,
        -0.025053543969988823,
        0.13556982576847076,
        0.06264358013868332,
        0.04370524734258652,
        0.01991470903158188,
        -0.12300735712051392,
        0.10909149795770645,
        0.08006302267313004,
        0.007447937969118357,
        -0.07145778834819794,
        -0.09702447056770325,
        -0.17279262840747833,
        -0.09951256960630417,
        -0.16533957421779633,
        -0.17474102973937988,
        -0.15557345747947693,
        0.04273664206266403,
        -0.18189644813537598,
        -0.14116264879703522,
        0.11863613873720169,
        -0.16435746848583221,
        -0.06349079310894012,
        -0.04485711082816124,
        -0.09685789048671722,
        0.1042778491973877,
        -0.08547057956457138,
        -0.21105122566223145,
        0.019939059391617775,
        -0.10854735225439072,
        -0.04378592222929001,
        -0.19254820048809052,
        -0.19724281132221222,
        -0.1983073204755783,
        -0.05129218101501465,
        0.006384974345564842,
        -0.00031124474480748177,
        0.13232886791229248,
        0.1841879040002823,
        -0.04286704957485199,
        0.1803557574748993,
        0.05030737817287445,
        -0.004422815982252359,
        -0.0962136760354042,
        0.13651031255722046,
        -0.14069686830043793,
        -0.00023455382324755192,
        -0.13046185672283173,
        -0.01980508118867874,
        0.37726882100105286,
        -0.13027960062026978,
        0.060770731419324875,
        -0.09777436405420303,
        -0.15597021579742432,
        0.07154818624258041,
        -0.0672379806637764,
        0.12969954311847687,
        0.03676597401499748,
        -0.11867809295654297,
        -0.12920260429382324,
        0.3521113395690918,
        0.1922677606344223,
        0.10156339406967163,
        0.22660528123378754,
        -0.03827931731939316,
        -0.1097838282585144,
        -0.1526871621608734,
        0.11882457137107849,
        -0.16633029282093048,
        0.01635824702680111,
        -0.04002464562654495,
        -0.0023704450577497482,
        0.14306050539016724,
        0.15013623237609863,
        -0.04210449755191803,
        0.07723357528448105,
        -0.11414462327957153,
        -0.008493690751492977,
        0.11477386951446533,
        -0.034989289939403534,
        0.045861177146434784,
        -0.11505439132452011,
        -0.04354585334658623,
        -0.014236102811992168,
        -0.015250627882778645,
        0.1671103537082672,
        0.15525975823402405,
        0.1011868417263031,
        0.06539376825094223,
        -0.04346197843551636,
        0.16124847531318665,
        0.1143345758318901,
        -0.29477420449256897,
        -0.05300326272845268,
        0.12859871983528137,
        -0.09719948470592499,
        0.043398693203926086,
        -0.02173451893031597,
        0.06488565355539322,
        -0.11649462580680847,
        -0.1311572790145874,
        -0.1509457677602768,
        -0.2449660301208496,
        -0.19069278240203857,
        -0.20442599058151245,
        -0.1539144515991211,
        0.21997705101966858,
        -0.2850489914417267,
        -0.4212126135826111,
        -0.37752145528793335,
        -0.8712979555130005,
        -0.5670666098594666,
        -0.006812393665313721,
        -0.0002448433078825474,
        0.084407739341259,
        -0.039807237684726715,
        -0.5164345502853394,
        -0.09753929078578949,
        -0.026035701856017113,
        0.06718377768993378,
        0.07643282413482666,
        -0.463379830121994,
        -0.001550994929857552,
        0.05703899636864662,
        -0.1188041940331459,
        0.22068631649017334,
        -0.46600764989852905,
        0.0017549030017107725,
        -0.17334650456905365,
        0.025697320699691772,
        0.17708785831928253,
        -0.32619360089302063,
        -0.4141857326030731,
        -0.5080287456512451,
        -0.3790426254272461,
        -0.4218314588069916,
        0.13008618354797363,
        -0.06660936772823334,
        0.04784660041332245,
        -0.22837340831756592,
        0.18771740794181824,
        0.038508009165525436,
        0.097160205245018,
        -0.1570352017879486,
        0.18635541200637817,
        -0.011779870837926865,
        -0.12159060686826706,
        -0.02033562771975994,
        0.04681697487831116,
        0.14085951447486877,
        0.1271003633737564,
        -0.20937466621398926,
        -0.10566946119070053,
        0.03307943791151047,
        -0.16811874508857727,
        -0.15200793743133545,
        -0.11334599554538727,
        -0.27947551012039185,
        -0.08351486176252365,
        0.11267358064651489,
        -0.11468009650707245,
        -0.025846941396594048,
        -0.06890090554952621,
        -0.04922884702682495,
        0.11935260146856308,
        -0.09795776009559631,
        0.08487788587808609,
        -0.009039252996444702,
        0.1850738376379013,
        -0.12371213734149933,
        -0.029397863894701004,
        -0.08075068891048431,
        0.13645067811012268,
        0.060380518436431885,
        -0.009300649166107178,
        -0.04394989833235741,
        -0.07928706705570221,
        -0.020766668021678925,
        -0.047432318329811096,
        -0.00714946398511529,
        0.046359699219465256,
        -0.1323428899049759,
        -0.19875748455524445,
        -0.3030491769313812,
        0.001744029694236815,
        0.00840821024030447,
        0.00033307255944237113,
        0.011122267693281174,
        0.9745412468910217,
        0.00041574769420549273,
        0.005685384850949049,
        -0.0008350894786417484,
        0.04397953301668167,
        0.6033801436424255,
        0.0022954032756388187,
        -0.006214424502104521,
        0.0003288556181360036,
        -0.005570767447352409,
        0.37964704632759094,
        0.0005375922191888094,
        -0.002546123694628477,
        0.0007032975554466248,
        -0.005650276318192482,
        0.3503357768058777,
        2.079888105392456,
        1.784973382949829,
        1.6054500341415405,
        0.6842141151428223,
        -0.031770091503858566,
        -9.856167889665812e-05,
        0.005877182353287935,
        0.0707755982875824,
        -0.025477705523371696,
        -0.03553449362516403,
        -0.09500406682491302,
        0.13076791167259216,
        0.1423848569393158,
        -0.03196186199784279,
        -0.06796818226575851,
        -0.021074356511235237,
        0.0531029999256134,
        -0.15452340245246887,
        -0.15405628085136414,
        -0.09332888573408127,
        0.08285894244909286,
        0.1823251098394394,
        0.0803651362657547,
        -0.23062598705291748,
        -0.0583740770816803,
        -0.21607232093811035,
        -0.17032580077648163,
        -0.09311103820800781,
        -0.13676470518112183,
        -0.1100732684135437,
        -0.13595983386039734,
        0.039131760597229004,
        -0.018022701144218445,
        0.08626684546470642,
        0.10358893871307373,
        -0.14949624240398407,
        -0.08369961380958557,
        -0.06567028164863586,
        0.04599463939666748,
        -0.03404608368873596,
        -0.08775239437818527,
        0.13430556654930115,
        -0.08610444515943527,
        0.046256065368652344,
        -0.0311012864112854,
        -0.06431716680526733,
        0.006031036376953125,
        0.033893004059791565,
        -0.12195068597793579,
        0.10957521200180054,
        -0.08853568881750107,
        0.01973573863506317,
        0.05448811501264572,
        -0.08481688797473907,
        0.1084887832403183,
        0.02504781261086464,
        0.4346391260623932,
        0.03343937173485756,
        0.0773596242070198,
        -0.20141629874706268,
        0.17836138606071472,
        0.31820258498191833,
        0.09631907194852829,
        0.0227749552577734,
        0.0712079182267189,
        0.08062128722667694,
        0.343409925699234,
        -0.10789243131875992,
        -0.12070155143737793,
        0.010274912230670452,
        -0.2741296887397766,
        0.2622992992401123,
        0.5212026238441467,
        0.7383245229721069,
        0.6582838892936707,
        0.4870668053627014,
        0.022835291922092438,
        0.10695609450340271,
        0.14838452637195587,
        -0.07350145280361176,
        -0.7384998202323914,
        -0.19160760939121246,
        0.025642674416303635,
        -0.018673408776521683,
        -0.09516759216785431,
        -0.7543449401855469,
        0.24767062067985535,
        -0.04775622859597206,
        -0.0047523328103125095,
        0.01542818732559681,
        -0.5716798901557922,
        -0.054370250552892685,
        0.09345829486846924,
        -0.11837050318717957,
        0.1116517186164856,
        -0.7511329054832458,
        -0.872421383857727,
        -0.6891780495643616,
        -0.7803192734718323,
        -0.7652535438537598,
        0.03336336091160774,
        0.048340052366256714,
        -0.06374391913414001,
        -0.1764903962612152,
        -0.581061840057373,
        -0.0029536711517721415,
        0.12881328165531158,
        0.08758385479450226,
        0.005735437385737896,
        -0.1718672513961792,
        0.054410867393016815,
        0.2160099446773529,
        -0.05581255629658699,
        -0.05512586236000061,
        -0.553688108921051,
        -0.16372992098331451,
        -0.055184122174978256,
        0.19180209934711456,
        0.0276833213865757,
        -0.4086395800113678,
        -0.5611686110496521,
        -0.7705581188201904,
        -0.6715643405914307,
        -0.5599845051765442,
        -0.04290344566106796,
        -0.09582068771123886,
        0.0321606807410717,
        -0.09493329375982285,
        0.3788798451423645,
        0.15577362477779388,
        -0.3717135787010193,
        -0.09824258834123611,
        -0.14136403799057007,
        0.35826781392097473,
        0.1422014832496643,
        -0.11657661944627762,
        -0.09818770736455917,
        0.048958078026771545,
        0.40232884883880615,
        0.2053532749414444,
        0.1285882592201233,
        0.11109975725412369,
        -0.19972588121891022,
        0.10115031898021698,
        0.42166951298713684,
        0.4361802935600281,
        0.4715955853462219,
        0.3470665216445923,
        -0.15418343245983124,
        -0.1254565566778183,
        0.05083071067929268,
        0.07138954848051071,
        0.24282677471637726,
        -0.12084115296602249,
        -0.394279807806015,
        0.06130538135766983,
        -0.12094878405332565,
        0.16928301751613617,
        -0.035347986966371536,
        0.04221951216459274,
        0.014144242741167545,
        0.08752765506505966,
        -0.1289060115814209,
        0.3110348880290985,
        0.2240002602338791,
        0.09461478143930435,
        0.1935538500547409,
        -0.026700152084231377,
        0.21019603312015533,
        0.18940311670303345,
        0.20394527912139893,
        -0.10776250809431076,
        0.14152154326438904,
        -0.10888958722352982,
        0.07027054578065872,
        -0.09854898601770401,
        -0.4335707128047943,
        -0.1255645751953125,
        0.19394314289093018,
        -0.17561501264572144,
        -0.24417173862457275,
        -0.11782201379537582,
        0.04070200026035309,
        -0.10395876318216324,
        -0.01223304308950901,
        0.026995522901415825,
        -0.38044172525405884,
        0.07648392021656036,
        -0.22215363383293152,
        0.027575785294175148,
        0.05784952640533447,
        -0.22069193422794342,
        -0.4843635857105255,
        -0.47458022832870483,
        -0.6321272253990173,
        -0.42192476987838745,
        -0.12645374238491058,
        0.012557006441056728,
        -0.02714323252439499,
        -0.13419599831104279,
        0.25382304191589355,
        -0.1117447167634964,
        -0.12532076239585876,
        -0.02099396102130413,
        0.024380750954151154,
        0.4751560389995575,
        0.016339441761374474,
        -0.1987830400466919,
        -0.11926174908876419,
        -0.24083268642425537,
        0.22543005645275116,
        -0.2532569169998169,
        -0.12422318756580353,
        0.09879271686077118,
        -0.19927248358726501,
        -0.14553144574165344,
        0.5149916410446167,
        0.553680419921875,
        0.27367663383483887,
        0.18578457832336426,
        -0.11368846893310547,
        0.24812254309654236,
        0.0751291960477829,
        0.22432874143123627,
        -0.3635570704936981,
        -0.11563533544540405,
        0.06580592691898346,
        0.11561041325330734,
        0.21812570095062256,
        -0.351095587015152,
        -0.016043175011873245,
        -0.03038661740720272,
        0.14683964848518372,
        -0.11449167132377625,
        -0.36978423595428467,
        -0.15843826532363892,
        -0.16064226627349854,
        -0.03698042780160904,
        0.23122084140777588,
        -0.1544918566942215,
        -0.3628513216972351,
        -0.5472192764282227,
        -0.6995084881782532,
        -0.4370853304862976,
        -0.1354682743549347,
        -0.20043133199214935,
        -0.040819332003593445,
        -0.14062485098838806,
        0.5871190428733826,
        -0.030492043122649193,
        0.047317661345005035,
        0.015461651608347893,
        0.01869984157383442,
        0.6386387944221497,
        -0.08194597065448761,
        -0.13815896213054657,
        -0.16346663236618042,
        -0.09052319079637527,
        0.24913401901721954,
        -0.4849443733692169,
        -0.049139294773340225,
        0.10314241051673889,
        -0.1446143537759781,
        -0.0953860878944397,
        0.8967013955116272,
        0.7868046164512634,
        0.5645266175270081,
        0.07766751199960709,
        0.0679437667131424,
        -0.074541836977005,
        -0.01238277554512024,
        0.007562547922134399,
        -0.15502247214317322,
        -0.0246124267578125,
        -0.030907154083251953,
        -0.1611892133951187,
        -0.01832561194896698,
        -0.0686810165643692,
        0.1483374834060669,
        -0.15845942497253418,
        -0.07730666548013687,
        0.15234297513961792,
        0.11663341522216797,
        -0.014042928814888,
        0.13933131098747253,
        -0.12055012583732605,
        -0.1337212324142456,
        -0.0779697448015213,
        -0.07518770545721054,
        0.12396624684333801,
        -0.055542610585689545,
        -0.05519022047519684,
        -0.09946849942207336,
        0.0980832576751709,
        0.059924669563770294,
        0.11761071532964706,
        -0.11834592372179031,
        -0.049638234078884125,
        -0.14019817113876343,
        -0.05055444687604904,
        -0.03043260984122753,
        -0.024603573605418205,
        0.05617764592170715,
        -0.10493872314691544,
        -0.06299818307161331,
        0.0024488845374435186,
        0.2940567135810852,
        -0.03031131997704506,
        0.19855034351348877,
        -0.20115090906620026,
        -0.09802927821874619,
        0.2537561058998108,
        0.43787428736686707,
        0.44565215706825256,
        0.2992715835571289,
        0.040792565792798996,
        0.059845276176929474,
        0.2978675961494446,
        0.14986908435821533,
        0.2671099901199341,
        -0.21445047855377197,
        -0.1005796566605568,
        0.19455476105213165,
        -0.014439818449318409,
        0.08672676235437393,
        0.04684915393590927,
        0.118488609790802,
        -0.16397055983543396,
        0.12576714158058167,
        -0.21531155705451965,
        -0.014281077310442924,
        0.14237679541110992,
        -0.020382709801197052,
        -0.026292147114872932,
        -0.05275019258260727,
        -0.1342540979385376,
        0.17757804691791534,
        -0.029141318053007126,
        -0.18099747598171234,
        -0.02800171822309494,
        0.07389820367097855,
        0.11907888948917389,
        -0.07784819602966309,
        0.2414190173149109,
        0.20631390810012817,
        0.006331766955554485,
        -0.12842020392417908,
        0.010087169706821442,
        0.03186200559139252,
        0.2526766359806061,
        -0.1282738894224167,
        -0.039420776069164276,
        0.09666915237903595,
        -0.13476265966892242,
        -0.012545621022582054,
        -0.45847901701927185,
        -0.15806274116039276,
        0.1503608673810959,
        0.020946742966771126,
        0.2205422967672348,
        -0.011207647621631622,
        -0.1770561933517456,
        -0.10747683793306351,
        0.10212621092796326,
        -0.13689568638801575,
        0.09073225408792496,
        0.09304104745388031,
        -0.07643241435289383,
        -0.33107978105545044,
        -0.09990088641643524,
        0.025274621322751045,
        0.09274176508188248,
        0.011462297290563583,
        -0.45549100637435913,
        -0.19830076396465302,
        0.15845246613025665,
        -0.06209062784910202,
        -0.13312508165836334,
        -0.6474294662475586,
        -0.26872098445892334,
        -0.021790336817502975,
        -0.11250536888837814,
        0.031507574021816254,
        -0.1112464889883995,
        -0.3070193827152252,
        -0.5275759100914001,
        -0.724396288394928,
        -0.4042506814002991,
        -0.16525773704051971,
        -0.056919243186712265,
        -0.03402091935276985,
        0.043886713683605194,
        -0.5202063322067261,
        0.08168923109769821,
        -0.15433424711227417,
        0.03685001656413078,
        0.13944585621356964,
        -0.30898264050483704,
        0.053156137466430664,
        -0.1420806348323822,
        0.07752859592437744,
        -0.16031014919281006,
        -0.04380124434828758,
        -0.20884686708450317,
        -0.061039723455905914,
        -0.1270490437746048,
        -0.16422578692436218,
        -0.4695636034011841,
        -0.6661333441734314,
        -0.34604451060295105,
        -0.18616117537021637,
        -0.4171128571033478,
        -0.08520586043596268,
        0.1254548728466034,
        0.019085412845015526,
        0.12123506516218185,
        0.2686232030391693,
        0.14709556102752686,
        -0.1335897296667099,
        -0.035138584673404694,
        -0.04629000648856163,
        0.17777419090270996,
        -0.024329131469130516,
        -0.1217600405216217,
        -0.09583401679992676,
        0.14512775838375092,
        0.30054429173469543,
        0.20412731170654297,
        0.20942555367946625,
        -0.012888197787106037,
        0.06661214679479599,
        0.4417320787906647,
        0.714072585105896,
        0.5730641484260559,
        0.75091952085495,
        0.6482144594192505,
        0.07712587714195251,
        -0.18938089907169342,
        -0.07548122107982635,
        -0.12430513650178909,
        0.5423370599746704,
        0.07241442054510117,
        -0.13052621483802795,
        0.0880693793296814,
        -0.04805166646838188,
        0.46844831109046936,
        0.13901881873607635,
        -0.08012373745441437,
        -0.11560528725385666,
        0.1664923131465912,
        0.4745352268218994,
        0.14490000903606415,
        0.11517177522182465,
        -0.003951301332563162,
        0.009347204118967056,
        0.09570161998271942,
        0.2620658278465271,
        0.7888715863227844,
        0.8547000885009766,
        0.744944155216217,
        0.06896758824586868,
        -0.0597333125770092,
        0.008807718753814697,
        -0.2299613356590271,
        -0.8011124730110168,
        0.05214358866214752,
        0.0174958948045969,
        -0.0008376421174034476,
        0.2398967742919922,
        -0.6753664016723633,
        -0.036014001816511154,
        0.39209532737731934,
        0.009234913624823093,
        0.1835324615240097,
        -0.4788975119590759,
        -0.506726861000061,
        -0.38275018334388733,
        0.015002208761870861,
        -0.07275783270597458,
        -0.3111265301704407,
        -1.1432536840438843,
        -0.9494123458862305,
        -0.9428078532218933,
        -0.679749608039856,
        0.010345707647502422,
        -0.15326546132564545,
        0.026608116924762726,
        0.11084038764238358,
        -0.3961920738220215,
        0.054680608212947845,
        -0.11308257281780243,
        0.06588190048933029,
        0.06785736978054047,
        -0.34168916940689087,
        -0.20793657004833221,
        -0.015996763482689857,
        -0.013670937158167362,
        0.20567965507507324,
        -0.7245985269546509,
        -0.3290168046951294,
        -0.24809104204177856,
        -0.05241730064153671,
        -0.158985435962677,
        -0.6517177224159241,
        -0.6606653928756714,
        -0.8049011826515198,
        -0.4757477641105652,
        -0.3365252912044525,
        -0.26120761036872864,
        -0.07491983473300934,
        0.04298359528183937,
        -0.11343719065189362,
        0.07091458886861801,
        -0.27614298462867737,
        -0.008432948030531406,
        0.05058598518371582,
        -0.07033911347389221,
        0.27808907628059387,
        0.13991406559944153,
        -0.07885830104351044,
        0.05169634521007538,
        -0.37651848793029785,
        0.10392638295888901,
        0.4044235944747925,
        0.37210318446159363,
        0.05367294326424599,
        0.0781857892870903,
        -0.2532752454280853,
        0.43415147066116333,
        0.14192698895931244,
        -0.16017721593379974,
        -0.27373209595680237,
        0.09804423898458481,
        0.056146059185266495,
        0.09197232872247696,
        -0.08626982569694519,
        -0.47088199853897095,
        0.06301897764205933,
        0.04740692675113678,
        0.023841794580221176,
        0.035197664052248,
        -0.25599077343940735,
        -0.19048446416854858,
        -0.16936588287353516,
        -0.03396722301840782,
        -0.08293946087360382,
        0.02283051237463951,
        -0.19545824825763702,
        -0.10575028508901596,
        0.0368414930999279,
        0.20981048047542572,
        -0.21046540141105652,
        -0.6099967360496521,
        -0.8219497799873352,
        -0.9760836362838745,
        -0.7131862044334412,
        -0.04397829622030258,
        -0.22800488770008087,
        -0.0988018587231636,
        0.07288499921560287,
        0.6884175539016724,
        0.11192825436592102,
        -0.2504115104675293,
        -0.10693079233169556,
        0.19528934359550476,
        0.6853250861167908,
        -0.28643444180488586,
        -0.2149469554424286,
        0.034999191761016846,
        0.01617628149688244,
        0.6361724138259888,
        -0.586580216884613,
        -0.21165141463279724,
        0.054350268095731735,
        0.013195859268307686,
        -0.1544978767633438,
        1.1013435125350952,
        1.0314024686813354,
        0.526157021522522,
        -0.17808584868907928,
        0.05199246108531952,
        0.028456009924411774,
        -0.007224857807159424,
        -0.04373620077967644,
        0.08287547528743744,
        -0.1635374277830124,
        -0.1441454142332077,
        -0.0842515155673027,
        -0.17160813510417938,
        -0.004436674993485212,
        0.12223055958747864,
        -0.16048410534858704,
        -0.10035225749015808,
        0.0771661326289177,
        -0.032413311302661896,
        0.14406712353229523,
        0.05595214664936066,
        0.17322179675102234,
        0.08169384300708771,
        0.009348202496767044,
        0.10752105712890625,
        0.18777194619178772,
        0.0622856579720974,
        0.0707477554678917,
        -0.017670199275016785,
        -0.21803152561187744,
        -0.041440628468990326,
        0.04306616634130478,
        0.7923282980918884,
        -0.028629295527935028,
        -0.15840773284435272,
        -0.020537901669740677,
        0.19285812973976135,
        0.5879476070404053,
        -0.28119271993637085,
        -0.23444966971874237,
        0.05714139714837074,
        0.1730964481830597,
        -0.10475049167871475,
        -0.12016049772500992,
        -0.19600127637386322,
        0.023624733090400696,
        0.11860346794128418,
        0.5947150588035583,
        1.009376883506775,
        0.8417710065841675,
        0.7653613686561584,
        0.32871997356414795,
        0.006292217876762152,
        0.14602214097976685,
        0.03942498937249184,
        0.13123750686645508,
        -0.1698443591594696,
        -0.05639442801475525,
        0.19602574408054352,
        0.1554984152317047,
        0.0031998497433960438,
        -0.12872858345508575,
        0.04163343086838722,
        0.14843006432056427,
        0.13618947565555573,
        -0.15860527753829956,
        -0.1058010533452034,
        0.1377786546945572,
        -0.03310653567314148,
        -0.05561313405632973,
        -0.20989471673965454,
        -0.3183545768260956,
        -0.21110855042934418,
        -0.10404146462678909,
        -0.11755887418985367,
        -0.24302026629447937,
        0.023591501638293266,
        -0.28005754947662354,
        -0.020206553861498833,
        -0.04839969798922539,
        1.0357379913330078,
        0.060721252113580704,
        -0.09107628464698792,
        -0.0027234761510044336,
        -0.2125600129365921,
        0.47850391268730164,
        0.05336679145693779,
        -0.022570405155420303,
        -0.04567008838057518,
        0.026834260672330856,
        0.7249418497085571,
        0.1701047122478485,
        -0.053905244916677475,
        0.0082089276984334,
        -0.09065395593643188,
        0.3068537712097168,
        1.2211155891418457,
        1.455323338508606,
        1.4968745708465576,
        1.0372865200042725,
        0.007006934378296137,
        0.3401641249656677,
        0.02247263677418232,
        0.13368047773838043,
        -0.7037400007247925,
        0.09455437958240509,
        -0.060340516269207,
        0.07764237374067307,
        -0.04466081038117409,
        -0.34252581000328064,
        0.19051316380500793,
        0.1500971019268036,
        0.045300811529159546,
        -0.11716220527887344,
        -0.33692002296447754,
        -0.10589326918125153,
        0.01018496137112379,
        -0.04533127322793007,
        0.03741975128650665,
        -0.1844196617603302,
        -0.511719286441803,
        -0.6884650588035583,
        -0.8625602722167969,
        -0.49941593408584595,
        0.1138242781162262,
        0.19289514422416687,
        0.017415160313248634,
        -0.06978429108858109,
        -0.6664905548095703,
        0.00331677938811481,
        0.2530100345611572,
        0.0025271489284932613,
        0.13780033588409424,
        -0.6686843037605286,
        -0.1035776287317276,
        0.02720685303211212,
        0.016613181680440903,
        0.06865040957927704,
        0.0020236517302691936,
        -0.6067768931388855,
        -0.2708997130393982,
        0.017565781250596046,
        -0.15176105499267578,
        -0.21295535564422607,
        -0.9497748613357544,
        -1.1520440578460693,
        -0.8814361095428467,
        -0.47361722588539124,
        0.13764876127243042,
        0.18597717583179474,
        0.043885089457035065,
        -0.03184280917048454,
        0.0378570556640625,
        0.08783183991909027,
        -0.048211872577667236,
        0.026468263939023018,
        0.2446388304233551,
        -0.167162224650383,
        -0.05852758139371872,
        -0.07592463493347168,
        -0.03488064184784889,
        0.21104347705841064,
        -0.1489018201828003,
        0.13702543079853058,
        0.08587127178907394,
        0.02882353961467743,
        0.14626088738441467,
        0.10875140875577927,
        -0.06628746539354324,
        0.018662190064787865,
        0.016840144991874695,
        -0.04438595101237297,
        0.06750892102718353,
        0.2512751519680023,
        0.054483722895383835,
        0.05290054902434349,
        -0.35885703563690186,
        -0.18422500789165497,
        -0.0020993086509406567,
        0.1114024668931961,
        0.03294665366411209,
        -0.17393842339515686,
        -0.15359270572662354,
        -0.0484352633357048,
        -0.05764683708548546,
        0.13838283717632294,
        -0.20666450262069702,
        0.02508777193725109,
        -0.13149496912956238,
        0.008015938103199005,
        0.21672368049621582,
        -0.09299712628126144,
        -0.2631038427352905,
        -0.6173739433288574,
        -0.8154813051223755,
        -0.6472926735877991,
        -0.12031210958957672,
        -0.09796223789453506,
        -0.1013529971241951,
        0.05739837512373924,
        0.04554304480552673,
        -0.013066435232758522,
        -0.11845993995666504,
        0.07495909929275513,
        -0.011687462218105793,
        0.028166750445961952,
        -0.03700495511293411,
        -0.0790867879986763,
        0.01147352997213602,
        0.08045125752687454,
        -0.21110406517982483,
        -0.011589950881898403,
        -0.09433207660913467,
        -0.09531291574239731,
        -0.11138433963060379,
        -0.1944698691368103,
        0.16048425436019897,
        -0.05019325390458107,
        0.09482041001319885,
        0.01725921779870987,
        -0.1736406534910202,
        -0.10532884299755096,
        0.07381472736597061,
        -0.12101393938064575,
        -0.14585302770137787,
        -0.09088809043169022,
        -0.18073926866054535,
        -0.020582737401127815,
        0.01407268550246954,
        -0.16145308315753937,
        -0.11541718989610672,
        -0.10358452051877975,
        -0.1809644252061844,
        0.1307070553302765,
        -0.36336490511894226,
        0.12828996777534485,
        -0.02057894878089428,
        0.011280515231192112,
        0.2162436842918396,
        0.016513800248503685,
        -0.03783666715025902,
        -0.3983195424079895,
        -0.34156176447868347,
        -0.10225316137075424,
        -0.017765071243047714,
        -0.11463717371225357,
        -0.016899725422263145,
        0.15788964927196503,
        -0.206619992852211,
        0.031966906040906906,
        0.03623619303107262,
        0.09814529865980148,
        -0.021561825647950172,
        -0.19878877699375153,
        -0.04639652371406555,
        0.13717162609100342,
        -0.046513114124536514,
        0.060691773891448975,
        -0.14189393818378448,
        0.4340514838695526,
        0.32998189330101013,
        0.041726499795913696,
        -0.03377382829785347,
        0.040851011872291565,
        -0.4135914146900177,
        -0.27641546726226807,
        0.03879036381840706,
        0.30622637271881104,
        -0.11503736674785614,
        -0.0800667405128479,
        -0.1306072473526001,
        -0.033031195402145386,
        0.14545583724975586,
        -0.0768100917339325,
        0.1571938693523407,
        -0.09894941002130508,
        0.10478073358535767,
        -0.10868289321660995,
        0.163604736328125,
        -0.05131080746650696,
        -0.014333054423332214,
        -0.04351925849914551,
        0.08708909153938293,
        0.01449054479598999,
        0.033615291118621826,
        -0.08292748034000397,
        -0.15050745010375977,
        0.14147141575813293,
        0.05845470726490021,
        -0.13169509172439575,
        -0.11809418350458145,
        -0.14922747015953064,
        -0.15847061574459076,
        -0.1003158837556839,
        -0.17616744339466095,
        -0.1174563467502594,
        -0.0989878699183464,
        -0.13953694701194763,
        0.13960006833076477,
        0.03441445529460907,
        -0.1394660323858261,
        -0.13249532878398895,
        0.018321486189961433,
        -0.0906512588262558,
        -0.10189058631658554,
        0.0979178175330162,
        -0.18964792788028717,
        0.19141948223114014,
        -0.019882258027791977,
        0.03616216778755188,
        0.12358452379703522,
        0.062153320759534836,
        -0.1792495995759964,
        -0.14340269565582275,
        -0.03776462748646736,
        -0.025295862928032875,
        -0.1453300565481186,
        -0.23167936503887177,
        -0.08607399463653564,
        -0.06070367619395256,
        0.5822672843933105,
        0.03334614261984825,
        0.08437471091747284,
        -0.18458133935928345,
        -0.1177467405796051,
        0.4635857939720154,
        -0.344191312789917,
        -0.24034172296524048,
        0.04125922918319702,
        -0.1505947858095169,
        0.3646447956562042,
        -0.21069860458374023,
        -0.23857620358467102,
        0.03330518677830696,
        0.034621503204107285,
        -0.10116411745548248,
        0.5689394474029541,
        0.4308107793331146,
        0.29521769285202026,
        0.15521450340747833,
        -0.05307038500905037,
        0.0404534712433815,
        -0.07966137677431107,
        -0.05797713249921799,
        0.31086012721061707,
        -0.1476711928844452,
        -0.15492890775203705,
        -0.13028867542743683,
        0.037386614829301834,
        0.34650319814682007,
        0.017390986904501915,
        -0.0727921649813652,
        -0.011266052722930908,
        0.011800735257565975,
        0.2740364670753479,
        -0.23461748659610748,
        0.0483778715133667,
        7.326042396016419e-05,
        -0.13746745884418488,
        0.2082507163286209,
        0.2791473865509033,
        0.3782365620136261,
        0.2931995391845703,
        0.11347419768571854,
        0.021374301984906197,
        -0.10169433802366257,
        0.023506518453359604,
        -0.01975017786026001,
        -0.28399553894996643,
        0.04283412918448448,
        0.07386142015457153,
        0.012087416835129261,
        -0.29568779468536377,
        -0.05764786899089813,
        -0.3063271641731262,
        -0.05354657396674156,
        0.017007511109113693,
        0.05903055891394615,
        -0.33178770542144775,
        -0.476550817489624,
        -0.128187358379364,
        0.020667964592576027,
        -0.0008163353777490556,
        -0.32449042797088623,
        -0.42413130402565,
        -0.4078320562839508,
        -0.6295503377914429,
        -0.38699227571487427,
        -0.09346050769090652,
        -0.09541043639183044,
        0.06442141532897949,
        0.34248796105384827,
        -0.47289586067199707,
        0.12497463077306747,
        0.02728661522269249,
        -0.05200866609811783,
        -0.1316172182559967,
        -0.3564651608467102,
        -0.09133259207010269,
        0.10165156424045563,
        -0.0632772222161293,
        -0.13470414280891418,
        -0.24470262229442596,
        0.03830811008810997,
        0.1928785741329193,
        -0.017191356047987938,
        -0.015500153414905071,
        -0.20112203061580658,
        -0.30910933017730713,
        -0.2637466490268707,
        -0.16180844604969025,
        -0.1494797021150589,
        -0.17204280197620392,
        -0.046064212918281555,
        -0.07958473265171051,
        -0.0496668703854084,
        -0.038161445409059525,
        -0.05228658393025398,
        -0.2579509913921356,
        -0.009438151493668556,
        -0.10608479380607605,
        -0.17133060097694397,
        -0.033816516399383545,
        -0.1888839304447174,
        0.03830084949731827,
        -0.050506722182035446,
        -0.4457574188709259,
        -0.007300186436623335,
        -0.23349183797836304,
        0.16386935114860535,
        0.11611814051866531,
        -0.13635265827178955,
        -0.22549378871917725,
        -0.1766834855079651,
        -0.08686567842960358,
        -0.08188599348068237,
        -0.16360484063625336,
        -0.14735442399978638,
        -0.1459238976240158,
        0.08640079200267792,
        0.13965646922588348,
        -0.08531782776117325,
        0.015114858746528625,
        -0.1498839557170868,
        -0.01618582382798195,
        0.015649324283003807,
        -0.006261330563575029,
        0.06973803788423538,
        -0.11014630645513535,
        -0.17165985703468323,
        0.2473617047071457,
        -0.12797971069812775,
        0.03545428067445755,
        0.018141966313123703,
        -0.17729812860488892,
        -0.079826720058918,
        0.015138412825763226,
        0.3183044493198395,
        0.028816884383559227,
        -0.012901028618216515,
        -0.072533018887043,
        0.14962492883205414,
        -0.009009395726025105,
        0.00381928076967597,
        -0.0712459459900856,
        0.10583561658859253,
        0.02594057284295559,
        -0.0411234088242054,
        -0.06546251475811005,
        0.05545258894562721,
        -0.013810108415782452,
        0.08895787596702576,
        -0.018069909885525703,
        0.004753045737743378,
        0.11164940893650055,
        0.0039802067913115025,
        -0.13682794570922852,
        -0.13573989272117615,
        -0.07396823167800903,
        0.06745210289955139,
        -0.14938442409038544,
        -0.0753507986664772,
        -0.08695101737976074,
        0.03645427152514458,
        -0.1336623877286911,
        -0.07584555447101593,
        -0.03790578991174698,
        -0.05476607382297516,
        -0.4219423234462738,
        0.045908596366643906,
        -0.14864929020404816,
        -0.04678657278418541,
        -0.24750618636608124,
        -0.34848862886428833,
        0.026599084958434105,
        0.06484256684780121,
        -0.1272665560245514,
        -0.1467946171760559,
        -0.5506110787391663,
        0.43792077898979187,
        0.05429907515645027,
        0.023628175258636475,
        0.10605032742023468,
        -0.5566527247428894,
        -0.572923481464386,
        -0.418789803981781,
        -0.5606609582901001,
        -0.09248732775449753,
        0.09668881446123123,
        0.19448059797286987,
        -0.022067256271839142,
        0.0031178444623947144,
        -0.15535232424736023,
        0.013509523123502731,
        0.21677836775779724,
        0.057984594255685806,
        -0.11291371285915375,
        -0.18286986649036407,
        0.17623528838157654,
        -0.1172516718506813,
        0.033091235905885696,
        0.06033043935894966,
        0.0630592629313469,
        0.008020292036235332,
        0.17045974731445312,
        -0.027774402871727943,
        -0.055136583745479584,
        0.1455209106206894,
        -0.388997346162796,
        -0.2081025242805481,
        0.27194297313690186,
        0.40046587586402893,
        0.1478310525417328,
        0.07994984835386276,
        -0.07058477401733398,
        -0.20397159457206726,
        0.3812766969203949,
        -0.05155038833618164,
        -0.0487624891102314,
        -0.1003001257777214,
        0.13670897483825684,
        0.33774539828300476,
        -0.050614532083272934,
        -0.21974879503250122,
        0.03272490203380585,
        -0.003880666336044669,
        -0.11124130338430405,
        0.03759734332561493,
        -0.22383585572242737,
        -0.17279277741909027,
        0.1041625365614891,
        0.18383169174194336,
        0.45472121238708496,
        0.4414333999156952,
        0.36378687620162964,
        0.17230461537837982,
        -0.07082324475049973,
        0.0022533447481691837,
        0.13754689693450928,
        0.16237975656986237,
        0.10668803751468658,
        -0.2141932249069214,
        0.10327687859535217,
        -0.0830126404762268,
        -0.046192485839128494,
        0.13501882553100586,
        -0.006983044557273388,
        0.07615213841199875,
        -0.09934063255786896,
        0.20929855108261108,
        0.13096365332603455,
        -0.09355530142784119,
        -0.043511051684617996,
        -0.047659654170274734,
        0.1471143215894699,
        0.07816004753112793,
        -0.10375338792800903,
        0.031504757702350616,
        -0.07485827803611755,
        -0.07652562111616135,
        0.10343291610479355,
        -0.07442869246006012,
        -0.13010531663894653,
        -0.06198551878333092,
        0.44473251700401306,
        -0.0017062998376786709,
        -0.016353992745280266,
        -0.00876990519464016,
        0.009475105442106724,
        0.4455014765262604,
        0.005774231161922216,
        -0.07079392671585083,
        -0.04917067661881447,
        -0.03577301278710365,
        0.4656856954097748,
        0.030736956745386124,
        0.09142497181892395,
        -0.035498104989528656,
        -0.04933669790625572,
        0.5021286606788635,
        0.5221419930458069,
        0.5182082653045654,
        0.5051670670509338,
        0.46281516551971436,
        -0.09467098861932755,
        0.13443121314048767,
        -0.0058957235887646675,
        0.08238430321216583,
        -0.06202007085084915,
        -0.020190469920635223,
        -0.06346366554498672,
        0.005383220501244068,
        0.0860900804400444,
        0.050255563110113144,
        -0.010560414753854275,
        0.008811458945274353,
        -0.05297275632619858,
        -0.027075665071606636,
        0.019368987530469894,
        -0.06355010718107224,
        -0.16396112740039825,
        -0.17177219688892365,
        0.0028583952225744724,
        -0.13959871232509613,
        0.15817709267139435,
        0.06137830391526222,
        -0.09007551521062851,
        0.060790304094552994,
        0.06372768431901932,
        0.23901860415935516,
        0.09345812350511551,
        0.332861989736557,
        -0.4462507665157318,
        0.14531224966049194,
        0.14211241900920868,
        0.16256190836429596,
        0.16880078613758087,
        -0.31785163283348083,
        0.13914228975772858,
        0.17920975387096405,
        -0.058088142424821854,
        -0.09399306774139404,
        -0.04483531042933464,
        0.20309533178806305,
        -0.09044356644153595,
        -0.021322518587112427,
        0.022583788260817528,
        0.14713747799396515,
        -0.26163145899772644,
        -0.46727854013442993,
        -0.47637245059013367,
        -0.0666460320353508,
        -0.14557743072509766,
        -0.24342183768749237,
        -0.06145477667450905,
        -0.20162154734134674,
        0.14441369473934174,
        0.008337365463376045,
        -0.12943196296691895,
        0.05768498033285141,
        -0.06186367943882942,
        -0.07168859243392944,
        0.2608421742916107,
        0.21604664623737335,
        0.09317605197429657,
        -0.221943661570549,
        -0.11547573655843735,
        -0.013326078653335571,
        0.05870421975851059,
        -0.040182627737522125,
        -0.024715734645724297,
        -0.11937171965837479,
        0.4355805516242981,
        0.2708514928817749,
        -0.0851210281252861,
        -0.35194751620292664,
        0.19702878594398499,
        0.049601055681705475,
        0.0519922636449337,
        0.18116825819015503,
        0.020832989364862442,
        0.19052226841449738,
        0.18922874331474304,
        0.01640399359166622,
        0.1661602258682251,
        -0.037986576557159424,
        0.05617288127541542,
        0.12127838283777237,
        0.13329724967479706,
        -0.05986196920275688,
        0.19649390876293182,
        -0.09860961884260178,
        -0.014102974906563759,
        0.06042633205652237,
        -0.14169268310070038,
        0.0088583929464221,
        -0.0595531240105629,
        0.01983155496418476,
        -0.20136530697345734,
        0.07171917706727982,
        -0.15403707325458527,
        -0.032233063131570816,
        0.01769854687154293,
        0.040278855711221695,
        0.4384629726409912,
        -0.18552537262439728,
        -0.18358799815177917,
        -0.020538287237286568,
        0.18851526081562042,
        0.25306233763694763,
        -0.2411748617887497,
        -0.05152210593223572,
        0.011369568295776844,
        0.06926721334457397,
        -0.24727439880371094,
        -0.1031777486205101,
        -0.12387043982744217,
        -0.016700081527233124,
        0.0574171245098114,
        0.08397486060857773,
        0.7060681581497192,
        0.46467462182044983,
        0.05888452008366585,
        -0.16173335909843445,
        0.10376399755477905,
        0.01953488402068615,
        -0.02279014326632023,
        0.11112586408853531,
        0.8911579251289368,
        0.12042419612407684,
        -0.0556001178920269,
        -0.005234589334577322,
        0.07563287764787674,
        0.45419999957084656,
        -0.07203352451324463,
        -0.060349464416503906,
        -0.07863667607307434,
        0.2120617777109146,
        0.5718729496002197,
        0.13388514518737793,
        0.16860583424568176,
        -0.10804308950901031,
        0.04550282284617424,
        0.4411459267139435,
        0.9735082983970642,
        1.331638216972351,
        1.801906943321228,
        1.2155938148498535,
        -0.0628204271197319,
        -0.11425747722387314,
        0.04011716693639755,
        0.009578682482242584,
        -0.1693941205739975,
        0.10485479235649109,
        -0.11389879137277603,
        0.03878018632531166,
        0.20736929774284363,
        0.092655710875988,
        -0.05928819999098778,
        -0.163143128156662,
        0.10711153596639633,
        -0.05341916158795357,
        -0.0177749115973711,
        -0.22180189192295074,
        -0.13327600061893463,
        0.17482075095176697,
        -0.1517619788646698,
        -0.08106105029582977,
        -0.18260003626346588,
        -0.43463969230651855,
        -0.33691492676734924,
        -0.1132497787475586,
        -0.03321300819516182,
        -0.0572192557156086,
        0.019928613677620888,
        0.08101104199886322,
        -0.47306549549102783,
        -0.06771044433116913,
        -0.04087190330028534,
        0.08858122676610947,
        0.04865167289972305,
        -0.4706510901451111,
        -0.14516489207744598,
        -0.009696596302092075,
        0.11127448827028275,
        -0.01176904235035181,
        -0.3374083936214447,
        -0.34335675835609436,
        -0.16773833334445953,
        0.0697593092918396,
        -0.028180666267871857,
        -0.3112872838973999,
        -0.8270005583763123,
        -0.719549834728241,
        -0.5282676815986633,
        -0.3772910237312317,
        0.08712579309940338,
        -0.1323997676372528,
        0.017033614218235016,
        0.04615823179483414,
        0.36222946643829346,
        0.12276901304721832,
        0.0027117645367980003,
        -0.0023780122864991426,
        -0.23372012376785278,
        0.38889265060424805,
        -0.06222248077392578,
        -0.11649026721715927,
        -0.08286713063716888,
        0.09129045158624649,
        0.39017894864082336,
        0.2889779508113861,
        0.06921114772558212,
        0.15899142622947693,
        0.05695098266005516,
        0.14444278180599213,
        0.39651140570640564,
        0.6202043294906616,
        0.48107579350471497,
        0.49303948879241943,
        0.0254938043653965,
        -0.045560579746961594,
        0.14261013269424438,
        0.1590251475572586,
        -0.3105908930301666,
        -0.1525796502828598,
        0.043100517243146896,
        -0.13056951761245728,
        -0.14585654437541962,
        -0.4017391800880432,
        0.03401747718453407,
        -0.1169225350022316,
        0.0639331042766571,
        -0.01721327193081379,
        -0.17416691780090332,
        0.1646140217781067,
        -0.14431338012218475,
        -0.0009554889402352273,
        0.2741857171058655,
        -0.33548134565353394,
        -0.4757712483406067,
        -0.5463849306106567,
        -0.47865238785743713,
        -0.3895938992500305,
        0.10419272631406784,
        -0.08482865244150162,
        0.04531906172633171,
        -0.18585464358329773,
        0.49820101261138916,
        -0.060001131147146225,
        -0.2116951048374176,
        -0.01386850792914629,
        0.24263110756874084,
        0.534089982509613,
        -0.026136159896850586,
        -0.06256037205457687,
        -0.21940891444683075,
        0.1669497787952423,
        0.17921581864356995,
        -0.029084617272019386,
        -0.10284861922264099,
        0.09092432260513306,
        -0.011804008856415749,
        0.3135966658592224,
        0.7123147249221802,
        0.5218177437782288,
        0.5276005268096924,
        0.3468641936779022,
        -0.15751232206821442,
        -0.24317486584186554,
        0.022416196763515472,
        -0.28769657015800476,
        0.5416705012321472,
        0.06009041517972946,
        -0.12565454840660095,
        -0.03081624023616314,
        -0.021850083023309708,
        0.5217272043228149,
        -0.11128515005111694,
        -0.06880167871713638,
        -0.13028471171855927,
        0.0005390019505284727,
        0.43458911776542664,
        -0.23100578784942627,
        -0.20880027115345,
        0.08674458414316177,
        -0.2705761194229126,
        0.15547481179237366,
        0.8248180747032166,
        0.723452091217041,
        0.3969343304634094,
        0.047238241881132126,
        -0.060251910239458084,
        0.025599483400583267,
        -0.0027375109493732452,
        -0.13096825778484344,
        0.20198875665664673,
        -0.051427118480205536,
        0.06791118532419205,
        0.0485994927585125,
        -0.029559142887592316,
        0.18272487819194794,
        -0.023752348497509956,
        -0.14900578558444977,
        -0.02516707219183445,
        0.01213914155960083,
        0.03371181711554527,
        0.05419228598475456,
        0.11592845618724823,
        -0.00940749142318964,
        -0.023039111867547035,
        0.06634761393070221,
        0.08990106731653214,
        0.0030971879605203867,
        -0.023602699860930443,
        -0.039335235953330994,
        0.11202742904424667,
        0.09498973935842514,
        0.053723376244306564,
        0.08675561845302582,
        0.6819533109664917,
        0.0009547037188895047,
        -0.060837674885988235,
        -0.02226886712014675,
        -0.020107898861169815,
        0.4672307074069977,
        0.2079283744096756,
        0.01628626324236393,
        -0.09993302822113037,
        0.19828253984451294,
        0.380636602640152,
        0.08092232048511505,
        -0.02810002863407135,
        0.15065692365169525,
        -0.20842692255973816,
        0.5011928677558899,
        0.7891009449958801,
        0.7927106618881226,
        0.8634979128837585,
        0.5704457759857178,
        0.11433795094490051,
        -0.13270820677280426,
        0.07713901251554489,
        0.022761039435863495,
        -0.11720017343759537,
        -0.11712321639060974,
        0.08943334966897964,
        -0.04311039298772812,
        -0.0464729480445385,
        -0.30782586336135864,
        0.011386782862246037,
        -0.07308918237686157,
        -0.07752372324466705,
        -0.23242320120334625,
        -0.2798920273780823,
        0.13652469217777252,
        0.13551278412342072,
        -0.08703790605068207,
        -0.03175916522741318,
        -0.34854161739349365,
        -0.2738882601261139,
        -0.33599817752838135,
        -0.4591972827911377,
        -0.3422180414199829,
        -0.21550080180168152,
        -0.023256903514266014,
        -0.25646883249282837,
        0.053755342960357666,
        -0.16915911436080933,
        -0.16925060749053955,
        -0.14391691982746124,
        -0.03631831705570221,
        0.025686437264084816,
        -0.23631976544857025,
        -0.27264270186424255,
        -0.11228356510400772,
        0.020103631541132927,
        -0.10706271231174469,
        -0.16297273337841034,
        0.15699610114097595,
        -0.06047911196947098,
        0.0667475014925003,
        -0.22741523385047913,
        0.13173921406269073,
        -0.15234018862247467,
        0.04281649738550186,
        -0.14830562472343445,
        -0.07793083786964417,
        0.0581703744828701,
        0.038990218192338943,
        -0.09907662868499756,
        -0.014298684895038605,
        0.5380697250366211,
        0.1588435024023056,
        -0.14813609421253204,
        -0.12852086126804352,
        -0.029448244720697403,
        0.3847849369049072,
        0.022771427407860756,
        0.04787249490618706,
        -0.0356750562787056,
        -0.05456916242837906,
        0.21635517477989197,
        -0.1198817640542984,
        -0.05035310983657837,
        0.02819886989891529,
        -0.01822367124259472,
        -0.10327117145061493,
        0.5205327272415161,
        0.5361376404762268,
        0.4022224545478821,
        0.1780480295419693,
        -0.04152212291955948,
        0.2719815969467163,
        -0.09709249436855316,
        -0.15235190093517303,
        -0.47490373253822327,
        0.07302231341600418,
        0.06474113464355469,
        0.047031112015247345,
        0.11002501845359802,
        -0.3028154671192169,
        -0.059159137308597565,
        -0.05350290983915329,
        0.04217255115509033,
        -0.029700176790356636,
        -0.02224741317331791,
        -0.23178857564926147,
        -0.0034999577328562737,
        0.016767309978604317,
        0.05465828999876976,
        -0.27479541301727295,
        -0.9011797904968262,
        -1.025259017944336,
        -1.090465784072876,
        -0.5308894515037537,
        -0.0765308067202568,
        -0.33210858702659607,
        0.06449437141418457,
        -0.15780009329319,
        1.0560872554779053,
        -0.14665788412094116,
        0.08092816919088364,
        0.06475432217121124,
        0.13092383742332458,
        0.5563198924064636,
        0.010880309157073498,
        0.005662613548338413,
        0.016493596136569977,
        -0.10117634385824203,
        0.4306931495666504,
        -0.3324041962623596,
        -0.10285751521587372,
        0.04485800862312317,
        -0.1196208968758583,
        0.08360948413610458,
        1.2784793376922607,
        0.7946085333824158,
        0.530519425868988,
        0.08003639429807663,
        0.11637590825557709,
        -0.2147545963525772,
        -0.12373214215040207,
        -0.07596826553344727,
        0.33765140175819397,
        -0.17821909487247467,
        -0.13773313164710999,
        0.06996911019086838,
        -0.1508156955242157,
        0.4184473752975464,
        -0.13722166419029236,
        0.09303674101829529,
        -0.17764867842197418,
        -0.020821474492549896,
        0.29465723037719727,
        -0.03241391479969025,
        0.03836868330836296,
        -0.0018677437910810113,
        0.22307813167572021,
        0.10145696252584457,
        0.3475724160671234,
        0.5335062742233276,
        0.46936193108558655,
        0.3392656147480011,
        0.053267013281583786,
        0.28247275948524475,
        0.002235385123640299,
        -0.06181647256016731,
        0.1901458203792572,
        -0.07117479294538498,
        0.2550048530101776,
        0.03690977394580841,
        0.015174327418208122,
        0.4718763828277588,
        0.19709870219230652,
        -0.15661375224590302,
        0.039882998913526535,
        -0.14826656877994537,
        0.5824782848358154,
        0.18887503445148468,
        -0.049458641558885574,
        0.11345590651035309,
        0.16381710767745972,
        0.18991993367671967,
        1.0469566583633423,
        0.58384770154953,
        0.054757438600063324,
        -0.06277924031019211,
        0.11010496318340302,
        0.01154877059161663,
        0.14279097318649292,
        -0.22245964407920837,
        0.27112677693367004,
        0.07951661199331284,
        0.012528975494205952,
        -0.07493367791175842,
        -0.02252473309636116,
        0.2827477753162384,
        -0.08925094455480576,
        -0.05095640569925308,
        0.03140342980623245,
        0.05249115079641342,
        0.22652903199195862,
        0.19525888562202454,
        0.10056754946708679,
        0.12102518230676651,
        -0.16532546281814575,
        0.3220820426940918,
        0.6514936089515686,
        0.5916377305984497,
        0.5330706238746643,
        0.4835056960582733,
        0.0011924207210540771,
        0.0617021769285202,
        -0.04805475473403931,
        0.11207327246665955,
        -0.10930632054805756,
        0.09439322352409363,
        0.020404905080795288,
        -0.05733536183834076,
        0.11838281154632568,
        0.05729013681411743,
        0.049421995878219604,
        -0.1531449258327484,
        -0.13001015782356262,
        -0.0593462809920311,
        -0.12072739750146866,
        0.0510375052690506,
        -0.0489606112241745,
        -0.00376109778881073,
        0.08241963386535645,
        0.0033926665782928467,
        -0.015133559703826904,
        -0.12361069023609161,
        -0.1246427446603775,
        0.11928993463516235,
        -0.1425401270389557,
        -0.21123912930488586,
        0.09309159219264984,
        0.163110613822937,
        -0.1873210370540619,
        0.06149834766983986,
        0.1028897687792778,
        -0.09575667977333069,
        0.049222711473703384,
        -0.45634570717811584,
        0.016086705029010773,
        0.10400988906621933,
        -0.1100282147526741,
        -0.08841793984174728,
        -0.43345460295677185,
        -0.15368841588497162,
        0.04190567880868912,
        -0.01186668686568737,
        0.10062480717897415,
        -0.2524509131908417,
        -0.5036368370056152,
        -0.36370012164115906,
        -0.39362844824790955,
        -0.2727181315422058,
        0.07185744494199753,
        -0.018631383776664734,
        0.02143840678036213,
        0.17799055576324463,
        0.33920758962631226,
        0.1395144909620285,
        0.02923659235239029,
        -0.13717827200889587,
        0.2697058320045471,
        0.35015594959259033,
        -0.021725300699472427,
        0.027157142758369446,
        0.022910773754119873,
        -0.05539591610431671,
        0.372309148311615,
        0.24950197339057922,
        0.18553154170513153,
        0.12020887434482574,
        -0.2213464230298996,
        0.14672109484672546,
        0.4136775732040405,
        0.7356976270675659,
        0.5166940093040466,
        0.43659844994544983,
        -0.009235034696757793,
        -0.1807016283273697,
        -0.023950248956680298,
        0.004028163384646177,
        -0.12180861830711365,
        -0.21426823735237122,
        -0.15405210852622986,
        -0.0680447518825531,
        -0.11419296264648438,
        -0.11578536033630371,
        0.06597838550806046,
        -0.14670532941818237,
        0.07907935231924057,
        0.10302374511957169,
        0.01679501309990883,
        0.008044268004596233,
        0.05372824892401695,
        -0.049550872296094894,
        -0.25615331530570984,
        0.033684320747852325,
        0.11032950133085251,
        0.15357495844364166,
        0.19249509274959564,
        0.014224139042198658,
        0.012538553215563297,
        0.11912132799625397,
        -0.016597405076026917,
        0.05123993754386902,
        -0.058184463530778885,
        0.128097802400589,
        0.10868129134178162,
        -0.122344471514225,
        -0.014429914765059948,
        -0.048031922429800034,
        -0.15831924974918365,
        -0.16502507030963898,
        -0.0572512149810791,
        0.017048854380846024,
        -0.07526234537363052,
        -0.1486770212650299,
        -0.010584483854472637,
        -0.11469937115907669,
        -0.05123079568147659,
        -0.10042569041252136,
        -0.1630626618862152,
        -0.05155329778790474,
        0.07183320820331573,
        0.0777963325381279,
        -0.06525283306837082,
        0.14598876237869263,
        0.08393489569425583,
        0.20516590774059296,
        -0.007529946509748697,
        0.015439366921782494,
        -0.060587964951992035,
        0.08957958966493607,
        0.12225990742444992,
        0.28432807326316833,
        -0.0360332652926445,
        0.07920171320438385,
        -0.10268144309520721,
        0.18763820827007294,
        0.03937866538763046,
        -0.19531787931919098,
        -0.0968625620007515,
        -0.09985575079917908,
        -0.05445566400885582,
        -0.05009203031659126,
        0.2942260205745697,
        0.06240168213844299,
        0.010834002867341042,
        -0.05118235945701599,
        -0.049334678798913956,
        -0.09517180174589157,
        0.011201887391507626,
        0.06916169822216034,
        0.6972288489341736,
        0.19121570885181427,
        0.026106160134077072,
        -0.022741608321666718,
        -0.17137126624584198,
        0.5080248713493347,
        0.10347863286733627,
        -0.007591902744024992,
        0.0256264116615057,
        -0.09476735442876816,
        0.29050999879837036,
        0.4379521310329437,
        0.15138092637062073,
        -0.06809843331575394,
        -0.21745091676712036,
        0.18917614221572876,
        1.2230219841003418,
        1.2493767738342285,
        1.5260627269744873,
        1.0534336566925049,
        0.012826898135244846,
        0.06527917087078094,
        0.11018462479114532,
        -0.07241024076938629,
        0.2844148874282837,
        0.13020429015159607,
        -0.21456992626190186,
        -0.14195121824741364,
        -0.0565294548869133,
        0.2712518870830536,
        -0.11982384324073792,
        -0.04493527486920357,
        -0.09243031591176987,
        -0.1952691376209259,
        0.36344823241233826,
        -0.06162247061729431,
        -0.21789582073688507,
        -0.04677090048789978,
        0.10777868330478668,
        0.18962328135967255,
        0.2823568284511566,
        0.5159288048744202,
        0.044107723981142044,
        0.1973309963941574,
        0.140631303191185,
        -0.1380314826965332,
        -0.13076986372470856,
        0.009102502837777138,
        0.18715228140354156,
        0.0769982859492302,
        -0.05284300446510315,
        -0.1482635736465454,
        -0.02669585309922695,
        0.2373494654893875,
        -0.15937870740890503,
        0.0839260071516037,
        0.038626592606306076,
        -0.14950278401374817,
        -0.09494844079017639,
        0.06810634583234787,
        0.01619374379515648,
        0.010285909287631512,
        0.03504357486963272,
        -0.14450126886367798,
        0.24847453832626343,
        0.09485100209712982,
        0.143448606133461,
        -0.06495212018489838,
        -0.1380283087491989,
        -0.24889640510082245,
        0.06297095865011215,
        0.2532021701335907,
        0.5962771773338318,
        0.15334844589233398,
        -0.03349823132157326,
        0.029607553035020828,
        -0.06574929505586624,
        0.6176674962043762,
        0.00048478032113052905,
        0.11016689985990524,
        0.05679598078131676,
        0.10456031560897827,
        0.4948295056819916,
        0.05499902367591858,
        0.20466718077659607,
        -0.12893304228782654,
        -0.1999039351940155,
        0.4649773836135864,
        0.8520923256874084,
        0.736699104309082,
        0.7787818908691406,
        0.751075804233551,
        0.04295610263943672,
        -0.09768813848495483,
        0.05803375318646431,
        -0.13899388909339905,
        0.22372636198997498,
        -0.03287166729569435,
        -0.22972117364406586,
        0.0788138210773468,
        -0.08210050314664841,
        0.11747921258211136,
        0.12078260630369186,
        0.04227999225258827,
        0.05672216787934303,
        0.07106499373912811,
        -0.08700364828109741,
        0.06389247626066208,
        0.18549500405788422,
        0.019034314900636673,
        -0.15810233354568481,
        0.13402026891708374,
        0.40421491861343384,
        0.2562198042869568,
        0.45442885160446167,
        0.14337334036827087,
        -0.15377923846244812,
        0.09331590682268143,
        -0.05091012269258499,
        0.034674666821956635,
        0.10503347963094711,
        -0.04569118842482567,
        -0.18607237935066223,
        0.06939523667097092,
        0.17944566905498505,
        0.05729980021715164,
        0.07784978300333023,
        0.12423407286405563,
        -0.07937806844711304,
        0.12406566739082336,
        -0.3446423411369324,
        -0.03178444877266884,
        -0.004437346942722797,
        0.13042721152305603,
        -0.19481226801872253,
        -0.028087276965379715,
        0.12961114943027496,
        -0.04402821883559227,
        -0.25052982568740845,
        -0.28766128420829773,
        -0.014893465675413609,
        -0.01706240512430668,
        -0.10603974759578705,
        0.03802640736103058,
        0.41042181849479675,
        0.030039386823773384,
        -0.13551528751850128,
        -0.04800848662853241,
        0.13377203047275543,
        0.3884955942630768,
        -0.23567722737789154,
        -0.24634268879890442,
        0.0032798079773783684,
        -0.29316869378089905,
        0.2402648776769638,
        -0.21423470973968506,
        -0.011420640163123608,
        0.16106636822223663,
        -0.005385152995586395,
        0.006968451663851738,
        0.529455840587616,
        0.4680171608924866,
        0.5156960487365723,
        0.25224485993385315,
        -0.11815322190523148,
        -0.183238685131073,
        -0.13503730297088623,
        -0.15775129199028015,
        0.018444936722517014,
        -0.1550183743238449,
        -0.10341019928455353,
        0.1457754224538803,
        -0.15826080739498138,
        0.21339508891105652,
        -0.14200757443904877,
        -0.18582552671432495,
        -0.13622289896011353,
        0.07942704856395721,
        -0.12558020651340485,
        0.051602959632873535,
        0.034519825130701065,
        0.006592567078769207,
        -0.07684768736362457,
        -0.2666255533695221,
        -0.14122678339481354,
        -0.2411802113056183,
        0.04141240194439888,
        -0.04815251752734184,
        -0.06781601160764694,
        -0.06471952050924301,
        0.03672048822045326,
        -0.11596962809562683,
        -0.5045374035835266,
        -0.06774459034204483,
        -0.05546681582927704,
        -0.12378506362438202,
        -0.040146682411432266,
        -0.7696536183357239,
        -0.2118528187274933,
        -0.1748785823583603,
        0.08117179572582245,
        -0.060960568487644196,
        -0.630229115486145,
        0.009965766221284866,
        -0.10583819448947906,
        -0.0021098752040416002,
        0.04031448811292648,
        -0.34608450531959534,
        -0.680417537689209,
        -0.8574762940406799,
        -0.7460496425628662,
        -0.3273482918739319,
        0.11429279297590256,
        0.04307221621274948,
        0.16898366808891296,
        0.12159623950719833,
        0.18086904287338257,
        0.0462925024330616,
        0.11633001267910004,
        0.10722151398658752,
        -0.15667352080345154,
        0.19813674688339233,
        0.03704432025551796,
        -0.00877164863049984,
        -0.0841139554977417,
        -0.0890122726559639,
        0.33787593245506287,
        0.07812218368053436,
        0.09890559315681458,
        0.03015061840415001,
        -0.23429128527641296,
        0.11076920479536057,
        0.7310333847999573,
        0.7235568761825562,
        0.5304665565490723,
        0.27329021692276,
        -0.11793585121631622,
        -0.06590781360864639,
        0.12394038587808609,
        -0.15710636973381042,
        -0.3183569014072418,
        -0.08757569640874863,
        -0.041310619562864304,
        0.08490946888923645,
        -0.15201403200626373,
        -0.286731481552124,
        0.05345463007688522,
        0.059684719890356064,
        -0.0037191910669207573,
        0.07845360040664673,
        -0.005718912463635206,
        -0.13436736166477203,
        0.07663992047309875,
        0.14873875677585602,
        -0.05342754349112511,
        -0.441023051738739,
        -0.36323314905166626,
        -0.5189440250396729,
        -0.5490404963493347,
        -0.6051440834999084,
        0.01902131363749504,
        -0.06959211826324463,
        0.044799160212278366,
        0.014275250025093555,
        0.21837052702903748,
        0.08132890611886978,
        -0.22545555233955383,
        0.16791880130767822,
        0.008978817611932755,
        0.06355860829353333,
        -0.00037191208684816957,
        0.14205442368984222,
        0.10487017780542374,
        0.20406943559646606,
        0.1925368309020996,
        -0.1308882087469101,
        -0.0663929283618927,
        -0.18393194675445557,
        -0.10455749183893204,
        0.16059744358062744,
        0.03424428775906563,
        0.19764627516269684,
        0.06145065650343895,
        0.15103697776794434,
        0.09551990032196045,
        0.043745946139097214,
        0.005007120780646801,
        -0.16204720735549927,
        0.5256953239440918,
        -0.07383685559034348,
        -0.18401451408863068,
        -0.006785919424146414,
        0.1571459174156189,
        0.2125234454870224,
        -0.1443892866373062,
        -0.2177688628435135,
        0.059501200914382935,
        0.06786694377660751,
        0.2813941240310669,
        -0.37382230162620544,
        -0.22506287693977356,
        0.10880228877067566,
        -0.003634199034422636,
        0.46628880500793457,
        0.24626071751117706,
        0.18686263263225555,
        0.24782952666282654,
        0.45674073696136475,
        -0.18371427059173584,
        0.011923947371542454,
        -0.14304400980472565,
        0.19581769406795502,
        0.09830154478549957,
        -0.06203809008002281,
        -0.19050918519496918,
        0.00038606778252869844,
        -0.01609651744365692,
        -0.09335853159427643,
        0.08810916543006897,
        -0.09025619924068451,
        -0.00894757267087698,
        0.14994502067565918,
        -0.014574035070836544,
        0.0002919385733548552,
        -0.218890979886055,
        -0.23601046204566956,
        -0.012615212239325047,
        0.2338898479938507,
        0.20492100715637207,
        0.06270556151866913,
        0.2543206214904785,
        -0.08375687897205353,
        -0.08976887166500092,
        0.11107257008552551,
        0.1093146800994873,
        -0.10317949950695038,
        0.05755748599767685,
        0.056391309946775436,
        -0.03574279323220253,
        0.10193128138780594,
        0.07148559391498566,
        0.2679625451564789,
        0.06494166702032089,
        0.11080709844827652,
        0.12888066470623016,
        0.016454972326755524,
        0.4051283001899719,
        0.23979198932647705,
        -0.04247072711586952,
        0.16956745088100433,
        -0.11077824980020523,
        0.24220091104507446,
        0.34588879346847534,
        0.0721859559416771,
        0.05225764587521553,
        0.18965207040309906,
        0.09590408205986023,
        0.001960009103640914,
        -0.001692633144557476,
        -0.08516161888837814,
        0.3523426353931427,
        -0.1776271015405655,
        -0.04225609824061394,
        -0.1281222552061081,
        0.12646909058094025,
        0.30314701795578003,
        -0.16676875948905945,
        -0.07665973901748657,
        -0.00028363647288642824,
        0.11841684579849243,
        0.14179542660713196,
        -0.05624845623970032,
        0.052300482988357544,
        -0.10696528851985931,
        0.07526895403862,
        0.08776108920574188,
        0.0894094854593277,
        0.2950547933578491,
        0.22655083239078522,
        0.026460658758878708,
        -0.14101241528987885,
        -0.05767951160669327,
        0.02294197306036949,
        0.12398739904165268,
        0.5021161437034607,
        0.20135939121246338,
        -0.04094533249735832,
        0.04817672073841095,
        -0.03063328005373478,
        0.45805326104164124,
        0.1625392585992813,
        -0.17632365226745605,
        -0.09175024181604385,
        0.12922675907611847,
        0.4832073748111725,
        0.0788552314043045,
        0.0504923015832901,
        -0.15683461725711823,
        -0.0011325407540425658,
        0.2438790649175644,
        0.5609581470489502,
        0.6249311566352844,
        0.7932274341583252,
        0.6470251083374023,
        0.04911152273416519,
        0.0729815661907196,
        -0.01339777372777462,
        -0.1417873650789261,
        0.11120182275772095,
        -0.0030905697494745255,
        0.15154720842838287,
        -0.15961354970932007,
        0.07716618478298187,
        0.008387010544538498,
        -0.08404799550771713,
        -0.10834751278162003,
        -0.012934747152030468,
        -0.11575859040021896,
        0.11269468814134598,
        0.024896249175071716,
        0.12603360414505005,
        -0.014366553165018559,
        -0.052890267223119736,
        -0.050338659435510635,
        0.13310806453227997,
        0.04348732531070709,
        0.1765129417181015,
        0.1087067723274231,
        0.0427771620452404,
        0.0069300467148423195,
        0.07088522613048553,
        -0.13836140930652618,
        0.3349014222621918,
        0.006964291911572218,
        -0.03769547492265701,
        -0.046129096299409866,
        0.1496400088071823,
        0.36776936054229736,
        0.04112256318330765,
        0.13096873462200165,
        0.10354849696159363,
        0.03596683591604233,
        0.16726025938987732,
        0.33531978726387024,
        0.19465667009353638,
        0.10333339869976044,
        -0.2808806002140045,
        0.2720321714878082,
        0.7640047073364258,
        0.7256770133972168,
        0.883359432220459,
        0.543481707572937,
        -0.04675088822841644,
        0.04609335958957672,
        -0.048004455864429474,
        0.0849752277135849,
        -0.10528285056352615,
        -0.14125408232212067,
        -0.052861012518405914,
        -0.1475396752357483,
        -0.15652474761009216,
        0.1554011106491089,
        -0.008220776915550232,
        -0.06427943706512451,
        -0.052181899547576904,
        0.12303751707077026,
        0.11637657880783081,
        -0.08508901298046112,
