{
  "defaults": {},
  "inputs": [
    {
      "name": "1LeadingPt",
      "offset": 0,
      "scale": 1
    },
    {
      "name": "1LeadingMass",
      "offset": 0,
      "scale": 1
    },
    {
      "name": "1LeadingE",
      "offset": 0,
      "scale": 1
    },
    {
      "name": "1LeadingEta",
      "offset": 0,
      "scale": 1
    },
    {
      "name": "2LeadingPt",
      "offset": 0,
      "scale": 1
    },
    {
      "name": "2LeadingMass",
      "offset": 0,
      "scale": 1
    },
    {
      "name": "2LeadingE",
      "offset": 0,
      "scale": 1
    },
    {
      "name": "2LeadingEta",
      "offset": 0,
      "scale": 1
    },
    {
      "name": "3LeadingPt",
      "offset": 0,
      "scale": 1
    },
    {
      "name": "3LeadingMass",
      "offset": 0,
      "scale": 1
    },
    {
      "name": "3LeadingE",
      "offset": 0,
      "scale": 1
    },
    {
      "name": "3LeadingEta",
      "offset": 0,
      "scale": 1
    },
    {
      "name": "4LeadingPt",
      "offset": 0,
      "scale": 1
    },
    {
      "name": "4LeadingMass",
      "offset": 0,
      "scale": 1
    },
    {
      "name": "4LeadingE",
      "offset": 0,
      "scale": 1
    },
    {
      "name": "4LeadingEta",
      "offset": 0,
      "scale": 1
    }
  ],
  "layers": [
    {
      "architecture": "normalization",
      "bias": [
        -174.3775177001953,
        -22.445947647094727,
        -392.4153747558594,
        0.013972846791148186,
        -122.46761322021484,
        -17.720443725585938,
        -243.94737243652344,
        0.03985824063420296,
        -65.04688262939453,
        -10.846332550048828,
        -248.166748046875,
        -0.052272334694862366,
        -42.90332794189453,
        -8.27623176574707,
        -328.8009948730469,
        -0.4862595498561859
      ],
      "weights": [
        0.009637684561312199,
        0.08623969554901123,
        0.0020499429665505886,
        0.690589964389801,
        0.012173867784440517,
        0.09069301933050156,
        0.0024022110737860203,
        0.6570677161216736,
        0.023671261966228485,
        0.1474538892507553,
        0.0024703165981918573,
        0.4574921429157257,
        0.04407539218664169,
        0.24674347043037415,
        0.002374236239120364,
        0.31542882323265076
      ]
    },
    {
      "activation": "rectified",
      "architecture": "dense",
      "bias": [
        -0.10097525268793106,
        -0.17848946154117584,
        -0.06907619535923004,
        -0.08552106469869614,
        -0.13991744816303253,
        -0.16117234528064728,
        -0.1516035795211792,
        -0.1617170125246048,
        -0.19890587031841278,
        -0.12047088891267776,
        -0.2163737714290619,
        -0.22126366198062897,
        -0.13279755413532257,
        -0.21273744106292725,
        -0.041760969907045364,
        -0.1916988492012024,
        -0.16774006187915802,
        -0.16194245219230652,
        -0.10946138948202133,
        -0.16778644919395447,
        -0.17672531306743622,
        -0.15691809356212616,
        -0.08576542884111404,
        -0.1431276947259903,
        -0.17634697258472443,
        -0.18552526831626892,
        -0.13534055650234222,
        -0.17527060210704803,
        -0.10693281143903732,
        -0.22317078709602356,
        -0.1007881686091423,
        -0.04204625263810158,
        -0.06763726472854614,
        -0.1662922352552414,
        -0.16058434545993805,
        -0.11302784830331802,
        -0.12583599984645844,
        -0.026548881083726883,
        -0.13324379920959473,
        -0.3839079737663269,
        -0.1922292411327362,
        -0.13670951128005981,
        -0.2659687399864197,
        -0.03581172227859497,
        -0.15082919597625732,
        -0.1472492814064026,
        -0.048979099839925766,
        -0.12728899717330933,
        -0.27983710169792175,
        -0.09544703364372253,
        -0.12568579614162445,
        -0.19352808594703674,
        -0.1544792801141739,
        -0.04563027247786522,
        -0.1513984352350235,
        -0.26026731729507446,
        -0.17256568372249603,
        -0.15397730469703674,
        -0.03169534355401993,
        -0.17182376980781555,
        -0.034677039831876755,
        -0.09162109345197678,
        -0.031462859362363815,
        -0.1777624785900116,
        -0.2123752385377884,
        -0.05741117522120476,
        -0.0769973024725914,
        -0.21169833838939667,
        -0.1256657838821411,
        -0.2733197808265686,
        -0.07890112698078156,
        -0.1427871584892273,
        -0.18901307880878448,
        -0.17896194756031036,
        -0.1145021989941597,
        -0.23421762883663177,
        -0.12487533688545227,
        -0.07649064809083939,
        -0.13472460210323334,
        -0.15987853705883026,
        -0.13639749586582184,
        -0.11068985611200333,
        -0.010735432617366314,
        -0.15271764993667603,
        -0.19571983814239502,
        -0.1832590103149414,
        -0.15355224907398224,
        -0.21507112681865692,
        -0.08723652362823486,
        -0.1392689198255539,
        -0.11707917600870132,
        -0.17792771756649017,
        -0.21716009080410004,
        -0.09354603290557861,
        -0.05700071528553963,
        -0.008078359067440033,
        -0.09903980791568756,
        -0.16239047050476074,
        -0.09980899095535278,
        -0.08264130353927612,
        -0.07144157588481903,
        -0.11719780415296555,
        -0.17827638983726501,
        -0.09319284558296204,
        -0.020044047385454178,
        0.004019848071038723,
        -0.17344334721565247,
        -0.17996735870838165,
        -0.25807514786720276,
        -0.03095179982483387,
        -0.17105495929718018,
        -0.27025100588798523,
        -0.19859184324741364,
        -0.08488597720861435,
        -0.1563132107257843,
        -0.34937357902526855,
        -0.19552545249462128,
        -0.1050376370549202,
        -0.18366628885269165,
        -0.15426604449748993,
        -0.07182460278272629,
        -0.021719133481383324,
        -0.041325949132442474,
        -0.18021346628665924,
        -0.16198177635669708,
        -0.20040184259414673,
        -0.15855972468852997,
        -0.055349815636873245,
        -0.1205996498465538,
        -0.13160447776317596,
        -0.12719710171222687,
        -0.19486825168132782,
        -0.1461459845304489,
        -0.19927453994750977,
        -0.14590585231781006,
        -0.04447391256690025,
        -0.20988012850284576,
        -0.19180922210216522,
        -0.21872268617153168,
        -0.15750767290592194,
        -0.08144784718751907,
        -0.11339724063873291,
        -0.05318554863333702,
        -0.18206128478050232,
        -0.20132523775100708,
        -0.16258513927459717,
        -0.1086193323135376,
        -0.18095332384109497,
        -0.3426177501678467,
        -0.19529463350772858,
        -0.18859142065048218,
        -0.24162667989730835,
        -0.28150951862335205,
        -0.2764861285686493,
        -0.22681263089179993,
        -0.1359991729259491,
        -0.13088010251522064,
        -0.12652592360973358,
        -0.2159426212310791,
        -0.10945744812488556,
        -0.1292029172182083,
        -0.11521963775157928,
        -0.19553597271442413,
        -0.20053812861442566,
        -0.20316152274608612,
        -0.1789543628692627,
        -0.13687044382095337,
        -0.013669494539499283,
        -0.08065489679574966,
        -0.1732785552740097,
        0.006843820214271545,
        -0.10170162469148636,
        -0.14323873817920685,
        -0.1500769555568695,
        -0.25901085138320923,
        -0.2215627133846283,
        -0.0584837943315506,
        -0.21502846479415894,
        -0.1627224087715149,
        -0.21200783550739288,
        -0.20788484811782837,
        -0.13401885330677032,
        -0.15839624404907227,
        -0.27975356578826904,
        -0.16122063994407654,
        -0.1943768411874771,
        -0.07061939686536789,
        0.0629601702094078,
        -0.22634679079055786,
        -0.05260732024908066,
        -0.21117855608463287,
        -0.13040268421173096,
        -0.12247730046510696,
        -0.16925498843193054,
        -0.0663321390748024,
        -0.11321350932121277,
        -0.22526565194129944,
        -0.16916285455226898,
        -0.11088423430919647,
        -0.1906965970993042
      ],
      "weights": [
        -0.07426995038986206,
        0.07999246567487717,
        0.02951204590499401,
        -0.03445659950375557,
        -0.10368167608976364,
        0.2679312229156494,
        0.021527735516428947,
        -0.1489972323179245,
        0.026914412155747414,
        0.09970775246620178,
        -0.12885083258152008,
        -0.05835658684372902,
        0.1752827763557434,
        0.12217215448617935,
        -0.017644740641117096,
        0.015684302896261215,
        -0.07341878861188889,
        -0.09397386014461517,
        -0.16214267909526825,
        0.0009220020147040486,
        0.064099982380867,
        -0.16343657672405243,
        -0.06169040501117706,
        0.040159713476896286,
        -0.1898646503686905,
        0.22309039533138275,
        0.06404228508472443,
        0.016095509752631187,
        0.029530448839068413,
        0.03233075514435768,
        -0.27427908778190613,
        -0.10388287156820297,
        -0.025302190333604813,
        0.043447330594062805,
        0.03991508483886719,
        0.02312985435128212,
        0.15559865534305573,
        -0.2482995241880417,
        -0.1182120069861412,
        -0.06551717966794968,
        0.05525979399681091,
        -0.02095426246523857,
        -0.13768111169338226,
        0.05153105780482292,
        0.06562279164791107,
        0.11571989953517914,
        -0.4078037440776825,
        0.01859365403652191,
        0.07010030001401901,
        0.035699404776096344,
        -0.04512709379196167,
        -0.020803913474082947,
        0.1805676519870758,
        -0.22173261642456055,
        -0.17833711206912994,
        -0.16306394338607788,
        0.09526932239532471,
        -0.017905594781041145,
        -0.022081449627876282,
        0.019566142931580544,
        0.11472770571708679,
        0.09406635910272598,
        -0.31340137124061584,
        -0.005578833166509867,
        -0.04932072386145592,
        -0.017141636461019516,
        0.021690674126148224,
        -0.14229539036750793,
        0.008386768400669098,
        0.0493907667696476,
        -0.04668048396706581,
        -0.09523869305849075,
        0.13024111092090607,
        -0.09241405874490738,
        0.06494510173797607,
        0.46393442153930664,
        -0.0026366126257926226,
        -0.01634381338953972,
        -0.0009530021925456822,
        -0.009147773496806622,
        -0.08776683360338211,
        0.06687148660421371,
        -0.0874980017542839,
        -0.2716197669506073,
        -0.14638936519622803,
        0.12057340145111084,
        0.055461712181568146,
        0.0001494903990533203,
        -0.2223576158285141,
        0.02686809003353119,
        -0.054329849779605865,
        0.10692573338747025,
        0.11231013387441635,
        -0.02790568582713604,
        -0.07189115136861801,
        0.18854278326034546,
        -0.23743624985218048,
        0.11743733286857605,
        -0.008423617109656334,
        0.019992636516690254,
        0.06884396821260452,
        0.0024839164689183235,
        0.1511095017194748,
        -0.042865052819252014,
        0.0024102027527987957,
        -0.14114905893802643,
        -0.10697194188833237,
        -0.05001864209771156,
        -0.25242525339126587,
        -0.10589133203029633,
        -0.1268051564693451,
        -0.0026294796261936426,
        -0.08968111127614975,
        0.17054514586925507,
        -0.060084015130996704,
        0.17814889550209045,
        0.1040974110364914,
        -0.012192072346806526,
        -0.08482802659273148,
        -0.21683169901371002,
        0.006495279259979725,
        0.10105268657207489,
        0.0023976746015250683,
        0.004921071697026491,
        -0.1417042762041092,
        0.033501699566841125,
        -0.08742131292819977,
        -0.12005434185266495,
        0.028194734826683998,
        -0.06561024487018585,
        -0.06115027144551277,
        -0.2619764506816864,
        0.0928352102637291,
        -0.05977132171392441,
        -0.09667579084634781,
        0.04426287114620209,
        0.13492046296596527,
        0.0034954159054905176,
        0.1430482715368271,
        0.04187164083123207,
        -0.21888278424739838,
        0.3393228054046631,
        0.13164730370044708,
        0.09994789212942123,
        0.16647107899188995,
        -0.2469838559627533,
        -0.023592686280608177,
        -0.1610950082540512,
        0.07802215963602066,
        -0.08150985836982727,
        -0.2380286455154419,
        -0.08395759761333466,
        0.06835224479436874,
        0.0006037468556314707,
        0.03895440325140953,
        -0.00500477384775877,
        0.04781851917505264,
        0.029132625088095665,
        -0.20136332511901855,
        -0.018202347680926323,
        0.025422953069210052,
        -0.09574536979198456,
        0.10328632593154907,
        0.19754335284233093,
        -0.06792694330215454,
        -0.026638761162757874,
        0.09519539028406143,
        -0.27250510454177856,
        0.14795765280723572,
        0.03484625369310379,
        0.06693904101848602,
        -0.043873660266399384,
        -0.08388389647006989,
        -0.16414880752563477,
        -0.03407983109354973,
        0.049999892711639404,
        0.17129658162593842,
        -0.030278388410806656,
        0.06680794805288315,
        0.09310606867074966,
        -0.07714419066905975,
        0.04620201885700226,
        0.02423188090324402,
        0.005700941197574139,
        -0.2469647228717804,
        -0.14743004739284515,
        0.09412301331758499,
        -0.013556559570133686,
        -0.33439069986343384,
        0.1727505326271057,
        0.131282240152359,
        -0.027467569336295128,
        -0.3321572244167328,
        -0.0367823950946331,
        -0.044099967926740646,
        -0.03030446358025074,
        -0.11218199133872986,
        0.2221800535917282,
        -0.031217698007822037,
        -0.08012893050909042,
        -0.0737459734082222,
        0.1262618601322174,
        -0.04284154623746872,
        -0.040453288704156876,
        -0.1954273134469986,
        0.1172739714384079,
        0.07020655274391174,
        0.06737043708562851,
        0.22162331640720367,
        -0.03711893409490585,
        0.10952198505401611,
        -0.1287013292312622,
        0.14218123257160187,
        -0.059287749230861664,
        0.12286679446697235,
        0.1563655287027359,
        0.13243736326694489,
        -0.06653362512588501,
        0.03461218625307083,
        -0.10453053563833237,
        -0.07099443674087524,
        0.11988172680139542,
        0.2199508547782898,
        -0.005945309996604919,
        0.05550861358642578,
        -0.021399885416030884,
        0.02271219901740551,
        0.0035152083728462458,
        -0.02082795463502407,
        -0.0651053860783577,
        -0.0033370486926287413,
        -0.03503303974866867,
        0.06332553923130035,
        -0.04658094421029091,
        -0.2773605287075043,
        0.05385878309607506,
        0.14543992280960083,
        0.08177632093429565,
        -0.4677712917327881,
        0.014847630634903908,
        -0.025919174775481224,
        0.09184662997722626,
        -0.17692811787128448,
        0.04555536434054375,
        -0.02837318181991577,
        0.15867212414741516,
        -0.07342064380645752,
        0.19083495438098907,
        0.22422288358211517,
        0.010474352166056633,
        0.056678496301174164,
        0.09017391502857208,
        0.08499891310930252,
        -0.05833343043923378,
        -0.056774675846099854,
        0.1510210484266281,
        -0.06438523530960083,
        0.15949060022830963,
        -0.03840726241469383,
        0.18229910731315613,
        0.15758097171783447,
        0.03264864161610603,
        -0.17760522663593292,
        -0.12840905785560608,
        0.08505048602819443,
        -0.09358720481395721,
        -0.0255118478089571,
        -0.03508922830224037,
        0.2717932164669037,
        -0.11686906963586807,
        0.1548803746700287,
        0.05288764089345932,
        -0.013619335368275642,
        -0.08986121416091919,
        0.07383326441049576,
        0.11264041811227798,
        -0.024712182581424713,
        -0.10058070719242096,
        -0.06768310815095901,
        0.127452552318573,
        0.10129780322313309,
        0.1765962839126587,
        -0.1707538217306137,
        -0.00012156535376561806,
        0.021068045869469643,
        0.022514356300234795,
        -0.22291012108325958,
        0.03104010969400406,
        0.010538690723478794,
        -0.04591614753007889,
        0.0012480956502258778,
        0.3559870421886444,
        0.049781035631895065,
        -0.06442984938621521,
        -0.046654749661684036,
        -0.31394320726394653,
        0.025957470759749413,
        -0.05472009256482124,
        0.019874177873134613,
        -0.042042143642902374,
        0.054728567600250244,
        -0.10604878515005112,
        -0.0006814499502070248,
        0.002239929512143135,
        0.01247265376150608,
        -0.032359059900045395,
        -0.04572068154811859,
        0.06933966279029846,
        0.007795986719429493,
        0.0032850357238203287,
        0.11974206566810608,
        -0.045440368354320526,
        -0.2414398342370987,
        -0.129277303814888,
        -0.11334757506847382,
        0.03379533067345619,
        -0.12008285522460938,
        0.03979357331991196,
        -0.03665309399366379,
        -0.044305555522441864,
        0.06292004138231277,
        -0.1524747759103775,
        0.036056648939847946,
        -0.3010358512401581,
        0.027047084644436836,
        0.05148301273584366,
        0.09855285286903381,
        0.21189700067043304,
        -0.03226261958479881,
        0.18063120543956757,
        -0.04044848680496216,
        -0.020903512835502625,
        -0.006738466676324606,
        -0.14553703367710114,
        0.06397724896669388,
        0.13153491914272308,
        0.09459714591503143,
        0.007092063780874014,
        0.03728289157152176,
        -0.03898511826992035,
        0.004591090139001608,
        0.09915764629840851,
        -0.11356478184461594,
        0.06742300093173981,
        -0.16300196945667267,
        0.11452669650316238,
        -0.028726862743496895,
        0.05247684195637703,
        -0.4384693503379822,
        0.10701726377010345,
        0.09608549624681473,
        0.046806059777736664,
        -0.2734794020652771,
        0.15580882132053375,
        0.046252842992544174,
        -0.07330378890037537,
        0.03863324224948883,
        0.12697148323059082,
        -0.076670341193676,
        0.21022680401802063,
        0.09580256789922714,
        -0.014417992904782295,
        -0.002759010996669531,
        0.028620600700378418,
        -0.19691887497901917,
        0.10895920544862747,
        -0.0671813040971756,
        0.0887162834405899,
        0.11888127774000168,
        0.14033639430999756,
        0.05946418270468712,
        0.12448709458112717,
        0.16133427619934082,
        -0.11100313067436218,
        -0.028963448479771614,
        0.08248081058263779,
        0.07081563025712967,
        -0.04768180102109909,
        0.04114581644535065,
        -0.10211735963821411,
        0.2884964048862457,
        -0.011371360160410404,
        0.08182375878095627,
        0.009345651604235172,
        -0.04246890917420387,
        0.08268246799707413,
        -0.15264306962490082,
        -0.22723160684108734,
        -0.16325390338897705,
        -0.10101736336946487,
        0.2657763361930847,
        0.02989952825009823,
        -0.0041376943700015545,
        0.0632265955209732,
        -0.09740259498357773,
        0.1728186458349228,
        0.02668055146932602,
        0.02992282062768936,
        -0.11530382186174393,
        0.2301497608423233,
        -0.1984385997056961,
        0.20717841386795044,
        0.21452832221984863,
        0.035430412739515305,
        0.08074267953634262,
        -0.07484255731105804,
        0.04528914764523506,
        0.0080009326338768,
        -0.1019609197974205,
        0.009195886552333832,
        0.04386685788631439,
        0.03722698614001274,
        0.0982973501086235,
        0.03389543294906616,
        -0.223991259932518,
        0.2770806550979614,
        -0.05635621026158333,
        0.03976668789982796,
        -0.02732134610414505,
        -0.24622990190982819,
        0.06765168905258179,
        0.10871268808841705,
        -0.14452725648880005,
        0.27261289954185486,
        0.030597029253840446,
        -0.06452088803052902,
        0.019383972510695457,
        0.013746491633355618,
        0.1634117066860199,
        -0.17526155710220337,
        0.04435469210147858,
        0.010000689886510372,
        -0.14399926364421844,
        0.09217175841331482,
        0.12729325890541077,
        -0.05644781515002251,
        0.10540590435266495,
        -0.02853434905409813,
        0.10514850169420242,
        0.05190388113260269,
        0.2437584102153778,
        -0.048094749450683594,
        -0.12348991632461548,
        0.12379556894302368,
        0.22913190722465515,
        -0.21563145518302917,
        0.11197547614574432,
        0.051697615534067154,
        -0.04168270528316498,
        0.09609624743461609,
        -0.023759111762046814,
        0.16760165989398956,
        -3.5987337469123304e-05,
        0.02404203452169895,
        -0.01617138460278511,
        -0.17960840463638306,
        -0.10800930857658386,
        -0.19016973674297333,
        0.2432001531124115,
        0.02354046329855919,
        -0.07011450827121735,
        0.12925687432289124,
        -0.09760311245918274,
        0.05606163293123245,
        -0.11594507843255997,
        0.09037286788225174,
        0.014201655983924866,
        0.03045562654733658,
        0.16199199855327606,
        -0.33702602982521057,
        0.14851254224777222,
        -0.1984497755765915,
        -0.0973198413848877,
        0.1397070735692978,
        -0.03529041260480881,
        0.08134957402944565,
        -0.07474618405103683,
        0.05802717059850693,
        -0.033734939992427826,
        0.06950311362743378,
        0.13533909618854523,
        0.14329466223716736,
        -0.10311126708984375,
        0.15900598466396332,
        0.004477726761251688,
        -0.14378443360328674,
        0.02004087343811989,
        -0.17626099288463593,
        -0.030762681737542152,
        -0.06024162471294403,
        0.1646394431591034,
        -0.015811312943696976,
        0.11906532943248749,
        -0.028900334611535072,
        0.22197110950946808,
        0.0945681780576706,
        -0.2016235888004303,
        0.19002512097358704,
        -0.1481878161430359,
        -0.03230500593781471,
        -0.16568827629089355,
        0.13868261873722076,
        -0.21184127032756805,
        -0.0283066239207983,
        0.17137397825717926,
        -0.1496778279542923,
        0.03880563750863075,
        0.03604356572031975,
        0.14561998844146729,
        -0.170633926987648,
        0.1201961562037468,
        0.05678602680563927,
        0.09655893594026566,
        -0.11940662562847137,
        -0.15108263492584229,
        0.040127381682395935,
        0.26953819394111633,
        -0.284323513507843,
        -0.23522014915943146,
        0.08848128467798233,
        -0.0037321015261113644,
        0.04365849122405052,
        -0.09246397018432617,
        -0.026801759377121925,
        0.07110778242349625,
        -0.13005349040031433,
        0.04113738611340523,
        0.0007719151326455176,
        0.12175598740577698,
        -0.4202975928783417,
        0.2541525661945343,
        -0.04332954064011574,
        -0.14571209251880646,
        0.061501868069171906,
        -0.008012811653316021,
        0.1290547251701355,
        0.03291032463312149,
        0.01987949013710022,
        -0.03113286755979061,
        -0.03369053453207016,
        -0.10654119402170181,
        0.011928785592317581,
        -0.029058171436190605,
        -0.013831110671162605,
        0.002681537764146924,
        -0.09458021819591522,
        0.022828880697488785,
        0.009048525243997574,
        0.11904724687337875,
        0.0015354386996477842,
        -0.22930008172988892,
        -0.08220477402210236,
        0.14871211349964142,
        -0.1686621457338333,
        0.2704501450061798,
        0.011862046085298061,
        0.08528098464012146,
        -0.12465225905179977,
        0.006726925261318684,
        0.04868196323513985,
        -0.12709270417690277,
        0.08373305946588516,
        0.027481749653816223,
        0.09962883591651917,
        0.171802818775177,
        -0.08284366875886917,
        0.10203345865011215,
        0.050475336611270905,
        -0.0468057245016098,
        0.08975215256214142,
        0.048797525465488434,
        -0.027407163754105568,
        0.16065602004528046,
        -0.15889915823936462,
        -0.23321005702018738,
        0.2902382016181946,
        0.1739509105682373,
        -0.04242108762264252,
        -0.04346815124154091,
        0.05117369070649147,
        0.08675965666770935,
        -0.18309739232063293,
        -0.23681627213954926,
        0.04450000822544098,
        0.22423960268497467,
        -0.20682457089424133,
        -0.2839844226837158,
        0.1291063278913498,
        0.02866097167134285,
        -0.011495917104184628,
        0.03347696363925934,
        -0.002287320327013731,
        0.1530342996120453,
        -0.12698116898536682,
        0.00428049499168992,
        0.03835171461105347,
        0.09469500929117203,
        -0.15162652730941772,
        -0.019448960199952126,
        -0.02898254059255123,
        0.06417280435562134,
        -0.07223978638648987,
        -0.20215614140033722,
        0.025493012741208076,
        0.15657593309879303,
        0.11897087842226028,
        -0.367008239030838,
        -0.016538545489311218,
        -0.12012990564107895,
        0.3495789170265198,
        -0.1946961134672165,
        0.1713383048772812,
        0.06260592490434647,
        0.00588478147983551,
        -0.06427395343780518,
        -0.24326874315738678,
        -0.06998102366924286,
        0.06177642568945885,
        -0.04823217913508415,
        -0.026666611433029175,
        0.058142874389886856,
        -0.028836915269494057,
        0.03711773082613945,
        0.01964348554611206,
        -0.002099939389154315,
        -0.14482802152633667,
        0.00018323527183383703,
        0.08060608059167862,
        -0.04235189035534859,
        -0.013496259227395058,
        0.17193378508090973,
        -0.035178251564502716,
        -0.3400281071662903,
        0.010508810169994831,
        0.15072032809257507,
        0.06939015537500381,
        0.07664202153682709,
        -0.10633343458175659,
        0.02894081361591816,
        -0.044788893312215805,
        0.1810304820537567,
        -0.42732128500938416,
        0.2662728428840637,
        0.010166121646761894,
        -0.15550662577152252,
        0.14265036582946777,
        -0.1205630674958229,
        -0.007235749624669552,
        -0.03723105788230896,
        0.11591129750013351,
        -0.010991213843226433,
        -0.00628712959587574,
        -0.05440298095345497,
        0.08732561767101288,
        0.014088298194110394,
        -0.0011629577493295074,
        -0.12993262708187103,
        0.0867386907339096,
        -0.03281274437904358,
        0.07947701960802078,
        -0.24214081466197968,
        0.04420484974980354,
        -0.09223273396492004,
        0.005843053106218576,
        -0.13977059721946716,
        0.014650541357696056,
        0.0265787523239851,
        -0.10825392603874207,
        0.1566452533006668,
        -0.12586745619773865,
        0.030207227915525436,
        -0.011860433034598827,
        0.14619183540344238,
        0.08647309988737106,
        -0.004273429047316313,
        -0.017079146578907967,
        -0.09367967396974564,
        0.021383879706263542,
        -0.06957327574491501,
        0.003413368947803974,
        -0.025940759107470512,
        0.015310365706682205,
        0.3561657965183258,
        0.0005730139091610909,
        0.08117957413196564,
        -0.1365785449743271,
        -0.06780018657445908,
        0.03201638162136078,
        -0.02311849221587181,
        0.006634566467255354,
        -0.0018074305262416601,
        0.19364683330059052,
        -0.05763039365410805,
        0.16345031559467316,
        -0.06656085699796677,
        -0.10224457830190659,
        -0.15610197186470032,
        0.057204991579055786,
        0.04527858644723892,
        0.11456205695867538,
        -0.12381946295499802,
        0.03772605583071709,
        0.20052553713321686,
        -0.05391139164566994,
        -0.06449633836746216,
        0.023057300597429276,
        0.10592809319496155,
        -0.04780552536249161,
        0.06163487210869789,
        -0.016871048137545586,
        -0.02198537439107895,
        -0.011491735465824604,
        0.21977992355823517,
        -0.06773988157510757,
        -0.043694816529750824,
        -0.1071043610572815,
        0.06869207322597504,
        -0.1162743866443634,
        -0.2294234335422516,
        -0.20770694315433502,
        -0.16652141511440277,
        0.08286572247743607,
        0.14626429975032806,
        0.07420538365840912,
        -0.2822575271129608,
        0.06733280420303345,
        -0.17356844246387482,
        -0.1012718454003334,
        0.12264140695333481,
        0.03297954052686691,
        0.06335393339395523,
        -0.08775988221168518,
        -0.24593858420848846,
        0.04784057289361954,
        -0.07665709406137466,
        0.052938055247068405,
        0.1913537085056305,
        -0.027578314766287804,
        0.10987543314695358,
        0.024423370137810707,
        -0.1867535561323166,
        -0.0280930045992136,
        -0.0586509183049202,
        0.0028887370135635138,
        -0.16448502242565155,
        -0.14618642628192902,
        -0.10495956987142563,
        -0.06573810428380966,
        0.3064979612827301,
        -0.12004225701093674,
        0.06051764264702797,
        -0.004906158894300461,
        0.04949578270316124,
        -0.05422230437397957,
        -0.049386560916900635,
        -0.15440164506435394,
        -0.03468760475516319,
        -0.14915411174297333,
        -0.1554267555475235,
        -0.20637984573841095,
        -0.10902166366577148,
        0.2213069200515747,
        0.18344587087631226,
        -0.00232607196085155,
        0.07112932205200195,
        -0.004252078011631966,
        0.06537295877933502,
        -0.0762726441025734,
        0.12575364112854004,
        -0.1230175569653511,
        -0.002738657873123884,
        -0.08903703093528748,
        -0.06458165496587753,
        0.01880013383924961,
        -0.05520540848374367,
        -0.052581045776605606,
        -0.26623284816741943,
        -0.1626788228750229,
        0.17437049746513367,
        -0.03984174504876137,
        0.23861171305179596,
        -0.07458417117595673,
        0.10644625872373581,
        0.03928240016102791,
        -0.060153812170028687,
        -0.03709452599287033,
        -0.029373247176408768,
        -0.01263597421348095,
        0.047641485929489136,
        0.10020444542169571,
        -0.045183710753917694,
        0.12618789076805115,
        0.0013221268309280276,
        -0.012394867837429047,
        -0.10763397812843323,
        -0.025877246633172035,
        -0.34722623229026794,
        0.08540157973766327,
        -0.1543479710817337,
        -0.030807718634605408,
        0.10789552330970764,
        -0.15961085259914398,
        -0.015758125111460686,
        -0.13811515271663666,
        0.0010505066020414233,
        0.13560998439788818,
        0.01021523680537939,
        -0.03654324263334274,
        0.17605538666248322,
        -0.12183360755443573,
        -0.10677726566791534,
        0.2605898082256317,
        -0.2229953110218048,
        0.09648700058460236,
        0.22533120214939117,
        0.013741999864578247,
        0.12309842556715012,
        -0.01695932261645794,
        -0.08370932191610336,
        0.03682584688067436,
        -0.006122684106230736,
        0.05599981173872948,
        -0.11315806955099106,
        0.21763771772384644,
        0.013610691763460636,
        0.085121288895607,
        0.17462383210659027,
        -0.011551600880920887,
        0.25416284799575806,
        -0.12386883795261383,
        -0.21427972614765167,
        0.1956396996974945,
        0.14175643026828766,
        0.018779614940285683,
        -0.09150048345327377,
        0.009643151424825191,
        -0.04196883738040924,
        -0.042285945266485214,
        -0.14394736289978027,
        0.1465020626783371,
        0.2521322965621948,
        -0.11259742081165314,
        -0.23652492463588715,
        0.14727409183979034,
        0.17135660350322723,
        0.04229231923818588,
        -0.10337129235267639,
        0.0653936043381691,
        0.015244822949171066,
        0.03958301618695259,
        -0.13716082274913788,
        -0.258907675743103,
        0.02522466890513897,
        -0.003967944998294115,
        -0.02133944258093834,
        0.28560441732406616,
        0.1461588591337204,
        -0.05923689156770706,
        0.04948463290929794,
        0.013112230226397514,
        -0.029312724247574806,
        -0.06685028970241547,
        0.3001188039779663,
        -0.025732172653079033,
        -0.3486575484275818,
        0.06831367313861847,
        0.17426997423171997,
        0.0015050063375383615,
        0.14578771591186523,
        -0.10137602686882019,
        -0.20892323553562164,
        -0.13104262948036194,
        0.05117155238986015,
        0.12278369069099426,
        0.07931394129991531,
        -0.043888285756111145,
        -0.09757140278816223,
        0.15955182909965515,
        0.28856080770492554,
        -0.03529887646436691,
        0.08803727477788925,
        -0.03539580851793289,
        0.07882732897996902,
        0.062430206686258316,
        0.00992998294532299,
        -0.04956461861729622,
        -0.07291459292173386,
        -0.28925618529319763,
        0.06885280460119247,
        -0.05812055245041847,
        -0.03207508102059364,
        0.23113514482975006,
        -0.052788782864809036,
        0.09988748282194138,
        -0.06787558645009995,
        0.23356527090072632,
        -0.1349315345287323,
        -0.0945020467042923,
        0.11664992570877075,
        0.07373887300491333,
        -0.16600409150123596,
        0.0873563215136528,
        0.25495782494544983,
        -0.06797993928194046,
        0.22251467406749725,
        -0.21378260850906372,
        0.08370627462863922,
        -0.03419244661927223,
        0.14684829115867615,
        0.12735147774219513,
        0.1475379765033722,
        0.04629645124077797,
        0.1515321582555771,
        -0.12926968932151794,
        -0.15133225917816162,
        0.07290026545524597,
        0.21297462284564972,
        -0.24178801476955414,
        -0.2658996284008026,
        0.05920707434415817,
        -0.2666679918766022,
        0.23864305019378662,
        0.06332602351903915,
        0.0015876500401645899,
        0.03389866650104523,
        -0.09245109558105469,
        -0.07870069891214371,
        0.025211244821548462,
        0.04956922307610512,
        -0.0739113837480545,
        -0.1553177684545517,
        -0.06569108366966248,
        0.07820043712854385,
        -0.025852898135781288,
        -0.010001239366829395,
        0.007818490266799927,
        0.29459962248802185,
        -0.02647215686738491,
        -0.0016993227181956172,
        0.09597234427928925,
        -0.04394690692424774,
        -0.13468991219997406,
        -0.09329503029584885,
        0.04077991470694542,
        0.11637616157531738,
        -0.14639298617839813,
        0.03085440583527088,
        -0.011539646424353123,
        -0.0826055184006691,
        0.033404164016246796,
        0.071400485932827,
        -0.03205084055662155,
        0.14507277309894562,
        0.05903463438153267,
        0.09085732698440552,
        -0.04463537037372589,
        -0.1807677447795868,
        0.09984725713729858,
        -0.016929587349295616,
        -0.2213447093963623,
        -0.034945499151945114,
        -0.05438358709216118,
        -0.03519013524055481,
        -0.04288865253329277,
        0.08789236098527908,
        0.04301450774073601,
        -0.16631218791007996,
        -0.03452242538332939,
        0.027568651363253593,
        -0.0027644385118037462,
        -0.11441314965486526,
        -0.033898357301950455,
        0.10513115674257278,
        -0.18878257274627686,
        0.3983854055404663,
        -0.02424919791519642,
        0.12860295176506042,
        0.0744628757238388,
        0.05708396062254906,
        0.00706247054040432,
        0.1530078947544098,
        -0.11862904578447342,
        0.04855989292263985,
        0.06007359176874161,
        0.163282111287117,
        -0.15831786394119263,
        0.0023810542188584805,
        0.019648080691695213,
        0.1962319165468216,
        0.0415312759578228,
        -0.38902607560157776,
        0.021230489015579224,
        0.12241428345441818,
        -0.32219377160072327,
        -0.1418948620557785,
        0.00927264429628849,
        0.10194877535104752,
        -0.004264769144356251,
        -0.12350088357925415,
        0.004293179139494896,
        0.07300525158643723,
        -0.011469170451164246,
        -0.05261099711060524,
        0.0036181453615427017,
        0.1340770274400711,
        -0.07258344441652298,
        -0.009290328249335289,
        0.0053284987807273865,
        0.05334524065256119,
        -0.01840468868613243,
        0.0641079992055893,
        -0.08242325484752655,
        -0.05953741446137428,
        0.005652895197272301,
        0.060584656894207,
        -0.044840820133686066,
        -0.19378863275051117,
        -0.025463055819272995,
        -0.030430179089307785,
        0.05253877118229866,
        -0.17936481535434723,
        -0.15703260898590088,
        -0.06713397800922394,
        0.040080755949020386,
        -0.07516414672136307,
        0.01872135140001774,
        0.03135249391198158,
        0.011657824739813805,
        0.19236041605472565,
        -0.09189415723085403,
        -0.07398877292871475,
        0.13593456149101257,
        0.04714122787117958,
        0.11574780195951462,
        -0.20276542007923126,
        -0.09419431537389755,
        -0.41361281275749207,
        0.10315960645675659,
        0.1591852456331253,
        -0.03525848686695099,
        -0.3158983886241913,
        0.15116606652736664,
        0.013755488209426403,
        -0.029770491644740105,
        -0.2314552217721939,
        0.10483094304800034,
        0.00928898248821497,
        0.08229479938745499,
        0.03129727393388748,
        0.029107436537742615,
        -0.0506853312253952,
        -0.16820238530635834,
        0.2632908225059509,
        0.0300921481102705,
        0.06336800754070282,
        -0.10823368281126022,
        0.045689597725868225,
        -0.24638573825359344,
        -0.11683725565671921,
        0.11482395231723785,
        0.21928299963474274,
        0.04683110862970352,
        -0.09501627832651138,
        -0.020887790247797966,
        0.03494875878095627,
        -0.04130623862147331,
        -0.16444048285484314,
        -0.0005717352614738047,
        0.13128674030303955,
        -0.16117066144943237,
        0.05475158244371414,
        0.07129590213298798,
        0.2624559700489044,
        -0.08734577149152756,
        0.1138560026884079,
        -0.02221815101802349,
        0.04639314115047455,
        -0.3234923481941223,
        -0.24620428681373596,
        0.0035943540278822184,
        -0.07041535526514053,
        -0.17162111401557922,
        -0.014189817011356354,
        -0.09097318351268768,
        0.036625176668167114,
        0.08175022900104523,
        0.13466443121433258,
        0.011273752897977829,
        -0.06964794546365738,
        -0.014202811755239964,
        0.011646520346403122,
        0.02639951929450035,
        0.08706216514110565,
        -0.015302058309316635,
        0.02872633747756481,
        -0.01811833120882511,
        -0.09179764240980148,
        0.11873339861631393,
        0.02017895132303238,
        0.02317029982805252,
        -0.4399999976158142,
        0.1109694093465805,
        0.2444421350955963,
        0.14856669306755066,
        -0.07872211933135986,
        -0.055834777653217316,
        0.14652056992053986,
        0.05536550655961037,
        -0.08447811752557755,
        0.15640728175640106,
        0.05401039123535156,
        -0.2748333215713501,
        0.10763700306415558,
        0.04969809204339981,
        0.03996230289340019,
        0.0014725371729582548,
        0.07867997884750366,
        0.031642429530620575,
        0.056539833545684814,
        0.03198682889342308,
        -0.05275891721248627,
        0.19625605642795563,
        0.07507893443107605,
        -0.05789220333099365,
        0.3078024983406067,
        -0.3661346137523651,
        -0.033882077783346176,
        0.12896662950515747,
        0.11041010916233063,
        -0.05859322473406792,
        0.027087345719337463,
        -0.061131551861763,
        0.10681601613759995,
        -0.00011255343997618183,
        0.009698320180177689,
        -0.055120501667261124,
        0.01721322163939476,
        -0.25822946429252625,
        0.05591598153114319,
        -0.0325210839509964,
        0.09448181837797165,
        -0.021565033122897148,
        0.046389684081077576,
        -0.07475727051496506,
        0.027351368218660355,
        0.06296373158693314,
        0.04877995327115059,
        0.0885319784283638,
        0.036420684307813644,
        0.23848411440849304,
        0.32334890961647034,
        -0.049168433994054794,
        -0.20804087817668915,
        -0.14643657207489014,
        0.06627806276082993,
        -0.09617111831903458,
        -0.22373639047145844,
        0.08723469078540802,
        -0.09477446973323822,
        -0.014530345797538757,
        -0.09264291077852249,
        -0.13784296810626984,
        0.12067218869924545,
        0.09710582345724106,
        0.13993842899799347,
        -0.047022465616464615,
        -0.033278971910476685,
        -0.012886365875601768,
        -0.025166163221001625,
        0.18651245534420013,
        -0.006440925411880016,
        0.29856738448143005,
        -0.07588374614715576,
        -0.22225448489189148,
        0.023674376308918,
        -0.1996089518070221,
        -0.07488790899515152,
        0.06259104609489441,
        0.07769405841827393,
        -0.09331950545310974,
        0.050737787038087845,
        0.042957812547683716,
        -0.13258595764636993,
        0.16890092194080353,
        -0.08556883782148361,
        0.2808782160282135,
        -0.20381125807762146,
        -0.013967225328087807,
        -0.02587605081498623,
        -0.2703768312931061,
        0.23129688203334808,
        0.009990902617573738,
        -0.007431067992001772,
        0.05868150293827057,
        0.053485892713069916,
        0.06328929215669632,
        0.08103258907794952,
        -0.10134994983673096,
        -0.09511743485927582,
        0.2423841506242752,
        0.008453095331788063,
        0.03232165426015854,
        -0.07548334449529648,
        0.011988908983767033,
        0.064244344830513,
        -0.09787066280841827,
        0.05683878809213638,
        0.023723291233181953,
        0.06537321954965591,
        0.07247405499219894,
        -0.009064740501344204,
        -0.05999121442437172,
        -0.4169745445251465,
        0.278705894947052,
        0.2075379639863968,
        -0.022357072681188583,
        -0.21192467212677002,
        0.089383564889431,
        -0.19432757794857025,
        -0.10799455642700195,
        -0.027067434042692184,
        0.05580219626426697,
        -0.046634044498205185,
        -0.004727594088762999,
        0.14274878799915314,
        -0.153268501162529,
        0.15599903464317322,
        -0.03982211649417877,
        -0.13528218865394592,
        0.08619453012943268,
        -0.034182921051979065,
        0.16768892109394073,
        0.0328923761844635,
        -0.008645707741379738,
        0.004874540027230978,
        0.06695679575204849,
        0.11181404441595078,
        -0.0037774231750518084,
        -0.07516634464263916,
        -0.12991027534008026,
        -0.05748019739985466,
        0.07505479454994202,
        -0.001154184341430664,
        0.03120012953877449,
        0.47351816296577454,
        -0.4863226115703583,
        0.1295364648103714,
        0.03039475344121456,
        -0.1289043128490448,
        0.19537952542304993,
        -0.18921372294425964,
        0.19346435368061066,
        -0.2196492701768875,
        0.20711183547973633,
        -0.039272114634513855,
        0.039759084582328796,
        0.03348420932888985,
        -0.09681034088134766,
        0.08355480432510376,
        -0.027498586103320122,
        0.02554176189005375,
        0.03363693505525589,
        0.07274802774190903,
        -0.2706667184829712,
        0.1138593778014183,
        0.08701363205909729,
        -0.10115921497344971,
        -0.1012391746044159,
        -0.020916540175676346,
        -0.17089734971523285,
        0.08586474508047104,
        -0.08026766777038574,
        -0.12063136696815491,
        0.1813720017671585,
        -0.10124213248491287,
        0.33936232328414917,
        0.20525477826595306,
        -0.035154759883880615,
        0.06876564025878906,
        0.11087346076965332,
        0.029802680015563965,
        0.025811605155467987,
        0.07457797229290009,
        0.23132051527500153,
        -0.13930583000183105,
        0.08096125721931458,
        -0.07188554108142853,
        -0.2636491060256958,
        -0.08494522422552109,
        0.07381262630224228,
        0.010982168838381767,
        0.008777071721851826,
        -0.2592430114746094,
        0.08742401748895645,
        0.1566501408815384,
        0.07449594140052795,
        0.07082065939903259,
        0.16661565005779266,
        -0.11412859708070755,
        -0.05373740941286087,
        -0.11890646070241928,
        0.11139463633298874,
        0.009136001579463482,
        0.11101029068231583,
        -0.14811992645263672,
        -0.30908310413360596,
        0.15425962209701538,
        -0.0771900936961174,
        -0.07244253158569336,
        0.05086183547973633,
        0.04026538506150246,
        0.17635813355445862,
        -0.09814739972352982,
        0.029269738122820854,
        -0.14464521408081055,
        0.06622720509767532,
        0.1690191626548767,
        0.11301848292350769,
        -0.12740458548069,
        -0.05242345109581947,
        0.08991184830665588,
        0.06089510768651962,
        0.0029104421846568584,
        0.06620433926582336,
        0.15926781296730042,
        0.12384390830993652,
        -0.28262606263160706,
        0.03539328649640083,
        0.18214233219623566,
        0.04179307073354721,
        -0.05281895399093628,
        0.046463143080472946,
        -0.12229795008897781,
        0.013910309411585331,
        0.005528755486011505,
        -0.08270621299743652,
        -0.31220799684524536,
        0.1126733347773552,
        0.04987140744924545,
        0.024437682703137398,
        0.2291998267173767,
        -0.04132084175944328,
        -0.4375245273113251,
        -0.05173585191369057,
        0.2664688527584076,
        0.14480775594711304,
        -0.00776151055470109,
        0.0034237955696880817,
        -0.07580181956291199,
        -0.26446160674095154,
        -0.22260765731334686,
        0.025819474831223488,
        0.006665245164185762,
        -0.04389733821153641,
        0.1361689567565918,
        0.03868686407804489,
        -0.018107982352375984,
        -0.1476747691631317,
        0.10635828226804733,
        0.031044263392686844,
        -0.0017815632745623589,
        0.0481971800327301,
        -0.11445924639701843,
        -0.2238067239522934,
        -0.06144692748785019,
        0.059209369122982025,
        0.03029083088040352,
        0.014759230427443981,
        0.05954039841890335,
        -0.05373787134885788,
        0.011251909658312798,
        -0.015296733006834984,
        -0.12517149746418,
        0.18796826899051666,
        -0.2979770004749298,
        0.36618366837501526,
        -0.08354900777339935,
        0.21672798693180084,
        -0.08136345446109772,
        -0.04146800562739372,
        0.02872340939939022,
        -0.05854755640029907,
        0.0008187324274331331,
        0.068513885140419,
        0.20318028330802917,
        0.07810739427804947,
        0.06318023800849915,
        -0.005482131615281105,
        -0.13827680051326752,
        0.008531778119504452,
        -0.12125988304615021,
        -0.1829172968864441,
        -0.010673390701413155,
        -0.24672530591487885,
        0.10625995695590973,
        0.19005084037780762,
        0.03905152529478073,
        0.06326423585414886,
        0.19341455399990082,
        -0.14389820396900177,
        -0.03342274948954582,
        -0.14229035377502441,
        0.04319635033607483,
        -0.039436224848032,
        0.1399841159582138,
        -0.04343524947762489,
        0.09087824076414108,
        -0.12227101624011993,
        -0.11109953373670578,
        0.03155072405934334,
        0.05855337157845497,
        -0.05192820727825165,
        -0.10860919952392578,
        -0.07770802080631256,
        0.03407203033566475,
        0.20524676144123077,
        0.16004009544849396,
        0.06401247531175613,
        0.08423986285924911,
        -0.013167639262974262,
        0.03748289868235588,
        -0.15218506753444672,
        0.2742224335670471,
        -0.08310433477163315,
        0.11330903321504593,
        -0.3487188518047333,
        0.2935691475868225,
        -0.02820882387459278,
        -0.15880313515663147,
        0.05962710827589035,
        -0.03508206829428673,
        0.017052998766303062,
        -0.14503490924835205,
        0.23231743276119232,
        -0.08194530010223389,
        0.0797794982790947,
        -0.07316295802593231,
        0.07054705917835236,
        -0.05656028166413307,
        0.03331264853477478,
        -0.09099917858839035,
        0.05728784576058388,
        0.11259879916906357,
        0.09916561841964722,
        0.2283037155866623,
        -0.014034196734428406,
        0.04303188994526863,
        0.014921498484909534,
        0.07657383382320404,
        0.04874475672841072,
        0.02158513478934765,
        -0.017609622329473495,
        -0.18145889043807983,
        -0.035346806049346924,
        0.059450455009937286,
        -0.1724255084991455,
        -0.04234880208969116,
        -0.004834967665374279,
        0.04140029102563858,
        0.03636857122182846,
        0.015337545424699783,
        -0.06464458256959915,
        0.045099321752786636,
        -0.013769838958978653,
        -0.04027615487575531,
        -0.2917079031467438,
        0.10978864878416061,
        -0.25663721561431885,
        0.07700090110301971,
        0.05069812014698982,
        0.01988590694963932,
        0.05156666785478592,
        -0.28908130526542664,
        -0.08362914621829987,
        -0.024446994066238403,
        -0.028725946322083473,
        -0.3746163845062256,
        -0.11713578552007675,
        0.12297475337982178,
        0.009211699478328228,
        -0.16394062340259552,
        -0.006583326030522585,
        0.06881080567836761,
        0.016813265159726143,
        -0.11811713874340057,
        0.0816563069820404,
        -0.06810074299573898,
        0.04158952459692955,
        0.058176446706056595,
        0.010348300449550152,
        -0.0019081889186054468,
        0.06129803508520126,
        -0.10116874426603317,
        0.11032017320394516,
        -0.18712502717971802,
        -0.3492109179496765,
        0.0022143919486552477,
        0.14159108698368073,
        -0.07147177308797836,
        0.18643933534622192,
        -0.02194252423942089,
        0.000961853947956115,
        -0.014999378472566605,
        0.0071181319653987885,
        -0.21172089874744415,
        0.04427624121308327,
        0.10894054919481277,
        -0.02743874303996563,
        -0.057528626173734665,
        0.15142473578453064,
        0.1742655485868454,
        -0.05952753871679306,
        0.10992328077554703,
        0.002530714264139533,
        -0.31066179275512695,
        -0.14891529083251953,
        0.25116166472435,
        -0.005802312400192022,
        -0.0675012618303299,
        0.03423869609832764,
        -0.08906890451908112,
        -0.058251991868019104,
        -0.21392099559307098,
        -0.01710430346429348,
        0.1456199437379837,
        0.03487512841820717,
        -0.027291880920529366,
        0.015264195390045643,
        0.03048842027783394,
        -0.2230551540851593,
        -0.04067593067884445,
        0.10477493703365326,
        0.10486272722482681,
        0.2391078770160675,
        -0.08620359003543854,
        -0.05066395923495293,
        0.12313678115606308,
        -0.0324590727686882,
        -0.11064441502094269,
        -0.1512259989976883,
        -0.03692303225398064,
        -0.09475339204072952,
        -0.07771509885787964,
        -0.17766886949539185,
        -0.11802312731742859,
        0.23563174903392792,
        0.04764557629823685,
        -0.07684029638767242,
        0.03190429508686066,
        -0.007691646926105022,
        0.05351797863841057,
        0.1372501254081726,
        -0.015088685788214207,
        0.01702871173620224,
        0.025473477318882942,
        0.21889832615852356,
        -0.019892822951078415,
        0.029296498745679855,
        0.0041277664713561535,
        -0.002037390135228634,
        0.03055601194500923,
        0.031604304909706116,
        -0.2309805154800415,
        -0.3090045750141144,
        -0.01523890346288681,
        -0.003027987666428089,
        -0.0034132373984903097,
        -0.011417088098824024,
        0.14090171456336975,
        -0.10837452858686447,
        0.007177140563726425,
        0.009530655108392239,
        0.17253942787647247,
        -0.13656233251094818,
        -0.10165535658597946,
        0.07038377970457077,
        0.010309942997992039,
        -0.044928234070539474,
        -0.12754780054092407,
        0.06609226763248444,
        0.21556779742240906,
        -0.12817838788032532,
        -0.17944245040416718,
        0.3384479880332947,
        0.13208143413066864,
        -0.041358400136232376,
        -0.012075873091816902,
        -0.019225917756557465,
        0.18303222954273224,
        -0.22310017049312592,
        -0.15077973902225494,
        0.04452867805957794,
        0.07637351751327515,
        -0.05820758640766144,
        -0.14765867590904236,
        0.17637178301811218,
        0.11783254891633987,
        -0.06244051828980446,
        -0.16019152104854584,
        0.05648308992385864,
        0.12276564538478851,
        -0.1512262374162674,
        -0.06889549642801285,
        0.16783177852630615,
        -0.324301540851593,
        0.24485816061496735,
        0.026224946603178978,
        -0.06548042595386505,
        -0.01920877955853939,
        0.12060212343931198,
        -0.08570866286754608,
        0.022105637937784195,
        0.0933130607008934,
        -0.07905901223421097,
        -0.026623323559761047,
        -0.02097121998667717,
        -0.01298412773758173,
        0.061300188302993774,
        0.012746736407279968,
        -0.2241230458021164,
        -0.17763963341712952,
        0.13450954854488373,
        0.026773329824209213,
        0.05590587854385376,
        -0.22643554210662842,
        0.034164637327194214,
        -0.0031885900534689426,
        0.05821382999420166,
        -0.0044677965342998505,
        0.11456641554832458,
        0.020711729303002357,
        0.37911152839660645,
        -0.07929033041000366,
        -0.024282382801175117,
        0.13650287687778473,
        0.07557860761880875,
        0.048505544662475586,
        0.014491313137114048,
        -0.04572117701172829,
        0.06627916544675827,
        0.11615963280200958,
        -0.021038681268692017,
        -0.16401217877864838,
        0.1484076827764511,
        0.10513632744550705,
        -0.09266623854637146,
        -0.18402259051799774,
        0.3161115348339081,
        -0.09430805593729019,
        -0.03941477835178375,
        0.08098849654197693,
        -0.05595434829592705,
        -0.04271382465958595,
        -0.1688350886106491,
        0.21175803244113922,
        0.09169888496398926,
        -0.10470274835824966,
        0.07691733539104462,
        -0.1696719527244568,
        -0.008785944432020187,
        0.10559775680303574,
        -0.14524385333061218,
        0.12899264693260193,
        -0.09667188674211502,
        0.14147210121154785,
        -0.0825740173459053,
        -0.1749151647090912,
        -0.1236550360918045,
        -0.07332806289196014,
        0.019806206226348877,
        0.12341053783893585,
        0.10079701244831085,
        0.14116691052913666,
        -0.058245960623025894,
        0.011825849302113056,
        0.049708642065525055,
        -0.16128866374492645,
        0.2570391595363617,
        -0.1422620713710785,
        -0.050728216767311096,
        0.05252048373222351,
        0.00914992205798626,
        -0.00743953138589859,
        0.0032872071024030447,
        0.2507716417312622,
        -0.24338118731975555,
        -0.19262057542800903,
        -0.0758822113275528,
        -0.1040864810347557,
        0.10883068293333054,
        -0.22939790785312653,
        0.025141941383481026,
        0.21729151904582977,
        -0.09499069303274155,
        0.04683319106698036,
        0.039069607853889465,
        0.10391701012849808,
        0.19454225897789001,
        -0.050955142825841904,
        -0.10901264101266861,
        -0.13375745713710785,
        -0.03196920081973076,
        0.040288668125867844,
        0.22606351971626282,
        -0.3152349293231964,
        0.05788467079401016,
        0.11682911217212677,
        -0.007046787068247795,
        0.04537871479988098,
        -0.10574452579021454,
        0.013048720546066761,
        -0.06998444348573685,
        -0.12470138818025589,
        0.19315248727798462,
        0.11345813423395157,
        -0.13575711846351624,
        0.036376070231199265,
        -0.0011422649258747697,
        -0.02134992741048336,
        -0.031508151441812515,
        -0.20275504887104034,
        0.03019968792796135,
        0.08328636735677719,
        -0.04895299673080444,
        0.12182720750570297,
        -0.04212396219372749,
        -0.16919204592704773,
        -0.25550371408462524,
        -0.06124204769730568,
        -0.08909992128610611,
        0.22255851328372955,
        0.000827352108899504,
        -0.05325348302721977,
        0.25146278738975525,
        0.005842284299433231,
        0.23116272687911987,
        0.13797490298748016,
        -0.05915465205907822,
        0.040616363286972046,
        -0.03562331199645996,
        0.02534383349120617,
        0.1050436794757843,
        -0.06742185354232788,
        -0.005010711960494518,
        -0.021093135699629784,
        0.0059870099648833275,
        -0.01861720345914364,
        -0.01218460500240326,
        0.028917254880070686,
        -0.036898087710142136,
        -2.256901643704623e-05,
        0.008314535021781921,
        -0.08351556211709976,
        0.06270360201597214,
        -0.014103224501013756,
        0.018972475081682205,
        0.16183924674987793,
        -0.2709515690803528,
        0.5090565085411072,
        0.02087562344968319,
        -0.16785110533237457,
        0.10252102464437485,
        -0.17766831815242767,
        -0.13100861012935638,
        0.22687003016471863,
        -0.17152626812458038,
        0.07610536366701126,
        -0.061103273183107376,
        -0.09900474548339844,
        0.04083915427327156,
        -0.049754709005355835,
        0.12872722744941711,
        -0.11582696437835693,
        0.1282329112291336,
        -0.08012945204973221,
        -0.09707076847553253,
        -0.07097946107387543,
        -0.008010610938072205,
        -0.1415202021598816,
        0.01580856181681156,
        -0.22521069645881653,
        -0.220705047249794,
        -0.18760591745376587,
        -0.0028208685107529163,
        -0.17361435294151306,
        -0.16003187000751495,
        0.062271296977996826,
        0.0170765183866024,
        -0.1861756294965744,
        0.07915784418582916,
        0.1077011451125145,
        -0.010430563241243362,
        -0.36413252353668213,
        0.021274056285619736,
        0.19977320730686188,
        -0.027333024889230728,
        0.07594398409128189,
        0.04411209747195244,
        0.020978765562176704,
        0.00835613813251257,
        0.2028268277645111,
        -0.019230179488658905,
        0.04990103468298912,
        0.02069559507071972,
        -0.14529603719711304,
        0.1350383311510086,
        -0.0659954771399498,
        -0.19935822486877441,
        0.1430540829896927,
        -0.07815537601709366,
        0.017178211361169815,
        0.1057223454117775,
        -0.12891480326652527,
        0.09631834924221039,
        -0.26963117718696594,
        -0.12811607122421265,
        0.07463079690933228,
        0.06091269478201866,
        -0.0011140798451378942,
        -0.00987953133881092,
        -0.20077729225158691,
        0.008189652115106583,
        -0.018970491364598274,
        0.25676795840263367,
        -0.06320074200630188,
        0.0016365664778277278,
        0.0285749901086092,
        0.15343376994132996,
        0.050182491540908813,
        -0.006671995390206575,
        0.048749636858701706,
        0.00023647774651180953,
        -0.015582071617245674,
        0.08714661747217178,
        0.029480358585715294,
        0.019427895545959473,
        0.06353491544723511,
        -0.1415926069021225,
        0.16751335561275482,
        -0.38848501443862915,
        -0.012753346934914589,
        0.1149522215127945,
        0.06384380906820297,
        0.01263782661408186,
        -0.01923438161611557,
        -0.0909370630979538,
        0.061002571135759354,
        0.03031889721751213,
        -0.04604987055063248,
        0.03977687284350395,
        0.052701178938150406,
        0.028638815507292747,
        -0.3874756991863251,
        0.32857125997543335,
        0.1749410629272461,
        -0.005812309682369232,
        0.01777263544499874,
        0.12864094972610474,
        0.18187779188156128,
        0.027159912511706352,
        -0.23443326354026794,
        -0.15176871418952942,
        0.09430202841758728,
        0.02771245315670967,
        -0.03278237208724022,
        0.24162061512470245,
        -0.06530151516199112,
        0.11870314925909042,
        0.014707007445394993,
        0.21110542118549347,
        0.02317465841770172,
        0.08192021399736404,
        0.10599497705698013,
        -0.2478545904159546,
        -0.05591456964612007,
        -0.12199955433607101,
        0.03309956192970276,
        -0.003635825589299202,
        0.14820383489131927,
        0.024508822709321976,
        0.20456114411354065,
        -0.09559201449155807,
        0.029270708560943604,
        -0.0020847199484705925,
        -0.2959204912185669,
        0.12778356671333313,
        0.09465289115905762,
        -0.05550107732415199,
        -0.014568430371582508,
        0.0696462094783783,
        0.0030570465605705976,
        -0.094253771007061,
        -0.0923929288983345,
        0.1412748545408249,
        0.08972211927175522,
        -0.009818090125918388,
        0.06540451943874359,
        0.0693354532122612,
        -0.0745534598827362,
        -0.06605258584022522,
        0.15486106276512146,
        0.1147550493478775,
        -0.32776737213134766,
        -0.08259477466344833,
        0.06988264620304108,
        -0.0036554355174303055,
        -0.09822595119476318,
        0.02206590585410595,
        -0.04769723117351532,
        0.14614921808242798,
        -0.0166997741907835,
        -0.048090193420648575,
        0.24155765771865845,
        -0.24398694932460785,
        -0.2372342050075531,
        0.23973360657691956,
        0.1081738993525505,
        -0.03090186044573784,
        -0.2442329078912735,
        0.1398332118988037,
        0.07452981173992157,
        -0.013302840292453766,
        0.11626502871513367,
        0.027407798916101456,
        -0.19709396362304688,
        0.20139434933662415,
        -0.14747627079486847,
        -0.06048724427819252,
        -0.26655304431915283,
        0.18310850858688354,
        -0.10368528217077255,
        -0.007232045289129019,
        0.2590206265449524,
        -0.3709765374660492,
        0.06045620143413544,
        0.017173979431390762,
        0.14930477738380432,
        0.07368957996368408,
        -0.009286835789680481,
        -0.005627145990729332,
        0.1460089385509491,
        -0.041897963732481,
        -0.0877968966960907,
        0.004724462050944567,
        0.08379881829023361,
        -0.0814596489071846,
        -0.21862326562404633,
        0.1559925377368927,
        0.17811419069766998,
        -0.0018368163146078587,
        0.08299096673727036,
        -0.08206555247306824,
        -0.08462375402450562,
        0.33593055605888367,
        -0.30759575963020325,
        -0.045418575406074524,
        -0.10291163623332977,
        0.12232324481010437,
        -0.01819399558007717,
        0.06589031219482422,
        -0.16798871755599976,
        0.15497936308383942,
        -0.07130296528339386,
        0.03654897212982178,
        -0.08456644415855408,
        0.03424255549907684,
        0.009277820587158203,
        -0.03211429715156555,
        0.07462774217128754,
        0.15689624845981598,
        0.15301382541656494,
        0.031888533383607864,
        -0.17102202773094177,
        -0.09529372304677963,
        0.0737975686788559,
        0.02883712388575077,
        0.2203671634197235,
        -0.31027984619140625,
        -0.3699743449687958,
        0.03053789958357811,
        0.12235341966152191,
        0.006848623510450125,
        0.058146268129348755,
        0.10609385371208191,
        0.08248091489076614,
        -0.0015530791133642197,
        0.06910917907953262,
        -0.11979850381612778,
        0.04972635209560394,
        0.06498891860246658,
        -0.0017671594396233559,
        0.20290380716323853,
        -0.1994442641735077,
        -0.07562006264925003,
        0.04745607078075409,
        0.0454283207654953,
        -0.19423609972000122,
        0.2101988047361374,
        -0.03564086928963661,
        0.11781753599643707,
        0.040917959064245224,
        -0.006663291249424219,
        -0.052965253591537476,
        0.2218267172574997,
        -0.1041426956653595,
        0.15794767439365387,
        -0.11590919643640518,
        0.12343360483646393,
        -0.07027117908000946,
        0.16670015454292297,
        -0.16673262417316437,
        -0.3510434031486511,
        -0.02686123549938202,
        0.04301398992538452,
        0.009985947981476784,
        0.02390904538333416,
        0.1368464082479477,
        0.07997289299964905,
        -0.04298825189471245,
        -0.11083468049764633,
        0.11383882164955139,
        0.010019617155194283,
        0.04256883263587952,
        -0.015109558589756489,
        -0.20209921896457672,
        0.007611040957272053,
        0.08527266979217529,
        0.1395404189825058,
        -0.03763757273554802,
        -0.0785253643989563,
        -0.04316350072622299,
        0.09400298446416855,
        0.18404318392276764,
        -0.07978735119104385,
        0.12480343878269196,
        0.0041345334611833096,
        -0.12428056448698044,
        -0.0318678617477417,
        0.022494489327073097,
        -0.009845556691288948,
        0.05022049695253372,
        -0.08887934684753418,
        -0.19079822301864624,
        0.01418557669967413,
        0.0040940819308161736,
        0.1364077925682068,
        -0.3546181321144104,
        -0.010498374700546265,
        -0.08488418906927109,
        0.23128151893615723,
        0.09983767569065094,
        -0.13178059458732605,
        0.12748464941978455,
        -0.05143781751394272,
        -0.14036236703395844,
        -0.0036709944251924753,
        0.1216379776597023,
        0.06538549065589905,
        -0.042617712169885635,
        -0.20408210158348083,
        0.16849413514137268,
        -0.010224077850580215,
        -0.09005600959062576,
        -0.028038596734404564,
        0.03433815762400627,
        0.09922061860561371,
        -0.14875011146068573,
        -0.10831703245639801,
        -0.06845523416996002,
        0.00029969209572300315,
        -0.10358772426843643,
        -0.1451513022184372,
        0.20852939784526825,
        -0.11786069720983505,
        -0.2837606370449066,
        -0.041657812893390656,
        -0.08324720710515976,
        0.25619152188301086,
        0.07378733158111572,
        -0.09582609683275223,
        -0.10576721280813217,
        -0.09542620927095413,
        0.05030420795083046,
        0.10603125393390656,
        0.16689549386501312,
        -0.03354812040925026,
        0.01588207483291626,
        0.038492750376462936,
        -0.004309738054871559,
        0.14036306738853455,
        0.23136234283447266,
        -0.06766284257173538,
        0.17347154021263123,
        0.01274633314460516,
        0.11838614195585251,
        0.02148122526705265,
        0.030746320262551308,
        -0.0626467764377594,
        -0.11152961850166321,
        -0.23010557889938354,
        0.0007866801461204886,
        0.13883444666862488,
        -0.07608607411384583,
        0.09608902782201767,
        0.12491615861654282,
        0.24953879415988922,
        0.14383432269096375,
        -0.021533889696002007,
        -0.007334051188081503,
        -0.030457304790616035,
        0.12686152756214142,
        0.032465893775224686,
        0.12859134376049042,
        -0.06757765263319016,
        0.10361399501562119,
        -0.27464985847473145,
        -0.134588360786438,
        0.11538583785295486,
        -0.07298585772514343,
        0.23839178681373596,
        0.02061096578836441,
        0.04504579305648804,
        0.02340766042470932,
        -0.04401899129152298,
        -0.04473588615655899,
        0.07407927513122559,
        -0.10666655749082565,
        0.24095767736434937,
        0.0019709691405296326,
        -0.021815728396177292,
        0.02245430462062359,
        -0.048673830926418304,
        0.04368126019835472,
        -0.02921808883547783,
        -0.008545410819351673,
        0.2979359030723572,
        -0.07047203928232193,
        0.15928427875041962,
        -0.10406548529863358,
        -0.3503538966178894,
        -0.036318667232990265,
        0.011767157353460789,
        -0.017767777666449547,
        0.008029572665691376,
        -0.08422664552927017,
        0.01632063463330269,
        0.14118051528930664,
        -0.01781296171247959,
        0.05512833967804909,
        0.07148859649896622,
        -0.11283473670482635,
        0.07062827050685883,
        0.04598725587129593,
        -0.013655077666044235,
        -0.005326464306563139,
        0.02722536399960518,
        -0.057641781866550446,
        0.21536222100257874,
        -0.2233741134405136,
        0.43081605434417725,
        -0.06998882442712784,
        0.07983734458684921,
        -0.2131035327911377,
        -0.1236906498670578,
        0.027828332036733627,
        -0.05707693099975586,
        0.09299349039793015,
        0.0068925474770367146,
        0.01933411695063114,
        0.13414739072322845,
        -0.19072291254997253,
        0.14020861685276031,
        -0.04759228974580765,
        -0.07806175947189331,
        0.3361755907535553,
        0.02535325288772583,
        -0.018685905262827873,
        0.08856038004159927,
        -0.138485848903656,
        -0.07956930994987488,
        -0.007392637897282839,
        -0.004476621747016907,
        0.09350895136594772,
        -0.13875994086265564,
        0.06999354809522629,
        -0.003187508787959814,
        0.09639786928892136,
        0.2817588150501251,
        -0.029411595314741135,
        -0.18569904565811157,
        0.03367520496249199,
        0.09374742209911346,
        -0.14974841475486755,
        0.0023091344628483057,
        0.14217008650302887,
        -0.02125720866024494,
        0.032524000853300095,
        0.0223123487085104,
        0.0450466088950634,
        -0.052150942385196686,
        0.04431544989347458,
        0.05640188604593277,
        -0.07782506942749023,
        -0.07179655134677887,
        -0.1553458869457245,
        -0.02146128937602043,
        -0.06939798593521118,
        -0.15083228051662445,
        0.16877952218055725,
        0.008414078503847122,
        0.050861943513154984,
        0.07603833824396133,
        -0.1470842808485031,
        0.033133454620838165,
        0.0015345312422141433,
        -0.035361114889383316,
        0.011706831865012646,
        0.10515489429235458,
        0.009108484722673893,
        -0.011228274554014206,
        -0.250226229429245,
        -0.07709260284900665,
        -0.021716851741075516,
        0.11502820998430252,
        -0.0952577143907547,
        0.10858042538166046,
        -0.1290568858385086,
        0.1016787439584732,
        -0.05903751403093338,
        0.06619621813297272,
        0.05911523103713989,
        0.0934784933924675,
        -0.06131407245993614,
        0.06152396276593208,
        -0.06957121193408966,
        0.032788898795843124,
        -0.023052198812365532,
        -0.03619656339287758,
        -0.09689507633447647,
        -0.28754785656929016,
        -0.023824889212846756,
        -0.008981810882687569,
        0.137945294380188,
        -0.037296123802661896,
        -0.16457891464233398,
        0.1741095632314682,
        -0.020678579807281494,
        0.09368298947811127,
        -0.18301065266132355,
        0.10200227797031403,
        -0.037185002118349075,
        0.21286210417747498,
        -0.03068634122610092,
        -0.007847456261515617,
        -0.20329542458057404,
        -0.16287221014499664,
        0.14981895685195923,
        -0.2415149062871933,
        -0.16221307218074799,
        -0.01634073071181774,
        -0.011209477670490742,
        0.05306655913591385,
        0.050507791340351105,
        -0.022812403738498688,
        0.1882345974445343,
        -0.163143128156662,
        -0.11772648245096207,
        -0.011849261820316315,
        0.19496166706085205,
        -0.1263645887374878,
        -0.061437107622623444,
        -0.052016887813806534,
        -0.0494517982006073,
        -0.037165071815252304,
        0.08947542309761047,
        0.1567767858505249,
        -0.008280855603516102,
        0.04925086349248886,
        -0.17900636792182922,
        -0.04920486733317375,
        0.23378174006938934,
        -0.09854360669851303,
        0.0644797682762146,
        -0.03062351979315281,
        -0.22253091633319855,
        -0.017937637865543365,
        0.20731155574321747,
        -0.047285232692956924,
        -0.25041821599006653,
        0.0764753520488739,
        -0.18399733304977417,
        0.06841699033975601,
        -0.17183932662010193,
        0.02533397264778614,
        -0.05911567807197571,
        -0.08942431956529617,
        -0.15615148842334747,
        -0.07077591866254807,
        -0.0906170979142189,
        -0.03240509331226349,
        0.05966394394636154,
        -0.007568591274321079,
        -0.05092759057879448,
        0.015568146482110023,
        -0.2315385788679123,
        0.09437919408082962,
        0.10711780190467834,
        -0.11890369653701782,
        0.029983971267938614,
        0.13873472809791565,
        -0.1208924874663353,
        0.17550133168697357,
        -0.19534844160079956,
        -0.10593044757843018,
        -0.03432562202215195,
        0.03327968716621399,
        -0.04825728014111519,
        0.0392710417509079,
        0.0812695324420929,
        -0.2287043035030365,
        0.03308016434311867,
        0.06265734881162643,
        -0.16418631374835968,
        0.12576520442962646,
        -0.2060217261314392,
        0.06837449222803116,
        0.16314902901649475,
        -0.17418326437473297,
        -0.007064789067953825,
        0.019483108073472977,
        -0.039508506655693054,
        -0.061143338680267334,
        0.019139178097248077,
        -0.2640877664089203,
        -0.1409532129764557,
        0.2520713210105896,
        0.03638552501797676,
        -0.008926235139369965,
        -0.005632659886032343,
        -0.11678905040025711,
        0.06719785183668137,
        -0.058464933186769485,
        0.02482699044048786,
        0.1366683840751648,
        -0.08946450799703598,
        -0.023836376145482063,
        -0.03639398515224457,
        0.0445128008723259,
        -0.3839878439903259,
        0.25358155369758606,
        0.1489851325750351,
        0.10757726430892944,
        -0.2575089931488037,
        0.08974222093820572,
        0.10717032104730606,
        -0.12705223262310028,
        0.051335446536540985,
        0.070621557533741,
        0.018628450110554695,
        -0.0543224923312664,
        0.08977196365594864,
        -0.05697884410619736,
        -0.12779025733470917,
        0.3678402900695801,
        0.09632711857557297,
        -0.1847658008337021,
        0.029513521119952202,
        0.013229712843894958,
        -0.2877497375011444,
        0.025343913584947586,
        0.031109703704714775,
        -0.009989744052290916,
        -0.22778476774692535,
        -0.061821021139621735,
        0.08782271295785904,
        0.0487157478928566,
        -0.24819514155387878,
        0.1065770611166954,
        0.09456069022417068,
        -0.028102941811084747,
        -0.36860325932502747,
        0.20817920565605164,
        0.1582215428352356,
        -0.005848937202244997,
        0.08126137405633926,
        0.14386868476867676,
        0.02298320271074772,
        0.1591336727142334,
        -0.03767281770706177,
        -0.20183002948760986,
        -0.0016208942979574203,
        -0.2552677094936371,
        0.13925741612911224,
        0.12868209183216095,
        -0.010568924248218536,
        0.008472430519759655,
        -0.02652510441839695,
        0.017921406775712967,
        -0.11208850890398026,
        0.17399220168590546,
        0.15206319093704224,
        -0.04141507297754288,
        -0.15490813553333282,
        -0.03214005380868912,
        -0.28035035729408264,
        0.24429665505886078,
        0.1276797354221344,
        -0.07250094413757324,
        0.17139793932437897,
        -0.1844019740819931,
        0.0722523108124733,
        -0.02055349573493004,
        0.1097680851817131,
        0.051597513258457184,
        -0.15751704573631287,
        -0.09658186137676239,
        0.1113312765955925,
        0.07475925236940384,
        -0.057940997183322906,
        0.11579012125730515,
        0.12006013840436935,
        -0.16399884223937988,
        -0.05818657949566841,
        -0.17681266367435455,
        -0.1451505422592163,
        0.10464634746313095,
        0.09928598999977112,
        -0.001911692786961794,
        -0.37938931584358215,
        0.04576525464653969,
        0.14574512839317322,
        0.10366129130125046,
        -0.12029436230659485,
        0.20564550161361694,
        0.018736042082309723,
        -0.1301175355911255,
        -0.04986043646931648,
        0.1288955956697464,
        0.088444285094738,
        -0.08973454684019089,
        0.04319172725081444,
        0.10011889785528183,
        -0.1403544843196869,
        -0.08044608682394028,
        0.023799149319529533,
        0.10195809602737427,
        0.1131177768111229,
        -0.013921248726546764,
        0.06406645476818085,
        0.006833510007709265,
        -0.07837473601102829,
        0.011343470774590969,
        0.08068922162055969,
        -0.01582951657474041,
        0.05328942462801933,
        -0.02023487165570259,
        -0.40389180183410645,
        0.07973598688840866,
        0.10284848511219025,
        -0.010224442929029465,
        -0.17595940828323364,
        0.16498783230781555,
        0.03708086162805557,
        0.003992027137428522,
        -0.07169502228498459,
        -0.07581920176744461,
        0.1634284406900406,
        0.03704369068145752,
        0.04934034124016762,
        0.08122264593839645,
        -0.03678354248404503,
        0.12200796604156494,
        0.1476830393075943,
        -0.03528568521142006,
        0.0023107407614588737,
        0.17719236016273499,
        0.2277979999780655,
        -0.15826855599880219,
        -0.07882958650588989,
        0.15631063282489777,
        0.3230976462364197,
        -0.08476919680833817,
        0.1005011647939682,
        -0.052238523960113525,
        0.11356175690889359,
        -0.014266055077314377,
        0.005229199770838022,
        0.10542186349630356,
        -0.05271141231060028,
        -0.014046085067093372,
        0.013801788911223412,
        -0.028737235814332962,
        -0.09530329704284668,
        -0.13689784705638885,
        0.04543771967291832,
        0.02416444942355156,
        -0.035599227994680405,
        0.14461395144462585,
        -0.0015935368137434125,
        -0.059509288519620895,
        -0.11076712608337402,
        0.13673578202724457,
        -0.11420907080173492,
        0.2913655936717987,
        -0.08231046795845032,
        0.0948111042380333,
        0.10594765841960907,
        -0.12044479697942734,
        0.08792903274297714,
        -0.27513036131858826,
        0.055881649255752563,
        -0.02295735664665699,
        0.050746314227581024,
        0.02126169204711914,
        -0.08169826865196228,
        -0.21560102701187134,
        -0.08892655372619629,
        0.10314624011516571,
        -0.01590844802558422,
        0.02542990632355213,
        -0.15120194852352142,
        0.23281191289424896,
        -0.16848477721214294,
        0.33114391565322876,
        0.020927555859088898,
        -0.005347248166799545,
        0.010630150325596333,
        0.004186719655990601,
        -0.056885212659835815,
        0.08358476310968399,
        -0.0542672760784626,
        -0.045374829322099686,
        0.12854380905628204,
        0.01007099449634552,
        -0.09224258363246918,
        -0.18941466510295868,
        0.09019771218299866,
        -0.02881772257387638,
        -0.061866700649261475,
        0.4106830060482025,
        0.02028621919453144,
        -0.028379159048199654,
        0.023232560604810715,
        0.008743065409362316,
        0.12690164148807526,
        -0.021916940808296204,
        0.04397421330213547,
        -0.012317664921283722,
        -0.024821532890200615,
        -0.0029882965609431267,
        0.012615985237061977,
        0.0011361162178218365,
        -0.11526929587125778,
        0.143327534198761,
        -0.02993093989789486,
        0.0031816905830055475,
        -0.43471506237983704,
        0.19916406273841858,
        0.07141808420419693,
        0.01839948445558548,
        0.19919267296791077,
        -0.06613051146268845,
        0.06830298900604248,
        -0.024570196866989136,
        -0.0452970527112484,
        -0.06977624446153641,
        0.09356331825256348,
        -0.050217315554618835,
        0.14116863906383514,
        -0.11034110933542252,
        -0.31915006041526794,
        0.013598051853477955,
        0.12754149734973907,
        -0.003476590383797884,
        0.24638089537620544,
        0.03925907239317894,
        0.020194971933960915,
        -0.3639439046382904,
        -0.0858561247587204,
        -0.26794537901878357,
        0.023983100429177284,
        0.027369214221835136,
        -0.08866344392299652,
        -0.08929309993982315,
        0.11614514887332916,
        0.004184647463262081,
        0.081526979804039,
        -0.0016229805769398808,
        0.23038826882839203,
        -0.09226645529270172,
        -0.1090172752737999,
        -0.006543803494423628,
        -0.1876203864812851,
        -0.09519906342029572,
        0.11676464229822159,
        0.03781164810061455,
        -0.10049425810575485,
        0.29510772228240967,
        0.2976332902908325,
        0.04409109055995941,
        0.029115181416273117,
        0.015561173669993877,
        0.026513101533055305,
        -0.02915448695421219,
        0.10025881975889206,
        -0.0028734595980495214,
        0.04587715491652489,
        -0.008863462135195732,
        0.06815017759799957,
        -0.03272401914000511,
        0.0066780224442481995,
        0.16044838726520538,
        0.09070421755313873,
        -0.18300126492977142,
        0.054129552096128464,
        -0.3182259798049927,
        0.030869677662849426,
        -0.027179444208741188,
        0.040200863033533096,
        0.0521853007376194,
        -0.11729975789785385,
        0.09015063941478729,
        0.019378958269953728,
        0.1491280198097229,
        -0.0678432509303093,
        -0.0016798768192529678,
        0.10379314422607422,
        0.11896815150976181,
        0.025763699784874916,
        0.001488106558099389,
        -0.023306041955947876,
        0.07854370027780533,
        0.15810143947601318,
        -0.2980289161205292,
        -0.03462355211377144,
        -0.36952850222587585,
        -0.05905890837311745,
        0.14472618699073792,
        -0.007685751188546419,
        0.07624958455562592,
        0.04089340195059776,
        -0.08100610226392746,
        0.06777606159448624,
        0.31368783116340637,
        0.017062464728951454,
        0.019785253331065178,
        -0.038140833377838135,
        -0.26087331771850586,
        0.016697101294994354,
        0.0381193533539772,
        0.03387942537665367,
        -0.02329140715301037,
        -0.04921445623040199,
        0.010821360163390636,
        0.010074136778712273,
        -0.03105490654706955,
        0.012784517370164394,
        -0.09243722259998322,
        0.23374010622501373,
        -0.06271211057901382,
        -0.15563131868839264,
        0.02327362447977066,
        0.07324018329381943,
        0.14413447678089142,
        -0.016629252582788467,
        -0.05901818722486496,
        -0.06292611360549927,
        -0.02227678894996643,
        0.07139469683170319,
        -0.2146308273077011,
        -0.008558842353522778,
        -0.10075069963932037,
        0.04821105673909187,
        -0.2216172218322754,
        0.11129754781723022,
        -0.09335257858037949,
        0.2156413346529007,
        -0.24014180898666382,
        0.023320592939853668,
        -0.044914424419403076,
        -0.01980377733707428,
        -0.062382739037275314,
        0.09601633250713348,
        -0.01705308072268963,
        0.09135174006223679,
        -0.04805939644575119,
        -0.1927269697189331,
        0.008825693279504776,
        -0.11088629066944122,
        0.18121249973773956,
        0.13458029925823212,
        0.02984592691063881,
        0.13142868876457214,
        -0.24467580020427704,
        0.06719910353422165,
        0.022223470732569695,
        0.14732661843299866,
        0.04840307682752609,
        0.23045338690280914,
        -0.003190315095707774,
        0.2202042192220688,
        -0.14558307826519012,
        -0.19313745200634003,
        0.08204542845487595,
        0.12176516652107239,
        -0.012016704306006432,
        0.029544208198785782,
        -0.05827122926712036,
        0.051230043172836304,
        -0.048444878309965134,
        0.04928895831108093,
        0.010080350562930107,
        -0.07296080887317657,
        0.16054685413837433,
        -0.2469542771577835,
        -0.20223210752010345,
        -0.11439968645572662,
        0.09519845992326736,
        0.17932260036468506,
        0.20029465854167938,
        0.05021683871746063,
        0.07684366405010223,
        0.020530082285404205,
        0.009890196844935417,
        -0.1354328840970993,
        0.016506869345903397,
        -0.153712198138237,
        -0.0659373551607132,
        0.07243040204048157,
        -0.03816353529691696,
        0.056099046021699905,
        -0.07370450347661972,
        0.04906795918941498,
        -0.22651220858097076,
        0.2905295491218567,
        0.08744964748620987,
        0.21403779089450836,
        -0.2641425132751465,
        -0.1361110359430313,
        0.0051137120462954044,
        -0.15039700269699097,
        -0.1052154079079628,
        0.10762976109981537,
        0.013819506391882896,
        0.02672616019845009,
        -0.12000715732574463,
        0.1603604257106781,
        -0.01068215724080801,
        0.07810892909765244,
        0.03962673991918564,
        0.03996840491890907,
        0.05765262618660927,
        0.034576356410980225,
        0.013417662121355534,
        0.0867900401353836,
        -0.24849118292331696,
        0.03677154332399368,
        0.028994392603635788,
        -0.13514654338359833,
        0.2716079652309418,
        -0.040911998599767685,
        -0.07862641662359238,
        0.010506507940590382,
        0.007017443887889385,
        0.2666420638561249,
        -0.19407419860363007,
        0.06871569156646729,
        0.0356769785284996,
        -0.01992577314376831,
        0.03752410039305687,
        0.15568186342716217,
        -0.11847615242004395,
        -0.0191320963203907,
        -0.13375665247440338,
        0.1338120996952057,
        -0.09633605182170868,
        0.11940979212522507,
        -0.1843595802783966,
        -0.09290110319852829,
        0.24712517857551575,
        0.17018979787826538,
        0.16757507622241974,
        -0.056606683880090714,
        0.2601265013217926,
        0.03695115074515343,
        -0.1945599615573883,
        0.021580655127763748,
        -0.08783183991909027,
        -0.024183625355362892,
        0.05820648372173309,
        0.029095470905303955,
        0.018149882555007935,
        -0.22636422514915466,
        0.10201898962259293,
        0.08829204738140106,
        -0.017737574875354767,
        -0.402079701423645,
        0.22388343513011932,
        0.10693530738353729,
        0.009026804007589817,
        0.22726278007030487,
        -0.40616241097450256,
        0.1759909838438034,
        0.015552972443401814,
        -0.1683470457792282,
        0.002446138998493552,
        -0.03821928799152374,
        -0.04573695734143257,
        -0.10407291352748871,
        0.028671473264694214,
        0.07141867280006409,
        0.04214780032634735,
        -0.23107938468456268,
        0.04204177483916283,
        0.1937950700521469,
        -0.042108841240406036,
        0.18537475168704987,
        -0.18885686993598938,
        -0.06852395832538605,
        0.10159751027822495,
        0.15776069462299347,
        -0.1274525672197342,
        -0.03147778660058975,
        0.0603153333067894,
        -0.0015764756826683879,
        0.1488744467496872,
        -0.015426299534738064,
        0.10079896450042725,
        0.13002833724021912,
        0.010543819516897202,
        -0.0647500678896904,
        0.097185418009758,
        -0.0007962394156493247,
        0.14355270564556122,
        0.0715148001909256,
        -0.05840769782662392,
        0.02956307865679264,
        -0.37822556495666504,
        0.04317595437169075,
        0.10279633849859238,
        -0.05575466901063919,
        -0.04303007945418358,
        0.11943083256483078,
        0.01853586547076702,
        0.10525628924369812,
        0.019502218812704086,
        -0.3898274898529053,
        -0.05079268664121628,
        -0.045611802488565445,
        0.09297461807727814,
        -0.0861026868224144,
        -0.08367607742547989,
        -0.061472076922655106,
        0.11374437063932419,
        -0.0008326754905283451,
        -0.1612076610326767,
        0.12728171050548553,
        -0.035801324993371964,
        -0.07322212308645248,
        0.09936891496181488,
        -0.016691336408257484,
        -0.07687413692474365,
        -0.29504847526550293,
        0.17312364280223846,
        -0.14253301918506622,
        0.05374498292803764,
        0.10007098317146301,
        0.018165942281484604,
        0.18470527231693268,
        -0.15239839255809784,
        -0.20855256915092468,
        -0.10242528468370438,
        -0.02047390677034855,
        0.08965342491865158,
        -0.29813435673713684,
        0.018625890836119652,
        -0.05437284708023071,
        0.1386980563402176,
        0.23403753340244293,
        0.027154097333550453,
        -0.31353387236595154,
        -0.08900997042655945,
        0.09599000215530396,
        0.03970769792795181,
        -0.20647120475769043,
        0.09938795119524002,
        0.08136007189750671,
        -0.062177784740924835,
        -0.03382788226008415,
        0.03248902037739754,
        0.0028957442846149206,
        -0.01359687838703394,
        0.0022295305971056223,
        -0.06270676106214523,
        -0.04962274432182312,
        0.06661027669906616,
        0.053129781037569046,
        -0.023183895274996758,
        0.026116130873560905,
        0.057561080902814865,
        -0.036421507596969604,
        -0.03971893712878227,
        0.09918723255395889,
        -0.08325838297605515,
        -0.05736182630062103,
        -0.2072215974330902,
        -0.1276407241821289,
        -0.25802507996559143,
        0.14464128017425537,
        -0.12900643050670624,
        -0.044829271733760834,
        0.014474427327513695,
        -0.09355222433805466,
        -0.07415158301591873,
        -0.0719931349158287,
        0.08010122179985046,
        -0.2534329295158386,
        0.06684493273496628,
        0.09884794801473618,
        0.04345782846212387,
        -0.17690260708332062,
        0.10059615969657898,
        0.10254961997270584,
        0.04425831139087677,
        0.10170971602201462,
        -0.05196363478899002,
        0.17189930379390717,
        -0.04013076424598694,
        -0.18475095927715302,
        0.06797400116920471,
        0.1974683403968811,
        -0.08365879952907562,
        -0.21747002005577087,
        -0.07236740738153458,
        0.14861337840557098,
        -0.029790151864290237,
        0.07144089043140411,
        -0.2786439061164856,
        0.07349175959825516,
        0.00251994957216084,
        -0.22970621287822723,
        0.13523165881633759,
        0.1519729495048523,
        -0.05123475566506386,
        -0.33717024326324463,
        0.13246557116508484,
        0.21361641585826874,
        -0.06206951662898064,
        0.20623834431171417,
        -0.11542852222919464,
        -0.03839418292045593,
        0.1899639517068863,
        -0.06335029751062393,
        0.24448738992214203,
        -0.19980064034461975,
        -0.1944442093372345,
        0.09281859546899796,
        -0.08112119138240814,
        0.030807623639702797,
        0.01787937432527542,
        -0.11405874043703079,
        -0.29402413964271545,
        -0.0674523115158081,
        0.10543907433748245,
        0.12451489269733429,
        0.037633974105119705,
        -0.10012520849704742,
        -0.07455402612686157,
        -0.03934341296553612,
        0.06622301042079926,
        0.11578620225191116,
        0.03158462420105934,
        0.12277641892433167,
        0.04173894599080086,
        0.2802068293094635,
        0.018379898741841316,
        0.09550366550683975,
        -0.01050525438040495,
        -0.24464331567287445,
        -0.12771059572696686,
        0.13508276641368866,
        -0.11974308639764786,
        0.06575500220060349,
        -0.062026362866163254,
        -0.040920376777648926,
        0.022248046472668648,
        -0.05683515593409538,
        -0.08341268450021744,
        -0.025417884811758995,
        0.2097916603088379,
        -0.07964549958705902,
        -0.04533170908689499,
        0.05297952890396118,
        -0.14213143289089203,
        0.0914076492190361,
        0.0006507017533294857,
        0.13233555853366852,
        -0.17631743848323822,
        0.029534341767430305,
        0.02529456838965416,
        -0.004829813726246357,
        0.11535576730966568,
        -0.19441814720630646,
        -0.01521588396281004,
        0.1871551126241684,
        0.0163420420140028,
        -0.09316020458936691,
        -0.014185504987835884,
        0.06152805685997009,
        -0.01377095840871334,
        -0.020022938027977943,
        -0.1760087013244629,
        0.01881643757224083,
        0.0012853825464844704,
        0.008614875376224518,
        0.045563507825136185,
        0.16972042620182037,
        -0.029647480696439743,
        -0.13223199546337128,
        0.22518551349639893,
        -0.3388671278953552,
        0.21594955027103424,
        0.19064642488956451,
        -0.05134648457169533,
        0.12934209406375885,
        -0.15033459663391113,
        0.021123122423887253,
        0.00658118911087513,
        0.00619948236271739,
        -0.07199332118034363,
        0.077451691031456,
        0.012916721403598785,
        -0.05238776654005051,
        0.028263680636882782,
        -0.24131780862808228,
        -0.024171488359570503,
        0.20904740691184998,
        -0.2303255796432495,
        0.3810977339744568,
        0.005068785045295954,
        -0.29471340775489807,
        0.2499392330646515,
        0.12868401408195496,
        0.042616236954927444,
        0.03347831219434738,
        0.029630927368998528,
        -0.023982170969247818,
        -0.10634715855121613,
        0.10404814034700394,
        0.01162790972739458,
        -0.1805424690246582,
        -0.027507878839969635,
        0.14834462106227875,
        -0.07501692324876785,
        -0.07721909135580063,
        0.06981371343135834,
        0.024480149149894714,
        0.02543538808822632,
        -0.14632292091846466,
        -0.07810892164707184,
        -0.013028295710682869,
        -0.06940268725156784,
        -0.02371639758348465,
        -0.02879222482442856,
        0.12424417585134506,
        -0.39584603905677795,
        0.3650650382041931,
        0.010105742141604424,
        0.06476739048957825,
        0.027690736576914787,
        -0.06244741380214691,
        0.1105876937508583,
        0.008048199117183685,
        -0.028259888291358948,
        0.011623037047684193,
        -0.017533529549837112,
        0.08819263428449631,
        -0.024750886484980583,
        0.025258410722017288,
        -0.01886373572051525,
        -0.08855628967285156,
        0.12958557903766632,
        -0.015854861587285995,
        0.020029501989483833,
        -0.5288152098655701,
        0.2107183188199997,
        0.23925352096557617,
        0.015004710294306278,
        -0.099260613322258,
        0.015410386025905609,
        0.0744769424200058,
        0.11388692259788513,
        0.09399513900279999,
        0.05491514131426811,
        -0.2275552600622177,
        0.15806753933429718,
