{
  "defaults": {},
  "inputs": [
    {
      "name": "1LeadingPt",
      "offset": 0,
      "scale": 1
    },
    {
      "name": "1LeadingMass",
      "offset": 0,
      "scale": 1
    },
    {
      "name": "1LeadingE",
      "offset": 0,
      "scale": 1
    },
    {
      "name": "1LeadingEta",
      "offset": 0,
      "scale": 1
    },
    {
      "name": "2LeadingPt",
      "offset": 0,
      "scale": 1
    },
    {
      "name": "2LeadingMass",
      "offset": 0,
      "scale": 1
    },
    {
      "name": "2LeadingE",
      "offset": 0,
      "scale": 1
    },
    {
      "name": "2LeadingEta",
      "offset": 0,
      "scale": 1
    },
    {
      "name": "3LeadingPt",
      "offset": 0,
      "scale": 1
    },
    {
      "name": "3LeadingMass",
      "offset": 0,
      "scale": 1
    },
    {
      "name": "3LeadingE",
      "offset": 0,
      "scale": 1
    },
    {
      "name": "3LeadingEta",
      "offset": 0,
      "scale": 1
    },
    {
      "name": "4LeadingPt",
      "offset": 0,
      "scale": 1
    },
    {
      "name": "4LeadingMass",
      "offset": 0,
      "scale": 1
    },
    {
      "name": "4LeadingE",
      "offset": 0,
      "scale": 1
    },
    {
      "name": "4LeadingEta",
      "offset": 0,
      "scale": 1
    }
  ],
  "layers": [
    {
      "architecture": "normalization",
      "bias": [
        -190.6072235107422,
        -22.378536224365234,
        -381.7996826171875,
        -0.05479302629828453,
        -118.0998764038086,
        -17.736223220825195,
        -200.49148559570312,
        -0.06268493086099625,
        -65.36942291259766,
        -10.295748710632324,
        -243.63595581054688,
        -0.08275271952152252,
        -43.081642150878906,
        -8.287687301635742,
        -333.63690185546875,
        -0.19529318809509277
      ],
      "weights": [
        0.009491060860455036,
        0.08211604505777359,
        0.0021208948455750942,
        0.6993738412857056,
        0.011576567776501179,
        0.08674703538417816,
        0.0024942036252468824,
        0.6640387773513794,
        0.023376062512397766,
        0.1533142626285553,
        0.0026231282390654087,
        0.46763116121292114,
        0.04428283870220184,
        0.2639803886413574,
        0.002342482563108206,
        0.31004753708839417
      ]
    },
    {
      "activation": "rectified",
      "architecture": "dense",
      "bias": [
        -0.0025736510287970304,
        -0.09401680529117584,
        -0.1577143669128418,
        -0.029297614470124245,
        -0.12160302698612213,
        -0.10872878134250641,
        -0.11954623460769653,
        -0.17652274668216705,
        -0.1502690315246582,
        -0.12648172676563263,
        -0.16700801253318787,
        -0.14057597517967224,
        -0.07345281541347504,
        -0.011757775209844112,
        -0.12201549857854843,
        -0.14283576607704163,
        -0.1931416541337967,
        -0.2547549605369568,
        -0.23484572768211365,
        -0.08662309497594833,
        -0.1139283999800682,
        -0.19502457976341248,
        0.008041296154260635,
        -0.18407855927944183,
        -0.21617327630519867,
        -0.056712374091148376,
        -0.14734317362308502,
        -0.20515039563179016,
        -0.10484153777360916,
        0.029162868857383728,
        -0.04467501491308212,
        -0.1967412680387497,
        -0.19934216141700745,
        -0.07487361878156662,
        -0.1037730947136879,
        -0.12858624756336212,
        -0.16725262999534607,
        -0.2311156690120697,
        -0.2351146936416626,
        -0.15955987572669983,
        -0.11287665367126465,
        -0.17975568771362305,
        -0.09534952789545059,
        -0.10840408504009247,
        -0.1669122725725174,
        -0.06713411211967468,
        -0.05807923525571823,
        -0.24544620513916016,
        -0.16021496057510376,
        -0.17375580966472626,
        -0.15238377451896667,
        -0.200286403298378,
        -0.2536768913269043,
        -0.16340962052345276,
        -0.15705549716949463,
        -0.14338792860507965,
        -0.1970464140176773,
        -0.15515205264091492,
        -0.10088655352592468,
        -0.12012428790330887,
        -0.0176436435431242,
        -0.26241400837898254,
        -0.04310992360115051,
        -0.19600903987884521,
        -0.12822654843330383,
        0.008932702243328094,
        -0.21579399704933167,
        -0.1467171162366867,
        -0.10568468272686005,
        -0.10754325985908508,
        -0.1587257832288742,
        -0.08588986843824387,
        -0.16080807149410248,
        -0.07472284138202667,
        -0.11398766189813614,
        -0.2593017816543579,
        -0.19977577030658722,
        -0.04779007285833359,
        -0.07465817779302597,
        -0.21866624057292938,
        -0.22111131250858307,
        -0.27080845832824707,
        -0.1284281611442566,
        -0.1498016119003296,
        -0.1003502830862999,
        -0.08954212069511414,
        -0.1202029138803482,
        -0.20247147977352142,
        -0.1640205979347229,
        -0.10357046872377396,
        -0.20840823650360107,
        -0.11667308211326599,
        -0.09393808245658875,
        -0.15275201201438904,
        -0.1316339373588562,
        -0.14590606093406677,
        -0.008584252558648586,
        -0.09714382886886597,
        -0.21888518333435059,
        -0.09169644862413406,
        -0.18482911586761475,
        -0.02674170210957527,
        -0.15322130918502808,
        -0.16396507620811462,
        -0.20904716849327087,
        -0.12952153384685516,
        -0.12011074274778366,
        -0.05914171412587166,
        -0.08805727958679199,
        -0.10151734948158264,
        -0.12962131202220917,
        -0.16134563088417053,
        -0.1430857628583908,
        -0.1867932230234146,
        -0.1933562308549881,
        -0.11114335805177689,
        -0.08289320766925812,
        -0.06323538720607758,
        -0.12488596886396408,
        -0.032336607575416565,
        -0.17076420783996582,
        -0.17584677040576935,
        -0.0894598513841629,
        -0.19170603156089783,
        -0.1320212483406067,
        -0.18351827561855316,
        -0.11827679723501205,
        -0.11805896461009979,
        -0.1427447646856308,
        -0.3265506327152252,
        -0.24812859296798706,
        -0.15769562125205994,
        -0.05759691074490547,
        -0.046773575246334076,
        -0.10667264461517334,
        -0.04506485536694527,
        -0.11944155395030975,
        -0.12426561862230301,
        -0.10872986912727356,
        -0.07575070112943649,
        -0.02993759699165821,
        -0.22337117791175842,
        -0.14486265182495117,
        -0.13875992596149445,
        -0.14857973158359528,
        -0.06850284337997437,
        -0.13882969319820404,
        -0.1708611696958542,
        -0.07741118222475052,
        -0.19354619085788727,
        -0.1032918244600296,
        -0.1689881831407547,
        0.005937818903476,
        -0.133401021361351,
        -0.17694053053855896,
        -0.04998962953686714,
        -0.1900864541530609,
        -0.01697179302573204,
        -0.1791934370994568,
        -0.10718169063329697,
        -0.17187656462192535,
        -0.2701784074306488,
        -0.1690775752067566,
        -0.1057666465640068,
        -0.17682133615016937,
        -0.04481874406337738,
        -0.10320279747247696,
        -0.12771984934806824,
        -0.17261642217636108,
        -0.025295555591583252,
        -0.13098983466625214,
        -0.06336530297994614,
        -0.0732266828417778,
        -0.1467887908220291,
        -0.07300616055727005,
        -0.11083364486694336,
        -0.23265020549297333,
        -0.1532992422580719,
        -0.1415269374847412,
        -0.13692888617515564,
        -0.06943783909082413,
        -0.11868011206388474,
        -0.17305339872837067,
        -0.1089659333229065,
        -0.08337116986513138,
        -0.2496529072523117,
        -0.03920449689030647,
        -0.2036721110343933,
        -0.2439461648464203,
        -0.12960185110569,
        -0.19063885509967804,
        -0.11334120482206345,
        -0.06084144115447998,
        -0.1268353909254074,
        -0.20944684743881226,
        -0.08377981185913086,
        -0.02999942936003208,
        -0.16392168402671814,
        -0.09838992357254028,
        -0.15919537842273712
      ],
      "weights": [
        0.048993147909641266,
        -0.04284226521849632,
        0.0668061375617981,
        -0.030622638761997223,
        0.26252156496047974,
        -0.2531195282936096,
        -0.34725046157836914,
        0.07199130207300186,
        0.010916159488260746,
        0.08063847571611404,
        -0.15741699934005737,
        0.05702507495880127,
        0.12040451914072037,
        0.0833805724978447,
        0.06090238317847252,
        -0.027818409726023674,
        -0.20872445404529572,
        0.10781721770763397,
        0.09799807518720627,
        0.10979022085666656,
        0.13684450089931488,
        -0.10352973639965057,
        0.05067962408065796,
        -0.15105044841766357,
        0.27344462275505066,
        -0.10817888379096985,
        0.034128181636333466,
        -0.08857282251119614,
        -0.15816155076026917,
        0.08316930383443832,
        0.09722688794136047,
        0.026664098724722862,
        -0.00409272313117981,
        -0.1276422142982483,
        0.11815019696950912,
        0.023648889735341072,
        0.1778978705406189,
        -0.09115723520517349,
        -0.09908435493707657,
        0.018753783777356148,
        0.08520883321762085,
        -0.03422554209828377,
        0.0038731922395527363,
        -0.05403074994683266,
        -0.10647385567426682,
        0.10944689810276031,
        0.30444958806037903,
        -0.009266417473554611,
        -0.03003225475549698,
        -0.04692542180418968,
        -0.0316389836370945,
        0.10548035800457001,
        0.15902817249298096,
        -0.13954897224903107,
        -0.12938927114009857,
        0.01481637079268694,
        0.11873716861009598,
        -0.03407375141978264,
        -0.023854292929172516,
        -0.019853366538882256,
        0.10050872713327408,
        -0.10031245648860931,
        -0.23307465016841888,
        -0.04933403059840202,
        0.010729929432272911,
        0.049991656094789505,
        -0.2426217943429947,
        -0.22013767063617706,
        -0.15603536367416382,
        0.11216825991868973,
        -0.007208998780697584,
        -0.027802981436252594,
        -0.03686494007706642,
        0.08525066822767258,
        -0.24236588180065155,
        0.1999598890542984,
        0.2131074070930481,
        -0.18963855504989624,
        0.028833381831645966,
        -0.032985568046569824,
        0.06705932319164276,
        0.022925300523638725,
        -0.0009667264530435205,
        -0.0068721347488462925,
        -0.09574704617261887,
        -0.0025863570626825094,
        -0.03094872273504734,
        -0.147574782371521,
        -0.09595876187086105,
        0.232456773519516,
        -0.12128544598817825,
        0.3803398311138153,
        -0.01693558879196644,
        0.058804526925086975,
        0.01649460196495056,
        0.05379459261894226,
        0.13623034954071045,
        -0.08557908236980438,
        0.07147768884897232,
        0.17912574112415314,
        0.07206160575151443,
        -0.021958747878670692,
        -0.1337129920721054,
        -0.20283834636211395,
        0.009493287652730942,
        -0.040010031312704086,
        0.0278178621083498,
        0.042805612087249756,
        -0.38722723722457886,
        0.3327668309211731,
        0.14241226017475128,
        0.09038049727678299,
        0.14125660061836243,
        -0.2195901870727539,
        0.0112704923376441,
        -0.09018491953611374,
        0.10517765581607819,
        -0.05324377492070198,
        0.11181758344173431,
        0.006399970036000013,
        -0.3059806227684021,
        0.1030372679233551,
        0.01749243400990963,
        -0.13685201108455658,
        0.018063075840473175,
        0.009226568043231964,
        -0.1090238019824028,
        0.018909869715571404,
        0.038142185658216476,
        0.048650357872247696,
        0.09074483811855316,
        -0.01812891475856304,
        0.07618560642004013,
        -0.04029794782400131,
        0.04526562616229057,
        0.13433708250522614,
        0.025592753663659096,
        -0.1055855005979538,
        -0.12935520708560944,
        -0.1691095530986786,
        -0.3537313640117645,
        0.026595953851938248,
        0.17214658856391907,
        -0.01571548916399479,
        0.09089142084121704,
        0.005210257600992918,
        -0.10328008234500885,
        0.1539049595594406,
        -0.07525649666786194,
        -0.017494574189186096,
        0.00968415942043066,
        0.004920057486742735,
        0.23283161222934723,
        -0.048721421509981155,
        -0.0656890720129013,
        -0.22339436411857605,
        0.05072082579135895,
        -0.23462408781051636,
        0.05130419507622719,
        0.016495998948812485,
        0.04703013598918915,
        0.12012411653995514,
        0.0925007089972496,
        0.038726530969142914,
        -0.26927444338798523,
        0.06889030337333679,
        0.003838964272290468,
        0.11294922977685928,
        0.18096822500228882,
        -0.12608902156352997,
        0.015062128193676472,
        0.20816414058208466,
        0.06207998842000961,
        0.08684557676315308,
        -0.12053287029266357,
        0.3016013205051422,
        -0.05261846259236336,
        0.0362078994512558,
        -0.0839313194155693,
        0.08304186165332794,
        -0.10216322541236877,
        -0.17319470643997192,
        -0.11706600338220596,
        -0.26523399353027344,
        0.052967969328165054,
        -0.10727185755968094,
        0.10373295843601227,
        0.08825340867042542,
        0.11836884170770645,
        -0.08880671858787537,
        0.11669842898845673,
        0.1247071847319603,
        0.1676124632358551,
        0.013034295290708542,
        0.09156984835863113,
        -0.023146817460656166,
        -0.033877745270729065,
        -0.015361890196800232,
        -0.030874207615852356,
        -0.010414112359285355,
        -0.11084669083356857,
        -0.19377483427524567,
        -0.15614208579063416,
        -0.06736484169960022,
        -0.10477546602487564,
        0.2227967381477356,
        -0.03571925684809685,
        -0.11756083369255066,
        0.029690401628613472,
        0.03429144248366356,
        -0.049138393253088,
        -0.004082144238054752,
        -0.009599292650818825,
        0.03432023152709007,
        -0.026247519999742508,
        -0.15874215960502625,
        -0.14134684205055237,
        0.0748431459069252,
        -0.26948726177215576,
        0.03912923112511635,
        0.27269846200942993,
        0.02826296165585518,
        0.2851809561252594,
        -0.01708538644015789,
        0.19042624533176422,
        -0.01762467622756958,
        0.19503043591976166,
        0.09134628623723984,
        -0.10695295035839081,
        -0.04924376308917999,
        -0.2485431283712387,
        -0.1607014536857605,
        -0.1557071954011917,
        -0.2110014408826828,
        -0.027949249371886253,
        -0.08185184001922607,
        0.24579104781150818,
        0.049434978514909744,
        -0.08674927055835724,
        -0.08647386729717255,
        -0.00041059585055336356,
        -0.16166150569915771,
        0.10354489833116531,
        0.17131198942661285,
        -0.12139081954956055,
        0.08139809221029282,
        0.006841705646365881,
        -0.04004614055156708,
        0.024267304688692093,
        0.20816071331501007,
        -0.03079356625676155,
        0.11436505615711212,
        -0.08393578976392746,
        0.2536036968231201,
        -0.1414450705051422,
        -0.024966394528746605,
        -0.006095611955970526,
        0.06106887757778168,
        0.0815236046910286,
        -0.15690255165100098,
        -0.15496762096881866,
        0.2343175858259201,
        0.05056609958410263,
        -0.15036322176456451,
        0.08626525849103928,
        0.0205362681299448,
        0.05174579843878746,
        0.06223205104470253,
        0.18193617463111877,
        0.07931168377399445,
        -0.31733933091163635,
        0.016488809138536453,
        0.13016298413276672,
        0.021481066942214966,
        -0.06003353372216225,
        -0.18916964530944824,
        -0.07772807031869888,
        0.08994510769844055,
        0.04036939516663551,
        0.13171714544296265,
        -0.12049044668674469,
        0.10553104430437088,
        0.246097594499588,
        0.026613149791955948,
        0.18988770246505737,
        -0.08430215716362,
        0.18918028473854065,
        0.04379795491695404,
        0.2022886574268341,
        -0.25620806217193604,
        0.2186068594455719,
        0.1676793396472931,
        -0.1952286660671234,
        -0.193682000041008,
        0.13764688372612,
        0.006230137776583433,
        0.10279318690299988,
        0.05914907157421112,
        0.015058538876473904,
        0.06574621051549911,
        -0.01795121282339096,
        0.0954286977648735,
        -0.21852485835552216,
        -0.059140950441360474,
        -0.10294700413942337,
        0.014382532797753811,
        -0.07686153799295425,
        0.1597880870103836,
        -0.0501398891210556,
        0.03048393689095974,
        -0.011529291979968548,
        0.07380730658769608,
        0.16816435754299164,
        0.08353985846042633,
        0.031815607100725174,
        0.019466733559966087,
        0.024073461070656776,
        -0.054026369005441666,
        0.1363181620836258,
        -0.0683872401714325,
        0.11395937204360962,
        -0.13232961297035217,
        0.008014412596821785,
        0.1376197338104248,
        -0.02225504443049431,
        0.16023308038711548,
        -0.015704423189163208,
        0.05445878207683563,
        0.1735973060131073,
        0.012615715153515339,
        -0.0886785164475441,
        -0.07170793414115906,
        0.1602340042591095,
        -0.04955299571156502,
        -0.022308126091957092,
        -0.008278616704046726,
        0.17337766289710999,
        0.1421339064836502,
        0.0894814133644104,
        0.05344514921307564,
        -0.09392061084508896,
        -0.005216336343437433,
        0.05222809687256813,
        0.16753436625003815,
        0.16075412929058075,
        -0.0517377108335495,
        0.08876402676105499,
        0.09206835180521011,
        0.16940052807331085,
        -0.03974265977740288,
        -0.10992851108312607,
        0.13650237023830414,
        -0.00890740379691124,
        0.005678296554833651,
        0.046738091856241226,
        -0.0013195440405979753,
        0.144477978348732,
        -0.24535806477069855,
        0.0951681137084961,
        -0.00017848561401478946,
        0.052285339683294296,
        0.04773205891251564,
        -0.07955555617809296,
        0.030474171042442322,
        0.091509610414505,
        0.10374369472265244,
        -0.3182162344455719,
        -0.02491728588938713,
        -0.023364009335637093,
        0.004209066275507212,
        -0.03442578390240669,
        -0.09330464154481888,
        0.11117450147867203,
        -0.04107897728681564,
        -0.044746283441782,
        0.3182104825973511,
        0.09195850789546967,
        -0.0356692411005497,
        0.07116704434156418,
        -0.25641170144081116,
        -0.018014075234532356,
        -0.06784495711326599,
        0.06057029962539673,
        0.058212973177433014,
        0.009813032113015652,
        -0.014755736105144024,
        0.023659439757466316,
        0.02128448337316513,
        0.057197533547878265,
        0.005329966079443693,
        -0.04746054857969284,
        0.0684637799859047,
        0.14961077272891998,
        -0.4170374870300293,
        0.12413059920072556,
        -0.286426842212677,
        0.09913597255945206,
        -0.03272015601396561,
        0.04669587314128876,
        0.07937471568584442,
        0.12752042710781097,
        0.015928754583001137,
        0.1130770817399025,
        0.026024477556347847,
        0.01382546965032816,
        0.1847200095653534,
        -0.2810772657394409,
        0.0469169095158577,
        -0.026970770210027695,
        0.006673257797956467,
        -0.016478095203638077,
        -0.01750503107905388,
        -0.3464725613594055,
        0.0964210107922554,
        0.053542204201221466,
        -0.00017360510537400842,
        0.08438098430633545,
        -0.24992585182189941,
        0.1395934522151947,
        0.11065495759248734,
        -0.035915784537792206,
        0.155974879860878,
        -0.02064056321978569,
        -0.0205780491232872,
        -0.10825473815202713,
        -0.11089611053466797,
        0.0031444779597222805,
        -0.0036620348691940308,
        0.2166968733072281,
        -0.18332043290138245,
        0.16634421050548553,
        -0.28826820850372314,
        0.007797931786626577,
        0.036601532250642776,
        0.07535342872142792,
        0.17559197545051575,
        0.05287120118737221,
        0.06683110445737839,
        0.06718412786722183,
        -0.08361489325761795,
        -0.1755450814962387,
        -0.0677345022559166,
        0.13737930357456207,
        0.020171139389276505,
        0.12785127758979797,
        0.011598543263971806,
        -0.1067989319562912,
        -0.26031294465065,
        -0.11940615624189377,
        0.03879591450095177,
        0.12636999785900116,
        -0.1365378350019455,
        0.011270085349678993,
        0.12242767959833145,
        -0.06291884183883667,
        0.22766900062561035,
        -0.14920082688331604,
        0.1726599633693695,
        -0.14443127810955048,
        -0.11369428783655167,
        -0.037387192249298096,
        -0.07201787084341049,
        -0.047330960631370544,
        -0.05567213520407677,
        -0.014213085174560547,
        -0.02608906477689743,
        -0.11852867901325226,
        -0.0151688102632761,
        0.19164039194583893,
        -0.13593080639839172,
        -0.22585609555244446,
        0.051194194704294205,
        0.06279153376817703,
        -0.11490371823310852,
        -0.23143166303634644,
        -0.06152598559856415,
        0.1900205910205841,
        -0.13241544365882874,
        0.18847328424453735,
        -0.015300603583455086,
        0.27867814898490906,
        0.012875070795416832,
        0.05518922582268715,
        -0.08472403138875961,
        -0.15782102942466736,
        0.07263454049825668,
        0.012393321841955185,
        0.05113135278224945,
        0.16666580736637115,
        -0.06894886493682861,
        0.024140309542417526,
        -0.005763306748121977,
        -0.20311139523983002,
        0.16922388970851898,
        -0.20902830362319946,
        0.15852892398834229,
        -0.07749833166599274,
        0.16446304321289062,
        -0.009080321528017521,
        0.17733055353164673,
        -0.11675574630498886,
        0.22259505093097687,
        -0.41160035133361816,
        -0.04650537669658661,
        0.19031170010566711,
        -0.05354388803243637,
        0.12198833376169205,
        -0.009379290044307709,
        -0.09936065971851349,
        -0.0879085585474968,
        0.15441201627254486,
        -0.1467277854681015,
        -0.09370459616184235,
        -0.10037027299404144,
        0.09843117743730545,
        -0.14230577647686005,
        0.21267364919185638,
        -0.08076398819684982,
        0.04561605304479599,
        0.12701289355754852,
        0.08830364793539047,
        0.17318806052207947,
        -0.16539588570594788,
        0.053948450833559036,
        -0.26303258538246155,
        0.08735870569944382,
        0.1880444884300232,
        0.014109336771070957,
        0.09198278188705444,
        -0.02664812281727791,
        -0.02856554463505745,
        -0.08954713493585587,
        -0.04618675634264946,
        0.21360336244106293,
        -0.0007489740382879972,
        -0.020910920575261116,
        -0.2340037226676941,
        -0.22323296964168549,
        0.12786787748336792,
        0.0959140956401825,
        0.16161054372787476,
        -0.08010602742433548,
        -0.013103040866553783,
        0.16267156600952148,
        0.19255882501602173,
        -0.3037141263484955,
        -0.2832629084587097,
        0.031828995794057846,
        0.11621735990047455,
        0.03383111581206322,
        0.05345621705055237,
        -0.02768007293343544,
        0.0022275957744568586,
        -0.026395076885819435,
        0.004289897158741951,
        0.013393407687544823,
        0.006594642531126738,
        0.13931500911712646,
        -0.11551018804311752,
        -0.07551862299442291,
        0.19477660953998566,
        -0.2586616575717926,
        0.10986527055501938,
        -0.20639847218990326,
        -0.07460612803697586,
        -0.01308209914714098,
        0.03086252324283123,
        0.0032727662473917007,
        -0.04913357272744179,
        0.05888521298766136,
        0.011308271437883377,
        0.23026418685913086,
        0.03368724510073662,
        -0.07414748519659042,
        0.0790691077709198,
        -0.031094945967197418,
        0.0647306963801384,
        -0.04033280536532402,
        -0.11832545697689056,
        -0.056180402636528015,
        -0.16741348803043365,
        0.07025879621505737,
        -0.00775154260918498,
        0.026427453383803368,
        -0.13576753437519073,
        0.1400294303894043,
        0.16465844213962555,
        0.01804986596107483,
        -0.04336734861135483,
        0.022906629368662834,
        0.21393007040023804,
        -0.0650801882147789,
        -0.1366993486881256,
        -0.19963009655475616,
        0.10778655111789703,
        0.04126368463039398,
        -0.11560995876789093,
        -0.08470508456230164,
        0.11432839184999466,
        -0.03612033650279045,
        0.09428228437900543,
        -0.08690942823886871,
        0.05035782232880592,
        -0.03825011104345322,
        -0.39450308680534363,
        0.231251060962677,
        0.11809957772493362,
        0.06738540530204773,
        0.22723239660263062,
        0.01963822729885578,
        -0.011794740334153175,
        -0.05788440629839897,
        -0.16289398074150085,
        -0.11082279682159424,
        -0.08407537639141083,
        -0.08775627613067627,
        -0.4258078634738922,
        -0.018289102241396904,
        0.07861502468585968,
        0.009791223332285881,
        0.002309780102223158,
        0.0848240777850151,
        0.03291768953204155,
        0.007453326601535082,
        -0.009646594524383545,
        0.04662224277853966,
        0.0892426148056984,
        -0.12161970138549805,
        0.04675623029470444,
        -0.06400032341480255,
        0.005761863198131323,
        0.054002583026885986,
        0.06937514245510101,
        0.2315567433834076,
        -0.08567336201667786,
        0.2946934700012207,
        -0.10785169154405594,
        0.15065835416316986,
        -0.07773363590240479,
        0.15294687449932098,
        0.021012460812926292,
        0.11597219854593277,
        0.02153599262237549,
        0.011493281461298466,
        0.18598461151123047,
        -0.26097598671913147,
        -0.2034544050693512,
        0.015077955089509487,
        -0.10156428068876266,
        -0.02307765558362007,
        -0.061860341578722,
        -0.08392587304115295,
        0.18331891298294067,
        -0.09452567994594574,
        -0.11051318049430847,
        -0.013413891196250916,
        0.10005958378314972,
        -0.33415332436561584,
        0.24916547536849976,
        0.017359361052513123,
        -0.22331196069717407,
        0.11434169858694077,
        -0.10490377247333527,
        -0.023281274363398552,
        -0.15466460585594177,
        0.1282825917005539,
        -0.07699829339981079,
        -0.01779988966882229,
        0.027762729674577713,
        0.024310480803251266,
        -0.047939956188201904,
        0.023138510063290596,
        -0.12200730293989182,
        0.058443598449230194,
        -0.04088124260306358,
        0.2252558320760727,
        0.006746172439306974,
        0.07568750530481339,
        0.014413830824196339,
        -0.05737965181469917,
        -0.03321650251746178,
        0.03268527239561081,
        -0.07174868136644363,
        -0.24982576072216034,
        -0.13502758741378784,
        0.08758345991373062,
        0.10233816504478455,
        -0.008720695972442627,
        0.08164560049772263,
        0.013377083465456963,
        0.04675351455807686,
        -0.017559153959155083,
        -0.006438374985009432,
        0.07315528392791748,
        -0.04579190909862518,
        -0.055805355310440063,
        -0.0017944836290553212,
        0.21086736023426056,
        0.04453745484352112,
        0.019338058307766914,
        0.3578196167945862,
        -0.176238551735878,
        0.12697581946849823,
        -0.029277561232447624,
        0.005867925006896257,
        0.08339766412973404,
        0.027676409110426903,
        0.17201480269432068,
        -0.15235628187656403,
        0.10612738132476807,
        -0.07337047159671783,
        -0.28618162870407104,
        -0.10552538931369781,
        0.04180489480495453,
        -0.08268634229898453,
        0.20930133759975433,
        0.1763136088848114,
        -0.210719496011734,
        0.04991113394498825,
        0.055845171213150024,
        -0.08626938611268997,
        -0.14181677997112274,
        -0.02601882629096508,
        -0.038040515035390854,
        0.11711225658655167,
        0.0921076238155365,
        -0.08731741458177567,
        -0.01396110374480486,
        0.06601965427398682,
        0.04478318244218826,
        -0.0014086951268836856,
        0.010913793928921223,
        0.08869976550340652,
        -0.17314553260803223,
        0.35822468996047974,
        0.025112461298704147,
        0.07603145390748978,
        0.13789446651935577,
        -0.04007856920361519,
        -0.16291198134422302,
        -0.00214458629488945,
        0.04927820339798927,
        0.04337981715798378,
        0.2002069652080536,
        -0.05509635806083679,
        -0.1626894325017929,
        -0.013647178187966347,
        -0.013913555070757866,
        0.2359900027513504,
        -0.20701861381530762,
        0.03772446885704994,
        0.0034806402400135994,
        0.2267264574766159,
        0.12066832929849625,
        0.029973790049552917,
        0.09264842420816422,
        0.008830943144857883,
        -0.004562276415526867,
        -0.01883428543806076,
        0.09911254793405533,
        0.150575190782547,
        -0.08276455104351044,
        0.03359057754278183,
        0.016783561557531357,
        0.08670572936534882,
        -0.018924947828054428,
        0.04041995480656624,
        -0.020603127777576447,
        0.010713348165154457,
        -0.18043948709964752,
        0.14984063804149628,
        0.19664092361927032,
        0.05038303881883621,
        0.14670392870903015,
        0.0453224703669548,
        0.020309027284383774,
        0.06706594675779343,
        0.002500323113054037,
        0.06271341443061829,
        0.03444359824061394,
        -0.009973247535526752,
        0.08985131978988647,
        -0.15356436371803284,
        -0.11017549782991409,
        0.07100829482078552,
        0.05322708189487457,
        -0.040339041501283646,
        0.15811876952648163,
        -0.06899701803922653,
        -0.04878932237625122,
        0.1335771679878235,
        -0.1881749927997589,
        -0.007350194733589888,
        -0.04946669191122055,
        0.04365293309092522,
        0.03878766670823097,
        -0.3556019961833954,
        0.15000876784324646,
        0.1888589859008789,
        0.03850394859910011,
        -0.11012899875640869,
        0.0029616353567689657,
        -0.0649988055229187,
        -0.08619853109121323,
        0.004421251825988293,
        0.17215842008590698,
        -0.24814262986183167,
        0.056466083973646164,
        0.25733253359794617,
        -0.09675222635269165,
        0.1034596711397171,
        -0.029076900333166122,
        -0.1833256334066391,
        0.19286802411079407,
        0.2702072560787201,
        -0.01690438948571682,
        -0.1069524884223938,
        -0.27774778008461,
        0.10600395500659943,
        -0.09669829905033112,
        0.02777751535177231,
        0.2020251452922821,
        -0.005483668763190508,
        -0.12481975555419922,
        0.15211133658885956,
        0.022661220282316208,
        -0.09486465901136398,
        -0.01762176677584648,
        -0.03605106845498085,
        0.08556781709194183,
        0.12751120328903198,
        0.013219033367931843,
        0.19454079866409302,
        -0.10491616278886795,
        0.06274472922086716,
        0.11216919869184494,
        0.19777236878871918,
        0.051747821271419525,
        0.04826447367668152,
        0.05875860154628754,
        -0.0971364751458168,
        0.04976339265704155,
        0.0014554642839357257,
        -0.008495847694575787,
        0.007980446331202984,
        0.04984655603766441,
        0.05646659433841705,
        -0.14139144122600555,
        -0.2744554281234741,
        0.14764180779457092,
        0.04168126732110977,
        -0.09056533873081207,
        -0.20446564257144928,
        -0.09881048649549484,
        -0.013817941769957542,
        -0.07335777580738068,
        0.18716837465763092,
        -0.19512051343917847,
        -0.06975002586841583,
        0.2284833788871765,
        0.05865946412086487,
        -0.09943920373916626,
        -0.01814040169119835,
        0.008219621144235134,
        -0.012543149292469025,
        -0.021134745329618454,
        -0.029174011200666428,
        0.27585914731025696,
        0.04887836053967476,
        0.013510867953300476,
        0.1326676458120346,
        -0.23249326646327972,
        -0.013351913541555405,
        -0.004399574361741543,
        -0.03269258886575699,
        -0.01481171790510416,
        -0.17749838531017303,
        0.1614234894514084,
        -0.10474547743797302,
        0.023936646059155464,
        0.1272726058959961,
        0.055890459567308426,
        0.09747510403394699,
        0.09325049072504044,
        -0.05969472974538803,
        0.011763306334614754,
        0.00948208849877119,
        -0.049506280571222305,
        0.012188618071377277,
        -0.020507190376520157,
        -0.012445387430489063,
        -0.04302061349153519,
        -0.28032034635543823,
        0.056330036371946335,
        0.08603547513484955,
        -0.06062987074255943,
        -0.2901107966899872,
        0.27080002427101135,
        0.14547590911388397,
        0.03192233666777611,
        0.1047779992222786,
        -0.0067526837810873985,
        -0.05618028715252876,
        0.12267573922872543,
        0.02778801880776882,
        -0.08779381215572357,
        -0.07139170169830322,
        -0.04332771152257919,
        0.18826794624328613,
        -0.02166134864091873,
        -0.020058244466781616,
        0.15626955032348633,
        0.10171487927436829,
        -0.025449028238654137,
        0.023619187995791435,
        0.0047694602981209755,
        -0.20007461309432983,
        0.12393227964639664,
        0.10414335876703262,
        0.006966486573219299,
        -0.003920901101082563,
        -0.20240949094295502,
        -0.06400579959154129,
        0.2933996617794037,
        0.20995911955833435,
        -0.04264124110341072,
        0.03486054018139839,
        -0.007191866170614958,
        -0.10972949117422104,
        0.06467436254024506,
        0.05438084900379181,
        -0.027596017345786095,
        -0.07106494903564453,
        0.05612307786941528,
        0.126301571726799,
        -0.031815748661756516,
        0.004671737551689148,
        0.051919177174568176,
        -0.192658931016922,
        -0.049238421022892,
        0.17751704156398773,
        -0.08066272735595703,
        0.3652130663394928,
        -0.023949673399329185,
        -0.1784130036830902,
        0.10132946819067001,
        -0.15977714955806732,
        -0.07712909579277039,
        0.09552647918462753,
        0.05865596979856491,
        0.029057564213871956,
        -0.047252848744392395,
        -0.20325909554958344,
        -0.19106292724609375,
        0.14600682258605957,
        0.08464514464139938,
        0.016149936243891716,
        0.11616913229227066,
        0.08050944656133652,
        0.045106880366802216,
        0.16086533665657043,
        -0.10960182547569275,
        -0.02982139401137829,
        0.09947989135980606,
        -0.056090082973241806,
        0.0500563308596611,
        0.03374359756708145,
        0.0500301830470562,
        0.009878232143819332,
        0.09438759088516235,
        -0.21631883084774017,
        -0.038310758769512177,
        0.14338867366313934,
        0.1650448739528656,
        -0.39453840255737305,
        0.0015438273549079895,
        0.022361118346452713,
        -0.250395268201828,
        -0.11577455699443817,
        -0.017107881605625153,
        -0.0332157202064991,
        -0.23737208545207977,
        -0.0972595065832138,
        0.020825976505875587,
        -0.11044473946094513,
        -0.03439747914671898,
        0.15798579156398773,
        0.0278317891061306,
        -0.23807640373706818,
        0.09303249418735504,
        0.1038651317358017,
        -0.07849306613206863,
        0.15956880152225494,
        0.07522919774055481,
        0.04697774723172188,
        -0.008429366163909435,
        -0.023762445896863937,
        -0.23391418159008026,
        -0.14322389662265778,
        -0.0835636779665947,
        -0.06683649867773056,
        -0.01647871918976307,
        0.005133491009473801,
        0.08233756572008133,
        0.10381549596786499,
        -0.10001665353775024,
        0.24882157146930695,
        0.06442002207040787,
        0.02225462719798088,
        0.24698176980018616,
        -0.09554991126060486,
        0.01581275835633278,
        -0.11028683185577393,
        -0.09641458094120026,
        -0.05607079342007637,
        0.1845601350069046,
        -0.11940915882587433,
        0.20115843415260315,
        -0.1876383274793625,
        -0.06314835697412491,
        -0.036215800791978836,
        0.11839859187602997,
        -0.0035431073047220707,
        0.1425165981054306,
        0.014954779297113419,
        0.1034182533621788,
        -0.0031731403432786465,
        0.01146436482667923,
        0.145879864692688,
        -0.31356823444366455,
        -0.0347922183573246,
        0.009529662318527699,
        0.12778757512569427,
        -0.1522810459136963,
        0.061240505427122116,
        0.024794846773147583,
        0.03620424494147301,
        0.0756293386220932,
        -0.44089066982269287,
        0.01903773657977581,
        0.22286468744277954,
        -0.301783949136734,
        0.06686688959598541,
        -0.0860133171081543,
        0.0768241435289383,
        0.025066208094358444,
        0.003251631511375308,
        0.005726234056055546,
        -0.03863155469298363,
        0.08810766786336899,
        -0.014178505167365074,
        -0.007603187579661608,
        0.10323430597782135,
        -0.09208737313747406,
        -0.10209866613149643,
        0.023382999002933502,
        -0.3231598734855652,
        -0.010142605751752853,
        0.12376128137111664,
        -0.09384964406490326,
        -0.0678037479519844,
        0.005188750568777323,
        -0.08677804470062256,
        0.14194922149181366,
        -0.0038664229214191437,
        0.1599803864955902,
        -0.05073536932468414,
        -0.13811883330345154,
        0.05401092767715454,
        0.05120328813791275,
        0.05366469547152519,
        -0.12911362946033478,
        -0.15653760731220245,
        -0.03861501067876816,
        -0.15753047168254852,
        -0.05404769629240036,
        0.12956662476062775,
        -0.1873144507408142,
        -0.0657382383942604,
        0.09262803196907043,
        -0.03556730970740318,
        -0.03872884437441826,
        -0.07570430636405945,
        -0.07196304202079773,
        0.13611263036727905,
        0.11916923522949219,
        0.04056119918823242,
        -0.09820515662431717,
        -0.14084003865718842,
        0.04620099812746048,
        0.07985284924507141,
        0.0681210607290268,
        0.16178132593631744,
        -0.04937191307544708,
        0.008017170242965221,
        -0.0005920217954553664,
        0.14116929471492767,
        -0.1330941617488861,
        -0.02261759527027607,
        -0.16934537887573242,
        -0.19742129743099213,
        0.21550598740577698,
        -0.14986464381217957,
        -0.04205573722720146,
        0.021101422607898712,
        -0.022805452346801758,
        -0.024298248812556267,
        0.0486929677426815,
        0.07286667078733444,
        -0.15370500087738037,
        0.13294416666030884,
        0.13626688718795776,
        0.0038128856103867292,
        0.05742373690009117,
        -0.011411350220441818,
        0.010953889228403568,
        0.02914424054324627,
        -0.05419471487402916,
        0.12896929681301117,
        -0.38465771079063416,
        0.03729485347867012,
        0.014374172315001488,
        0.11149768531322479,
        0.0344027616083622,
        -0.07676924020051956,
        0.07052977383136749,
        -0.019143885001540184,
        -0.07532422989606857,
        -0.15475940704345703,
        0.19397664070129395,
        -0.051662418991327286,
        -0.06825161725282669,
        -0.17740216851234436,
        -0.10863298177719116,
        -0.12939783930778503,
        -0.08824153989553452,
        -0.028534317389130592,
        0.09832464158535004,
        0.06675281375646591,
        -0.026530563831329346,
        0.07985812425613403,
        -0.09930294007062912,
        -0.05746089667081833,
        0.04557625204324722,
        0.2392517477273941,
        -0.006489838473498821,
        -0.03906112536787987,
        -0.11332008242607117,
        0.019330419600009918,
        -0.006771356798708439,
        -0.09098531305789948,
        -0.2418925017118454,
        0.13270294666290283,
        -0.0584365539252758,
        0.05165344849228859,
        0.15742114186286926,
        -0.07690829038619995,
        0.07246185094118118,
        -0.1318577080965042,
        -0.25670626759529114,
        0.04012242332100868,
        0.003235007170587778,
        0.03713354840874672,
        0.11145919561386108,
        -0.2051200568675995,
        0.07102576643228531,
        0.008961488492786884,
        0.1127488911151886,
        -0.04023883119225502,
        -0.014501753263175488,
        -0.13899561762809753,
        0.018935227766633034,
        0.020830081775784492,
        -0.0044279745779931545,
        -0.10980788618326187,
        -0.04920310899615288,
        0.20400506258010864,
        0.13428297638893127,
        0.0029693259857594967,
        0.017755797132849693,
        -0.1523607075214386,
        -0.04923242703080177,
        -0.0001402277557644993,
        0.07210773229598999,
        -0.04938561096787453,
        -0.13238297402858734,
        0.22327005863189697,
        -0.15023007988929749,
        0.08840979635715485,
        0.030232181772589684,
        -0.08558373898267746,
        0.18963393568992615,
        0.07592973113059998,
        -0.18653222918510437,
        -0.020811570808291435,
        0.08230934292078018,
        -0.20383045077323914,
        0.22961966693401337,
        -0.11693021655082703,
        0.008531480096280575,
        -0.05155901983380318,
        0.08444391936063766,
        0.05706004425883293,
        -0.09295539557933807,
        -0.102973073720932,
        0.23225504159927368,
        0.06574133783578873,
        -0.06283711642026901,
        0.13240277767181396,
        -0.04794881120324135,
        -0.1871580183506012,
        -0.11955767124891281,
        0.05168341100215912,
        0.04116686433553696,
        0.15334324538707733,
        -0.013308736495673656,
        -0.29814884066581726,
        0.1876468062400818,
        0.12333088368177414,
        0.030181288719177246,
        -0.15726038813591003,
        0.13731618225574493,
        0.11204337328672409,
        -7.192515477072448e-05,
        0.1748885214328766,
        -0.12904250621795654,
        -0.19013868272304535,
        -0.0028182619716972113,
        0.11526206135749817,
        0.04875468090176582,
        0.0642099529504776,
        -0.03005882166326046,
        0.2069183588027954,
        -0.23376601934432983,
        0.002641868544742465,
        -0.02696947008371353,
        -0.06989077478647232,
        0.053979646414518356,
        0.016680719330906868,
        0.03004412353038788,
        0.1002235934138298,
        -0.07942910492420197,
        -0.23292487859725952,
        0.03153037279844284,
        -0.011071713641285896,
        0.11971673369407654,
        -0.3831854462623596,
        0.028393883258104324,
        0.0013372759567573667,
        -0.09417332708835602,
        0.10595914721488953,
        -0.012527338229119778,
        -0.0192861445248127,
        0.08377072960138321,
        0.03546397387981415,
        -0.03195861726999283,
        0.14569994807243347,
        -0.09152738004922867,
        -0.23480133712291718,
        -0.052489735186100006,
        0.12826162576675415,
        0.01629784144461155,
        0.3787408769130707,
        0.0499052032828331,
        0.07572667300701141,
        -0.14552123844623566,
        -0.12801317870616913,
        -0.15338508784770966,
        -0.18348434567451477,
        -0.1382882297039032,
        -0.1623275876045227,
        -0.047840677201747894,
        -0.18813510239124298,
        0.10768582671880722,
        0.14728155732154846,
        0.006913995370268822,
        0.030749445781111717,
        0.18681550025939941,
        0.26237812638282776,
        -0.05292092263698578,
        0.015215153805911541,
        -0.12153101712465286,
        0.06897774338722229,
        -0.2914591133594513,
        0.084833525121212,
        0.016593733802437782,
        -0.06444425135850906,
        0.2320859730243683,
        0.061044130474328995,
        0.10453521460294724,
        0.030651262030005455,
        0.02329542115330696,
        0.03959910199046135,
        -0.06051769480109215,
        0.032633714377880096,
        0.1567457616329193,
        -0.24397791922092438,
        -0.1503746658563614,
        0.17320454120635986,
        0.04526205733418465,
        -0.2593672573566437,
        0.12066268920898438,
        0.1437273621559143,
        -0.031769413501024246,
        -0.06807852536439896,
        -0.08572307974100113,
        -0.07880065590143204,
        0.03423583135008812,
        0.09948986023664474,
        -0.1307227909564972,
        0.011411815881729126,
        -0.05566088855266571,
        0.07352753728628159,
        -0.0503273606300354,
        0.1271456778049469,
        0.1079644113779068,
        0.02565782517194748,
        0.008484244346618652,
        0.031746674329042435,
        -0.05271124094724655,
        -0.07783791422843933,
        0.10938730835914612,
        -0.030666572973132133,
        -0.010277141816914082,
        -0.1638311892747879,
        -0.13571512699127197,
        0.21976324915885925,
        -0.22811846435070038,
        0.10623357445001602,
        -0.012847351841628551,
        0.0444394126534462,
        0.037910327315330505,
        0.18557941913604736,
        -0.21628940105438232,
        -0.22859396040439606,
        0.09474353492259979,
        -0.017720069736242294,
        -0.007157220039516687,
        -0.1407051682472229,
        0.06420870870351791,
        0.20978474617004395,
        -0.07583858072757721,
        -0.22485628724098206,
        0.043270695954561234,
        0.16929875314235687,
        -0.13565392792224884,
        -0.03019411861896515,
        0.055279843509197235,
        -0.004357011988759041,
        0.022539053112268448,
        -0.08710762113332748,
        0.09117801487445831,
        0.008219346404075623,
        0.014927170239388943,
        0.2531702220439911,
        -0.06505509465932846,
        -0.04460570216178894,
        0.07183477282524109,
        0.11972329765558243,
        0.020852528512477875,
        -0.07893384248018265,
        -0.022243494167923927,
        -0.16807781159877777,
        0.10034774988889694,
        0.214039608836174,
        0.05706800892949104,
        0.0012239060597494245,
        -0.036087147891521454,
        0.07719659805297852,
        -0.10763037949800491,
        -0.1711471676826477,
        0.21529105305671692,
        -0.0036041969433426857,
        0.11692818254232407,
        -0.07917779684066772,
        -0.06924273818731308,
        0.09801653027534485,
        -0.07021556049585342,
        -0.011622972786426544,
        -0.02793063409626484,
        -0.2000740021467209,
        -0.12036889046430588,
        -0.1401885747909546,
        0.12534287571907043,
        -0.10450097918510437,
        0.15978319942951202,
        -0.12397827208042145,
        0.1410011649131775,
        0.05483296513557434,
        0.02026611752808094,
        0.06523274630308151,
        -0.030265703797340393,
        0.10180703550577164,
        0.010827505961060524,
        -0.0563431978225708,
        0.17408043146133423,
        -0.008662216365337372,
        -0.06816703081130981,
        0.05510912835597992,
        0.09356755018234253,
        -0.2137218862771988,
        0.0019932652357965708,
        0.15606236457824707,
        -0.0730883777141571,
        0.2079549878835678,
        -0.029629521071910858,
        -0.07274390757083893,
        -0.10984013974666595,
        -0.05408496409654617,
        0.016172869130969048,
        -0.050125155597925186,
        -0.29609206318855286,
        -0.015640920028090477,
        0.07933484762907028,
        0.015935342758893967,
        0.3185003399848938,
        0.07409493625164032,
        -0.05778472498059273,
        -0.01626734249293804,
        0.03362477198243141,
        -0.08445342630147934,
        0.042856015264987946,
        -0.08978114277124405,
        0.035871826112270355,
        0.018293658271431923,
        -0.03484312817454338,
        -0.11559589207172394,
        -0.04845033958554268,
        -0.059743549674749374,
        -0.020145921036601067,
        -0.01463245414197445,
        -0.02974596619606018,
        0.11640951782464981,
        -0.1559571623802185,
        -0.15834686160087585,
        0.07855023443698883,
        0.09102342277765274,
        0.0575241819024086,
        -0.4099682569503784,
        0.004631656222045422,
        -0.0057373796589672565,
        -0.03486543148756027,
        0.06387626379728317,
        0.1334223747253418,
        0.029942698776721954,
        0.023890266194939613,
        -0.06631436198949814,
        -0.0801658034324646,
        -0.0032551437616348267,
        0.26256871223449707,
        -0.01158100739121437,
        0.1279168277978897,
        -0.21136896312236786,
        -0.07196184247732162,
        -0.027603134512901306,
        -0.12400808185338974,
        0.10303855687379837,
        0.0043894629925489426,
        -0.16604463756084442,
        0.042596932500600815,
        0.06690602749586105,
        -0.1914900243282318,
        -0.3479037582874298,
        -0.05684807524085045,
        0.017964448779821396,
        -0.03893347084522247,
        -0.14115965366363525,
        0.058953069150447845,
        -0.21150968968868256,
        0.21379980444908142,
        0.11647390574216843,
        -0.060842473059892654,
        0.01754031516611576,
        -0.1536383330821991,
        -0.13334645330905914,
        0.13143084943294525,
        0.056916505098342896,
        0.009699756279587746,
        -0.04354165866971016,
        0.07935424894094467,
        0.21332839131355286,
        -0.15701214969158173,
        -0.265107125043869,
        0.11643487960100174,
        0.13725323975086212,
        -0.023316310718655586,
        0.04877476766705513,
        -0.03797324746847153,
        0.1585753858089447,
        -0.029398340731859207,
        0.04222763702273369,
        -0.26869577169418335,
        -0.09449528157711029,
        0.016813578084111214,
        -0.004574347287416458,
        0.18204019963741302,
        -0.14706939458847046,
        0.06748972088098526,
        0.001443655462935567,
        0.0807996541261673,
        0.18390801548957825,
        0.011786876246333122,
        0.06071002408862114,
        0.14655137062072754,
        0.07781235873699188,
        -0.14232668280601501,
        0.006100994069129229,
        0.029538165777921677,
        -0.28853344917297363,
        0.0460260733962059,
        0.13841594755649567,
        -0.017866602167487144,
        0.2277524769306183,
        -0.1862618774175644,
        0.031553272157907486,
        0.06658389419317245,
        0.11973255127668381,
        -0.09215600043535233,
        -0.1310746669769287,
        0.2112533003091812,
        0.14847628772258759,
        0.1335606873035431,
        -0.12233763188123703,
        0.18535062670707703,
        -0.027008559554815292,
        -0.19568327069282532,
        -0.22215266525745392,
        -0.13272646069526672,
        -0.17454004287719727,
        0.24461102485656738,
        0.1071457639336586,
        0.0388793870806694,
        0.04794708639383316,
        -0.2272765338420868,
        0.29530107975006104,
        -0.046986173838377,
        0.01903836615383625,
        -0.1127462163567543,
        -0.025161350145936012,
        0.06210252270102501,
        0.2986100912094116,
        -0.07284219563007355,
        -0.20609693229198456,
        0.04162940755486488,
        -0.11227455735206604,
        0.028960077092051506,
        -0.07127343863248825,
        0.06178863346576691,
        0.010832741856575012,
        0.18221145868301392,
        -0.0847068727016449,
        0.08369731903076172,
        0.22802208364009857,
        -0.144884392619133,
        -0.11167681962251663,
        -0.05868735536932945,
        0.2254858911037445,
        -0.1306980848312378,
        -0.19044585525989532,
        -0.07444043457508087,
        -0.013904053717851639,
        0.059050172567367554,
        0.010807311162352562,
        -0.015868516638875008,
        0.06520454585552216,
        0.0829121321439743,
        -0.10888759046792984,
        -0.0986131951212883,
        0.2714109420776367,
        -0.07955276221036911,
        0.16495876014232635,
        -0.027785632759332657,
        -0.07123570889234543,
        0.026250360533595085,
        -0.04654599726200104,
        -0.12940023839473724,
        -0.1646389365196228,
        0.09299156814813614,
        0.0980418249964714,
        -0.15606562793254852,
        0.08590682595968246,
        0.11225466430187225,
        0.10594754666090012,
        -0.03532164916396141,
        -0.05299766734242439,
        0.06478504091501236,
        -0.048617735505104065,
        -0.09442765265703201,
        0.03704151511192322,
        -0.01283310353755951,
        -0.09534039348363876,
        -0.13831372559070587,
        0.024014350026845932,
        -0.018937256187200546,
        0.11859647929668427,
        0.3373662233352661,
        -0.07750345021486282,
        0.08306647837162018,
        0.0006343627464957535,
        -0.028955092653632164,
        0.13397368788719177,
        -0.13823725283145905,
        0.09212518483400345,
        -0.030483782291412354,
        0.001651501515880227,
        -0.051200054585933685,
        0.009072942659258842,
        0.17545738816261292,
        -0.15880288183689117,
        0.13860009610652924,
        0.085940420627594,
        -0.050064846873283386,
        -0.37760186195373535,
        0.12489566951990128,
        0.17329497635364532,
        0.07781945914030075,
        0.13758112490177155,
        -0.1559692621231079,
        0.04731312766671181,
        0.1155126541852951,
        -0.023186251521110535,
        -0.10406330972909927,
        0.08434680849313736,
        0.055642999708652496,
        0.12985435128211975,
        -0.24644851684570312,
        0.07020273059606552,
        0.07619486004114151,
        0.003709101350978017,
        0.10592564195394516,
        -0.2984940707683563,
        -0.05811623856425285,
        0.013381576165556908,
        0.07373598963022232,
        0.019099123775959015,
        -0.07101429998874664,
        -0.02318088337779045,
        -0.007569003384560347,
        0.03412550315260887,
        -0.17139770090579987,
        -0.033257950097322464,
        0.08290168642997742,
        -0.09141089022159576,
        0.17937029898166656,
        -0.49038422107696533,
        0.2236095666885376,
        0.15628716349601746,
        0.010966289788484573,
        0.11117718368768692,
        0.05812043696641922,
        -0.13890504837036133,
        -0.06693045049905777,
        -0.061873868107795715,
        0.009238781407475471,
        0.006172921974211931,
        -0.048367977142333984,
        -0.04494006931781769,
        0.08879688382148743,
        0.04491732269525528,
        0.002014143392443657,
        -0.2897492051124573,
        0.06715057790279388,
        0.149974063038826,
        0.21943418681621552,
        0.15273866057395935,
        -0.04156792536377907,
        0.009538778103888035,
        0.1859540194272995,
        -0.13613273203372955,
        0.050589002668857574,
        -0.004111627582460642,
        0.03346710652112961,
        -0.13317185640335083,
        0.026522308588027954,
        -0.2175295054912567,
        -0.3376445770263672,
        0.0860752984881401,
        0.0047517442144453526,
        0.05435057356953621,
        -0.002279754262417555,
        -0.09229422360658646,
        0.117617666721344,
        -0.014426346868276596,
        0.14073912799358368,
        -0.07062558084726334,
        0.07710064947605133,
        -0.004239010624587536,
        0.077864870429039,
        0.0795728787779808,
        -0.09270178526639938,
        -0.042238425463438034,
        -0.3379608690738678,
        0.011073917150497437,
        -0.07653344422578812,
        0.0812012106180191,
        -0.013860744424164295,
        -0.20002295076847076,
        0.13970430195331573,
        0.09868063777685165,
        -0.008259623311460018,
        0.09775269776582718,
        -0.07200101763010025,
        0.022468697279691696,
        0.03201982006430626,
        0.09301148355007172,
        0.057189036160707474,
        0.24913008511066437,
        0.036031272262334824,
        0.1612010896205902,
        -0.04521656408905983,
        -0.2397003471851349,
        0.08796572685241699,
        0.15230773389339447,
        -0.1374797374010086,
        -0.24582567811012268,
        0.003675171174108982,
        0.1631920039653778,
        0.006510690785944462,
        0.0322844535112381,
        0.019232377409934998,
        0.12373600155115128,
        -0.15062473714351654,
        -0.07842041552066803,
        0.10679484158754349,
        -0.14146587252616882,
        0.135747492313385,
        -0.08292796462774277,
        -0.02784683369100094,
        -0.1538631170988083,
        0.07865938544273376,
        0.0016343367751687765,
        0.01544999424368143,
        -0.1274169385433197,
        -0.13979269564151764,
        -0.08031851053237915,
        -0.19140061736106873,
        0.129469633102417,
        -0.16575348377227783,
        0.16881893575191498,
        0.04932321608066559,
        -0.005976908840239048,
        0.027310695499181747,
        -0.1041916236281395,
        0.28724920749664307,
        -0.18703128397464752,
        0.14628593623638153,
        -0.060040704905986786,
        -0.04947365075349808,
        -0.09522433578968048,
        0.24122057855129242,
        -0.19629423320293427,
        0.12175458669662476,
        0.05952928587794304,
        -0.09033744037151337,
        -0.027171775698661804,
        0.03193839639425278,
        -0.1960323601961136,
        -0.01595408283174038,
        0.05747303366661072,
        0.09051304310560226,
        -0.010732468217611313,
        -0.005232879891991615,
        0.04380715638399124,
        0.0799582302570343,
        0.1536732167005539,
        -0.1920277178287506,
        0.09270124137401581,
        0.06063602864742279,
        0.061223823577165604,
        -0.08049313724040985,
        0.011515761725604534,
        -0.013150909915566444,
        -0.2999880313873291,
        0.12387624382972717,
        0.18208003044128418,
        -0.19509045779705048,
        -0.051183875650167465,
        0.1249326542019844,
        -0.03467811644077301,
        0.24185587465763092,
        0.018254075199365616,
        0.029089197516441345,
        -0.05208830535411835,
        -0.32946354150772095,
        -0.1219019964337349,
        -0.0920468121767044,
        -0.0021735713817179203,
        0.04138226807117462,
        0.11626351624727249,
        0.043630413711071014,
        -0.016012221574783325,
        0.03778070956468582,
        0.09080725163221359,
        0.08605673164129257,
        -0.03410661593079567,
        -0.16384321451187134,
        -0.15976963937282562,
        0.09349161386489868,
        0.03941427543759346,
        -0.045117881149053574,
        -0.08583417534828186,
        -0.1710616499185562,
        0.1209946870803833,
        0.07241757959127426,
        0.004101080819964409,
        0.14090681076049805,
        -0.1106712594628334,
        0.4037083685398102,
        0.1424502730369568,
        -0.04233163222670555,
        -0.11295615881681442,
        0.11981793493032455,
        0.008833718486130238,
        -0.12600909173488617,
        0.13817447423934937,
        0.17441146075725555,
        -0.057829927653074265,
        0.09542853385210037,
        0.08393419533967972,
        0.05364777520298958,
        0.18020470440387726,
        -0.09584520012140274,
        -0.2367570996284485,
        0.1033846065402031,
        0.2905341386795044,
        0.05032975226640701,
        0.1380835920572281,
        -0.032811228185892105,
        -0.09395996481180191,
        -0.18833985924720764,
        -0.021402951329946518,
        0.26181572675704956,
        0.05037577450275421,
        -0.08247527480125427,
        0.21678730845451355,
        -0.12077745050191879,
        0.008489704690873623,
        0.1670360565185547,
        0.15434332191944122,
        0.04337909445166588,
        0.11565406620502472,
        -0.16633360087871552,
        0.009330733679234982,
        -0.15863341093063354,
        -0.3628433644771576,
        0.05972830951213837,
        0.13072781264781952,
        -0.0768057256937027,
        0.17983566224575043,
        -0.08692744374275208,
        -0.07279468327760696,
        -0.20040655136108398,
        -0.025047611445188522,
        0.16411106288433075,
        0.02648427151143551,
        0.13335305452346802,
        -0.25014567375183105,
        0.14806441962718964,
        -0.2012999951839447,
        -0.03868418186903,
        0.13583682477474213,
        0.008326790295541286,
        0.040736887603998184,
        0.019311372190713882,
        0.012928936630487442,
        -0.078084297478199,
        0.05182233080267906,
        0.024355238303542137,
        0.004047589376568794,
        -0.09484490007162094,
        -0.0055069150403141975,
        -0.14599627256393433,
        0.17887483537197113,
        0.1449107676744461,
        -0.11045878380537033,
        0.16001510620117188,
        -0.022519409656524658,
        -0.1548244208097458,
        0.01275805663317442,
        -0.04663297161459923,
        0.06012798845767975,
        0.03523331880569458,
        0.008361070416867733,
        0.10672148317098618,
        0.2629718482494354,
        -0.33084121346473694,
        0.16893112659454346,
        -0.03505013510584831,
        0.06467420607805252,
        -0.06148109212517738,
        -0.030781598761677742,
        -0.13241681456565857,
        0.13275133073329926,
        -0.1225019097328186,
        -0.24578294157981873,
        -0.12560734152793884,
        -0.06207672134041786,
        0.18766465783119202,
        -0.11557038128376007,
        -0.1472289115190506,
        0.07045027613639832,
        -0.10811176151037216,
        0.11334029585123062,
        0.10639312118291855,
        0.2510882318019867,
        -0.18976616859436035,
        -0.1509869545698166,
        0.13957159221172333,
        -0.11873061209917068,
        0.03604506701231003,
        0.01711488887667656,
        0.06786449253559113,
        -0.06514208018779755,
        0.05661938712000847,
        -0.1829410195350647,
        0.12261097878217697,
        0.09405551105737686,
        0.06805852800607681,
        -0.051136694848537445,
        0.016056528314948082,
        0.03400377929210663,
        -0.12974928319454193,
        -0.0048713102005422115,
        -0.07007470726966858,
        0.06773169338703156,
        0.037637751549482346,
        -0.008806738071143627,
        -0.1591883897781372,
        0.22358424961566925,
        -0.020894113928079605,
        -0.02759617753326893,
        0.041734371334314346,
        -0.19446928799152374,
        0.16982948780059814,
        0.1774974912405014,
        -0.01604175753891468,
        0.08579608052968979,
        -0.14092938601970673,
        -0.14836136996746063,
        0.15774451196193695,
        -0.02256162278354168,
        -0.1148076206445694,
        0.015278404578566551,
        0.11980701982975006,
        -0.2982686460018158,
        0.03281004726886749,
        0.10974103957414627,
        0.0430738590657711,
        0.11963281035423279,
        -0.043327923864126205,
        -0.019788244739174843,
        0.078063003718853,
        -0.011157380416989326,
        0.2812226116657257,
        -0.1791151612997055,
        -0.13256412744522095,
        -0.1095113605260849,
        -0.011349941603839397,
        0.03643409162759781,
        0.01469830609858036,
        -0.028138596564531326,
        -0.06954654306173325,
        0.03526884317398071,
        0.00041143083944916725,
        -0.13588805496692657,
        0.22045516967773438,
        -0.16181208193302155,
        0.32168492674827576,
        0.030466174706816673,
        0.1084364503622055,
        -0.05860524997115135,
        0.09160330891609192,
        0.04449571296572685,
        0.09750176966190338,
        -0.21178215742111206,
        0.135182723402977,
        0.14148405194282532,
        -0.03887117654085159,
        -0.27527981996536255,
        0.1112964004278183,
        0.027825603261590004,
        0.04718291386961937,
        0.029207248240709305,
        0.06737963110208511,
        0.06583992391824722,
        0.12840679287910461,
        0.0664423406124115,
        0.03210574388504028,
        0.04574447497725487,
        -0.14575374126434326,
        -0.2688845098018646,
        0.057714514434337616,
        -0.1515355408191681,
        0.16959086060523987,
        0.07245747745037079,
        0.05365076661109924,
        -0.14201541244983673,
        0.1345634013414383,
        0.01709938608109951,
        0.18209350109100342,
        -0.06495276093482971,
        0.19947144389152527,
        0.09023883193731308,
        0.013708831742405891,
        0.11682885140180588,
        -0.08272701501846313,
        -0.17406882345676422,
        -0.044158414006233215,
        -0.06014310196042061,
        0.10735397785902023,
        -0.2254905104637146,
        -0.12643051147460938,
        -0.08419155329465866,
        0.19136136770248413,
        0.08152588456869125,
        0.04470985010266304,
        0.010272223502397537,
        0.15761247277259827,
        -0.12034764885902405,
        0.30297279357910156,
        -0.12788014113903046,
        0.08308836072683334,
        0.007593615911900997,
        -0.08481588959693909,
        0.10082270205020905,
        -0.12323746085166931,
        0.031563445925712585,
        -0.20310886204242706,
        0.012133540585637093,
        -0.016871873289346695,
        0.0054497625678777695,
        -0.05419014021754265,
        0.2843942940235138,
        -0.03630621358752251,
        0.04016835242509842,
        -0.017163893207907677,
        -0.17457474768161774,
        0.09460920840501785,
        0.004427136387676001,
        -0.0455838143825531,
        -0.11888352036476135,
        -0.10173062980175018,
        0.1404639631509781,
        0.026312563568353653,
        -0.16313767433166504,
        -0.22376811504364014,
        -0.01413935236632824,
        0.017155472189188004,
        0.07246118783950806,
        0.21782203018665314,
        0.0027815517969429493,
        0.1330549716949463,
        0.1499430388212204,
        -0.1251741647720337,
        -0.23472283780574799,
        0.09735107421875,
        -0.12208569049835205,
        0.06865216791629791,
        -0.052770402282476425,
        0.08081123232841492,
        0.06840424239635468,
        -0.040015920996665955,
        -0.022738141939044,
        0.2246210128068924,
        0.17433100938796997,
        0.06796403229236603,
        0.06380835920572281,
        -0.09606260806322098,
        0.04697572812438011,
        -0.040214646607637405,
        -0.08425990492105484,
        0.13818436861038208,
        0.04429148882627487,
        -0.06319206207990646,
        0.11361376941204071,
        -0.0030225764494389296,
        0.2275770604610443,
        -0.10771346092224121,
        0.19025349617004395,
        -0.050218045711517334,
        -0.03305000811815262,
        -0.20225949585437775,
        0.06673087924718857,
        -0.019298138096928596,
        -0.23554033041000366,
        -0.18410034477710724,
        0.12102813273668289,
        -0.07343550026416779,
        -0.023705793544650078,
        -0.08045493811368942,
        0.13876011967658997,
        0.017651695758104324,
        -0.06785964965820312,
        0.029488759115338326,
        -0.21728460490703583,
        0.05319967120885849,
        0.19250884652137756,
        -0.11634331941604614,
        0.012152132578194141,
        -0.17715884745121002,
        -0.10365454107522964,
        0.028912430629134178,
        -0.0055205198004841805,
        0.033028341829776764,
        -0.14436553418636322,
        -0.0659705325961113,
        0.1489139199256897,
        0.04384417086839676,
        -0.12208148837089539,
        -0.2296704351902008,
        -0.05762621387839317,
        0.038144420832395554,
        0.009101459756493568,
        -0.014302280731499195,
        0.05205424502491951,
        -0.012327623553574085,
        -0.1712498515844345,
        0.25370079278945923,
        -0.39924120903015137,
        -0.05733779817819595,
        0.1176072433590889,
        -0.0400756411254406,
        0.04578946530818939,
        0.023375296965241432,
        -0.04951475188136101,
        0.06458235532045364,
        -0.12726496160030365,
        0.17719170451164246,
        0.05707509070634842,
        -0.1860039234161377,
        0.21889884769916534,
        -0.11092980206012726,
        -0.13141430914402008,
        0.22941508889198303,
        -0.2603716254234314,
        0.0165682565420866,
        -0.15317432582378387,
        0.12808209657669067,
        -0.04672881215810776,
        0.06342720240354538,
        -0.060493968427181244,
        -0.006310092750936747,
        0.0550277903676033,
        0.08297879248857498,
        -0.022996457293629646,
        -0.037765905261039734,
        -0.06889483332633972,
        -0.05424484610557556,
        0.21671779453754425,
        -0.19433289766311646,
        -0.18864543735980988,
        0.0598253533244133,
        0.038539282977581024,
        0.012705400586128235,
        0.11922676116228104,
        -0.021654536947607994,
        0.054378941655159,
        -0.11453403532505035,
        -0.1958501935005188,
        0.0202176496386528,
        0.20890949666500092,
        -0.05177957937121391,
        -0.2692384123802185,
        0.1724940687417984,
        -0.1013786792755127,
        -0.16627676784992218,
        0.0837256982922554,
        0.050255317240953445,
        0.09222938865423203,
        -0.012153222225606441,
        0.05601618438959122,
        0.0987158864736557,
        0.11731576174497604,
        -0.03187562897801399,
        0.09515517950057983,
        -0.020582450553774834,
        0.06391849368810654,
        -0.016085753217339516,
        0.06747964769601822,
        0.03154736012220383,
        0.20801138877868652,
        -0.19054855406284332,
        -0.21310241520404816,
        -0.09720347076654434,
        -0.08649666607379913,
        0.19350534677505493,
        0.11193051189184189,
        0.09210114181041718,
        0.12684541940689087,
        -0.0048141167499125,
        -0.18071019649505615,
        0.11118806898593903,
        -0.048865050077438354,
        -0.2672879099845886,
        -0.06604761630296707,
        0.13891193270683289,
        -0.01775503344833851,
        0.23281925916671753,
        -0.10752584785223007,
        0.11099141836166382,
        0.05299077928066254,
        0.0042558396235108376,
        -0.13339467346668243,
        0.02978203445672989,
        0.15174564719200134,
        -0.05916164442896843,
        0.13570475578308105,
        -0.07228139042854309,
        0.20376083254814148,
        -0.39200666546821594,
        0.13175207376480103,
        -0.033177368342876434,
        -0.013959113508462906,
        -0.05731160193681717,
        -0.017672210931777954,
        0.00035363214556127787,
        -0.20150358974933624,
        -0.09063959866762161,
        -0.04750512167811394,
        0.022740783169865608,
        0.023140938952565193,
        0.09095983952283859,
        -0.06768280267715454,
        0.03767472878098488,
        0.17883752286434174,
        0.02410922199487686,
        -0.11736966669559479,
        -0.038767628371715546,
        -0.17075204849243164,
        0.10714781284332275,
        0.05786965414881706,
        -0.058851711452007294,
        0.1717941164970398,
        0.018666865304112434,
        0.14780355989933014,
        -0.02279878780245781,
        0.06977956742048264,
        -0.027753647416830063,
        -0.2861873507499695,
        -0.015753010287880898,
        0.21023783087730408,
        0.12798136472702026,
        -0.2832956314086914,
        0.22685012221336365,
        -0.10679581016302109,
        -0.15482869744300842,
        0.022922875359654427,
        -0.09086275100708008,
        -0.0699116662144661,
        -0.017859740182757378,
        0.19450566172599792,
        -0.06830690056085587,
        0.2403765469789505,
        -0.17353644967079163,
        0.1267775297164917,
        0.05755848437547684,
        0.19225603342056274,
        -0.25945860147476196,
        -0.11795837432146072,
        0.12582586705684662,
        0.033901337534189224,
        -0.06559362262487411,
        -0.11275570839643478,
        -0.035948775708675385,
        -0.2573208510875702,
        -0.004809864796698093,
        0.048777732998132706,
        -0.04659182205796242,
        0.1796363890171051,
        -0.10900919884443283,
        -0.1643088161945343,
        -0.05855844169855118,
        0.03442703187465668,
        0.006829825229942799,
        0.04072723165154457,
        0.0523582324385643,
        0.05035973712801933,
        0.006230265833437443,
        -0.14058968424797058,
        0.1463714987039566,
        0.05477361008524895,
        0.014772196300327778,
        0.04745561629533768,
        -0.199871227145195,
        -0.30496105551719666,
        0.1334376037120819,
        -0.08930360525846481,
        0.0954032763838768,
        0.0742400586605072,
        0.15756262838840485,
        0.03571069985628128,
        0.044010065495967865,
        -0.0431407168507576,
        -0.11174295842647552,
        -0.22819805145263672,
        0.21093913912773132,
        -0.22693994641304016,
        -0.12569338083267212,
        0.023334527388215065,
        0.08316949009895325,
        0.15386967360973358,
        0.16152194142341614,
        -0.10653703659772873,
        0.0566742904484272,
        -0.04997070133686066,
        0.15672051906585693,
        -0.22899340093135834,
        -0.12811782956123352,
        0.026933180168271065,
        -0.05807120352983475,
        0.10318911820650101,
        0.13809391856193542,
        -0.037971846759319305,
        -0.3217545449733734,
        0.1786690354347229,
        -0.08173222094774246,
        0.0012557331938296556,
        -0.049098528921604156,
        0.12025266140699387,
        0.07219966500997543,
        -0.1827985644340515,
        0.2702180743217468,
        -0.10368077456951141,
        0.06983449310064316,
        -0.0371953584253788,
        0.024056289345026016,
        -0.057011764496564865,
        -0.13591362535953522,
        -0.05558742210268974,
        -0.0033296351321041584,
        0.05822472274303436,
        -0.021074755117297173,
        -0.11410646885633469,
        0.08593185245990753,
        -0.03704877570271492,
        0.08955905586481094,
        0.16786439716815948,
        0.021453334018588066,
        -0.12748250365257263,
        -0.17202270030975342,
        -0.11833459138870239,
        -0.021911924704909325,
        -0.09489798545837402,
        0.1311674863100052,
        -0.03325706347823143,
        0.1120627224445343,
        0.08382802456617355,
        -0.012264234945178032,
        -0.17904464900493622,
        -0.05596121400594711,
        -0.10620465129613876,
        0.0656856819987297,
        -0.01833801344037056,
        0.12402458488941193,
        -0.32932817935943604,
        -0.07173563539981842,
        0.08101969212293625,
        -0.10763512551784515,
        0.09865996986627579,
        0.014680738560855389,
        0.026776714250445366,
        0.22295138239860535,
        0.06306565552949905,
        0.1606614589691162,
        -0.009518523700535297,
        0.002814503852277994,
        0.1737218052148819,
        -0.2171216756105423,
        -0.13869518041610718,
        0.17062495648860931,
        -0.13647913932800293,
        -0.022881025448441505,
        0.06450365483760834,
        -0.1600732058286667,
        -0.030338918790221214,
        0.15239138901233673,
        0.0021502904128283262,
        -0.20477524399757385,
        0.08734655380249023,
        -0.02808288298547268,
        0.17876897752285004,
        -0.13997617363929749,
        0.3130432069301605,
        -0.07022541761398315,
        0.017144858837127686,
        0.04188965633511543,
        0.09620139747858047,
        0.03355183079838753,
        0.09254094958305359,
        -0.1680402308702469,
        -0.09865279495716095,
        -0.15515606105327606,
        -0.0013090088032186031,
        0.06820203363895416,
        0.02293509617447853,
        0.04148140549659729,
        -0.003302070777863264,
        -0.28806543350219727,
        -0.03615904599428177,
        0.04910435155034065,
        0.15235686302185059,
        -0.038981929421424866,
        0.07385225594043732,
        0.020440800115466118,
        -0.10195580869913101,
        0.016367383301258087,
        0.013447655364871025,
        0.025983696803450584,
        -0.09409990906715393,
        0.06356791406869888,
        0.028731122612953186,
        -0.06672393530607224,
        -0.4258926510810852,
        0.05797020345926285,
        0.1250617355108261,
        -0.010323690250515938,
        -0.015139762312173843,
        0.03848135843873024,
        0.058055002242326736,
        -0.08944259583950043,
        -0.11460939049720764,
        0.1765657216310501,
        0.0438537523150444,
        -0.11793012917041779,
        0.07493401318788528,
        0.10593800246715546,
        -0.03581325709819794,
        0.027654655277729034,
        0.19337885081768036,
        0.008140897378325462,
        -0.22869211435317993,
        -0.07117927074432373,
        0.20903998613357544,
        -0.07279667258262634,
        -0.05112840607762337,
        -0.03649483248591423,
        0.05636877939105034,
        -0.17734795808792114,
        -0.08954305946826935,
        -0.0011360913049429655,
        0.1594248116016388,
        -0.12313570082187653,
        -0.318193644285202,
        0.026257628574967384,
        -0.010010559111833572,
        0.036788277328014374,
        -0.025573711842298508,
        0.05564909428358078,
        -0.07324633747339249,
        -0.16765077412128448,
        -0.174758642911911,
        0.1121860072016716,
        0.04334377497434616,
        0.13525596261024475,
        -0.1486295759677887,
        -0.1259145736694336,
        0.11881396174430847,
        -0.018370455130934715,
        0.056437987834215164,
        -0.04793133959174156,
        -0.2442096620798111,
        0.006341340020298958,
        0.015232509933412075,
        0.1628548949956894,
        0.013391153886914253,
        0.03719997778534889,
        0.0010241919662803411,
        -0.07782481610774994,
        -0.11860351264476776,
        0.060740746557712555,
        -0.021288301795721054,
        -0.14559690654277802,
        0.007812853902578354,
        0.07764571160078049,
        -0.05364502966403961,
        0.28357771039009094,
        0.0603860504925251,
        -0.2611486315727234,
        0.05514240637421608,
        0.0898226648569107,
        -0.10592044144868851,
        -0.013262243010103703,
        0.0432373508810997,
        0.07692968100309372,
        -0.13576793670654297,
        0.15252064168453217,
        -0.4057525098323822,
        0.038477640599012375,
        0.066192626953125,
        -0.09885834902524948,
        0.23920339345932007,
        -0.15260057151317596,
        -0.005159573629498482,
        0.08838734775781631,
        0.03434654697775841,
        0.13967566192150116,
        -0.1607607752084732,
        0.06041951850056648,
        0.0688750222325325,
        -0.15221065282821655,
        0.03414352238178253,
        0.04460538178682327,
        -0.07052739709615707,
        0.29128628969192505,
        -0.1035393700003624,
        0.11141831427812576,
        -0.1441553831100464,
        -0.10085165500640869,
        0.019236654043197632,
        -0.15217356383800507,
        -0.05109580233693123,
        0.011171793565154076,
        0.03441358730196953,
        -0.07143335789442062,
        -0.19277115166187286,
        0.018618060275912285,
        -0.10260503739118576,
        0.04128379747271538,
        -0.014437509700655937,
        -0.038413941860198975,
        0.17985819280147552,
        -0.005097879562526941,
        -0.0846719741821289,
        -0.1194615289568901,
        0.010602876543998718,
        0.024466700851917267,
        -0.055151693522930145,
        -0.18596550822257996,
        -0.055443067103624344,
        -0.2043793648481369,
        0.12421958893537521,
        0.10771148651838303,
        0.17767956852912903,
        0.1459016054868698,
        0.12398140877485275,
        -0.05148017406463623,
        0.02041088044643402,
        0.04674568772315979,
        0.059270694851875305,
        0.08346667885780334,
        0.0962456539273262,
        -0.05968419089913368,
        -0.04417595639824867,
        0.19168083369731903,
        -0.0631621778011322,
        0.2642788887023926,
        -0.004711163230240345,
        0.0014613125240430236,
        0.14390604197978973,
        -0.06269129365682602,
        0.017547722905874252,
        -0.05248579755425453,
        -0.07797679305076599,
        -0.007104639895260334,
        -0.03498266264796257,
        -0.04246043786406517,
        0.11468630284070969,
        -0.09142687916755676,
        -0.1307704746723175,
        -0.16654765605926514,
        -0.06760742515325546,
        0.21339569985866547,
        -0.19140592217445374,
        -0.16723094880580902,
        -0.037933021783828735,
        0.05177281051874161,
        0.04535176232457161,
        -0.0305574219673872,
        -0.14512410759925842,
        0.13743451237678528,
        -0.1936884969472885,
        0.23764191567897797,
        0.013664417900145054,
        0.05780599266290665,
        -0.005027854815125465,
        0.007407980505377054,
        0.09120538085699081,
        0.1336314082145691,
        -0.11694858968257904,
        -0.07005565613508224,
        -0.022464020177721977,
        -0.23313720524311066,
        0.03180167078971863,
        0.22770047187805176,
        -0.32982975244522095,
        -0.05337858200073242,
        0.16716265678405762,
        0.02585788071155548,
        0.040343064814805984,
        0.03847059607505798,
        0.009496002458035946,
        -0.07438123226165771,
        -0.06896601617336273,
        0.12145525962114334,
        0.061836399137973785,
        0.18779878318309784,
        -0.14653219282627106,
        -0.008636744692921638,
        -0.056198377162218094,
        -0.0010753886308521032,
        -0.09777217358350754,
        -0.003330487757921219,
        -0.07671193033456802,
        -0.2974085211753845,
        0.08316875249147415,
        -0.035293664783239365,
        0.025673527270555496,
        0.012420457787811756,
        -0.13448172807693481,
        0.2025565505027771,
        0.0687534436583519,
        -0.0342203825712204,
        0.035272885113954544,
        -0.1981467306613922,
        -0.0963834896683693,
        -0.06467405706644058,
        -0.11347179859876633,
        -0.0583026297390461,
        0.12491472065448761,
        0.017873303964734077,
        0.20229703187942505,
        0.015888173133134842,
        -0.013969645835459232,
        -0.1412600874900818,
        -0.0030920286662876606,
        0.0440589115023613,
        0.023762337863445282,
        0.051512617617845535,
        0.027935625985264778,
        0.022663747891783714,
        -0.021359005942940712,
        0.034883975982666016,
        -0.01674124039709568,
        -0.06573086977005005,
        0.0044303820468485355,
        -0.0730045810341835,
        -0.4375557601451874,
        0.2008543610572815,
        0.12380567193031311,
        -0.014151488430798054,
        0.153708353638649,
        -0.24887658655643463,
        -0.2090979665517807,
        -0.1168707087635994,
        0.11254745721817017,
        0.04747819900512695,
        -0.13748520612716675,
        -0.023882195353507996,
        0.05775173753499985,
        -0.06363300234079361,
        -0.07856477051973343,
        -0.09675147384405136,
        0.11668550968170166,
        -0.036349065601825714,
        -0.05137895420193672,
        -0.01272113062441349,
        0.10575544089078903,
        -0.0079792570322752,
        -0.10302051901817322,
        -0.15163546800613403,
        -0.1214742362499237,
        -0.01350513007491827,
        -0.11220518499612808,
        -0.05754813924431801,
        -0.05736171454191208,
        0.22409465909004211,
        0.04792402312159538,
        -0.09822861105203629,
        -0.036609288305044174,
        0.10239133983850479,
        0.13389630615711212,
        -0.11386121809482574,
        -0.1583143174648285,
        0.10007726401090622,
        0.14946448802947998,
        0.08653746545314789,
        -0.2243124395608902,
        -0.1227838322520256,
        0.14870446920394897,
        0.01305077038705349,
        -0.08093255013227463,
        0.07013481855392456,
        -0.06597220152616501,
        0.06122107058763504,
        0.0010096740443259478,
        0.09426948428153992,
        0.19602103531360626,
        0.00562835019081831,
        -0.08279844373464584,
        0.04880880191922188,
        -0.015834204852581024,
        0.017528526484966278,
        -0.14522774517536163,
        0.046164944767951965,
        0.02259499579668045,
        0.20161332190036774,
        -0.07761698216199875,
        -0.03841568902134895,
        0.04888139292597771,
        -0.07639116048812866,
        0.013170192018151283,
        0.036494895815849304,
        0.2021719515323639,
        0.17748896777629852,
        0.11285492032766342,
        -0.0066652498207986355,
        -0.034320250153541565,
        0.08494016528129578,
        0.0897277295589447,
        -0.03582917898893356,
        -0.0030362848192453384,
        -0.011162909679114819,
        0.13996604084968567,
        -0.11647985130548477,
        -0.19436153769493103,
        0.02142014354467392,
        0.028571786358952522,
        0.049473751336336136,
        -0.2771182358264923,
        0.007124877069145441,
        -0.008349809795618057,
        -0.016011007130146027,
        -0.06929425150156021,
        0.0878872349858284,
        0.1304466277360916,
        -0.029596948996186256,
        0.10432018339633942,
        -0.21801556646823883,
        0.055496398359537125,
        -0.15225113928318024,
        -0.16022376716136932,
        0.12830382585525513,
        -0.12521658837795258,
        0.05236203223466873,
        -0.11216428875923157,
        -0.03867295756936073,
        0.14069126546382904,
        0.04030417278409004,
        -0.07458467036485672,
        0.06599576771259308,
        -0.04699739068746567,
        -0.07045300304889679,
        0.051556989550590515,
        0.021794142201542854,
        0.09260229021310806,
        -0.12290653586387634,
        -0.23791025578975677,
        -0.010017945431172848,
        0.06093263253569603,
        0.08031311631202698,
        -0.42763978242874146,
        0.024314284324645996,
        0.2214842289686203,
        -0.17952755093574524,
        -0.08503618836402893,
        -0.02876654826104641,
        -0.08874816447496414,
        -0.08602151274681091,
        -0.20595905184745789,
        -0.05972043052315712,
        -0.085776187479496,
        0.08665250241756439,
        0.09010369330644608,
        0.028243381530046463,
        0.00032626744359731674,
        0.12899722158908844,
        -0.3152308762073517,
        0.05382518470287323,
        0.0688004121184349,
        0.056498292833566666,
        -0.019027141854166985,
        -0.1431613713502884,
        0.03145160153508186,
        -0.013207020238041878,
        0.007900649681687355,
        0.21705102920532227,
        -0.08056694269180298,
        0.05334152653813362,
        -0.006114790681749582,
        -0.0016863916534930468,
        -0.29917171597480774,
        -0.018883025273680687,
        0.169082373380661,
        0.05989253893494606,
        0.09338219463825226,
        0.0006212828448042274,
        0.03938651829957962,
        0.004281471483409405,
        0.11186957359313965,
        0.04835399240255356,
        -0.01211031898856163,
        -0.02969934232532978,
        0.2138664424419403,
        -0.028198696672916412,
        -0.1731415092945099,
        0.029269268736243248,
        0.16609697043895721,
        0.06150231882929802,
        -0.20439468324184418,
        0.005281474441289902,
        0.23250311613082886,
        0.0056102643720805645,
        0.05095004290342331,
        0.04023272916674614,
        -0.09185949712991714,
        -0.02437780797481537,
        0.006096207536756992,
        -0.05051236227154732,
        0.10459788143634796,
        -0.10553852468729019,
        0.012603392824530602,
        -0.007034020964056253,
        -0.08323424309492111,
        -0.3151578903198242,
        0.00741221709176898,
        -0.021797705441713333,
        -0.18875887989997864,
        -0.17844422161579132,
        0.10871029645204544,
        -0.06018982455134392,
        -0.28509336709976196,
        -0.13244986534118652,
        0.18436072766780853,
        0.017652075737714767,
        -0.06024341657757759,
        -0.1264161765575409,
        0.1073741540312767,
        0.015394879505038261,
        -0.0819629430770874,
        0.014536269940435886,
        0.06450709700584412,
        0.011701401323080063,
        0.04211876541376114,
        0.1656126230955124,
        -0.00400700094178319,
        -0.03962589055299759,
        0.07111132144927979,
        -0.12494748830795288,
        0.010000099427998066,
        0.05552300810813904,
        0.044350724667310715,
        0.14203746616840363,
        0.026588181033730507,
        -0.018588371574878693,
        -0.2922588288784027,
        0.07762420177459717,
        0.030418891459703445,
        0.14651207625865936,
        0.11152220517396927,
        -0.029940124601125717,
        0.0365682989358902,
        0.04783244803547859,
        -0.0956602692604065,
        0.04575728997588158,
        0.024114180356264114,
        -0.004862381611019373,
        -0.015863630920648575,
        0.00019131085718981922,
        0.006489110644906759,
        -0.07319168001413345,
        -0.5422093868255615,
        0.290876179933548,
        0.12758931517601013,
        0.004267415497452021,
        0.132750004529953,
        -0.1359623670578003,
        0.038096833974123,
        0.23857983946800232,
        -0.01275632344186306,
        0.15786314010620117,
        -0.1196950227022171,
        -0.08994979411363602,
        -0.24248017370700836,
        0.04685565084218979,
        0.07192081958055496,
        -0.04449643939733505,
        -0.010045815259218216,
        0.08916491270065308,
        -0.08194059133529663,
        -0.020937809720635414,
        -0.215788334608078,
        0.07053277641534805,
        -0.10414689779281616,
        -0.09908265620470047,
        -0.12515874207019806,
        0.23772142827510834,
        -0.2807742655277252,
        0.10095574706792831,
        -0.1887563169002533,
        -0.06600027531385422,
        -0.05120747163891792,
        0.006663077045232058,
        0.06385357677936554,
        0.08802581578493118,
        -0.11480560153722763,
        -0.051714085042476654,
        -0.05710397660732269,
        -0.031101128086447716,
        0.17022386193275452,
        -0.12720437347888947,
        0.20473656058311462,
        -0.24041467905044556,
        -0.10184496641159058,
        -0.1298784762620926,
        0.07547004520893097,
        0.11764808744192123,
        -0.056650206446647644,
        -0.07528695464134216,
        0.12473556399345398,
        -0.06638040393590927,
        -0.17981958389282227,
        -0.00320266792550683,
        0.013587654568254948,
        0.1287468522787094,
        -0.07761882245540619,
        0.046479374170303345,
        -0.051501039415597916,
        -0.17085060477256775,
        0.17743171751499176,
        0.056982167065143585,
        0.06614626199007034,
        -0.14379309117794037,
        0.0819847583770752,
        0.039602503180503845,
        0.10401272773742676,
        0.16588415205478668,
        0.29753538966178894,
        -0.11776679754257202,
        0.16982731223106384,
        0.1231444925069809,
        0.03929995000362396,
        0.03120412304997444,
        0.02200358174741268,
        0.14399635791778564,
        0.05850809067487717,
        0.02887946367263794,
        0.048370398581027985,
        -0.11450105905532837,
        -0.288394570350647,
        -0.16575919091701508,
        0.23284782469272614,
        0.028013991191983223,
        0.13009241223335266,
        0.006295503117144108,
        -0.012447644956409931,
        0.18462315201759338,
        0.07244546711444855,
        0.10407031327486038,
        0.04185846447944641,
        -0.11314541101455688,
        -0.1645636260509491,
        -0.16240781545639038,
        0.04057415947318077,
        0.033274516463279724,
        0.0907273218035698,
        0.00746571272611618,
        0.13637633621692657,
        0.11120793223381042,
        -0.028693560510873795,
        -0.07279986143112183,
        0.07658039033412933,
        -0.07441464066505432,
        -0.18626582622528076,
        0.15957117080688477,
        -0.11525274068117142,
        -0.22419124841690063,
        -0.05508223921060562,
        0.12243743240833282,
        -0.11046096682548523,
        -0.02800385281443596,
        0.1174636036157608,
        0.04521089792251587,
        -0.18939948081970215,
        0.13490881025791168,
        0.1319326013326645,
        -0.007662763819098473,
        -0.23223526775836945,
        0.11003242433071136,
        0.008498342707753181,
        0.02042725309729576,
        -0.07281462848186493,
        0.16741637885570526,
        0.03279951959848404,
        0.03929436206817627,
        -0.26760104298591614,
        0.18166257441043854,
        -0.16154059767723083,
        -0.08527102321386337,
        -0.01887894980609417,
        -0.016067614778876305,
        0.010899869725108147,
        -0.022375265136361122,
        0.04639032855629921,
        -0.1176023781299591,
        -0.15623314678668976,
        -0.01367016788572073,
        -0.2376069724559784,
        0.25409120321273804,
        0.13370546698570251,
        -0.008212405256927013,
        0.0920092836022377,
        -0.11190526187419891,
        -0.20522762835025787,
        -0.009974682703614235,
        0.10694482177495956,
        -0.07826443016529083,
        0.017300643026828766,
        -0.1852562427520752,
        -0.17769010365009308,
        0.08380720019340515,
        -0.16409313678741455,
        0.012323531322181225,
        0.023852627724409103,
        -0.05988135561347008,
        -0.1210155114531517,
        0.3080664277076721,
        0.0717167779803276,
        0.043075960129499435,
        0.06843393296003342,
        -0.1971469521522522,
        -0.013669896870851517,
        -0.140512153506279,
        0.056782081723213196,
        -0.00747773377224803,
        0.07226385176181793,
        -0.06869041174650192,
        0.129805326461792,
        0.10160180926322937,
        -0.14278507232666016,
        0.053349435329437256,
        -0.019080769270658493,
        -0.15714234113693237,
        -0.11332027614116669,
        0.137654647231102,
        -0.051787398755550385,
        0.10552185773849487,
        -0.28487831354141235,
        0.08991042524576187,
        0.015635821968317032,
        -0.059251002967357635,
        0.1193733662366867,
        -0.028866365551948547,
        -0.007002341561019421,
        0.06424608081579208,
        -0.0038886002730578184,
        -0.1850787103176117,
        0.1505431979894638,
        -0.16605353355407715,
        -0.08054502308368683,
        0.11695913970470428,
        -0.016033684834837914,
        0.10662722587585449,
        -0.03854537755250931,
        0.13205145299434662,
        -0.1571149230003357,
        0.2180880755186081,
        -0.12957948446273804,
        0.10790159553289413,
        -0.0733097717165947,
        -0.12540055811405182,
        0.07431101053953171,
        0.030587011948227882,
        0.044535547494888306,
        -0.020551329478621483,
        0.11080776154994965,
        -0.04237590357661247,
        -0.00800899788737297,
        0.012513140216469765,
        -0.1575344204902649,
        0.14434771239757538,
        -0.20377960801124573,
        0.30315959453582764,
        0.18780474364757538,
        0.12997150421142578,
        -0.09273947030305862,
        -0.04100983589887619,
        -0.05179193615913391,
        -0.22741349041461945,
        0.07733383774757385,
        -0.05929991602897644,
        0.08892261981964111,
        -0.12344347685575485,
        -0.3250889182090759,
        -0.04928760603070259,
        0.013852836564183235,
        0.10700369626283646,
        0.03266670182347298,
        -0.1283329874277115,
        0.1891682893037796,
        -0.09142244607210159,
        0.09065697342157364,
        0.18065479397773743,
        -0.23798322677612305,
        0.08523775637149811,
        -0.05671260878443718,
        -0.035147473216056824,
        -0.1390647143125534,
        0.1006760448217392,
        -0.16653701663017273,
