{
  "input_sequences": [],
  "inputs": [
    {
      "name": "node_0",
      "variables": [
        {
          "name": "LeadingPt",
          "offset": 0,
          "scale": 1
        },
        {
          "name": "LeadingEta",
          "offset": 0,
          "scale": 1
        },
        {
          "name": "LeadingPhi",
          "offset": 0,
          "scale": 1
        },
        {
          "name": "LeadingBTag",
          "offset": 0,
          "scale": 1
        },
        {
          "name": "2LeadingPt",
          "offset": 0,
          "scale": 1
        },
        {
          "name": "2LeadingEta",
          "offset": 0,
          "scale": 1
        },
        {
          "name": "2LeadingPhi",
          "offset": 0,
          "scale": 1
        },
        {
          "name": "2LeadingBTag",
          "offset": 0,
          "scale": 1
        },
        {
          "name": "3LeadingPt",
          "offset": 0,
          "scale": 1
        },
        {
          "name": "3LeadingEta",
          "offset": 0,
          "scale": 1
        },
        {
          "name": "3LeadingPhi",
          "offset": 0,
          "scale": 1
        },
        {
          "name": "3LeadingBTag",
          "offset": 0,
          "scale": 1
        },
        {
          "name": "4LeadingPt",
          "offset": 0,
          "scale": 1
        },
        {
          "name": "4LeadingEta",
          "offset": 0,
          "scale": 1
        },
        {
          "name": "4LeadingPhi",
          "offset": 0,
          "scale": 1
        },
        {
          "name": "4LeadingBTag",
          "offset": 0,
          "scale": 1
        },
        {
          "name": "BTag1",
          "offset": 0,
          "scale": 1
        },
        {
          "name": "BTag2",
          "offset": 0,
          "scale": 1
        },
        {
          "name": "BTag3",
          "offset": 0,
          "scale": 1
        },
        {
          "name": "BTag4",
          "offset": 0,
          "scale": 1
        }
      ]
    }
  ],
  "layers": [
    {
      "activation": "rectified",
      "architecture": "dense",
      "bias": [
        0.051902055740356445,
        -0.14623203873634338,
        -0.08515232056379318,
        0.17711326479911804,
        0.06858233362436295,
        -0.0918111801147461,
        0.03145391866564751,
        -0.0203852616250515,
        -0.07117243111133575,
        0.02967236191034317,
        -0.13313362002372742,
        0.09196080267429352,
        -0.14095398783683777,
        -0.004489309620112181,
        -0.017764609307050705,
        -0.09447494894266129,
        -0.060452256351709366,
        0.06927364319562912,
        -0.0732727125287056,
        -0.000671195681206882,
        -0.01192841213196516,
        0.02786100097000599,
        0.022274862974882126,
        -0.07594992965459824,
        -0.019522279500961304,
        -0.05392216145992279,
        -0.11134084314107895,
        0.03354472666978836,
        0.0448886975646019,
        -0.016910100355744362,
        -0.11103850603103638,
        -0.07525622099637985,
        -0.026766803115606308,
        -0.07584996521472931,
        -0.10009945183992386,
        -0.1074867695569992,
        -0.012437170371413231,
        -0.021116938441991806,
        -0.039501722902059555,
        -0.07749081403017044,
        -0.030726687982678413,
        -0.11889491230249405,
        -0.09045269340276718,
        -0.06391767412424088,
        0.04150105267763138,
        0.0015489645302295685,
        0.042391132563352585,
        -0.08565426617860794,
        -0.04542594775557518,
        -0.10741171985864639,
        -0.0803145170211792,
        -0.0666789561510086,
        0.011519894935190678,
        1.562232500873506e-05,
        0.0017989086918532848,
        0.054137442260980606,
        0.03209332376718521,
        -0.09024587273597717,
        0.06322784721851349,
        -0.016199063509702682,
        -0.02114885300397873,
        0.00795789249241352,
        0.05213998630642891,
        -0.09739132970571518,
        0.07227393239736557,
        -0.05673598125576973,
        -0.1114262044429779,
        -0.012000169605016708,
        -0.08317794650793076,
        0.06511159986257553,
        -0.1101304441690445,
        -0.07495361566543579,
        0.007075115106999874,
        0.03233423829078674,
        0.019375551491975784,
        -0.08839039504528046,
        -0.053920213133096695,
        -0.06352481991052628,
        0.028413202613592148,
        -0.06080939248204231,
        0.03545983135700226,
        -0.005725851748138666,
        -0.033467814326286316,
        0.027502693235874176,
        0.008931591175496578,
        0.04418428987264633,
        -0.07871097326278687,
        -0.1528080701828003,
        0.0028844070620834827,
        -0.05466324836015701,
        -0.0013182447291910648,
        -0.10180498659610748,
        0.0036458796821534634,
        -0.04983267933130264,
        0.007751243654638529,
        -0.07334060221910477,
        -0.08579673618078232,
        -0.11026576161384583,
        0.02653650753200054,
        -0.041902776807546616,
        -0.12557724118232727,
        -0.08171646296977997,
        -0.03636440262198448,
        0.06812538206577301,
        -0.12217637151479721,
        -0.06407253444194794,
        0.002545509021729231,
        -0.10240514576435089,
        -0.0436771884560585,
        -0.027216479182243347,
        -0.032553255558013916,
        0.0019083810038864613,
        -0.10578075051307678,
        -0.15887552499771118,
        0.024624915793538094,
        0.04318490996956825,
        -0.03961648419499397,
        0.027059799060225487,
        -0.05686357244849205,
        -0.10242930054664612,
        -0.10035369545221329,
        -0.020105702802538872,
        -0.10728242248296738,
        0.007593882270157337,
        -0.07476839423179626,
        -0.050537109375,
        -0.05126477777957916,
        -0.0713043063879013,
        -0.0879061296582222,
        0.06352511048316956,
        -0.004395506344735622,
        0.01691022329032421,
        0.023324303328990936,
        -0.0010206550359725952,
        0.026827597990632057,
        -0.07045558840036392,
        0.030544625595211983,
        0.055065788328647614,
        -0.1642865687608719,
        0.005972519051283598,
        -0.029847215861082077,
        0.051539234817028046,
        -0.035539913922548294,
        -0.06935639679431915,
        -0.050698164850473404,
        -0.027232153341174126,
        0.001602025586180389,
        0.011886928230524063,
        -0.0981425940990448,
        -0.05858232080936432,
        -0.03773651272058487,
        -0.11020337045192719,
        -0.10658993571996689,
        -0.15257669985294342,
        -0.04212837666273117,
        -0.01558056939393282,
        0.07840778678655624,
        -0.1451021134853363,
        0.004112375900149345,
        0.01973266899585724,
        -0.1792917251586914,
        0.10173096507787704,
        0.07239676266908646,
        -0.04572448879480362,
        0.03929891437292099,
        -0.0019093261798843741,
        -0.06925854086875916,
        0.011392378248274326,
        -0.07910650968551636,
        0.04195629432797432,
        -0.05228721350431442,
        -0.05314994230866432,
        0.06343766301870346,
        -0.017103176563978195,
        -0.001658719964325428,
        -0.04716913402080536,
        -0.07631538808345795,
        0.01534502673894167,
        -0.09073881804943085,
        -0.021507352590560913,
        -0.11620041728019714,
        -0.060731980949640274,
        0.020217277109622955,
        0.09087339788675308,
        0.0585620291531086,
        -0.041535329073667526,
        -0.09555172920227051,
        -0.01825384981930256,
        0.015520931221544743,
        -0.04430728778243065,
        -0.06587795913219452,
        -0.07175446301698685,
        -0.02066565491259098,
        -0.04848352074623108,
        -0.043950583785772324,
        -0.009191928431391716,
        -0.033874593675136566,
        0.055474936962127686,
        0.03545745089650154,
        0.027355507016181946
      ],
      "weights": [
        0.02122989296913147,
        0.005373475141823292,
        -0.07441115379333496,
        -0.12370554357767105,
        -0.10414828360080719,
        0.0388028658926487,
        0.03849167376756668,
        0.09070219099521637,
        0.0781279057264328,
        0.0057962816208601,
        -0.14033764600753784,
        -0.1398649513721466,
        0.11982221901416779,
        0.1831868588924408,
        0.06636758893728256,
        -0.005615815985947847,
        0.13338588178157806,
        0.06031885743141174,
        0.21773289144039154,
        0.1700940579175949,
        0.04534657299518585,
        -0.03850795328617096,
        0.08586182445287704,
        0.0604773610830307,
        0.15661491453647614,
        0.04046858474612236,
        0.07071155309677124,
        -0.09425602108240128,
        0.21688035130500793,
        0.1839819848537445,
        0.04785904288291931,
        0.007432819344103336,
        0.052856869995594025,
        -0.2042543888092041,
        0.10368845611810684,
        -0.017626844346523285,
        -0.13757747411727905,
        0.08170413225889206,
        -0.0921759158372879,
        0.1588355153799057,
        0.07257718592882156,
        0.0665319412946701,
        -0.11755350232124329,
        0.059277888387441635,
        -0.19870150089263916,
        -0.2110683023929596,
        -0.07222427427768707,
        0.18423324823379517,
        0.06027626618742943,
        0.07877645641565323,
        -0.05033297464251518,
        -0.0483231283724308,
        0.2013564258813858,
        -7.999100489541888e-05,
        -0.07439373433589935,
        0.08324996381998062,
        -0.12398126721382141,
        0.2753666937351227,
        0.10461217164993286,
        -0.04760988801717758,
        -0.13343505561351776,
        0.0587771050632,
        -0.17105509340763092,
        -0.18111656606197357,
        0.11117060482501984,
        0.014824857003986835,
        -0.17934300005435944,
        0.16307449340820312,
        0.13355189561843872,
        0.11900661885738373,
        0.002361280843615532,
        0.016010593622922897,
        -0.03630058839917183,
        0.06786517798900604,
        -0.05710842087864876,
        0.2634931206703186,
        0.14182022213935852,
        0.07432739436626434,
        0.10298462957143784,
        0.20083872973918915,
        -0.24905574321746826,
        0.08975301682949066,
        -0.1098516583442688,
        0.10015447437763214,
        -0.10737628489732742,
        -0.11336474865674973,
        0.04204805567860603,
        0.23025858402252197,
        -0.050922829657793045,
        0.2623291313648224,
        0.009214452467858791,
        0.14750522375106812,
        -0.19608090817928314,
        0.16457350552082062,
        0.07135321199893951,
        0.002072990871965885,
        0.14461907744407654,
        0.131569504737854,
        0.1730552762746811,
        -0.1422351747751236,
        -0.002465916331857443,
        -0.03265621140599251,
        0.07127577811479568,
        -0.06700694561004639,
        0.16399668157100677,
        0.029429053887724876,
        0.06102919951081276,
        0.04524814337491989,
        -0.01048612967133522,
        0.017334945499897003,
        -0.03201628848910332,
        -0.15139737725257874,
        -0.1267521232366562,
        -0.14073272049427032,
        -0.06100824475288391,
        0.09225425869226456,
        -0.12484709173440933,
        -0.15028835833072662,
        -0.059285108000040054,
        -0.10091050714254379,
        0.15814512968063354,
        -0.031679898500442505,
        0.058251116424798965,
        0.32241806387901306,
        -0.007600664626806974,
        -0.22250230610370636,
        -0.005194725003093481,
        -0.06839239597320557,
        0.039302654564380646,
        -0.04605339840054512,
        0.12359017133712769,
        0.13217425346374512,
        0.09890299290418625,
        -0.00933192577213049,
        0.006427084095776081,
        0.04759697616100311,
        0.040667977184057236,
        -0.0005494622746482491,
        0.2199600636959076,
        0.3391108214855194,
        -0.13922730088233948,
        -0.0032639196142554283,
        -0.20540370047092438,
        -0.018303317949175835,
        0.13621942698955536,
        0.09543325006961823,
        -0.1205177903175354,
        0.05237094685435295,
        -0.0880359634757042,
        0.06461486220359802,
        0.193942129611969,
        -0.10061218589544296,
        -0.14502131938934326,
        -0.07580994069576263,
        -0.11152344942092896,
        -0.18937809765338898,
        -0.026144234463572502,
        0.1258535385131836,
        0.005438472609966993,
        0.011210882104933262,
        0.08209511637687683,
        -0.08784941583871841,
        0.05756290629506111,
        -0.09369281679391861,
        -0.08132229745388031,
        0.07126660645008087,
        0.13943980634212494,
        -0.10774825513362885,
        0.05661612004041672,
        0.044128015637397766,
        0.054840996861457825,
        -0.08110624551773071,
        -0.15300336480140686,
        -0.11516115069389343,
        -0.06810656189918518,
        -0.03699035197496414,
        -0.073792465031147,
        -0.1109321117401123,
        0.00012428485206328332,
        -0.07809831947088242,
        -0.20069751143455505,
        -0.13114210963249207,
        -0.02144983597099781,
        -0.02227206341922283,
        -0.15897265076637268,
        -0.0703321248292923,
        0.056456245481967926,
        0.3013397753238678,
        -0.09309016168117523,
        -0.19452063739299774,
        -0.00822121649980545,
        0.04920307546854019,
        -0.05629108101129532,
        -0.06987978518009186,
        0.15009330213069916,
        0.1532716602087021,
        0.011800155974924564,
        0.21296055614948273,
        0.07712789624929428,
        0.19046473503112793,
        -0.16508902609348297,
        -0.0561598464846611,
        0.02332979626953602,
        0.10446542501449585,
        -0.1212601363658905,
        -0.11086500436067581,
        0.0038796640001237392,
        0.1399383693933487,
        -0.011646612547338009,
        -0.21863499283790588,
        0.042376499623060226,
        -0.11906728893518448,
        0.06387889385223389,
        -0.1820252537727356,
        0.03576488047838211,
        -0.14066466689109802,
        0.08724627643823624,
        0.0632803812623024,
        0.09551828354597092,
        -0.1710875779390335,
        0.11366177350282669,
        -0.06939257681369781,
        0.019442694261670113,
        0.11520184576511383,
        0.056252963840961456,
        -0.14881062507629395,
        -0.0016622135881334543,
        -0.022746950387954712,
        0.08426697552204132,
        -0.00885012187063694,
        0.19323772192001343,
        0.004861307330429554,
        0.17836157977581024,
        0.18289214372634888,
        -0.22475272417068481,
        -0.06604933738708496,
        0.10046743601560593,
        0.02364201657474041,
        0.27483221888542175,
        0.16019372642040253,
        -0.14380064606666565,
        -0.06501144170761108,
        0.008662858046591282,
        -0.20642852783203125,
        0.16510914266109467,
        -0.061894796788692474,
        -0.06746256351470947,
        0.1085599735379219,
        0.30253899097442627,
        0.11532057821750641,
        0.0656408816576004,
        -0.12360461801290512,
        0.04936875030398369,
        -0.11918244510889053,
        -0.15097883343696594,
        -0.11441265046596527,
        0.14601273834705353,
        -0.03287855535745621,
        -0.04576677456498146,
        -0.08580571413040161,
        -0.022954918444156647,
        0.07839006930589676,
        -0.07669233530759811,
        -0.18751606345176697,
        0.12184756249189377,
        0.054180584847927094,
        -0.048096925020217896,
        0.08178210258483887,
        0.07333311438560486,
        0.20674051344394684,
        -0.13172727823257446,
        0.03423517569899559,
        0.13899356126785278,
        -0.08918304741382599,
        -0.06121794506907463,
        -0.1269242763519287,
        0.06328818202018738,
        0.2112928181886673,
        0.2718629240989685,
        -0.08467096835374832,
        0.0011638111900538206,
        -0.009877392090857029,
        -0.08975283056497574,
        0.0832483246922493,
        0.037307340651750565,
        0.2320433259010315,
        0.00872866902500391,
        0.15722894668579102,
        0.11085160821676254,
        0.17572346329689026,
        0.04860323667526245,
        0.020756157115101814,
        0.13843105733394623,
        0.14387737214565277,
        0.004957160446792841,
        -0.06221418455243111,
        0.10777970403432846,
        0.07793746888637543,
        0.1534487009048462,
        0.11027053743600845,
        0.21488630771636963,
        -0.10763910412788391,
        0.07278381288051605,
        -0.06537792831659317,
        0.01118866540491581,
        -0.1561131626367569,
        0.07101668417453766,
        0.018073134124279022,
        0.07764659821987152,
        0.03150022029876709,
        -0.04122953861951828,
        0.129569411277771,
        -0.15929439663887024,
        -0.034436631947755814,
        0.14600913226604462,
        -0.0685034915804863,
        -0.19335098564624786,
        -0.009751681238412857,
        -0.10193194448947906,
        -0.030881550163030624,
        -0.012793445028364658,
        0.025782983750104904,
        0.004369631409645081,
        -0.1970774084329605,
        0.1848973035812378,
        -0.000886679976247251,
        -0.03592435270547867,
        -0.14998674392700195,
        0.23341917991638184,
        0.014791675843298435,
        0.09163156896829605,
        0.059492383152246475,
        -0.05398086830973625,
        -0.03187606483697891,
        -0.007195393089205027,
        0.05511069297790527,
        0.07974880933761597,
        0.028189772740006447,
        -0.043587420135736465,
        -0.024235224351286888,
        0.01459414791315794,
        -0.07709591835737228,
        -0.0645892322063446,
        0.0012685635592788458,
        0.12431734055280685,
        -0.03268273547291756,
        -0.0004718588897958398,
        -0.21704478561878204,
        0.13097596168518066,
        -0.07973188906908035,
        -0.011741338297724724,
        0.12398777902126312,
        -0.03580964729189873,
        0.189067080616951,
        -0.10468916594982147,
        -0.006751885171979666,
        -0.10194670408964157,
        0.14460794627666473,
        0.08232995867729187,
        0.11211942136287689,
        0.20469331741333008,
        0.1219874769449234,
        0.04605378955602646,
        -0.030062854290008545,
        -0.11044684797525406,
        0.10240485519170761,
        -0.12254718691110611,
        -0.0020932445768266916,
        -0.0326775461435318,
        0.03134758770465851,
        0.17205284535884857,
        -0.10234192758798599,
        0.01776803284883499,
        0.21271444857120514,
        -0.0012683597160503268,
        0.14147621393203735,
        0.25777849555015564,
        0.17198505997657776,
        0.11003945767879486,
        0.1421658843755722,
        -0.035861216485500336,
        -0.007616199553012848,
        -0.07448063045740128,
        -0.15321755409240723,
        0.11584341526031494,
        0.014494522474706173,
        -0.11011365056037903,
        -0.06283654272556305,
        0.039454467594623566,
        -0.08911753445863724,
        -0.08026215434074402,
        -0.030905405059456825,
        0.008923837915062904,
        -0.08169766515493393,
        -0.09925330430269241,
        0.0737113282084465,
        0.16178511083126068,
        0.04392655938863754,
        -0.021841052919626236,
        0.21819181740283966,
        0.05836709961295128,
        -0.04105045646429062,
        -0.22667428851127625,
        0.13071054220199585,
        -0.10863679647445679,
        0.036729056388139725,
        -0.08909537643194199,
        0.10508893430233002,
        -0.04622998088598251,
        -0.04478093609213829,
        -0.02725154161453247,
        -0.15915274620056152,
        -0.2141956239938736,
        0.04558246210217476,
        0.1686774045228958,
        0.004426212981343269,
        -0.23422321677207947,
        0.12876707315444946,
        0.17395246028900146,
        -0.003657533321529627,
        -0.1290205717086792,
        0.07756952941417694,
        -0.19153465330600739,
        -0.07587960362434387,
        -0.09472639113664627,
        -0.06787687540054321,
        0.11299798637628555,
        0.03534078598022461,
        -0.1757250875234604,
        0.08852741122245789,
        -0.0379130095243454,
        0.09407500922679901,
        0.23296132683753967,
        0.1971745491027832,
        -0.19925418496131897,
        -0.02558298595249653,
        -0.04657630994915962,
        -0.12904515862464905,
        0.09478385001420975,
        0.17237921059131622,
        0.02741694450378418,
        -0.03295333310961723,
        -0.036364685744047165,
        0.025629034265875816,
        0.008238537237048149,
        0.01970769837498665,
        -0.022488847374916077,
        -0.04482642933726311,
        -0.010397810488939285,
        -0.019455209374427795,
        -0.018161384388804436,
        -0.0910496637225151,
        -0.13439688086509705,
        0.11611588299274445,
        -0.1333949714899063,
        0.07485927641391754,
        -0.183110311627388,
        -0.048764973878860474,
        -0.034388478845357895,
        -0.00811921525746584,
        0.12488479167222977,
        0.05544671043753624,
        0.10042118281126022,
        -0.024614816531538963,
        -0.040413130074739456,
        0.055699851363897324,
        -0.08265705406665802,
        -0.05627625808119774,
        -0.10123899579048157,
        -0.16710986196994781,
        0.019587354734539986,
        -0.19065719842910767,
        0.004948575049638748,
        0.23404398560523987,
        -0.006463385187089443,
        -0.0357171893119812,
        0.16018632054328918,
        -0.012472978793084621,
        0.19464771449565887,
        0.08323011547327042,
        0.004646721761673689,
        -0.11745635420084,
        -0.04293312504887581,
        0.21572346985340118,
        0.04762677103281021,
        -0.10835251957178116,
        -0.02966364473104477,
        0.015576345846056938,
        -0.03245155140757561,
        -0.24585212767124176,
        -0.041593752801418304,
        -0.10623586177825928,
        -0.023154975846409798,
        -0.1821528971195221,
        -0.04064150154590607,
        0.11837014555931091,
        -0.056280896067619324,
        0.238983616232872,
        0.12401288002729416,
        0.17952507734298706,
        0.015897344797849655,
        -0.1674182415008545,
        -0.05487710237503052,
        -0.06731301546096802,
        -0.18782204389572144,
        0.06223031133413315,
        0.09237056225538254,
        0.04122203588485718,
        0.136969655752182,
        -0.01269947923719883,
        0.019790207967162132,
        0.051539573818445206,
        0.03339944779872894,
        0.11890988796949387,
        -0.14734166860580444,
        0.20314370095729828,
        -0.1880226880311966,
        -0.12963421642780304,
        0.0025122647639364004,
        0.05299949273467064,
        0.18624091148376465,
        -0.21731308102607727,
        0.09434637427330017,
        -0.07609792053699493,
        -0.08290193974971771,
        -0.052445750683546066,
        -0.13751576840877533,
        0.07875800132751465,
        -0.19469311833381653,
        -0.0897069200873375,
        -0.12164997309446335,
        -0.0033946798648685217,
        -0.04148617014288902,
        -0.029224049299955368,
        0.2155904471874237,
        0.15749002993106842,
        -0.17796136438846588,
        0.08473312109708786,
        0.22919145226478577,
        -0.034869320690631866,
        0.00208502309396863,
        0.02552955597639084,
        -0.026043785735964775,
        0.2686057686805725,
        -0.07329228520393372,
        -0.03326508775353432,
        0.03485863655805588,
        0.14703413844108582,
        0.12823739647865295,
        0.1765766590833664,
        -0.20937363803386688,
        -0.057263776659965515,
        -0.048486560583114624,
        0.19136540591716766,
        -0.18172655999660492,
        -0.02368619665503502,
        -0.09643462300300598,
        0.0875222310423851,
        -0.002749532461166382,
        0.12559854984283447,
        -0.16248513758182526,
        -0.03142429515719414,
        -0.08674231171607971,
        -0.0519196093082428,
        0.024076223373413086,
        0.02661454677581787,
        0.025309007614850998,
        0.21321777999401093,
        0.08299317955970764,
        0.10588013380765915,
        -0.0275605246424675,
        0.13488489389419556,
        -0.05564817786216736,
        -0.11390635371208191,
        -0.02538585662841797,
        0.160799041390419,
        0.20579327642917633,
        0.04786572605371475,
        0.051331743597984314,
        -0.0871586948633194,
        -0.022795025259256363,
        -0.01634988933801651,
        -0.13885028660297394,
        0.03956794738769531,
        0.043970074504613876,
        -0.06865868717432022,
        -0.14217929542064667,
        0.07032828032970428,
        -0.008776689879596233,
        0.007080577779561281,
        0.01687060296535492,
        0.01242564246058464,
        0.08841508626937866,
        -0.20443792641162872,
        0.16070276498794556,
        -0.03738383203744888,
        0.18808339536190033,
        0.039161309599876404,
        0.26533642411231995,
        -0.051317568868398666,
        -0.18128207325935364,
        0.10936233401298523,
        0.045048847794532776,
        0.0716606006026268,
        0.12873604893684387,
        -0.1729493886232376,
        0.008397151716053486,
        -0.1555522084236145,
        -0.09581154584884644,
        -0.04534047096967697,
        -0.10809110105037689,
        -0.13054022192955017,
        0.08266434073448181,
        0.0931791141629219,
        -0.011963652446866035,
        0.0423247404396534,
        -0.004150070250034332,
        0.18787643313407898,
        -0.011906485073268414,
        0.01582583226263523,
        -0.035676177591085434,
        -0.00333635276183486,
        0.11600819230079651,
        -0.09901111572980881,
        0.17182980477809906,
        -0.09292059391736984,
        0.042207375168800354,
        0.01163992378860712,
        0.21124263107776642,
        -0.15009169280529022,
        -0.0974588468670845,
        -0.05492987483739853,
        0.01883825659751892,
        -0.12297580391168594,
        -0.1611892431974411,
        0.10966130346059799,
        0.017790082842111588,
        0.02596246264874935,
        0.13146360218524933,
        0.28594422340393066,
        -0.01673520915210247,
        -0.13134215772151947,
        -0.06285973638296127,
        -0.0749637633562088,
        -0.05001196637749672,
        0.013031822629272938,
        -0.07644573599100113,
        0.05646657571196556,
        0.1100798100233078,
        0.07124882191419601,
        -0.09076984226703644,
        0.05966254323720932,
        -0.035267122089862823,
        -0.007948535494506359,
        -0.007519312668591738,
        0.29987481236457825,
        -0.12526127696037292,
        -0.2696118652820587,
        -0.045089639723300934,
        -0.05474872887134552,
        -0.06070065498352051,
        0.06888284534215927,
        -0.0425485335290432,
        0.02430875226855278,
        -0.18835757672786713,
        -0.17824499309062958,
        0.0667581632733345,
        -0.04604252427816391,
        -0.0447712205350399,
        0.0998009443283081,
        0.04565887898206711,
        -0.0001086570555344224,
        0.013871440663933754,
        0.07530391961336136,
        -0.03676214441657066,
        -0.0686783641576767,
        0.0999375656247139,
        -0.08802530914545059,
        -0.11728134751319885,
        0.2008444368839264,
        0.15047003328800201,
        0.21741265058517456,
        -0.1438760906457901,
        -0.029323890805244446,
        -0.24912218749523163,
        -0.21391841769218445,
        0.12488947063684464,
        -0.11368293315172195,
        0.0943903997540474,
        -0.18707700073719025,
        -0.06992825120687485,
        -0.13937416672706604,
        -0.09522547572851181,
        -0.11834748089313507,
        -0.092691570520401,
        0.07657478749752045,
        -0.07930111885070801,
        0.0779239609837532,
        0.19704952836036682,
        -0.11827729642391205,
        -0.07563821971416473,
        0.1292450875043869,
        -0.05429864674806595,
        0.12621663510799408,
        -0.22361241281032562,
        -0.07106125354766846,
        0.05903420224785805,
        0.08311651647090912,
        -0.18335069715976715,
        -0.0008405756088905036,
        0.07453621923923492,
        -0.04339774698019028,
        0.05510258302092552,
        -0.1918404996395111,
        0.17599886655807495,
        0.040513187646865845,
        0.14656703174114227,
        0.2190416008234024,
        -0.09959478676319122,
        -0.08448512107133865,
        0.07768790423870087,
        0.23034162819385529,
        0.006269700825214386,
        -0.017749976366758347,
        -0.04750307276844978,
        -0.05332539975643158,
        -0.024237308651208878,
        0.1703215390443802,
        0.06449779123067856,
        0.04025037959218025,
        0.028131140395998955,
        -0.0997532531619072,
        0.11924193799495697,
        -0.09654377400875092,
        -0.007503189612179995,
        0.016028685495257378,
        -0.22426369786262512,
        -0.003984482027590275,
        -0.04594612866640091,
        -0.04845916107296944,
        -0.15279752016067505,
        -0.041059140115976334,
        -0.0021670141723006964,
        0.0014340555062517524,
        0.16991429030895233,
        -0.054150644689798355,
        -0.08583317697048187,
        -0.24488615989685059,
        -0.015941407531499863,
        -0.14155830442905426,
        0.00970548577606678,
        0.09685808420181274,
        -0.055802121758461,
        -0.2101496309041977,
        0.05903652682900429,
        -0.09258562326431274,
        0.08587989956140518,
        0.12129457294940948,
        -0.051809586584568024,
        0.13540558516979218,
        0.06619787216186523,
        0.052359726279973984,
        -0.09143779426813126,
        0.24698814749717712,
        -0.23311308026313782,
        0.11125802248716354,
        -0.049422863870859146,
        0.025042537599802017,
        -0.07137047499418259,
        0.03876645490527153,
        -0.10284188389778137,
        0.08713967353105545,
        -0.09077224880456924,
        -0.23395930230617523,
        0.09583879262208939,
        -0.026362409815192223,
        -0.1594875156879425,
        0.06338585913181305,
        0.07490764558315277,
        -0.009219514206051826,
        -0.02866249345242977,
        0.0018339469097554684,
        -0.004451081156730652,
        0.018991827964782715,
        0.015814553946256638,
        -0.0015950287925079465,
        -0.025930779054760933,
        -0.0021928290370851755,
        -0.17207910120487213,
        -0.036956802010536194,
        0.05443769693374634,
        0.08275079727172852,
        0.052333492785692215,
        0.062493808567523956,
        0.0068695638328790665,
        -0.03048887848854065,
        -0.13670195639133453,
        -0.22984062135219574,
        -0.047357331961393356,
        -0.0676877424120903,
        0.15178653597831726,
        -0.06905998289585114,
        -0.04082869365811348,
        0.1421685516834259,
        0.1656142622232437,
        -0.02243051491677761,
        0.08808794617652893,
        -0.07241401821374893,
        -0.023459693416953087,
        0.08807910978794098,
        -0.08613713830709457,
        0.10653180629014969,
        0.18304087221622467,
        -0.03248649463057518,
        -0.09534445405006409,
        0.03498194366693497,
        0.21257832646369934,
        0.21511191129684448,
        0.13587549328804016,
        -0.0400591678917408,
        0.014648943208158016,
        -0.0582086555659771,
        0.13438893854618073,
        -0.09996680915355682,
        -0.19611111283302307,
        0.08661326766014099,
        -0.0034523748327046633,
        0.06350309401750565,
        0.011212605983018875,
        -0.20332129299640656,
        0.14499276876449585,
        -0.03932800143957138,
        0.060667168349027634,
        -0.06315102428197861,
        0.0869969055056572,
        -0.12580236792564392,
        0.18960429728031158,
        0.1705532819032669,
        0.02256551757454872,
        -0.14997738599777222,
        -0.04862567037343979,
        0.2564094066619873,
        0.27849212288856506,
        0.17171216011047363,
        0.05950426682829857,
        -0.09132950752973557,
        -0.014026294462382793,
        0.03903687745332718,
        0.10461435467004776,
        -0.12254341691732407,
        0.1926562786102295,
        -0.09522724896669388,
        0.042920295149087906,
        -0.04753052815794945,
        -0.07497530430555344,
        -0.04875935986638069,
        -0.0471181757748127,
        0.10938914120197296,
        0.19576740264892578,
        0.06420376896858215,
        -0.027013255283236504,
        0.17130021750926971,
        0.18956030905246735,
        0.17799216508865356,
        -0.0774148628115654,
        0.047522034496068954,
        -0.08648837357759476,
        -0.06959177553653717,
        0.09265154600143433,
        -0.15386836230754852,
        -0.049605514854192734,
        -0.1795118898153305,
        0.16077324748039246,
        0.011189802549779415,
        0.17426246404647827,
        0.026868773624300957,
        0.03487729653716087,
        0.05882677808403969,
        0.07493174076080322,
        -0.019516468048095703,
        0.1890784054994583,
        -0.14023998379707336,
        0.02221832424402237,
        0.14805996417999268,
        0.06995157897472382,
        0.1130383312702179,
        -0.27857357263565063,
        0.18460910022258759,
        0.026219066232442856,
        -0.18796904385089874,
        -0.0024553968105465174,
        -0.10253167152404785,
        -0.0599571168422699,
        -0.05778416246175766,
        -0.07850756496191025,
        0.07577981054782867,
        0.07842513918876648,
        -0.03262506052851677,
        0.07819782942533493,
        0.06097806617617607,
        0.07571811228990555,
        -0.20705294609069824,
        -0.1828981190919876,
        0.11583828926086426,
        -0.03952561691403389,
        0.10104348510503769,
        -0.16702309250831604,
        0.011713441461324692,
        0.00167444150429219,
        0.04545300081372261,
        -0.057614393532276154,
        0.07132800668478012,
        0.18690554797649384,
        0.032937366515398026,
        0.2715669870376587,
        -0.07227401435375214,
        -0.18945854902267456,
        -0.022807776927947998,
        -0.09274788200855255,
        0.1310633420944214,
        0.1430492103099823,
        -0.0032136382069438696,
        -0.03254270926117897,
        0.13558562099933624,
        0.009304473176598549,
        -0.036591194570064545,
        -0.1338524967432022,
        0.1717478632926941,
        0.09224212169647217,
        0.119891457259655,
        -0.05642518028616905,
        -0.10340376198291779,
        0.0025823188479989767,
        0.08186128735542297,
        0.08211259543895721,
        -0.1786571592092514,
        0.1131984069943428,
        0.20504997670650482,
        0.22176247835159302,
        0.04538349062204361,
        -0.21624094247817993,
        -0.08487548679113388,
        0.10656866431236267,
        0.11395534127950668,
        -0.20238083600997925,
        -0.12657195329666138,
        0.05089478939771652,
        -0.1940459907054901,
        -0.06317993253469467,
        -0.09770063310861588,
        0.01965087093412876,
        0.016021698713302612,
        0.048779960721731186,
        -0.056281138211488724,
        -0.02129904367029667,
        -0.15676777064800262,
        0.11842630803585052,
        -0.051058366894721985,
        0.000710061052814126,
        -0.02492719516158104,
        -0.10205715149641037,
        0.08398856222629547,
        0.133079394698143,
        0.095803402364254,
        0.04809487983584404,
        -0.1079317182302475,
        0.047783683985471725,
        0.17136308550834656,
        0.035649385303258896,
        0.02914588339626789,
        0.029357321560382843,
        -0.08954840153455734,
        0.1421511024236679,
        -0.12273626029491425,
        -0.12488121539354324,
        -0.04206669330596924,
        -0.042471129447221756,
        0.0066253119148314,
        0.06109967082738876,
        0.1186583861708641,
        -0.07172219455242157,
        -0.036536213010549545,
        0.0020922324620187283,
        -0.07939346134662628,
        0.055935606360435486,
        0.05365156754851341,
        0.036555297672748566,
        -0.005560896825045347,
        -0.06926363706588745,
        0.019824590533971786,
        0.03264790028333664,
        -0.04594718664884567,
        0.04197489842772484,
        -0.2977520227432251,
        0.03263338655233383,
        0.012621495872735977,
        0.15664763748645782,
        0.09960275888442993,
        0.17130354046821594,
        0.18402796983718872,
        0.1111317127943039,
        -0.06501984596252441,
        -0.11318603903055191,
        0.19377806782722473,
        0.08756963908672333,
        -0.07016458362340927,
        0.14796121418476105,
        -0.13806608319282532,
        -0.00015860656276345253,
        -0.014615891501307487,
        0.022499997168779373,
        -0.06535407155752182,
        0.14009158313274384,
        -0.06837676465511322,
        0.21265444159507751,
        0.1016135960817337,
        0.18913137912750244,
        -0.06347718834877014,
        -0.09855642914772034,
        0.22919614613056183,
        -0.10635422170162201,
        0.09084565192461014,
        0.05529884994029999,
        -0.14123494923114777,
        0.049334485083818436,
        0.03638782724738121,
        -0.0024066916666924953,
        -0.1081758588552475,
        0.10799902677536011,
        0.074307881295681,
        -0.10026536136865616,
        -0.03513689711689949,
        0.10116058588027954,
        -0.0777377337217331,
        0.09727094322443008,
        -0.07049999386072159,
        -0.24158532917499542,
        0.03839845582842827,
        0.01893865130841732,
        -0.027020342648029327,
        0.11831645667552948,
        -0.06956382840871811,
        0.005705856252461672,
        0.08512072265148163,
        -0.04326661303639412,
        -0.09522782266139984,
        -0.03208265081048012,
        0.21325024962425232,
        -0.048412226140499115,
        0.11114148795604706,
        0.017985211685299873,
        -0.03016955591738224,
        0.0531819686293602,
        -0.2656906545162201,
        -0.21082431077957153,
        0.21831588447093964,
        -0.022256558761000633,
        0.07429707795381546,
        -0.005846687592566013,
        0.051380936056375504,
        0.13412460684776306,
        0.15823757648468018,
        0.09542844444513321,
        0.11001313477754593,
        0.005822038743644953,
        -0.1425108015537262,
        0.17041552066802979,
        0.016029445454478264,
        0.16262176632881165,
        0.00838441587984562,
        0.15863701701164246,
        0.14142252504825592,
        0.0810728520154953,
        0.07103963196277618,
        0.10972290486097336,
        0.18801385164260864,
        -0.23351018130779266,
        0.07230725884437561,
        -0.15712706744670868,
        0.0721367821097374,
        0.1103583499789238,
        -0.050252482295036316,
        0.05234035849571228,
        -0.006130367051810026,
        0.0024936075787991285,
        0.06946951150894165,
        0.09153332561254501,
        -0.23777011036872864,
        0.08799992501735687,
        -0.017771810293197632,
        -0.02463585138320923,
        0.009903252124786377,
        0.07828632742166519,
        0.08918117731809616,
        -0.10510815680027008,
        -0.017005186527967453,
        0.09678617864847183,
        0.22231388092041016,
        -0.008685442619025707,
        -0.23805363476276398,
        0.02638915553689003,
        -0.10239848494529724,
        -0.018462369218468666,
        0.13102000951766968,
        -0.04925685375928879,
        -0.1485152393579483,
        -0.06900866329669952,
        0.21279868483543396,
        0.12962372601032257,
        -0.27654486894607544,
        -0.16574139893054962,
        -0.12376426160335541,
        0.16992871463298798,
        0.06243313103914261,
        -0.03773047775030136,
        -0.014522012323141098,
        0.07100458443164825,
        0.2596902847290039,
        -0.06140940636396408,
        0.18558944761753082,
        -0.1441415548324585,
        -0.0523102730512619,
        -0.012033695355057716,
        0.16725625097751617,
        0.14073388278484344,
        -0.15036579966545105,
        -0.13576209545135498,
        0.2322978675365448,
        0.03504998981952667,
        -0.13988487422466278,
        -0.06379571557044983,
        -0.14204832911491394,
        0.046838488429784775,
        0.059757065027952194,
        0.04021557793021202,
        0.104648657143116,
        0.059286680072546005,
        0.1302010715007782,
        -0.118378184735775,
        -0.12835469841957092,
        -0.1301083266735077,
        -0.10589098185300827,
        0.05839255452156067,
        -0.09359879046678543,
        -0.15987202525138855,
        -0.035859089344739914,
        -0.06711806356906891,
        0.20442534983158112,
        0.04130774736404419,
        -0.03768779709935188,
        0.037753164768218994,
        -0.06350669264793396,
        0.05053139105439186,
        -0.04768110439181328,
        0.09079386293888092,
        -0.013827417977154255,
        -0.18940651416778564,
        0.029811296612024307,
        0.07534387707710266,
        -0.01784050092101097,
        0.11193187534809113,
        0.005744278896600008,
        0.07484029978513718,
        0.1751686930656433,
        0.00658145546913147,
        0.12179960310459137,
        -0.04119531810283661,
        -0.05605293810367584,
        0.08601421117782593,
        0.05329244211316109,
        0.0421152301132679,
        0.08025214821100235,
        -0.06176777184009552,
        0.19450829923152924,
        -0.08018914610147476,
        -0.13022945821285248,
        0.29372817277908325,
        0.12975788116455078,
        0.07360240817070007,
        -0.10445228219032288,
        0.052697911858558655,
        0.03459348529577255,
        -0.1425902247428894,
        0.00575823150575161,
        -0.05501914024353027,
        0.19276458024978638,
        -0.11119625717401505,
        -0.08807447552680969,
        0.037550248205661774,
        0.0014346333919093013,
        0.10962115973234177,
        0.24138973653316498,
        0.02542608231306076,
        0.2203238308429718,
        -0.07438725978136063,
        0.0017668937798589468,
        -0.10226397961378098,
        -0.08136860281229019,
        0.2266741693019867,
        -0.05299337953329086,
        -0.08946888893842697,
        0.10413098335266113,
        0.057305652648210526,
        0.0012861391296610236,
        -0.19558055698871613,
        0.10992832481861115,
        0.1593070775270462,
        0.17765159904956818,
        -0.026854662224650383,
        -0.07839761674404144,
        0.03731093928217888,
        0.15248939394950867,
        0.0038659637793898582,
        -0.0972186028957367,
        0.1823137402534485,
        0.015373345464468002,
        0.07789558917284012,
        0.06011739745736122,
        -0.044667795300483704,
        0.04144319146871567,
        -0.03817310556769371,
        0.0457129180431366,
        0.11425100266933441,
        0.034041982144117355,
        -0.06306996196508408,
        -0.004969937726855278,
        -0.02456807717680931,
        0.1406220644712448,
        -0.03242836520075798,
        -0.12274488806724548,
        -0.0377313569188118,
        0.09612934291362762,
        0.08530573546886444,
        0.12375381588935852,
        0.22686222195625305,
        0.1334894299507141,
        0.03500460088253021,
        0.14957012236118317,
        0.166803240776062,
        0.2754857540130615,
        -0.014378110878169537,
        -0.06907914578914642,
        -0.06536053121089935,
        0.11161397397518158,
        0.054945386946201324,
        0.04489215835928917,
        0.1631832718849182,
        -0.011557882651686668,
        0.00638746190816164,
        0.1727648228406906,
        -0.09513617306947708,
        -0.003737695049494505,
        0.048096854239702225,
        0.22984115779399872,
        -0.19204097986221313,
        -0.04475642740726471,
        0.06900893151760101,
        0.10900671035051346,
        0.1335398107767105,
        -0.1772812008857727,
        0.0657569095492363,
        0.33299440145492554,
        0.039158742874860764,
        0.012295798398554325,
        -0.09629786759614944,
        -0.18982234597206116,
        -0.08982224017381668,
        0.15035530924797058,
        0.08067060261964798,
        0.04123356193304062,
        -0.054306384176015854,
        -0.02386939525604248,
        0.0501493401825428,
        0.10768662393093109,
        0.008504730649292469,
        -0.03957788273692131,
        -0.1981775164604187,
        0.18096764385700226,
        -0.060453664511442184,
        -0.00651921983808279,
        -0.0841413140296936,
        -0.12666240334510803,
        -0.10090073198080063,
        0.19118967652320862,
        0.1741502583026886,
        -0.08247283101081848,
        0.056049149483442307,
        -0.2047697752714157,
        0.1648637354373932,
        -0.040964968502521515,
        0.039546336978673935,
        -0.03456845507025719,
        -0.04529356583952904,
        0.08376654982566833,
        -0.052581898868083954,
        0.16086435317993164,
        0.025337452068924904,
        0.08509200066328049,
        0.2619588375091553,
        0.19074244797229767,
        -0.08388454467058182,
        0.05162712186574936,
        0.14499463140964508,
        -0.04864214360713959,
        0.14631296694278717,
        -0.12377388775348663,
        -0.06176012009382248,
        0.029255148023366928,
        -0.22145187854766846,
        0.0037020156159996986,
        0.1404944360256195,
        0.1277659833431244,
        -0.2795557677745819,
        0.06216077506542206,
        0.0024057014379650354,
        0.05703085660934448,
        -0.006114865653216839,
        -0.23340126872062683,
        0.15330973267555237,
        0.0256967693567276,
        0.2017626315355301,
        0.12964186072349548,
        -0.1171509325504303,
        0.014378298074007034,
        -0.1499723494052887,
        -0.10176488012075424,
        -0.027356429025530815,
        0.061199162155389786,
        -0.013502695597708225,
        0.003676245454698801,
        -0.029683802276849747,
        -0.051846470683813095,
        -0.2479715198278427,
        -0.07217071950435638,
        -0.05534762144088745,
        -0.022417288273572922,
        -0.034959375858306885,
        -0.015420570969581604,
        0.08571582287549973,
        -0.00039497995749115944,
        0.11959071457386017,
        -0.2432394027709961,
        0.16307462751865387,
        0.15003269910812378,
        -0.04618081450462341,
        -0.14705799520015717,
        -0.08415359258651733,
        0.05447234958410263,
        -0.18034973740577698,
        0.13707849383354187,
        0.06532584130764008,
        -0.03945391997694969,
        0.04311968758702278,
        -0.18033666908740997,
        -0.012415463104844093,
        0.04899555444717407,
        0.034270912408828735,
        0.06318874657154083,
        0.057246237993240356,
        -0.11128183454275131,
        -0.07306744903326035,
        -0.028661029413342476,
        -0.041143547743558884,
        0.14240777492523193,
        -0.04193596914410591,
        0.011222329922020435,
        -0.022609584033489227,
        -0.08718696981668472,
        0.10584725439548492,
        0.05641578882932663,
        -0.07621963322162628,
        -0.05611646547913551,
        0.17279303073883057,
        -0.03879735246300697,
        0.06404181569814682,
        -0.12729768455028534,
        -0.24887827038764954,
        -0.20414553582668304,
        0.16982147097587585,
        0.057826556265354156,
        0.1458587795495987,
        0.02826925925910473,
        0.13235321640968323,
        0.3402124047279358,
        -0.05565650761127472,
        -0.07090823352336884,
        0.1694875806570053,
        -0.002804487943649292,
        -0.027033742517232895,
        0.06485884636640549,
        0.01450363826006651,
        0.08476860821247101,
        0.04294051229953766,
        -0.04933219030499458,
        -0.025545766577124596,
        -0.15042522549629211,
        0.20196650922298431,
        0.008870006538927555,
        0.10382968187332153,
        0.04865450784564018,
        0.046687088906764984,
        -0.007045647129416466,
        -0.025362327694892883,
        -0.2250494509935379,
        -0.009256337769329548,
        0.01505731139332056,
        0.01353753637522459,
        -0.15225106477737427,
        0.1327403336763382,
        0.01615513488650322,
        0.06084097921848297,
        -0.03793201223015785,
        0.0010945817921310663,
        -0.24053029716014862,
        -0.029764799401164055,
        -0.08732106536626816,
        0.170438751578331,
        0.15344850718975067,
        0.18026402592658997,
        -0.12806133925914764,
        0.09536906331777573,
        0.06463827937841415,
        -0.011176039464771748,
        -0.0039542559534311295,
        0.11916030943393707,
        -0.10245343297719955,
        0.026715103536844254,
        -0.0023417342454195023,
        -0.10216964036226273,
        0.02941897138953209,
        -0.0009124674834311008,
        -0.080386221408844,
        -0.25069695711135864,
        0.029572008177638054,
        0.0006236625486053526,
        -0.09069017320871353,
        -0.1184966191649437,
        -0.009365148842334747,
        0.11742615699768066,
        -0.08732951432466507,
        0.07516146451234818,
        -0.17769701778888702,
        -0.0370086133480072,
        0.25894099473953247,
        0.142844557762146,
        -0.10252723097801208,
        0.016298925504088402,
        0.0946834608912468,
        0.12114810198545456,
        -0.014464219100773335,
        -0.02037159353494644,
        0.17144764959812164,
        0.08974706381559372,
        -0.1310531497001648,
        0.12470490485429764,
        0.10016896575689316,
        0.04287857934832573,
        0.1316017061471939,
        0.13701581954956055,
        0.10885991156101227,
        -0.10785720497369766,
        -0.024698860943317413,
        0.06217615306377411,
        0.08504365384578705,
        0.06694071739912033,
        0.0276435986161232,
        -0.015744132921099663,
        -0.036631327122449875,
        0.13131393492221832,
        -0.06150227040052414,
        0.007694936357438564,
        0.15395186841487885,
        -0.08054161071777344,
        -0.24658213555812836,
        -0.013865552842617035,
        0.013592135161161423,
        0.1918201595544815,
        0.197438582777977,
        0.05255218222737312,
        -0.14326974749565125,
        -0.009305707179009914,
        0.07706885784864426,
        -0.0992370992898941,
        0.0022227370645850897,
        -0.12016785889863968,
        -0.08301405608654022,
        0.1237727627158165,
        0.07373729348182678,
        -0.020797492936253548,
        0.23245269060134888,
        0.2132798582315445,
        0.20537786185741425,
        0.00360645679756999,
        -0.1622360199689865,
        -0.0009293774492107332,
        0.04764248803257942,
        0.16582579910755157,
        0.13802102208137512,
        -0.07266365736722946,
        -0.10207716375589371,
        -0.05642111226916313,
        0.12553001940250397,
        -0.10832556337118149,
        -0.2056707739830017,
        0.02082507498562336,
        0.035062022507190704,
        -0.0006186269456520677,
        -0.0077725304290652275,
        -0.07327362149953842,
        0.08536072075366974,
        0.011872240342199802,
        -0.10163118690252304,
        0.13354581594467163,
        -0.1889723390340805,
        -0.05188238248229027,
        -0.047659214586019516,
        0.09223473072052002,
        0.16633029282093048,
        0.02313159964978695,
        -0.031982772052288055,
        0.11621958017349243,
        -0.16526301205158234,
        0.04374176263809204,
        0.054619207978248596,
        0.1406247615814209,
        0.01699681766331196,
        -0.006876680534332991,
        -0.030756359919905663,
        -0.1695418357849121,
        0.11409854888916016,
        -0.07152742892503738,
        -0.04811631515622139,
        0.05505664646625519,
        0.09064002335071564,
        0.18831618130207062,
        0.011133766733109951,
        -0.08641772717237473,
        -0.13944675028324127,
        -0.1625363677740097,
        0.10969902575016022,
        0.13686983287334442,
        0.16146397590637207,
        -0.0337587408721447,
        0.012095377780497074,
        0.059465441852808,
        -0.2735823690891266,
        -0.01187459658831358,
        0.11736790835857391,
        -0.012839822098612785,
        -0.07079515606164932,
        0.1588897556066513,
        0.16021572053432465,
        -0.08988996595144272,
        0.05512990802526474,
        0.14668439328670502,
        0.04159032553434372,
        -0.1697155237197876,
        0.08951549232006073,
        0.03385090455412865,
        -0.013548717834055424,
        0.03636059910058975,
        0.010484394617378712,
        0.04623051732778549,
        -0.25960657000541687,
        0.06685005873441696,
        0.06147264689207077,
        -0.17530988156795502,
        -0.025223249569535255,
        0.18335950374603271,
        -0.17784757912158966,
        0.1350359171628952,
        -0.11899730563163757,
        -0.02253505028784275,
        -0.10043351352214813,
        0.14262206852436066,
        -0.005523256491869688,
        0.0959622710943222,
        0.15856751799583435,
        0.19613464176654816,
        0.07661208510398865,
        -0.18974626064300537,
        -0.1962287873029709,
        -0.0037342205177992582,
        -0.05720311030745506,
        0.012240379117429256,
        0.203276127576828,
        -0.030818672850728035,
        0.07799894362688065,
        0.13106699287891388,
        -0.04349441081285477,
        -0.03737230971455574,
        -0.05068604275584221,
        0.06476673483848572,
        -0.0628618448972702,
        0.07407895475625992,
        0.06683727353811264,
        -0.1053588017821312,
        -0.1280185729265213,
        0.019021950662136078,
        0.04223985970020294,
        -0.07871098071336746,
        0.06736985594034195,
        -0.015550547279417515,
        0.006843370385468006,
        0.1916486769914627,
        -0.02898375689983368,
        0.14736008644104004,
        0.12825031578540802,
        0.20896406471729279,
        0.11084651201963425,
        -0.16173939406871796,
        0.04849223420023918,
        0.12682965397834778,
        0.03585781902074814,
        -0.059423089027404785,
        -0.05400729551911354,
        0.15592584013938904,
        -0.09079582989215851,
        0.3106257915496826,
        0.014387867413461208,
        0.016982892528176308,
        -0.1578434556722641,
        0.10950522869825363,
        0.18611541390419006,
        0.01341687235981226,
        -0.08587475121021271,
        -0.0647670179605484,
        -0.1011962816119194,
        0.05322990566492081,
        0.06089439243078232,
        -0.0042410725727677345,
        0.017379634082317352,
        0.024107715114951134,
        0.04593108594417572,
        0.03147253021597862,
        0.038308609277009964,
        0.20936915278434753,
        0.1810757964849472,
        -0.059466131031513214,
        -0.18089419603347778,
        -0.0765511766076088,
        -0.08043926954269409,
        -0.009561731480062008,
        0.33964425325393677,
        0.1304943561553955,
        -0.12694288790225983,
        0.04079597070813179,
        -0.22512434422969818,
        -0.06945064663887024,
        -0.10097035765647888,
        -0.02114873193204403,
        0.03748980909585953,
        0.02551361545920372,
        -0.004588247276842594,
        -0.010742041282355785,
        0.08614162355661392,
        -0.0211967620998621,
        0.25149667263031006,
        -0.12623178958892822,
        -0.13735593855381012,
        -0.09844368696212769,
        -0.04392184689640999,
        0.041134171187877655,
        0.1840699315071106,
        -0.1897951066493988,
        0.05366160348057747,
        0.006505938246846199,
        0.035283371806144714,
        0.029220523312687874,
        -0.0625973790884018,
        -0.0668690875172615,
        -0.022571871057152748,
        -0.1963619589805603,
        0.14865505695343018,
        -0.15021318197250366,
        -0.1033208891749382,
        0.03634501248598099,
        0.15868760645389557,
        -0.10781438648700714,
        -0.13501742482185364,
        -0.11175984144210815,
        -0.07972659170627594,
        -0.16763928532600403,
        -0.005798721220344305,
        0.03423427790403366,
        0.06479555368423462,
        -0.08496022969484329,
        -0.024269405752420425,
        -0.1372206062078476,
        -0.14168314635753632,
        -0.16205288469791412,
        0.11749088019132614,
        0.060641810297966,
        0.13713766634464264,
        0.05366825684905052,
        0.10679849237203598,
        -0.19874262809753418,
        -0.13690201938152313,
        0.04091424122452736,
        0.22303107380867004,
        0.1114000454545021,
        0.08375575393438339,
        -0.05691821500658989,
        -0.17726828157901764,
        0.07797554135322571,
        0.22427575290203094,
        -0.12937898933887482,
        -0.21240413188934326,
        -0.06319655478000641,
        -0.0549926832318306,
        0.12277226150035858,
        0.04606282711029053,
        0.15087226033210754,
        0.016998330131173134,
        0.09293469786643982,
        -0.027030836790800095,
        0.18348999321460724,
        0.12763214111328125,
        0.2579076886177063,
        0.17864957451820374,
        0.006715297698974609,
        0.21290239691734314,
        0.2127741277217865,
        0.068097785115242,
        0.07729760557413101,
        -0.20888930559158325,
        0.106717549264431,
        0.0251040980219841,
        -0.23236246407032013,
        -0.031239617615938187,
        -0.019292792305350304,
        0.11955949664115906,
        -0.13025633990764618,
        -0.10098898410797119,
        -0.038928985595703125,
        -0.09926079213619232,
        -0.14432018995285034,
        0.061690524220466614,
        0.06522582471370697,
        0.10976521670818329,
        -0.12321017682552338,
        0.017416156828403473,
        -0.011997503228485584,
        -0.061970219016075134,
        -0.15564587712287903,
        0.042351167649030685,
        -0.17488515377044678,
        -0.18860836327075958,
        -0.004956483840942383,
        -0.10007567703723907,
        -0.12487941980361938,
        0.13440664112567902,
        0.04480321332812309,
        -0.0012510361848399043,
        -0.07326922565698624,
        -0.0765920951962471,
        0.09100383520126343,
        -0.10493756085634232,
        0.050760332494974136,
        0.1209445372223854,
        -0.1823597550392151,
        -0.128426194190979,
        -0.11553701013326645,
        0.03416120633482933,
        0.07124210149049759,
        -0.1370028853416443,
        -0.024048002436757088,
        0.03151315078139305,
        -0.012028058990836143,
        -0.20821522176265717,
        0.06262494623661041,
        0.005406365729868412,
        0.10454662144184113,
        -0.08834931999444962,
        0.07577076554298401,
        -0.027106422930955887,
        -0.0163427721709013,
        0.23357650637626648,
        -0.11127600818872452,
        0.045298051089048386,
        0.0901409164071083,
        -0.10998615622520447,
        -0.17232003808021545,
        -0.09089764952659607,
        -0.02071455679833889,
        0.08115395903587341,
        -0.11083037406206131,
        -0.04784805327653885,
        0.2055707722902298,
        0.16810420155525208,
        -0.11453631520271301,
        -0.04494691267609596,
        -0.033981189131736755,
        -0.20783843100070953,
        0.10819492489099503,
        0.027688167989253998,
        0.22979357838630676,
        0.08544866740703583,
        0.2559396028518677,
        -0.15106917917728424,
        -0.23487307131290436,
        0.04699607565999031,
        -0.06128440424799919,
        0.1291801631450653,
        -0.21117189526557922,
        -0.0052721016108989716,
        0.03235630691051483,
        0.159963458776474,
        -0.14605431258678436,
        0.16145803034305573,
        -0.08235904574394226,
        0.18195901811122894,
        0.03837542608380318,
        0.14160558581352234,
        0.07154232263565063,
        0.155201256275177,
        0.06562251597642899,
        0.15527039766311646,
        0.18758469820022583,
        -0.13401402533054352,
        0.18248260021209717,
        0.020701179280877113,
        0.011808336712419987,
        -0.08987689763307571,
        0.17138493061065674,
        0.051333338022232056,
        0.17964372038841248,
        -0.11704103648662567,
        -0.08671031147241592,
        -0.04245201125741005,
        0.12165334820747375,
        0.003532679984346032,
        -0.18293482065200806,
        -0.0031726709567010403,
        0.019815297797322273,
        0.059574078768491745,
        0.05799891799688339,
        -0.07654787600040436,
        -0.15177802741527557,
        0.1526927798986435,
        0.16561326384544373,
        -0.11738452315330505,
        -0.08480453491210938,
        0.14134714007377625,
        0.1412622183561325,
        -0.04639280214905739,
        -0.02490522898733616,
        -0.10062475502490997,
        0.11703748255968094,
        -0.08251151442527771,
        0.02200429141521454,
        -0.10168839246034622,
        0.06462850421667099,
        -0.07003650069236755,
        -0.06844884157180786,
        0.20130190253257751,
        0.13713565468788147,
        0.059067852795124054,
        0.12313860654830933,
        0.32688799500465393,
        -0.15115344524383545,
        0.041446439921855927,
        0.09145898371934891,
        0.23062892258167267,
        -0.20027509331703186,
        0.020072979852557182,
        0.0004992001922801137,
        -0.0051838732324540615,
        -0.09167660027742386,
        -0.09529267996549606,
        -0.015202023088932037,
        0.18630173802375793,
        -0.1314665973186493,
        0.10255660861730576,
        0.12417837977409363,
        -0.17347785830497742,
        -0.127467080950737,
        0.07788489013910294,
        0.1798761636018753,
        -0.10090452432632446,
        -0.06430334597826004,
        -0.051604975014925,
        -0.12179727107286453,
        0.006445638369768858,
        -0.11526083201169968,
        0.06025984510779381,
        -0.025685658678412437,
        0.07515367865562439,
        0.030317526310682297,
        0.1141049787402153,
        0.11414484679698944,
        0.009855124168097973,
        -0.16409091651439667,
        0.014232303947210312,
        -0.11174008250236511,
        -0.03935476019978523,
        -0.33299490809440613,
        0.07321882992982864,
        0.12599411606788635,
        -0.028378542512655258,
        -0.23871393501758575,
        0.03087025135755539,
        -0.17664100229740143,
        -0.07861146330833435,
        -0.10688191652297974,
        0.049744270741939545,
        -0.06122331693768501,
        0.1201273575425148,
        0.12207042425870895,
        -0.1453516036272049,
        -0.08838355541229248,
        -0.12423492968082428,
        -0.10077846795320511,
        -0.015258288010954857,
        0.0024813804775476456,
        0.0772855281829834,
        0.09741619229316711,
        -0.030207067728042603,
        0.09181882441043854,
        0.11439549922943115,
        -0.026388073340058327,
        0.05885254591703415,
        -0.038642749190330505,
        0.13165687024593353,
        0.10443992167711258,
        -0.11449228227138519,
        -0.09263946861028671,
        0.03280216082930565,
        0.19088788330554962,
        0.15800203382968903,
        -0.11917546391487122,
        -0.21819451451301575,
        0.04778200015425682,
        0.09891317784786224,
        0.11720481514930725,
        -0.10087735205888748,
        0.020295120775699615,
        -0.1625060886144638,
        0.0028165446128696203,
        -0.049097899347543716,
        -0.22573022544384003,
        0.2441917359828949,
        -0.044653911143541336,
        0.21252523362636566,
        -0.0025047354865819216,
        -0.11773944646120071,
        0.04799899458885193,
        -0.04506039619445801,
        0.2038680762052536,
        0.07869254052639008,
        -0.10049803555011749,
        0.0443577766418457,
        0.1285511702299118,
        -0.0731261596083641,
        0.015432053245604038,
        -0.03395496681332588,
        -0.14884120225906372,
        -0.13939452171325684,
        -0.08404935151338577,
        -0.06131843477487564,
        0.09351950883865356,
        0.011243250221014023,
        -0.037138212472200394,
        -0.1544145941734314,
        0.00869398657232523,
        0.06822985410690308,
        -0.1897287368774414,
        -0.24000239372253418,
        0.08350738137960434,
        0.15544819831848145,
        -0.0203624926507473,
        0.026829104870557785,
        -0.05003175884485245,
        0.11379527300596237,
        -0.08712417632341385,
        0.00838408712297678,
        0.2743726670742035,
        -0.06188251078128815,
        0.007006639149039984,
        0.05576851963996887,
        0.11646679043769836,
        0.14904694259166718,
        -0.034267738461494446,
        -0.05277456343173981,
        -0.09291259944438934,
        0.0069025917910039425,
        -0.028816016390919685,
        -0.0011544203152880073,
        0.08237592875957489,
        -0.08799844235181808,
        0.10947662591934204,
        -0.04597746208310127,
        -0.018825219944119453,
        -0.08451224863529205,
        -0.02417038194835186,
        0.11159922927618027,
        -0.18485480546951294,
        -0.1584787368774414,
        -0.0696716383099556,
        0.1739940643310547,
        0.04055454209446907,
        0.04072010889649391,
        -0.10555525869131088,
        0.0038459631614387035,
        -0.0741390660405159,
        -0.06607535481452942,
        -0.02695693075656891,
        -0.07644069939851761,
        -0.08568374067544937,
        -0.0009796464582905173,
        -0.02885858342051506,
        0.05910157412290573,
        0.07382363826036453,
        -0.33204081654548645,
        0.08481137454509735,
        -0.007789552211761475,
        0.03637347370386124,
        0.14025667309761047,
        0.1848907172679901,
        0.06355968862771988,
        0.17228783667087555,
        0.17225536704063416,
        0.05518994480371475,
        -0.09990649670362473,
        0.09024560451507568,
        -0.039238158613443375,
        0.11003808677196503,
        0.17164607346057892,
        -0.03813321515917778,
        -0.07477272301912308,
        0.030177712440490723,
        0.19053241610527039,
        -0.04349089786410332,
        -0.004142391495406628,
        -0.009288545697927475,
        0.04604494944214821,
        -0.07750771194696426,
        -0.2591763436794281,
        -0.0444636270403862,
        -0.12085367739200592,
        -0.044530730694532394,
        0.13415341079235077,
        0.041059497743844986,
        0.14944665133953094,
        -0.020265260711312294,
        0.08454789221286774,
        -0.16487325727939606,
        -0.0704890638589859,
        0.11909434199333191,
        0.08974114805459976,
        -0.12821745872497559,
        -0.05192966386675835,
        -0.21929951012134552,
        0.010988309979438782,
        -0.11410867422819138,
        0.047428198158741,
        -0.10551436245441437,
        -0.14430269598960876,
        -0.07801181823015213,
        -0.05824694409966469,
        0.20565713942050934,
        0.09578913450241089,
        0.27597033977508545,
        0.14547698199748993,
        -0.14231187105178833,
        0.10349562019109726,
        -0.04329787939786911,
        0.049751926213502884,
        0.09497421234846115,
        0.13337136805057526,
        0.023057498037815094,
        -0.028521081432700157,
        -0.028309645131230354,
        -0.11461186408996582,
        -0.055307794362306595,
        -0.06659234315156937,
        0.17680394649505615,
        -0.03690292686223984,
        -0.02892060950398445,
        0.010533944703638554,
        0.14625214040279388,
        0.1727556437253952,
        0.08522426337003708,
        -0.020896419882774353,
        0.10975959897041321,
        -0.22079789638519287,
        0.11824934929609299,
        0.22911666333675385,
        -0.11607974022626877,
        -0.011589452624320984,
        0.05546365678310394,
        0.11396413296461105,
        -0.1428205966949463,
        -0.050164200365543365,
        -0.014043305069208145,
        0.008868115954101086,
        0.017985597252845764,
        -0.20275139808654785,
        0.07058209180831909,
        -0.019284898415207863,
        0.08472315222024918,
        0.050192683935165405,
        -0.2061282992362976,
        -0.06276256591081619,
        -0.16519153118133545,
        -0.1141529232263565,
        -0.007421213202178478,
        -0.005541142541915178,
        -0.08935075253248215,
        0.04201279580593109,
        -0.09259053319692612,
        -0.06157168745994568,
        -0.1616537719964981,
        0.012825713492929935,
        0.0433773472905159,
        0.09889883548021317,
        -0.1509016901254654,
        -0.02927321381866932,
        -0.07967560738325119,
        0.0008987964829429984,
        0.036299049854278564,
        -0.0992918312549591,
        -0.04958344250917435,
        -0.03366676717996597,
        -0.07926283031702042,
        0.0411345474421978,
        0.08585435897111893,
        0.07406076788902283,
        0.06458014249801636,
        -0.21326817572116852,
        -0.09204527735710144,
        -0.058515723794698715,
        0.005143576767295599,
        -0.04019956290721893,
        0.12473081052303314,
        0.14146950840950012,
        0.03100147843360901,
        0.02729521505534649,
        0.20585095882415771,
        0.09511252492666245,
        0.07471644133329391,
        0.015265067107975483,
        -0.028034979477524757,
        0.00312898401170969,
        0.02959371544420719,
        0.012895398773252964,
        -0.17636802792549133,
        -0.15768811106681824,
        -0.0009925540070980787,
        -0.009300360456109047,
        -0.04074542224407196,
        0.08603602647781372,
        0.09472143650054932,
        0.011200712993741035,
        0.2107773870229721,
        0.30451077222824097,
        -0.03658449277281761,
        0.1362461894750595,
        0.32689139246940613,
        -0.019352372735738754,
        -0.05565633624792099,
        -0.04882413521409035,
        0.051178306341171265,
        0.0639711320400238,
        -0.08523126691579819,
        0.04851267859339714,
        0.04840651527047157,
        -0.10152877122163773,
        -0.030652761459350586,
        -0.02662154659628868,
        0.014590336941182613,
        -0.02944302000105381,
        0.1016620621085167,
        -0.344646155834198,
        -0.012520510703325272,
        0.05591871589422226,
        0.15397842228412628,
        0.22748050093650818,
        0.13287821412086487,
        0.10813144594430923,
        -0.00614453898742795,
        -0.03949904441833496,
        0.026405127719044685,
        -0.04263971000909805,
        0.17667894065380096,
        0.09202632308006287,
        -0.14876681566238403,
        0.13139384984970093,
        -0.08726981282234192,
        0.06260822713375092,
        0.11820141971111298,
        -0.05278586968779564,
        0.08507438004016876,
        -0.21643055975437164,
        0.07803303003311157,
        -0.06340349465608597,
        0.2891566753387451,
        0.08246899396181107,
        0.1457449346780777,
        -0.1194361224770546,
        -0.0075700897723436356,
        -0.29034024477005005,
        0.02361021377146244,
        -0.07653844356536865,
        -0.09580805152654648,
        0.12509863078594208,
        0.05168275162577629,
        0.0532413125038147,
        0.1791732907295227,
        0.03779292851686478,
        -0.004436371382325888,
        0.09325107932090759,
        0.06360761821269989,
        -0.05080422759056091,
        0.0763046145439148,
        0.0026225962210446596,
        -0.16447483003139496,
        -0.17039531469345093,
        -0.08619778603315353,
        -0.06967678666114807,
        -0.07135780900716782,
        0.01583402417600155,
        0.08694632351398468,
        0.22350162267684937,
        -0.11505840718746185,
        -0.006257815286517143,
        -0.22385019063949585,
        0.1747158318758011,
        -0.12027230858802795,
        0.0681750550866127,
        0.10326100885868073,
        0.06804229319095612,
        -0.1201309934258461,
        0.08876946568489075,
        0.06819665431976318,
        0.16648003458976746,
        0.0732552632689476,
        -0.03994504362344742,
        0.1535564363002777,
        0.23369449377059937,
        -0.013830730691552162,
        0.05742301791906357,
        -0.07996903359889984,
        -0.07031421363353729,
        0.04375318065285683,
        0.024517210200428963,
        0.16701951622962952,
        0.04372742399573326,
        -0.20584365725517273,
        -0.04188524931669235,
        -0.05309349671006203,
        0.18557360768318176,
        -0.2405187338590622,
        0.06594590842723846,
        -0.17846986651420593,
        -0.03690096735954285,
        -0.06657763570547104,
        -0.06638997793197632,
        -0.07927946001291275,
        0.11042782664299011,
        0.10350684076547623,
        -0.12655234336853027,
        -0.06397092342376709,
        -0.038176313042640686,
        0.049552347511053085,
        0.03040485642850399,
        0.06601830571889877,
        -0.194883793592453,
        -0.04828309640288353,
        -0.055389877408742905,
        0.008606679737567902,
        0.010114610195159912,
        -0.035829562693834305,
        0.04882606118917465,
        -0.059723757207393646,
        0.09333913773298264,
        -0.08674241602420807,
        -0.2885233759880066,
        -0.09101434797048569,
        0.02968505024909973,
        0.034848663955926895,
        -0.10740341991186142,
        0.14024175703525543,
        -0.10811727494001389,
        0.026799429208040237,
        -0.07671245187520981,
        0.14329153299331665,
        -0.020474763587117195,
        -0.08443313837051392,
        0.0356629304587841,
        -0.1451452374458313,
        -0.0013711421051993966,
        0.18324479460716248,
        0.10731248557567596,
        -0.2473924309015274,
        0.011705197393894196,
        -0.05578744783997536,
        0.07116232812404633,
        0.21591949462890625,
        0.15497633814811707,
        0.10361333936452866,
        -0.03051006980240345,
        -0.039594728499650955,
        0.02864997833967209,
        -0.08323824405670166,
        -0.04594699665904045,
        0.0794672816991806,
        0.13709044456481934,
        0.19917164742946625,
        -0.18375325202941895,
        -0.0017100820550695062,
        0.20636436343193054,
        0.0008307573152706027,
        0.09270945936441422,
        -0.1767447143793106,
        -0.09715712070465088,
        0.07383204996585846,
        0.23852069675922394,
        0.03124155104160309,
        -0.14872172474861145,
        0.08364041894674301,
        0.0015048172790557146,
        0.0928569957613945,
        0.005338908638805151,
        -0.045901041477918625,
        0.033517442643642426,
        -0.16226047277450562,
        -0.06689684838056564,
        -0.08473706990480423,
        -0.05595787987112999,
        0.12630341947078705,
        -0.030692340806126595,
        0.03673842176795006,
        -0.20375925302505493,
        0.12428366392850876,
        -0.08961483091115952,
        0.22304725646972656,
        0.03564845770597458,
        -0.0944792777299881,
        -0.2032926380634308,
        -0.1440415233373642,
        0.05169305577874184,
        -0.02897590771317482,
        0.2234952300786972,
        0.11009663343429565,
        -0.08578519523143768,
        0.09043950587511063,
        0.018453514203429222,
        0.0660688653588295,
        -0.18422825634479523,
        0.16216161847114563,
        -0.12710344791412354,
        -0.013565697707235813,
        0.09396130591630936,
        0.09340469539165497,
        -0.11177632957696915,
        0.16539505124092102,
        0.11959894001483917,
        -0.0019557734485715628,
        0.03798314929008484,
        0.015803353860974312,
        0.02881981059908867,
        -0.09366428852081299,
        0.35421332716941833,
        0.05040637403726578,
        -0.07179843634366989,
        -0.04684906452894211,
        0.11892440915107727,
        0.04129355028271675,
        0.10753320902585983,
        0.15037629008293152,
        0.13853567838668823,
        0.052319806069135666,
        -0.20064790546894073,
        0.056012142449617386,
        -0.18646590411663055,
        0.09858930855989456,
        0.21371690928936005,
        0.05376347526907921,
        -0.045063842087984085,
        0.07568813860416412,
        -0.040562953799963,
        0.16814403235912323,
        -0.08726158738136292,
        -0.06161445751786232,
        0.03158770501613617,
        0.06344840675592422,
        -0.08636366575956345,
        0.0006430393550544977,
        -0.053067080676555634,
        -0.062222108244895935,
        -0.005185224581509829,
        0.14978013932704926,
        -0.37509387731552124,
        -0.013955047354102135,
        -0.17942695319652557,
        0.12555702030658722,
        0.128481924533844,
        0.12730614840984344,
        0.020289475098252296,
        -0.022672709077596664,
        0.3097512722015381,
        -0.0030771084129810333,
        0.16020657122135162,
        0.15385350584983826,
        -0.0013059942284598947,
        -0.07235401123762131,
        -0.07463109493255615,
        -0.29414668679237366,
        -0.0673852413892746,
        -0.007563356775790453,
        -0.02853870578110218,
        -0.15099741518497467,
        -0.10385659337043762,
        0.14603111147880554,
        0.10223178565502167,
        0.07574387639760971,
        0.15997439622879028,
        0.15466459095478058,
        0.006480365991592407,
        -0.13471098244190216,
        -0.02411280758678913,
        -0.12178578227758408,
        0.02543722651898861,
        0.039405446499586105,
        -0.19506797194480896,
        0.05935131385922432,
        0.05457771569490433,
        -0.0417727530002594,
        -0.23173129558563232,
        0.11894345283508301,
        0.0296033825725317,
        0.16785140335559845,
        -0.0011270588729530573,
        -0.011375569738447666,
        -0.058037158101797104,
        0.0010091857984662056,
        0.1219114139676094,
        0.07080867141485214,
        -0.08266496658325195,
        -0.0020950953476130962,
        0.004379598423838615,
        -0.017570024356245995,
        -0.1727084368467331,
        0.12762753665447235,
        -0.11233697831630707,
        -0.02552441880106926,
        -0.19545643031597137,
        0.049692463129758835,
        0.07663503289222717,
        0.010566340759396553,
        0.027316568419337273,
        0.11217130720615387,
        -0.1929466277360916,
        0.026977205649018288,
        -0.00023708576918579638,
        0.2322942316532135,
        0.05309900641441345,
        0.1611757129430771,
        -0.10777442902326584,
        -0.12557314336299896,
        0.03472919389605522,
        0.02136182226240635,
        0.006007968448102474,
        -0.055560287088155746,
        -0.1454615592956543,
        0.05100645124912262,
        0.14829857647418976,
        -0.10790406167507172,
        -0.21828310191631317,
        -0.13980735838413239,
        0.0571095235645771,
        0.17786726355552673,
        0.0723264217376709,
        0.1613471508026123,
        0.0900956317782402,
        -0.09075374156236649,
        0.2441089004278183,
        0.06657398492097855,
        0.11969401687383652,
        -0.05664544552564621,
        0.06226864457130432,
        0.08523134142160416,
        -0.06284619867801666,
        0.14387817680835724,
        -0.10989990085363388,
        0.20323561131954193,
        0.10605072975158691,
        0.12883484363555908,
        0.08424746245145798,
        -0.06696799397468567,
        -0.07606831192970276,
        0.007625628728419542,
        0.10986526310443878,
        0.16913524270057678,
        -0.041614484041929245,
        -0.10157176107168198,
        0.2647760510444641,
        -0.03482896089553833,
        0.0728544071316719,
        -0.09596063941717148,
        -0.06501563638448715,
        0.025313839316368103,
        -0.17401809990406036,
        0.09516774117946625,
        -0.060347314924001694,
        -0.00647781090810895,
        -0.02210390195250511,
        0.0780048742890358,
        0.07732954621315002,
        -0.04728590324521065,
        0.03541634976863861,
        0.03295530006289482,
        -0.2760961949825287,
        -0.034474603831768036,
        -0.10546782612800598,
        0.25671786069869995,
        0.18515564501285553,
        0.17482969164848328,
        -0.1383189558982849,
        -0.21895261108875275,
        0.136127769947052,
        -0.060029782354831696,
        0.07880114763975143,
        -0.12405462563037872,
        0.16438628733158112,
        0.0038115866482257843,
        0.11197514086961746,
        0.21760934591293335,
        -0.13301171362400055,
        -0.0914255678653717,
        0.20373763144016266,
        0.18884539604187012,
        -0.13954290747642517,
        -0.09651394933462143,
        -0.1048174649477005,
        -0.0350063256919384,
        0.006030097603797913,
        0.13995261490345,
        0.08972889930009842,
        0.029633065685629845,
        -0.0667334496974945,
        -0.02704504318535328,
        -0.122310571372509,
        -0.17405471205711365,
        0.05473329499363899,
        0.004323978908360004,
        -0.18828178942203522,
        -0.06301609426736832,
        0.0957517996430397,
        0.15337255597114563,
        -0.09480371326208115,
        -0.021825658157467842,
        -0.004636088851839304,
        -0.1511857956647873,
        0.03384219855070114,
        -0.1766575425863266,
        -0.036396175622940063,
        0.008531814441084862,
        0.12694701552391052,
        0.028001464903354645,
        0.24110227823257446,
        0.10356996953487396,
        0.045074090361595154,
        0.045069653540849686,
        -0.1593964397907257,
        -0.02209121361374855,
        0.10299525409936905,
        -0.17219625413417816,
        -0.05268929526209831,
        -0.04549708589911461,
        0.2688535749912262,
        -0.21277941763401031,
        -0.07812651991844177,
        0.11186429113149643,
        -0.11484470218420029,
        0.05993572622537613,
        -0.07787374407052994,
        0.09957662969827652,
        0.015724079683423042,
        -0.03809487074613571,
        -0.0326564759016037,
        -0.06911555677652359,
        -0.07780206948518753,
        0.19877587258815765,
        -0.07045517861843109,
        -0.11478229612112045,
        -0.08722785115242004,
        0.09133747965097427,
        -0.18555091321468353,
        0.029171550646424294,
        -0.08480635285377502,
        0.06664981693029404,
        0.14972059428691864,
        -0.04715223237872124,
        -0.048045046627521515,
        0.06630337983369827,
        0.25265592336654663,
        -0.06598719954490662,
        0.11019501090049744,
        0.07694973796606064,
        0.06745481491088867,
        0.0736565813422203,
        -0.05300774797797203,
        -0.032735224813222885,
        0.10442525148391724,
        0.09114617109298706,
        -0.16129128634929657,
        -0.0037456683348864317,
        -0.01390695758163929,
        -0.14064449071884155,
        -0.09744121879339218,
        0.06409109383821487,
        0.2398047149181366,
        0.047011394053697586,
        0.12262554466724396,
        0.15073581039905548,
        0.15518790483474731,
        0.09377007931470871,
        0.15527449548244476,
        -0.23360083997249603,
        0.0735318511724472,
        -0.11063645780086517,
        0.252561092376709,
        -0.02948150224983692,
        -0.07808802276849747,
        -0.20649847388267517,
        0.20806805789470673,
        0.01838504895567894,
        0.0006684960098937154,
        -0.14718790352344513,
        0.08477432280778885,
        -0.11730051785707474,
        -0.014673653058707714,
        0.07217557728290558,
        -0.03808323293924332,
        0.12593352794647217,
        -0.03504190966486931,
        -0.08445612341165543,
        -0.06752022355794907,
        0.20394548773765564,
        -0.07704911381006241,
        -0.002309069037437439,
        0.09181488305330276,
        -0.15713834762573242,
        -0.07997064292430878,
        0.02531086653470993,
        0.02742549031972885,
        0.08825428038835526,
        0.1337868720293045,
        0.23191434144973755,
        0.08426570892333984,
        -0.055212266743183136,
        0.07006226480007172,
        -0.16305045783519745,
        -0.12105654925107956,
        -0.08317601680755615,
        -0.12619388103485107,
        -0.04411299154162407,
        -0.06718423962593079,
        0.12138239294290543,
        0.021856000646948814,
        0.24577558040618896,
        0.24256497621536255,
        -0.05099880322813988,
        -0.03606485202908516,
        0.006521153263747692,
        -0.16459669172763824,
        0.03333928808569908,
        -0.02936224825680256,
        0.2300138920545578,
        0.11808865517377853,
        -0.09431522339582443,
        0.05456135794520378,
        0.17502501606941223,
        0.14392335712909698,
        -0.194436177611351,
        0.11249549686908722,
        0.1450798362493515,
        -0.22235943377017975,
        0.03593842312693596,
        0.004254575353115797,
        0.0040085711516439915,
        0.08262263238430023,
        -0.060024917125701904,
        0.06402291357517242,
        -0.03773030638694763,
        0.10023200511932373,
        -0.030926989391446114,
        0.07887387275695801,
        0.013027073815464973,
        0.049923062324523926,
        -0.16509108245372772,
        -0.09892295300960541,
        -0.0037159211933612823,
        0.05336613953113556,
        0.1131976917386055,
        -0.07851981371641159,
        0.033643633127212524,
        -0.30743953585624695,
        -0.08924418687820435,
        -0.11895278096199036,
        -0.11810251325368881,
        0.14179587364196777,
        0.16307851672172546,
        -0.04102732613682747,
        -0.1448925882577896,
        -0.12724198400974274,
        -0.09452540427446365,
        -0.06665714830160141,
        -0.04276339337229729,
        -0.011069872416555882,
        -0.07740982621908188,
        -0.03475026413798332,
        0.03285553678870201,
        0.015131575055420399,
        -0.11383986473083496,
        -0.20631073415279388,
        -0.13442708551883698,
        0.10448666661977768,
        -0.16566945612430573,
        0.02723652869462967,
        -0.11784427613019943,
        0.16817456483840942,
        -0.16549040377140045,
        0.023170247673988342,
        0.10258232057094574,
        -0.14189185202121735,
        0.0955091267824173,
        0.01980309933423996,
        -0.11734303086996078,
        -0.002630578586831689,
        0.002347045810893178,
        0.2019484043121338,
        0.08900173753499985,
        0.08914384990930557,
        0.057062361389398575,
        0.11223191767930984,
        0.325307160615921,
        0.07753759622573853,
        0.20139850676059723,
        0.0014222791651263833,
        0.0038178616669028997,
        0.023013221099972725,
        -0.13910244405269623,
        0.19741816818714142,
        0.08370057493448257,
        -0.037152841687202454,
        0.14723794162273407,
        -0.12598435580730438,
        -0.006571526173502207,
        0.1842348575592041,
        -0.026212116703391075,
        0.18849696218967438,
        -0.12042514234781265,
        0.15331900119781494,
        0.12279418110847473,
        0.22281014919281006,
        0.2509205937385559,
        -0.14614032208919525,
        0.12320206314325333,
        -0.10417001694440842,
        -0.07285857200622559,
        -0.022303279489278793,
        0.010206706821918488,
        0.34382617473602295,
        -0.06290581077337265,
        -0.016410453245043755,
        0.04878585785627365,
        -0.04409952834248543,
        0.15717720985412598,
        -0.14478252828121185,
        -0.06943389028310776,
        -0.07033858448266983,
        -0.121792733669281,
        0.02500501461327076,
        -0.24418126046657562,
        0.04360417649149895,
        0.029636314138770103,
        -0.02718152105808258,
        0.10122130811214447,
        -0.2304079681634903,
        0.0490306057035923,
        0.051644373685121536,
        -0.16364093124866486,
        -0.0695858970284462,
        0.04491400718688965,
        -0.138380229473114,
        -0.018828582018613815,
        -0.11558535695075989,
        0.15208525955677032,
        0.06968963891267776,
        0.13409306108951569,
        0.07193151116371155,
        -0.011190627701580524,
        0.25121480226516724,
        0.04571433737874031,
        0.0801081731915474,
        0.15690216422080994,
        -0.059982191771268845,
        0.11621997505426407,
        0.04445372894406319,
        -0.08396422117948532,
        0.010234917514026165,
        0.08304686099290848,
        -0.12033810466527939,
        -0.04494158551096916,
        -0.01322101429104805,
        -0.06792228668928146,
        0.030636005103588104,
        0.1008659154176712,
        0.26486510038375854,
        -0.30853211879730225,
        0.0386827178299427,
        0.13310688734054565,
        0.1349046528339386,
        -0.011427318677306175,
        -0.2274211347103119,
        0.030835863202810287,
        0.07482912391424179,
        -0.2262852042913437,
        -0.13854366540908813,
        -0.05753035470843315,
        0.284272164106369,
        0.1583179235458374,
        -0.15670304000377655,
        0.13486559689044952,
        0.010776663199067116,
        0.2175232321023941,
        0.07274927198886871,
        -0.030346477404236794,
        0.20074939727783203,
        0.0301024429500103,
        0.11746790260076523,
        -0.09675594419240952,
        0.0325656458735466,
        0.16126935184001923,
        -0.01672428846359253,
        0.10223955661058426,
        0.09841693192720413,
        -0.0873372033238411,
        -0.030183585360646248,
        -0.018861567601561546,
        0.08283902704715729,
        -0.14305558800697327,
        0.16577553749084473,
        0.07876862585544586,
        0.1364189088344574,
        -0.0798301175236702,
        0.1052161455154419,
        -0.032175950706005096,
        0.2403276115655899,
        0.044380564242601395,
        0.06070621684193611,
        0.04697539284825325,
        -0.011474544182419777,
        0.1693522334098816,
        -0.024660546332597733,
        -0.029503339901566505,
        -0.13803206384181976,
        0.06268548965454102,
        0.1642635613679886,
        0.01672954112291336,
        -0.21829257905483246,
        -0.12618669867515564,
        0.02658328413963318,
        -0.0657116025686264,
        -0.09783148020505905,
        -0.10090139508247375,
        0.09544691443443298,
        0.04221794009208679,
        0.06377770751714706,
        0.06630918383598328,
        -0.13592396676540375,
        -0.04930364340543747,
        -0.014199797995388508,
        -0.001588996616192162,
        0.15163636207580566,
        0.07157710194587708,
        -0.03217148408293724,
        0.15681859850883484,
        0.023651041090488434,
        0.014401187188923359,
        -0.06695084273815155,
        -0.0649528056383133,
        -0.064045250415802,
        0.01497679203748703,
        -0.024642596021294594,
        -0.1947423219680786,
        0.02928759716451168,
        0.0003972228732891381,
        0.23360902070999146,
        -0.3821928799152374,
        -0.028722312301397324,
        -0.012216132134199142,
        0.24491086602210999,
        0.081639863550663,
        -0.1161917969584465,
        0.08595423400402069,
        0.16477714478969574,
        0.03784528002142906,
        0.08742131292819977,
        -0.08864238113164902,
        0.06631118059158325,
        -0.15884645283222198,
        -0.09442206472158432,
        0.09546918421983719,
        0.12316041439771652,
        -0.037246767431497574,
        -0.026011867448687553,
        -0.012598847039043903,
        -0.18035675585269928,
        -0.12888728082180023,
        0.0029018265195190907,
        0.14307695627212524,
        -0.08125239610671997,
        -0.06494289636611938,
        -0.015688292682170868,
        -0.05178169906139374,
        -0.007217403966933489,
        -0.0013151392340660095,
        0.03336721286177635,
        -0.05358830839395523,
        -0.030192183330655098,
        0.15853922069072723,
        0.10433743894100189,
        -0.17838212847709656,
        0.19124218821525574,
        0.18894684314727783,
        -0.1120392233133316,
        0.034763745963573456,
        -0.1490786373615265,
        0.0674426257610321,
        0.15636485815048218,
        -0.10260643810033798,
        0.01700977422297001,
        0.11808966100215912,
        0.09571346640586853,
        0.005567517597228289,
        0.24500572681427002,
        -0.2539255917072296,
        0.02278445102274418,
        -0.11314427107572556,
        -0.1825617253780365,
        -0.06012455001473427,
        0.04798281565308571,
        -0.16321977972984314,
        -0.020800786092877388,
        0.10863210260868073,
        0.1856936365365982,
        -0.03904104232788086,
        0.15754076838493347,
        -0.11846230179071426,
        0.1399080753326416,
        -0.1506960242986679,
        0.2865699827671051,
        -0.0178233589977026,
        0.1280861496925354,
        0.08148305863142014,
        0.1882893592119217,
        0.11466182768344879,
        -0.08674002438783646,
        0.11799589544534683,
        0.04332227259874344,
        -0.046526312828063965,
        0.25811734795570374,
        0.05362498387694359,
        -0.0024829907342791557,
        0.09546203911304474,
        -0.00074528728146106,
        0.04710408300161362,
        -0.14262822270393372,
        -0.07318731397390366,
        -0.05718322843313217,
        0.07275774329900742,
        -0.0773899033665657,
        -0.16459111869335175,
        -0.20553253591060638,
        0.009216311387717724,
        0.15151378512382507,
        -0.05559884011745453,
        -0.27372100949287415,
        0.0705377534031868,
        -0.01661195605993271,
        0.01883811503648758,
        0.15193229913711548,
        -0.0077926828525960445,
        -0.045416004955768585,
        0.17178046703338623,
        0.019143935292959213,
        0.05716369301080704,
        0.04886457696557045,
        0.07555385679006577,
        -0.006020247004926205,
        0.056121692061424255,
        0.09569418430328369,
        -0.16109226644039154,
        -0.18649163842201233,
        0.011166416108608246,
        -0.07571340352296829,
        -0.06891360133886337,
        -0.14221203327178955,
        0.17037490010261536,
        0.0075316233560442924,
        0.20078825950622559,
        0.061162397265434265,
        0.11734948307275772,
        0.043263811618089676,
        -0.1729307323694229,
        0.025725290179252625,
        -0.11682005971670151,
        0.03724024444818497,
        -0.0427473746240139,
        0.06473684310913086,
        0.02711019106209278,
        0.16019019484519958,
        -0.1803513914346695,
        -0.2030179500579834,
        0.08737476915121078,
        0.1869322508573532,
        0.05989609286189079,
        -0.03396935760974884,
        -0.043379902839660645,
        -0.03568447381258011,
        -0.054181016981601715,
        -0.01993895322084427,
        -0.06067859008908272,
        0.04361282289028168,
        -0.025697387754917145,
        -0.029911844059824944,
        -0.06046295911073685,
        -0.12652888894081116,
        0.08070891350507736,
        -0.2978091537952423,
        -0.04450775682926178,
        0.21948641538619995,
        -0.06970420479774475,
        0.2029678225517273,
        0.17176710069179535,
        -0.007248837035149336,
        0.026662595570087433,
        -0.10971467941999435,
        -0.012706179171800613,
        0.014836810529232025,
        -0.13027754426002502,
        -0.1979479044675827,
        0.043158069252967834,
        0.24391131103038788,
        -0.0675484910607338,
        0.04775279015302658,
        -0.11157383024692535,
        -0.011293993331491947,
        0.13793422281742096,
        0.07819446921348572,
        0.11519625037908554,
        -0.10813254117965698,
        -0.003987413831055164,
        0.04263829439878464,
        -0.038849614560604095,
        0.15294721722602844,
        -0.04193611443042755,
        -0.2811724841594696,
        -0.05571969598531723,
        -0.10055319219827652,
        0.09127481281757355,
        0.0732814371585846,
        -0.1150636374950409,
        0.06306509673595428,
        -0.21934571862220764,
        0.0828731581568718,
        0.07422728836536407,
        -0.06257009506225586,
        -0.04619390890002251,
        0.04184117913246155,
        -0.1314135640859604,
        0.27680063247680664,
        -0.15818442404270172,
        0.1751047968864441,
        0.1893775314092636,
        0.04064575210213661,
        0.1928105503320694,
        -0.12066863477230072,
        -0.029253516346216202,
        0.03385889530181885,
        0.11506714671850204,
        -0.01774005778133869,
        -0.23962588608264923,
        0.08123235404491425,
        0.023431973531842232,
        0.0900861993432045,
        -0.11357389390468597,
        0.04461786150932312,
        0.044622402638196945,
        -0.052265215665102005,
        -0.046181511133909225,
        -0.20031967759132385,
        0.08210817724466324,
        0.05696268379688263,
        0.07086284458637238,
        0.14400935173034668,
        -0.12736736238002777,
        0.08359009027481079,
        -0.13966943323612213,
        0.27096429467201233,
        -0.14667394757270813,
        0.059235960245132446,
        -0.07913710176944733,
